786 100
2849 0.259004 -0.071265 -0.120810 0.103003 -0.323425 0.444399 0.305500 -0.253858 -0.127424 -0.119547 0.492877 -0.080125 -0.504877 -0.462007 -0.069086 -0.354010 0.193152 0.616316 0.211171 -0.360805 -0.088343 0.394542 -0.023229 -0.318386 -0.296179 -0.136880 -0.181075 0.490417 0.238156 0.468320 0.651483 0.181954 -0.428987 -0.566660 -0.152428 0.187937 0.445950 0.483670 0.763648 -0.399753 0.332930 -0.202914 -0.049002 -0.750274 -0.349419 -0.034589 0.276191 0.552997 0.286357 -0.014213 -0.140101 -0.277038 0.329483 -0.420896 0.628501 0.303510 -0.009485 0.251450 0.175375 -0.340811 -0.370201 -0.001962 -0.239373 0.302541 0.439482 0.414806 -0.026752 -0.284151 -0.173725 -0.137328 -0.267828 0.340781 -0.753484 -0.016878 -0.341858 0.465207 0.042781 0.153880 0.622766 0.695392 0.262253 0.545613 -0.249815 -0.774606 -0.369919 0.257837 -0.088269 0.006813 0.178314 0.108289 0.341874 -0.057967 0.537423 -0.077842 -0.344210 -0.472582 0.032041 -0.323723 -0.691800 0.119545 
3021 0.142212 -0.077888 -0.124177 0.041674 -0.251564 0.419993 0.331101 -0.177508 -0.153195 -0.147278 0.415918 -0.005905 -0.511268 -0.389990 -0.040578 -0.234796 0.180386 0.655596 0.147470 -0.268694 -0.099742 0.298719 -0.093128 -0.334589 -0.255204 -0.105052 -0.117925 0.437022 0.219069 0.370864 0.615219 0.287755 -0.481639 -0.498302 -0.139042 0.149238 0.419782 0.452693 0.586246 -0.376461 0.283275 -0.123678 -0.036798 -0.560241 -0.290654 0.100093 0.322424 0.484577 0.227751 -0.037878 -0.109107 -0.193124 0.210416 -0.373447 0.612513 0.265705 -0.096194 0.204949 0.227750 -0.348577 -0.224987 0.053519 -0.191074 0.270578 0.440555 0.381474 0.028246 -0.355392 -0.241164 -0.096739 -0.203495 0.337520 -0.685365 0.026425 -0.355388 0.291919 0.006509 0.064250 0.560059 0.657116 0.119635 0.509432 -0.137205 -0.760946 -0.433106 0.284788 -0.007850 0.011997 0.210488 0.024998 0.324419 -0.067021 0.447766 -0.050968 -0.176587 -0.442497 -0.078500 -0.262925 -0.635501 0.126871 
2694 0.220224 -0.480011 0.014615 -0.242330 0.707341 -0.006720 0.133538 -0.020395 -0.032930 -0.452867 0.078957 -0.511093 -0.373780 0.096021 0.059198 -0.307263 -0.128462 0.462623 -0.130483 -0.290325 0.083870 -0.389220 0.244213 -0.120996 -0.330413 -0.171425 -0.346917 0.594384 -0.067226 -0.347989 0.714712 0.006050 -0.226234 -0.050730 0.295573 -0.069135 0.390338 0.031249 -0.083143 0.123988 -0.028326 -0.369689 -0.001715 -0.086879 -0.247197 0.298459 0.477431 -0.268508 -0.198190 0.116123 -0.108113 0.527389 -0.175114 -0.092698 0.046046 0.037457 -0.086810 -0.049584 0.284636 0.229307 0.147532 0.147681 0.464939 0.060826 -0.126046 0.078078 0.165032 -0.109607 0.286406 0.449289 -0.125215 -0.422816 -0.103801 0.005324 -0.097272 -0.456852 -0.204978 0.198653 0.139393 0.538169 0.039341 0.304303 0.528459 -0.375626 -0.396682 0.325336 -0.363087 0.319499 -0.118282 -0.156991 0.493705 0.122674 0.059535 0.408164 0.405490 0.004571 -0.190544 0.025385 -0.370157 -0.070849 
3096 0.220746 -0.624719 0.083943 -0.288191 0.759189 -0.036309 0.124414 -0.044340 -0.097198 -0.489871 0.114807 -0.621148 -0.383489 0.063608 0.039336 -0.374426 -0.154662 0.441336 -0.144344 -0.303723 0.075284 -0.467589 0.291303 -0.113997 -0.438000 -0.239673 -0.354997 0.685744 -0.100525 -0.441506 0.854371 -0.038662 -0.227472 -0.031370 0.427018 -0.100848 0.431369 0.020203 -0.127895 0.175579 -0.005534 -0.446306 -0.066442 -0.110106 -0.358651 0.314252 0.569350 -0.429726 -0.066734 0.130959 -0.142403 0.583093 -0.336184 -0.023061 0.068519 0.061955 -0.145893 -0.051197 0.340774 0.268455 0.185380 0.197504 0.477071 0.078310 -0.214364 0.043291 0.215026 -0.150275 0.348084 0.548199 -0.171780 -0.425576 -0.144634 -0.067956 -0.134232 -0.547539 -0.247327 0.307537 0.078942 0.683838 0.103014 0.424864 0.636530 -0.407480 -0.397289 0.398966 -0.358231 0.389471 -0.179398 -0.161041 0.534344 0.138147 0.033174 0.574158 0.371278 0.025934 -0.323477 0.022789 -0.357671 -0.080095 
2818 0.114741 -0.039820 -0.120001 0.012041 -0.058542 0.027328 0.014416 -0.082312 -0.021550 -0.051779 0.110725 -0.154799 -0.129085 -0.090154 -0.018034 -0.163228 0.027309 0.208336 -0.001115 -0.180110 -0.032057 0.026729 0.004152 -0.076414 -0.091371 -0.038449 -0.017462 0.225039 0.053853 0.168260 0.224575 -0.066700 -0.100108 -0.154138 0.039812 0.065217 0.204936 0.053951 0.216721 -0.128092 0.088239 -0.167457 -0.026531 -0.233356 -0.234554 -0.098395 0.015167 0.052285 0.046496 0.019538 -0.039911 -0.030576 -0.013891 -0.108985 0.034331 0.002299 0.017442 0.089159 0.018588 -0.034922 -0.142918 0.011064 -0.068971 0.070224 0.051164 0.080239 -0.058218 -0.025523 0.067268 0.034388 -0.150886 -0.051082 -0.196134 -0.002087 -0.065360 0.067348 0.027704 0.154251 0.129145 0.193467 0.143244 0.189344 -0.084700 -0.188852 -0.018158 0.098384 -0.104344 0.062550 0.006331 0.109347 0.084643 -0.002711 0.093498 0.070590 -0.141279 -0.037095 0.023410 -0.095142 -0.158008 0.020326 
2725 0.095168 -0.070450 -0.074078 -0.016096 -0.014627 0.013333 0.036899 -0.056539 -0.037171 -0.069659 0.073148 -0.121292 -0.143863 -0.057469 -0.013522 -0.167369 -0.007084 0.191037 0.014911 -0.138582 -0.015828 -0.005453 0.001395 -0.076832 -0.073773 -0.025626 -0.065327 0.202758 0.039254 0.143824 0.221780 -0.045612 -0.070733 -0.112703 0.041186 0.029739 0.207795 0.040777 0.174452 -0.100987 0.078226 -0.161032 -0.014069 -0.165399 -0.198773 -0.051266 0.041695 0.031141 0.008954 0.024332 -0.014503 0.016964 -0.052826 -0.073882 0.024067 -0.011570 -0.007242 0.055800 0.039137 -0.028854 -0.122146 0.019447 -0.059277 0.074469 0.033062 0.033448 0.006789 -0.059655 0.111627 0.052550 -0.127623 -0.026193 -0.194989 -0.010202 -0.057903 -0.000928 0.017789 0.148645 0.120643 0.190818 0.120559 0.164206 -0.030492 -0.197618 -0.023686 0.078080 -0.098646 0.058250 0.005574 0.106720 0.078377 0.001929 0.076441 0.091755 -0.066297 -0.015744 0.007495 -0.044552 -0.140500 0.011464 
2951 0.446698 -0.077115 -0.074439 0.073902 -0.243582 -0.190127 0.081622 -0.133796 -0.007099 0.064848 0.169359 -0.223520 -0.266782 -0.092779 -0.071029 -0.717953 -0.235968 0.145571 0.444523 -0.175759 -0.033000 0.099962 0.179518 -0.191446 -0.202524 0.051955 -0.230822 0.422083 -0.002610 0.591222 0.392814 -0.218874 0.091878 -0.076181 -0.253452 0.132937 0.500220 0.113012 0.478676 -0.366473 0.283535 -0.354871 -0.145884 -0.481461 -0.410159 -0.400217 0.011337 0.120550 0.292511 0.157193 0.113858 -0.215096 -0.042502 -0.133001 -0.248567 0.055466 0.203918 0.304591 0.126442 -0.042105 -0.603005 -0.254074 -0.244298 0.101219 -0.090843 -0.155090 0.348988 -0.357053 0.708207 -0.254731 -0.417165 -0.004961 -0.514168 -0.166072 -0.044032 0.401583 0.075122 0.398540 0.157070 0.202118 0.655134 0.314085 -0.378643 -0.110416 0.118112 -0.231731 -0.251354 0.038783 -0.093764 0.617903 -0.006292 0.113855 0.389246 0.275907 -0.520894 -0.086767 0.217033 -0.138634 -0.179712 -0.042273 
3285 0.366407 -0.153736 -0.135574 -0.073576 -0.055785 -0.290218 0.096050 -0.036998 -0.080454 -0.006546 -0.118970 -0.202414 -0.211093 0.052374 -0.084229 -0.610343 -0.351266 0.188554 0.287102 -0.065900 -0.003345 -0.196412 0.066510 -0.114738 -0.061819 0.072208 -0.136746 0.429754 -0.110066 0.406252 0.316772 -0.241634 0.181191 0.096530 -0.037492 0.023057 0.477944 -0.102960 0.108229 -0.270446 0.170229 -0.358617 -0.116530 -0.090823 -0.510792 -0.318328 0.028241 -0.176081 0.135639 0.139373 0.204409 -0.001413 -0.356511 0.003310 -0.476143 -0.101143 0.120181 0.248801 0.184873 0.118291 -0.430331 -0.090249 -0.143872 0.044830 -0.153094 -0.345048 0.368430 -0.372985 0.824554 -0.081944 -0.378438 -0.087571 -0.334694 -0.052174 -0.062644 -0.016654 0.012220 0.473184 0.017055 0.164343 0.606131 0.240742 -0.146035 -0.081457 0.169998 -0.223230 -0.211876 0.155621 -0.134057 0.572462 -0.032520 0.071574 0.064412 0.515669 -0.177446 0.100044 0.087519 0.015521 -0.003862 -0.094693 
3082 0.255079 -0.010364 -0.211880 0.142792 -0.422495 0.206737 0.205259 -0.195848 -0.079862 0.025252 0.448225 -0.055237 -0.463512 -0.369108 -0.054330 -0.435116 0.137286 0.533317 0.253898 -0.342232 -0.090505 0.294160 -0.091923 -0.335664 -0.270310 -0.070519 -0.068769 0.481670 0.258498 0.678330 0.584665 0.104141 -0.315805 -0.494795 -0.226257 0.241875 0.515980 0.383474 0.720201 -0.535047 0.375080 -0.283231 -0.091937 -0.638040 -0.517178 -0.166216 0.090118 0.455106 0.317984 -0.007937 -0.009747 -0.342845 0.109852 -0.344126 0.311571 0.236435 0.000699 0.390464 0.170407 -0.300999 -0.481884 -0.075025 -0.414756 0.271481 0.347301 0.207414 0.065147 -0.365224 0.071198 -0.191103 -0.358972 0.265747 -0.778540 -0.016544 -0.254504 0.429427 0.034751 0.262546 0.456691 0.532127 0.398974 0.522595 -0.412769 -0.595994 -0.140183 0.134595 -0.021528 0.060459 0.165748 0.262917 0.163785 -0.109098 0.464761 0.000431 -0.562086 -0.338701 0.097808 -0.317005 -0.501966 0.075530 
2832 0.248471 -0.023243 0.018506 -0.067098 -0.033461 0.049100 -0.030148 0.077156 0.132993 -0.104820 0.219239 -0.121248 -0.223843 -0.075017 -0.078577 -0.284537 0.159394 0.283499 0.099248 -0.286389 -0.182596 0.173488 0.076043 -0.032877 -0.180543 0.002757 -0.217247 0.259095 0.106741 0.287368 0.219486 -0.283621 -0.216544 -0.276841 -0.125374 0.209275 0.409226 0.019132 0.384146 -0.141813 0.067523 -0.086296 0.050494 -0.397412 -0.165436 -0.053469 0.067808 0.119658 0.005169 0.126071 0.078530 -0.091527 0.181231 -0.231546 -0.006304 -0.078048 0.157309 -0.031528 -0.040094 -0.184666 -0.341040 -0.117737 -0.147276 0.066129 0.116795 0.080725 -0.044370 -0.057250 0.083244 -0.048276 -0.151006 -0.145232 -0.219511 -0.061909 0.038459 0.209757 0.164608 0.030774 0.235982 0.288034 0.150498 0.181795 -0.076285 -0.252058 -0.035900 0.045242 -0.171757 0.001718 -0.143088 0.166744 0.161573 0.091532 0.288923 -0.102795 -0.168375 -0.071256 0.159551 -0.063393 -0.191402 0.147386 
2960 0.217313 -0.512621 -0.037769 -0.280574 0.777228 -0.001380 0.078926 -0.119027 -0.098453 -0.528081 -0.041654 -0.634399 -0.363829 0.188343 0.093965 -0.386633 -0.201499 0.576030 -0.132465 -0.380480 0.098605 -0.509080 0.256379 -0.161849 -0.292921 -0.170957 -0.407865 0.699781 -0.089863 -0.392741 0.795407 -0.042578 -0.186682 0.032485 0.370178 -0.171946 0.386832 -0.016643 -0.084598 0.124595 -0.045483 -0.523203 0.080582 -0.121162 -0.382953 0.287364 0.475012 -0.308901 -0.286826 0.175646 -0.111633 0.638862 -0.301158 -0.096105 -0.065361 -0.066404 -0.186434 -0.069627 0.275964 0.312689 0.178274 0.199605 0.472101 0.047175 -0.203562 -0.001358 0.172454 -0.111616 0.402742 0.612837 -0.193126 -0.444998 -0.118029 0.034167 -0.107629 -0.566737 -0.229193 0.311098 0.174124 0.506372 0.043638 0.260675 0.618049 -0.485445 -0.374103 0.330123 -0.477145 0.309480 -0.045042 -0.088469 0.562559 0.107914 0.009157 0.564064 0.552141 0.037298 -0.167255 0.113354 -0.401226 -0.106302 
2800 0.212158 -0.485120 -0.054454 -0.272925 0.768623 0.003910 0.083789 -0.103956 -0.092825 -0.524560 -0.048861 -0.610361 -0.389496 0.199441 0.100139 -0.351893 -0.179208 0.579123 -0.133543 -0.373022 0.110309 -0.499594 0.220250 -0.199270 -0.264576 -0.149877 -0.412534 0.680649 -0.071893 -0.381745 0.788042 -0.003708 -0.193893 0.031190 0.320846 -0.180752 0.352317 -0.000761 -0.095777 0.123649 -0.063895 -0.492017 0.098640 -0.116937 -0.396143 0.289824 0.473321 -0.288826 -0.317038 0.189240 -0.123949 0.648882 -0.270154 -0.119544 -0.093430 -0.039149 -0.197943 -0.042901 0.243436 0.340631 0.207723 0.188030 0.480156 0.065784 -0.170708 -0.018323 0.170165 -0.114121 0.401966 0.602514 -0.192798 -0.463439 -0.124116 0.033067 -0.124009 -0.578627 -0.225803 0.299473 0.206825 0.458663 0.047830 0.232868 0.585577 -0.464386 -0.352886 0.335664 -0.488467 0.287713 0.000685 -0.072529 0.535286 0.099365 -0.014044 0.550706 0.578169 0.024969 -0.147218 0.107959 -0.414047 -0.147335 
2929 0.043042 -0.448689 -0.020855 -0.422982 0.399704 0.361424 -0.140132 -0.271013 -0.127256 -0.564298 -0.206932 -0.387018 -0.218454 0.211537 0.155065 -0.302282 -0.182956 0.528424 -0.045676 -0.304564 -0.136360 -0.414458 0.044758 -0.103351 0.010865 -0.041373 -0.410419 0.388404 -0.136456 -0.239820 0.596777 -0.224921 -0.024866 0.118883 0.321434 -0.356329 0.292513 -0.057447 0.108858 0.033605 -0.075236 -0.465258 0.256554 -0.119759 -0.501697 0.279912 0.169298 -0.021152 -0.310570 0.254265 -0.171707 0.707565 -0.336009 -0.101495 -0.122197 -0.256776 -0.562248 -0.184546 -0.063173 0.350280 -0.055242 0.295747 0.083334 0.125382 -0.140957 -0.183661 0.121516 -0.094120 0.372616 0.657893 -0.076052 0.012594 -0.176041 0.047156 -0.225936 -0.442559 -0.121769 0.397583 0.255198 0.171660 -0.034023 0.078590 0.467149 -0.651577 -0.010476 0.216171 -0.487047 0.045984 0.130655 -0.029013 0.443360 0.022838 -0.088300 0.674857 0.560475 0.118170 -0.077817 0.361049 -0.329090 -0.136615 
3029 0.079747 -0.371859 -0.086737 -0.362397 0.415375 0.322978 -0.123914 -0.279410 -0.101534 -0.547033 -0.249961 -0.406264 -0.251856 0.250934 0.168709 -0.315142 -0.175092 0.607518 -0.012246 -0.339762 -0.092348 -0.451015 0.039991 -0.130397 0.041439 0.007856 -0.431817 0.447688 -0.122173 -0.224056 0.582965 -0.168211 -0.030633 0.130152 0.270955 -0.344904 0.279258 -0.056609 0.120916 0.004379 -0.101199 -0.483434 0.322245 -0.133753 -0.484204 0.262311 0.173240 -0.000288 -0.390765 0.277479 -0.162625 0.699491 -0.299528 -0.135368 -0.176241 -0.281572 -0.506538 -0.181359 -0.058139 0.332600 -0.018390 0.298540 0.118637 0.099578 -0.117925 -0.185205 0.110201 -0.102434 0.401010 0.679533 -0.083402 -0.062578 -0.186219 0.076093 -0.208174 -0.478377 -0.100050 0.380490 0.318506 0.112113 -0.028644 0.014997 0.455485 -0.675364 -0.049365 0.207581 -0.553837 0.057437 0.205709 0.000469 0.446670 0.014966 -0.088954 0.632545 0.615530 0.085300 -0.008512 0.337605 -0.381160 -0.179243 
2909 0.213192 -0.555613 0.011425 -0.282498 0.766381 0.014928 0.123750 -0.044141 -0.114770 -0.464156 0.055284 -0.539320 -0.311412 0.047206 0.093054 -0.341965 -0.140516 0.452406 -0.176448 -0.315383 0.047730 -0.456126 0.230805 -0.112212 -0.325408 -0.183801 -0.342076 0.583275 -0.081784 -0.374443 0.723542 -0.034112 -0.211409 -0.001036 0.383747 -0.106171 0.431602 0.009505 -0.106334 0.147594 -0.010900 -0.429803 -0.028839 -0.024635 -0.349780 0.286927 0.415415 -0.315888 -0.206258 0.119672 -0.118401 0.609675 -0.325736 -0.048614 0.074525 0.010331 -0.193019 -0.072205 0.270569 0.263347 0.128893 0.145343 0.409183 0.115003 -0.128977 0.059197 0.173444 -0.024003 0.297027 0.516145 -0.171524 -0.368783 -0.124788 -0.031603 -0.103392 -0.479768 -0.184853 0.279178 0.111843 0.583118 0.054627 0.374444 0.538831 -0.388243 -0.306354 0.377417 -0.349631 0.351362 -0.170220 -0.120568 0.497073 0.097630 0.013525 0.510043 0.382597 0.067523 -0.231830 0.072715 -0.310608 -0.067128 
2880 0.297370 -0.413794 -0.128201 -0.185945 0.797164 -0.121848 0.126666 -0.043848 -0.038968 -0.447575 -0.015439 -0.625224 -0.399737 0.197043 0.078522 -0.346184 -0.143611 0.584961 -0.134813 -0.393077 0.160703 -0.501279 0.259798 -0.214812 -0.287242 -0.147158 -0.370748 0.699053 -0.046259 -0.359059 0.724745 0.064174 -0.211279 -0.030917 0.264859 -0.093764 0.373355 0.013269 -0.085493 0.134409 -0.049276 -0.468935 0.085138 -0.119281 -0.283214 0.226965 0.469898 -0.285038 -0.333309 0.204602 -0.058877 0.575106 -0.218501 -0.127646 -0.061361 -0.008037 -0.023498 -0.018830 0.286360 0.293762 0.206938 0.129295 0.530999 0.032991 -0.190056 0.051282 0.143853 -0.065202 0.381210 0.525172 -0.223760 -0.566403 -0.087809 0.041332 -0.044400 -0.512936 -0.185934 0.219066 0.202157 0.464270 0.088438 0.222317 0.513525 -0.371051 -0.410218 0.329712 -0.488914 0.329697 -0.039448 -0.053658 0.503867 0.111541 0.008800 0.402842 0.529623 -0.033106 -0.084988 0.021212 -0.424803 -0.126735 
2754 0.154529 -0.371967 -0.057046 -0.224908 0.636648 0.096000 0.073715 -0.075675 -0.092769 -0.472909 -0.018063 -0.424886 -0.351742 0.138587 0.099518 -0.257974 -0.111919 0.538954 -0.113772 -0.301078 0.042127 -0.390536 0.148066 -0.144403 -0.182855 -0.083342 -0.347527 0.514505 -0.059354 -0.335487 0.622892 0.044851 -0.220160 -0.017921 0.247530 -0.155368 0.312455 -0.002349 -0.049670 0.084381 -0.071772 -0.349920 0.104709 -0.046157 -0.292128 0.286108 0.406601 -0.134813 -0.312303 0.141063 -0.116615 0.557241 -0.196529 -0.127909 0.021849 -0.038290 -0.215658 -0.073381 0.181124 0.240128 0.147707 0.174311 0.380202 0.064232 -0.064348 0.033710 0.127441 -0.067993 0.249642 0.495464 -0.125600 -0.328391 -0.105802 0.029873 -0.128826 -0.472012 -0.138143 0.193016 0.215855 0.382070 -0.018450 0.175208 0.476105 -0.431908 -0.301826 0.289270 -0.374896 0.252135 0.006020 -0.126120 0.474697 0.062158 0.028246 0.405765 0.510901 0.011193 -0.111665 0.088337 -0.358735 -0.111166 
2872 0.168175 -0.656014 0.142328 -0.375583 0.720005 0.076838 0.117336 -0.069623 -0.134388 -0.517330 0.095370 -0.557074 -0.323203 0.017751 0.059211 -0.374982 -0.131637 0.389713 -0.152457 -0.267114 0.020503 -0.441920 0.246031 -0.063450 -0.422791 -0.253012 -0.363981 0.590702 -0.131342 -0.432340 0.820215 -0.109363 -0.184373 -0.015053 0.466073 -0.144233 0.444831 0.015556 -0.092931 0.178582 -0.013437 -0.432373 -0.057247 -0.051168 -0.385567 0.344226 0.490045 -0.420708 -0.032808 0.100893 -0.159812 0.584045 -0.387672 0.013381 0.090552 0.020895 -0.241229 -0.091564 0.293827 0.277521 0.116407 0.182813 0.369247 0.089941 -0.182848 0.040376 0.189237 -0.115075 0.293353 0.534815 -0.153660 -0.268578 -0.155142 -0.102424 -0.145153 -0.495748 -0.238957 0.332019 0.031008 0.666487 0.055366 0.462713 0.619707 -0.419473 -0.312807 0.393813 -0.306452 0.349127 -0.190278 -0.169702 0.520599 0.093085 0.047120 0.618514 0.333007 0.061622 -0.350417 0.094494 -0.284988 -0.059756 
3232 0.142363 -0.591123 0.054755 -0.367229 0.725482 0.097668 0.070987 -0.125502 -0.124954 -0.566024 -0.022640 -0.561797 -0.342368 0.128591 0.094350 -0.386807 -0.164326 0.512569 -0.138716 -0.326496 0.033449 -0.499232 0.177380 -0.117537 -0.294487 -0.181685 -0.421517 0.596384 -0.126489 -0.424339 0.809578 -0.115742 -0.168250 0.029957 0.400227 -0.216386 0.395678 -0.021220 -0.054606 0.131681 -0.045669 -0.478852 0.064671 -0.096931 -0.428220 0.333820 0.444123 -0.334021 -0.181298 0.176536 -0.156266 0.674426 -0.367811 -0.065713 0.014318 -0.064441 -0.300222 -0.099637 0.231808 0.340755 0.109245 0.206064 0.376549 0.109388 -0.194762 -0.031072 0.176356 -0.104829 0.363296 0.610017 -0.150488 -0.308154 -0.144628 -0.037013 -0.147313 -0.565619 -0.216699 0.342372 0.139728 0.520028 0.028037 0.327804 0.636857 -0.513884 -0.284525 0.364936 -0.410382 0.305696 -0.069348 -0.103249 0.543579 0.077301 -0.010493 0.656287 0.511726 0.102281 -0.231642 0.179920 -0.343102 -0.118281 
3184 0.201914 -0.425047 -0.125652 -0.223931 0.712970 -0.025893 0.081195 -0.055126 -0.110280 -0.456696 -0.047726 -0.474592 -0.321586 0.137368 0.162426 -0.306950 -0.172158 0.561838 -0.188569 -0.360957 0.080269 -0.471860 0.208770 -0.150822 -0.211033 -0.076770 -0.326984 0.563748 -0.050104 -0.323948 0.599469 0.101503 -0.182809 -0.015585 0.300853 -0.096726 0.390790 0.010398 -0.114175 0.070692 -0.057556 -0.428303 0.058510 -0.009674 -0.258781 0.222472 0.369696 -0.194783 -0.340852 0.124308 -0.124439 0.588069 -0.216433 -0.064601 0.019694 -0.027052 -0.140471 -0.032939 0.243840 0.300882 0.118698 0.114307 0.402579 0.100053 -0.095744 0.035768 0.110779 -0.016283 0.335527 0.479512 -0.171114 -0.451105 -0.142243 0.029217 -0.101135 -0.478950 -0.127999 0.238767 0.186375 0.431869 0.040670 0.229562 0.473849 -0.359508 -0.292533 0.292730 -0.401290 0.323946 -0.111899 -0.055951 0.406337 0.084009 -0.039843 0.388080 0.421776 0.085273 -0.092455 0.069771 -0.336917 -0.146312 
2948 0.128682 -0.279408 -0.077291 -0.142821 0.506467 -0.021880 0.071148 -0.033339 -0.085610 -0.302939 -0.009085 -0.330417 -0.231148 0.094181 0.103897 -0.223696 -0.107934 0.401712 -0.134424 -0.257526 0.065181 -0.312494 0.124030 -0.102587 -0.158825 -0.048031 -0.243284 0.390514 -0.030802 -0.226212 0.406758 0.072921 -0.131181 -0.020820 0.181284 -0.065897 0.269529 0.013191 -0.079491 0.032326 -0.019780 -0.289748 0.037022 -0.006874 -0.184782 0.162299 0.251641 -0.132309 -0.228934 0.097393 -0.091930 0.406574 -0.143178 -0.056511 0.020631 0.002534 -0.088603 -0.019461 0.159737 0.183649 0.086201 0.071872 0.283829 0.078682 -0.048866 0.038859 0.075383 0.001359 0.232018 0.314895 -0.134169 -0.325516 -0.091850 0.000642 -0.073946 -0.321690 -0.078415 0.149704 0.136363 0.313341 0.027200 0.158616 0.318033 -0.243282 -0.198740 0.204720 -0.274982 0.232663 -0.070429 -0.041545 0.288574 0.060426 -0.005211 0.269697 0.286542 0.054765 -0.066327 0.027754 -0.255913 -0.102946 
3277 0.248079 -0.046139 -0.078609 0.045813 -0.294416 0.334781 0.320358 -0.113314 -0.105682 -0.070882 0.425186 0.020694 -0.550935 -0.356802 -0.081412 -0.374115 0.145844 0.600942 0.294557 -0.243080 -0.142058 0.313551 -0.057550 -0.327161 -0.330240 -0.101355 -0.156804 0.438752 0.219867 0.487518 0.598657 0.211657 -0.427229 -0.510415 -0.242652 0.220452 0.476107 0.431641 0.650154 -0.404492 0.315326 -0.149356 -0.063556 -0.606935 -0.320819 0.030811 0.275332 0.468072 0.308916 0.021518 -0.009406 -0.255981 0.244526 -0.401938 0.489263 0.256715 -0.011543 0.210326 0.221094 -0.351925 -0.390760 -0.047835 -0.257297 0.258509 0.393485 0.258072 0.155628 -0.441800 -0.048175 -0.196683 -0.268584 0.312891 -0.726414 -0.019731 -0.289122 0.399903 0.048884 0.100195 0.550214 0.606736 0.303339 0.492344 -0.250896 -0.672588 -0.320661 0.149223 -0.024952 0.022673 0.142666 0.149959 0.271879 -0.053906 0.513134 -0.047529 -0.294803 -0.434838 0.036758 -0.262726 -0.547792 0.116697 
3297 0.180328 -0.058169 -0.112315 0.010025 -0.252986 0.441233 0.330882 -0.118863 -0.129004 -0.157466 0.466553 0.021432 -0.594256 -0.395437 -0.099706 -0.281980 0.199909 0.749999 0.204070 -0.281503 -0.133665 0.326784 -0.081008 -0.331722 -0.285797 -0.109772 -0.155296 0.474290 0.238602 0.425102 0.636949 0.243596 -0.549310 -0.549010 -0.173182 0.221428 0.501112 0.454421 0.630087 -0.404136 0.277002 -0.101337 -0.026227 -0.614788 -0.300474 0.133181 0.350299 0.472039 0.261837 -0.001810 -0.033220 -0.221187 0.236459 -0.437266 0.621846 0.256614 -0.024872 0.179055 0.233670 -0.417759 -0.304534 0.021879 -0.241602 0.285787 0.473613 0.355168 0.057474 -0.417727 -0.229579 -0.134144 -0.210364 0.309151 -0.728928 0.032981 -0.351652 0.322884 0.054126 0.065658 0.606057 0.699611 0.140783 0.544377 -0.152863 -0.821640 -0.431488 0.271870 -0.015908 -0.011168 0.172764 0.069329 0.343356 -0.065823 0.484221 -0.077732 -0.191219 -0.465315 -0.028832 -0.275145 -0.654614 0.163976 
2925 0.280587 -0.519189 -0.006076 -0.219606 0.745623 -0.131741 0.148375 -0.038662 -0.011821 -0.484676 0.077351 -0.653077 -0.402130 0.134199 0.042075 -0.376185 -0.177026 0.467300 -0.108937 -0.324044 0.150722 -0.477432 0.305283 -0.148236 -0.411670 -0.192098 -0.344231 0.737445 -0.075863 -0.382128 0.781844 0.029935 -0.203849 -0.068754 0.335321 -0.085694 0.410157 -0.008696 -0.111082 0.144788 -0.008241 -0.409709 -0.011592 -0.142908 -0.286131 0.237175 0.559539 -0.408601 -0.161414 0.119558 -0.076214 0.525643 -0.213209 -0.083532 -0.008642 0.045886 -0.032652 -0.003613 0.366743 0.248049 0.208221 0.169862 0.551524 0.036162 -0.231825 0.046632 0.181485 -0.169029 0.365329 0.502268 -0.175141 -0.557752 -0.099907 -0.005267 -0.086820 -0.535458 -0.237597 0.259839 0.108335 0.611722 0.146961 0.349474 0.582366 -0.352968 -0.456214 0.345594 -0.417323 0.406842 -0.161238 -0.106200 0.491663 0.165698 0.049735 0.457981 0.395325 -0.006435 -0.205795 -0.023570 -0.384643 -0.115620 
3397 0.263486 -0.048351 -0.114843 0.136459 -0.289300 0.131746 0.126775 -0.191144 -0.080954 -0.008997 0.386628 -0.114921 -0.330077 -0.300252 -0.053056 -0.424197 0.108422 0.377814 0.277699 -0.340828 -0.106534 0.272075 -0.012786 -0.263812 -0.310355 -0.059034 -0.135973 0.382895 0.208597 0.542438 0.468638 0.030112 -0.270556 -0.358369 -0.274866 0.140332 0.422774 0.281050 0.672419 -0.377863 0.289318 -0.302097 -0.056131 -0.612720 -0.382612 -0.165316 0.109140 0.448562 0.273376 0.018119 -0.059224 -0.295694 0.189357 -0.288579 0.276442 0.209442 0.006422 0.260175 0.130885 -0.229819 -0.410304 -0.132712 -0.344103 0.239329 0.286462 0.216651 0.062753 -0.250216 0.080840 -0.162457 -0.274078 0.198995 -0.646627 -0.098016 -0.176775 0.428974 0.048751 0.206525 0.409524 0.466212 0.320582 0.453017 -0.365559 -0.512386 -0.125723 0.118299 -0.086782 0.026776 0.118260 0.244909 0.165112 0.022676 0.488985 -0.058673 -0.448107 -0.257462 0.090006 -0.259517 -0.437307 0.053349 
2939 0.223976 -0.060005 -0.108113 0.011775 -0.268509 0.403646 0.339950 -0.095208 -0.114569 -0.142793 0.449834 0.011845 -0.600131 -0.391291 -0.120811 -0.336615 0.165996 0.698205 0.216335 -0.285009 -0.134705 0.329116 -0.063649 -0.337780 -0.290387 -0.108176 -0.144671 0.485702 0.235236 0.465345 0.620864 0.225648 -0.502748 -0.561544 -0.211254 0.239144 0.513397 0.462841 0.653901 -0.398473 0.298015 -0.128052 -0.041959 -0.624380 -0.299833 0.067538 0.327177 0.476405 0.273031 0.004112 -0.032457 -0.255630 0.234665 -0.428283 0.569813 0.254949 -0.027594 0.199689 0.250186 -0.386901 -0.331265 -0.011815 -0.234734 0.294203 0.467530 0.305241 0.090740 -0.430040 -0.163241 -0.160538 -0.225010 0.324955 -0.727438 0.029879 -0.339895 0.330661 0.050233 0.089188 0.596543 0.686480 0.217441 0.529341 -0.175930 -0.756078 -0.407788 0.220034 -0.029244 0.005497 0.149323 0.091300 0.307673 -0.079578 0.502067 -0.072031 -0.225160 -0.458363 0.008477 -0.270791 -0.620558 0.136356 
3185 0.059930 0.033926 -0.406989 0.059278 -0.370670 0.284556 0.037212 -0.088246 -0.086094 -0.091226 0.395434 -0.065105 -0.357083 -0.390785 -0.026618 -0.083981 0.363864 0.785840 -0.229844 -0.440918 -0.133265 0.229658 -0.277422 -0.204284 -0.136612 -0.008774 0.158393 0.380654 0.294301 0.473071 0.431573 -0.012131 -0.468324 -0.495273 0.062563 0.263900 0.560103 0.230050 0.510801 -0.426835 0.210699 -0.254285 0.003422 -0.469267 -0.566949 -0.082200 0.000587 0.233802 0.060676 -0.079076 -0.089947 -0.224793 -0.054948 -0.322932 0.347687 0.000884 -0.006457 0.249665 0.015976 -0.390079 -0.253261 0.058999 -0.381882 0.358866 0.543957 0.284171 -0.314247 -0.144177 -0.361787 0.099179 -0.272317 -0.038838 -0.610170 0.169295 -0.317831 0.119733 0.110976 0.216390 0.463008 0.493483 0.060637 0.465456 -0.214089 -0.698260 -0.119268 0.409942 0.047328 0.054961 0.159163 0.094528 0.141987 -0.190675 0.170653 -0.069038 -0.318827 -0.139085 -0.009230 -0.283148 -0.450411 0.176455 
3115 0.155174 -0.006354 -0.249177 0.076558 -0.345836 0.262224 0.107095 -0.129228 -0.065206 -0.070288 0.395241 -0.103841 -0.350141 -0.334680 -0.026779 -0.213773 0.202898 0.603409 -0.007469 -0.369595 -0.145448 0.274842 -0.150381 -0.224560 -0.194227 -0.017888 0.005536 0.416454 0.237001 0.515253 0.452091 -0.021108 -0.379465 -0.458099 -0.065065 0.216613 0.516307 0.239944 0.562364 -0.409501 0.246471 -0.189076 -0.028623 -0.533903 -0.426332 -0.097190 0.100629 0.325747 0.138608 -0.027765 -0.065138 -0.255020 0.069877 -0.347387 0.320359 0.067244 0.065058 0.188066 0.081509 -0.375232 -0.361224 0.004795 -0.314617 0.252281 0.431622 0.290282 -0.164181 -0.236696 -0.185942 -0.067296 -0.306151 0.082090 -0.606830 0.016332 -0.258959 0.273451 0.120013 0.161485 0.434473 0.502632 0.128667 0.447385 -0.221873 -0.657664 -0.186080 0.302706 -0.020097 -0.018843 0.124832 0.172242 0.163826 -0.075369 0.317475 -0.052206 -0.332701 -0.214345 -0.005722 -0.273997 -0.467066 0.174124 
2927 0.203030 -0.466923 -0.053100 -0.301385 0.768931 0.040076 0.068807 -0.106402 -0.097246 -0.537214 -0.057793 -0.593938 -0.371310 0.185005 0.128494 -0.353162 -0.151452 0.594421 -0.126898 -0.394349 0.058816 -0.502102 0.206813 -0.165270 -0.252777 -0.139859 -0.429390 0.636223 -0.086827 -0.393771 0.734131 -0.020140 -0.165381 0.023676 0.340636 -0.183782 0.361562 -0.028541 -0.046512 0.116927 -0.064505 -0.472500 0.124566 -0.100023 -0.363242 0.288560 0.419325 -0.255345 -0.324869 0.199639 -0.133271 0.661797 -0.290547 -0.114971 -0.068923 -0.066449 -0.240212 -0.050200 0.218619 0.345841 0.132422 0.187468 0.429396 0.054615 -0.167024 -0.022168 0.144840 -0.051615 0.385917 0.601954 -0.198478 -0.389115 -0.096927 -0.000446 -0.108069 -0.550685 -0.182522 0.310738 0.210515 0.435687 0.026316 0.230827 0.553161 -0.468131 -0.304267 0.330123 -0.485616 0.286642 -0.034620 -0.071183 0.532422 0.079415 0.001573 0.565692 0.569514 0.037910 -0.134822 0.153385 -0.370391 -0.144323 
3426 0.147282 -0.459486 0.057744 -0.314592 0.672215 0.125964 0.118579 -0.093627 -0.149268 -0.508981 0.022619 -0.472774 -0.285901 0.016854 0.131466 -0.331243 -0.109403 0.447666 -0.135553 -0.289478 -0.002904 -0.449483 0.131722 -0.018124 -0.289615 -0.113886 -0.366279 0.478205 -0.112566 -0.384646 0.685892 -0.030819 -0.165851 0.005847 0.357032 -0.162275 0.390000 -0.031920 -0.067354 0.102526 -0.005676 -0.376765 0.034819 0.017613 -0.342753 0.264185 0.346785 -0.242152 -0.228564 0.099075 -0.142995 0.579390 -0.313393 -0.026336 0.082756 -0.036310 -0.353432 -0.085195 0.194174 0.243719 0.102339 0.211001 0.325136 0.113529 -0.084331 0.028165 0.130640 -0.005174 0.286435 0.526364 -0.167929 -0.257964 -0.150981 -0.073164 -0.091131 -0.531918 -0.151906 0.270707 0.137411 0.496491 0.016018 0.330820 0.546509 -0.410429 -0.220036 0.329178 -0.343038 0.347687 -0.098282 -0.112216 0.477281 0.042268 0.017145 0.574282 0.397198 0.072822 -0.232942 0.147945 -0.290628 -0.116955 
3333 0.058586 -0.151755 -0.034153 -0.131255 0.139938 0.142396 -0.019253 -0.099672 -0.062703 -0.188777 -0.022355 -0.151461 -0.112144 0.028847 0.058595 -0.148516 -0.028212 0.245413 -0.010211 -0.161067 -0.044116 -0.125434 -0.007585 -0.041679 -0.028501 -0.010075 -0.152180 0.164541 -0.037379 -0.045141 0.247901 -0.052480 -0.055090 -0.009400 0.100695 -0.073145 0.153920 0.001213 0.087703 -0.020798 -0.003389 -0.180915 0.082996 -0.064083 -0.207893 0.057102 0.072697 0.009282 -0.111563 0.075190 -0.059630 0.228499 -0.103283 -0.042366 0.009261 -0.075844 -0.198611 -0.028888 -0.001402 0.081805 -0.060186 0.106349 0.015370 0.058374 -0.010859 -0.032278 0.025369 -0.009530 0.120340 0.203494 -0.084670 -0.003069 -0.125517 -0.014790 -0.081763 -0.156443 -0.029112 0.150240 0.129387 0.112960 0.016714 0.074054 0.122591 -0.250913 -0.005639 0.097553 -0.194543 0.059073 0.041790 0.020681 0.170515 -0.028957 0.001869 0.251054 0.158589 0.040117 -0.011410 0.083719 -0.150689 -0.063420 
3394 0.049267 -0.219797 -0.071355 -0.273285 0.233992 0.369277 -0.106484 -0.224571 -0.115675 -0.390948 -0.164050 -0.225809 -0.160337 0.120094 0.163740 -0.223128 -0.070969 0.464641 -0.021766 -0.272281 -0.136302 -0.249732 -0.076995 -0.052347 0.074107 0.045531 -0.311120 0.197038 -0.095418 -0.122646 0.335860 -0.130899 -0.030098 0.067957 0.164142 -0.229951 0.175599 -0.056492 0.171106 -0.033074 -0.060448 -0.282998 0.254775 -0.040118 -0.389900 0.110702 0.038581 0.086625 -0.317675 0.188586 -0.138967 0.482109 -0.201244 -0.065609 -0.051992 -0.234362 -0.517201 -0.099772 -0.108818 0.196250 -0.121347 0.252868 -0.038893 0.096486 -0.034575 -0.112008 0.044964 0.027042 0.227939 0.412729 -0.132431 0.085888 -0.183619 -0.031198 -0.144559 -0.336945 -0.042788 0.294899 0.274026 0.047581 -0.039721 0.005617 0.225316 -0.488701 0.092930 0.115133 -0.394603 0.042268 0.125968 0.032716 0.310997 -0.096823 -0.046481 0.504666 0.414355 0.093268 0.013207 0.262985 -0.237294 -0.165019 
3087 0.445095 -0.035810 0.034894 -0.059885 0.059365 -0.116914 -0.242429 0.041167 0.192649 -0.105530 0.199943 -0.292304 -0.212147 0.101027 -0.095864 -0.480093 0.057165 0.296551 0.177109 -0.536770 -0.330720 0.052995 0.155753 0.070394 -0.275897 0.045613 -0.311607 0.375563 0.056466 0.341023 0.232947 -0.679488 -0.163269 -0.182639 -0.242093 0.232968 0.625950 -0.166928 0.497531 -0.093680 0.003817 -0.383245 0.059752 -0.502906 -0.319997 -0.169092 0.037475 0.091854 -0.108566 0.244322 0.158548 -0.065425 0.043758 -0.115309 -0.344481 -0.285441 0.334290 -0.085290 -0.180488 -0.134384 -0.518373 -0.245515 -0.369762 0.012255 0.053759 -0.049157 0.014479 0.032844 0.421291 -0.008176 -0.207197 -0.473526 -0.234788 -0.204048 0.120592 0.341305 0.272835 0.225634 0.246992 0.222606 0.230471 0.124235 -0.164501 -0.222689 0.213639 0.069396 -0.377143 -0.022608 -0.295890 0.483136 0.054969 0.336365 0.327480 -0.011939 -0.303620 0.164886 0.229538 0.079933 -0.058254 0.168631 
3236 0.340701 -0.046507 0.036383 -0.091920 0.132736 -0.142862 -0.209174 0.057770 0.142714 -0.131489 0.048488 -0.243050 -0.170615 0.160445 -0.094380 -0.394371 -0.009990 0.267919 0.116245 -0.369611 -0.251375 -0.035612 0.129056 0.057889 -0.153161 0.072842 -0.280779 0.286434 0.000439 0.204232 0.180082 -0.533545 -0.084627 -0.052557 -0.184009 0.134231 0.465643 -0.213038 0.295895 -0.043252 -0.040325 -0.283865 0.083766 -0.299749 -0.251030 -0.122172 0.048555 -0.003239 -0.129103 0.224136 0.169813 0.044682 -0.035716 -0.085783 -0.376668 -0.280600 0.252457 -0.109391 -0.121974 -0.068413 -0.356211 -0.165042 -0.237859 -0.005276 -0.029265 -0.117355 0.068854 0.001128 0.413689 0.039567 -0.140187 -0.391277 -0.125291 -0.135282 0.111513 0.119970 0.207501 0.196268 0.170534 0.115019 0.161806 0.054389 -0.037925 -0.156598 0.177036 0.006119 -0.333489 -0.032492 -0.236037 0.379889 0.058915 0.271320 0.180444 0.050380 -0.098196 0.178906 0.146791 0.134780 -0.000650 0.109027 
3327 0.214800 0.015500 -0.039208 -0.056723 -0.065995 0.010175 -0.148294 0.099834 0.098886 -0.064926 0.191080 -0.197677 -0.217760 -0.025298 -0.131318 -0.245325 0.135954 0.295669 -0.001269 -0.351170 -0.206412 0.123237 0.052280 0.029189 -0.106586 -0.031957 -0.144341 0.326183 0.105536 0.336716 0.205070 -0.467563 -0.178095 -0.281062 -0.039988 0.253060 0.483925 -0.128017 0.338323 -0.130601 0.038450 -0.135041 0.013419 -0.346433 -0.288967 -0.095299 -0.096135 -0.051142 -0.040966 0.137734 0.146693 -0.119787 0.017537 -0.175596 -0.148535 -0.184931 0.227516 -0.025505 -0.093692 -0.168183 -0.411077 -0.119815 -0.270310 0.045254 0.149776 -0.024705 -0.151759 -0.072605 0.140372 -0.046030 -0.211341 -0.248006 -0.193875 -0.015580 -0.002110 0.133560 0.200279 0.144158 0.202022 0.270573 0.214910 0.121266 -0.061086 -0.231667 0.153783 0.079261 -0.186486 -0.012668 -0.158352 0.226110 0.032990 0.070581 0.155806 0.002649 -0.210007 0.040145 0.212942 -0.019990 -0.064124 0.154056 
2675 0.389756 -0.021287 0.074271 -0.054102 -0.015087 -0.071044 -0.176832 0.085871 0.181403 -0.104015 0.213478 -0.223858 -0.255487 0.041247 -0.130175 -0.442840 0.053996 0.310001 0.192152 -0.440555 -0.312636 0.132299 0.149437 0.052762 -0.198236 0.040394 -0.289261 0.365255 0.051746 0.364859 0.235189 -0.586914 -0.187324 -0.219109 -0.261905 0.230306 0.584124 -0.140713 0.497384 -0.104896 0.018165 -0.273634 0.029230 -0.494183 -0.240342 -0.150961 0.034465 0.097758 -0.048492 0.212258 0.157667 -0.124218 0.086608 -0.175293 -0.233688 -0.248190 0.364761 -0.093044 -0.117380 -0.196865 -0.532727 -0.229172 -0.356394 0.038982 0.132306 -0.031648 0.025187 -0.055246 0.331557 -0.082589 -0.189120 -0.357823 -0.251780 -0.168576 0.076643 0.344298 0.290692 0.195611 0.273299 0.260630 0.190987 0.115644 -0.143639 -0.261656 0.134996 0.044312 -0.303721 -0.065625 -0.238263 0.437833 0.063649 0.286478 0.331712 -0.053823 -0.282461 0.077491 0.201091 0.053845 -0.097121 0.182540 
2863 0.225011 -0.014850 0.054243 -0.030312 -0.035248 0.201289 0.185042 0.120010 0.023668 -0.130472 0.308840 0.051808 -0.441456 -0.184539 -0.136015 -0.281701 0.234751 0.519729 0.189768 -0.225115 -0.190016 0.240799 -0.008812 -0.158327 -0.266375 -0.071578 -0.208584 0.317015 0.185145 0.264907 0.391234 0.017440 -0.428065 -0.380272 -0.241435 0.250331 0.431433 0.181852 0.434022 -0.219929 0.119073 -0.020697 0.037303 -0.453274 -0.098562 0.146687 0.255481 0.284523 0.111128 0.083048 0.072140 -0.152117 0.265894 -0.338046 0.320309 0.064587 0.103680 0.020414 0.117141 -0.339374 -0.255914 -0.085469 -0.178300 0.137136 0.275334 0.200730 0.111459 -0.270526 -0.089266 -0.128531 -0.129506 0.031649 -0.390608 -0.006978 -0.123398 0.253909 0.107442 -0.066065 0.419334 0.467373 0.065247 0.288078 -0.050213 -0.500824 -0.275325 0.155027 -0.085381 -0.018294 -0.028296 0.067673 0.227803 0.059729 0.410705 -0.167791 -0.102672 -0.299208 0.045378 -0.143674 -0.351168 0.156659 
3296 0.206963 -0.014142 -0.077501 0.015728 -0.180074 0.150850 0.134097 -0.002016 0.012160 -0.065859 0.261852 -0.056760 -0.303981 -0.197393 -0.091251 -0.224515 0.092141 0.386249 0.075630 -0.222369 -0.136066 0.217268 -0.027923 -0.117022 -0.164464 -0.001943 -0.083296 0.316966 0.107025 0.358029 0.295899 -0.056716 -0.263531 -0.346121 -0.127970 0.196269 0.397559 0.168699 0.386042 -0.231340 0.163254 -0.086832 -0.033348 -0.378963 -0.213634 -0.075900 0.135461 0.196872 0.130479 0.016399 0.016098 -0.179607 0.132669 -0.272912 0.195000 0.028841 0.144403 0.091411 0.072159 -0.265727 -0.288866 -0.057143 -0.187386 0.133768 0.269241 0.155772 -0.027897 -0.212928 -0.021886 -0.123619 -0.188433 0.030627 -0.368519 0.006563 -0.118022 0.243611 0.105707 0.098098 0.319606 0.401257 0.142921 0.277334 -0.121718 -0.389280 -0.170604 0.106882 -0.039808 -0.003488 -0.006133 0.146448 0.151001 0.031652 0.286579 -0.054784 -0.195840 -0.185089 0.041274 -0.142703 -0.302212 0.142432 
3293 0.077326 -0.361587 -0.105733 -0.325460 0.443270 0.297046 -0.106901 -0.254788 -0.108094 -0.544627 -0.252645 -0.400219 -0.289826 0.272910 0.156517 -0.311013 -0.158563 0.651809 -0.017385 -0.381445 -0.077573 -0.445471 0.014744 -0.146987 0.059630 0.016604 -0.448495 0.437617 -0.105331 -0.244998 0.573260 -0.139349 -0.042678 0.126683 0.241490 -0.320972 0.254346 -0.043506 0.111821 0.010030 -0.106264 -0.479991 0.319891 -0.146570 -0.484848 0.243459 0.183007 0.010012 -0.446694 0.297577 -0.155574 0.707094 -0.299955 -0.140466 -0.193921 -0.287062 -0.490254 -0.172570 -0.059427 0.314864 -0.000684 0.301074 0.142066 0.082754 -0.127422 -0.180235 0.108502 -0.086971 0.401181 0.675312 -0.091588 -0.095729 -0.157227 0.066668 -0.193260 -0.491845 -0.113748 0.358739 0.337487 0.082228 -0.032911 -0.020205 0.438470 -0.669356 -0.062509 0.218125 -0.577304 0.042577 0.216189 0.018785 0.448366 0.005527 -0.075423 0.618198 0.661752 0.060157 0.014460 0.337295 -0.407998 -0.190518 
3384 0.040438 -0.519063 0.057416 -0.450460 0.435052 0.372246 -0.097764 -0.225740 -0.161706 -0.568045 -0.129276 -0.367772 -0.204287 0.141780 0.135559 -0.305270 -0.163164 0.461460 -0.063918 -0.274179 -0.154382 -0.379640 0.065701 -0.063635 -0.092581 -0.084878 -0.388139 0.379221 -0.142176 -0.291267 0.635475 -0.248701 -0.039333 0.095383 0.383996 -0.311709 0.342522 -0.024220 0.072643 0.048767 -0.059428 -0.464906 0.197147 -0.089361 -0.483938 0.318225 0.208463 -0.079012 -0.213468 0.204664 -0.205737 0.672489 -0.367935 -0.069492 -0.027701 -0.205270 -0.564311 -0.193760 -0.023554 0.331824 -0.087070 0.267527 0.077510 0.140956 -0.125356 -0.143366 0.153754 -0.089750 0.331950 0.641096 -0.065179 0.068662 -0.185659 -0.012765 -0.235140 -0.429778 -0.127877 0.398447 0.184188 0.285065 -0.040242 0.182446 0.497837 -0.640733 -0.023827 0.266283 -0.429734 0.094263 0.039317 -0.081154 0.467548 0.018624 -0.051088 0.694053 0.472857 0.142001 -0.156342 0.339283 -0.298910 -0.077848 
3005 0.076917 0.036306 -0.332706 0.014257 -0.250779 0.036017 -0.071335 -0.033081 -0.035716 -0.000004 0.153156 -0.141573 -0.184245 -0.190051 -0.056042 -0.112615 0.178614 0.421733 -0.199501 -0.328442 -0.057828 0.115936 -0.187684 -0.090342 0.008901 0.049299 0.140239 0.267258 0.174878 0.402726 0.225975 -0.196783 -0.182723 -0.288949 0.105353 0.211729 0.451632 -0.002887 0.330488 -0.302520 0.131518 -0.233110 -0.026104 -0.239050 -0.485939 -0.194116 -0.186547 0.001702 0.014846 -0.028973 0.016527 -0.146131 -0.171400 -0.142399 -0.020272 -0.142243 0.042278 0.172843 -0.094549 -0.207769 -0.281183 0.039294 -0.321275 0.199960 0.246151 0.050594 -0.231824 -0.038965 -0.033504 0.075344 -0.278985 -0.124687 -0.345161 0.092629 -0.130368 -0.022394 0.138208 0.295884 0.221278 0.270583 0.155017 0.276196 -0.187011 -0.292854 0.146569 0.177912 -0.044162 0.068379 0.072821 0.220903 -0.015497 -0.157385 -0.003247 0.078293 -0.281336 0.068153 0.081169 -0.160203 -0.134677 0.088759 
3039 -0.002206 0.002274 -0.453820 0.071396 -0.310719 0.131623 -0.060911 -0.100667 -0.124343 -0.039831 0.235501 -0.098714 -0.181016 -0.268550 0.013606 -0.048810 0.249033 0.594271 -0.277417 -0.385589 -0.050772 0.027496 -0.310910 -0.148312 -0.043627 0.002717 0.256782 0.267026 0.249432 0.376348 0.344429 0.000002 -0.279867 -0.263694 0.141102 0.159310 0.401824 0.118298 0.316832 -0.379422 0.167825 -0.317164 -0.028793 -0.250173 -0.610955 -0.149293 -0.136895 0.095889 0.025873 -0.092062 -0.095574 -0.133749 -0.255955 -0.164833 0.100996 -0.041846 -0.103162 0.290462 -0.016093 -0.230214 -0.166267 0.095426 -0.335446 0.322131 0.369587 0.153285 -0.298322 -0.084136 -0.204303 0.204075 -0.290222 -0.095768 -0.471793 0.159847 -0.285221 -0.055067 0.007342 0.312344 0.249674 0.270378 0.118775 0.370433 -0.223953 -0.482339 0.070492 0.344546 0.036109 0.124919 0.176380 0.086628 0.002056 -0.234494 -0.022855 0.078935 -0.311814 0.030329 -0.020221 -0.247596 -0.244000 0.045146 
3428 0.055184 -0.156303 -0.016842 -0.145369 0.142493 0.143399 0.002031 -0.096017 -0.074278 -0.212561 -0.019959 -0.137413 -0.115015 0.009597 0.061158 -0.166252 -0.029812 0.245374 -0.010240 -0.156672 -0.053443 -0.137600 -0.010907 -0.017906 -0.043064 -0.006748 -0.174101 0.174626 -0.031775 -0.058984 0.259896 -0.083493 -0.048086 -0.001506 0.108727 -0.096685 0.161908 -0.009908 0.093461 -0.022272 0.015261 -0.191021 0.081866 -0.059253 -0.232324 0.068459 0.056658 0.018716 -0.114293 0.078148 -0.063406 0.220663 -0.125438 -0.047026 -0.010776 -0.081968 -0.223426 -0.034299 -0.005423 0.082195 -0.072831 0.100032 -0.001130 0.071437 -0.003074 -0.039662 0.032139 -0.017163 0.143123 0.211334 -0.098637 0.012563 -0.133239 -0.026644 -0.072803 -0.161232 -0.028617 0.157596 0.138027 0.128039 0.025917 0.102912 0.146641 -0.271915 -0.001552 0.106689 -0.187294 0.066750 0.033862 0.029208 0.195557 -0.016064 0.025418 0.270284 0.158025 0.022979 -0.035947 0.101806 -0.139930 -0.051524 
3139 0.041605 -0.173214 -0.002850 -0.225616 0.180030 0.273003 -0.009290 -0.132653 -0.102871 -0.307653 -0.058567 -0.145218 -0.102386 0.003379 0.111614 -0.192763 -0.031677 0.306270 -0.026672 -0.177879 -0.120584 -0.191671 -0.085542 0.025666 -0.013918 0.020871 -0.234935 0.124798 -0.068189 -0.097462 0.293564 -0.126595 -0.044830 0.029852 0.135340 -0.169603 0.182858 -0.038794 0.124890 -0.020054 -0.003627 -0.205683 0.130561 -0.017654 -0.307128 0.111115 0.028299 0.038479 -0.180133 0.099633 -0.098384 0.333303 -0.169090 -0.034469 0.005319 -0.139197 -0.426440 -0.077089 -0.072993 0.111292 -0.107592 0.155954 -0.035052 0.100618 0.023208 -0.070838 0.024498 0.021043 0.160320 0.289520 -0.108996 0.114749 -0.140897 -0.069237 -0.081825 -0.231952 -0.053064 0.200525 0.164378 0.121716 -0.019000 0.109741 0.196527 -0.340380 0.053918 0.126649 -0.228518 0.062070 0.050611 0.002916 0.254663 -0.078619 0.009844 0.402150 0.236122 0.047308 -0.064952 0.204416 -0.150491 -0.091158 
3198 0.327296 0.017250 -0.071630 0.064497 -0.279659 0.057712 -0.070140 -0.065001 0.099359 -0.057017 0.392440 -0.174617 -0.335792 -0.136148 -0.125969 -0.406770 0.105514 0.460883 0.241663 -0.478785 -0.260397 0.293462 0.023772 -0.129215 -0.279681 0.006581 -0.170445 0.409202 0.148603 0.584855 0.326238 -0.357854 -0.281076 -0.385658 -0.332505 0.315916 0.625811 0.118895 0.674885 -0.334611 0.220379 -0.294857 -0.027850 -0.653418 -0.348868 -0.258114 0.070156 0.296532 0.145725 0.129457 0.034466 -0.322635 0.151010 -0.310090 0.036540 -0.071984 0.255589 0.118976 -0.038451 -0.307720 -0.597057 -0.185037 -0.474057 0.197690 0.288181 0.102650 -0.013144 -0.192789 0.159105 -0.113646 -0.290124 -0.130974 -0.506806 -0.133288 -0.065541 0.516648 0.245208 0.198255 0.376235 0.338008 0.223426 0.294674 -0.373830 -0.388515 0.035430 0.111246 -0.178563 -0.054864 -0.049048 0.420868 0.082008 0.111449 0.452443 -0.091100 -0.508816 -0.103758 0.183202 -0.131358 -0.317127 0.211848 
3417 0.146457 -0.443559 -0.123038 -0.315909 0.634905 0.160467 -0.036061 -0.203298 -0.126969 -0.550504 -0.203207 -0.533132 -0.351264 0.300263 0.137668 -0.350006 -0.205480 0.697246 -0.095510 -0.421393 0.011814 -0.515563 0.119330 -0.211215 -0.057712 -0.053799 -0.456077 0.586434 -0.078597 -0.306348 0.701178 -0.085188 -0.106314 0.097514 0.272727 -0.283512 0.298569 -0.015560 0.005083 0.065918 -0.080169 -0.572025 0.239372 -0.137473 -0.489286 0.288560 0.310991 -0.101317 -0.446171 0.301819 -0.132411 0.749050 -0.323518 -0.154451 -0.183857 -0.203436 -0.365262 -0.114407 0.105241 0.376136 0.120959 0.256799 0.319963 0.112954 -0.162330 -0.102839 0.151376 -0.077954 0.435716 0.689128 -0.146504 -0.268443 -0.147307 0.082882 -0.160131 -0.553888 -0.177779 0.343826 0.322005 0.258444 -0.008427 0.086880 0.526876 -0.636045 -0.199027 0.292040 -0.576662 0.155939 0.135695 -0.020074 0.524913 0.067913 -0.096382 0.613707 0.684523 0.059425 -0.030101 0.253753 -0.429847 -0.170758 
2944 0.177870 -0.412229 -0.074493 -0.242391 0.706273 0.048405 0.068768 -0.120554 -0.106553 -0.488329 -0.077169 -0.529257 -0.355553 0.209392 0.103957 -0.335758 -0.173393 0.604924 -0.115371 -0.386557 0.073846 -0.502634 0.149583 -0.143813 -0.167411 -0.074839 -0.423372 0.560049 -0.097235 -0.372464 0.710674 0.010167 -0.143658 0.044125 0.272372 -0.212313 0.318783 -0.008969 -0.054274 0.066105 -0.070992 -0.448528 0.144889 -0.058984 -0.396435 0.245740 0.401469 -0.186226 -0.362060 0.190097 -0.110712 0.661706 -0.277072 -0.076794 -0.066783 -0.092042 -0.261941 -0.043270 0.177502 0.306493 0.174866 0.243925 0.420403 0.090964 -0.136594 -0.027471 0.126060 -0.079051 0.402483 0.596067 -0.172829 -0.391098 -0.155168 0.018465 -0.118806 -0.580558 -0.192408 0.288076 0.256693 0.377049 0.019858 0.174352 0.533337 -0.479108 -0.282439 0.294039 -0.472597 0.283763 0.040066 -0.057761 0.495387 0.053834 -0.023916 0.536249 0.574504 0.024160 -0.112870 0.158517 -0.380761 -0.184510 
2738 0.088542 -0.348738 -0.095347 -0.359248 0.325235 0.369305 -0.091412 -0.273438 -0.122317 -0.527608 -0.245896 -0.313340 -0.216214 0.193956 0.164624 -0.293107 -0.154735 0.558060 -0.005443 -0.295523 -0.125995 -0.418893 -0.030100 -0.082210 0.077815 0.049529 -0.392225 0.335871 -0.131891 -0.167043 0.523843 -0.173633 -0.027203 0.140861 0.259980 -0.325378 0.265059 -0.082384 0.126387 -0.016872 -0.069679 -0.419181 0.298478 -0.045809 -0.509678 0.226895 0.114540 0.035239 -0.362195 0.249012 -0.144733 0.654761 -0.294845 -0.097728 -0.187297 -0.289183 -0.599760 -0.147466 -0.108580 0.296238 -0.112270 0.304343 0.016235 0.098516 -0.083495 -0.221217 0.136447 -0.057206 0.394781 0.605393 -0.114377 0.061113 -0.184491 -0.007451 -0.183808 -0.488958 -0.085759 0.385030 0.297514 0.084204 0.009849 0.025428 0.384287 -0.605009 0.069044 0.184178 -0.527323 0.036116 0.157922 0.058466 0.410261 -0.060840 -0.078099 0.674696 0.559041 0.107829 -0.020095 0.330923 -0.310522 -0.195897 
3399 0.182957 -0.452778 0.012824 -0.212799 0.577624 -0.042904 0.087860 -0.049692 -0.056299 -0.385343 0.050208 -0.488585 -0.297258 0.076083 0.026018 -0.287018 -0.129358 0.375329 -0.108121 -0.259514 0.090447 -0.377756 0.227137 -0.118723 -0.292110 -0.166064 -0.281455 0.541535 -0.055866 -0.310041 0.632515 -0.026434 -0.172392 -0.009309 0.311191 -0.093915 0.329876 0.006026 -0.073273 0.133885 -0.010541 -0.356249 -0.001922 -0.093425 -0.280097 0.229688 0.416923 -0.307584 -0.113314 0.115830 -0.085546 0.448200 -0.233123 -0.046826 -0.004695 0.009738 -0.095979 -0.029182 0.264640 0.215168 0.164940 0.139791 0.395932 0.052677 -0.185686 0.014284 0.137678 -0.103605 0.259384 0.436709 -0.140461 -0.353405 -0.098818 0.004093 -0.076509 -0.424391 -0.206192 0.225905 0.094112 0.473332 0.077629 0.276526 0.476577 -0.319385 -0.323132 0.285729 -0.326715 0.288006 -0.100268 -0.089509 0.422210 0.084780 0.015701 0.425694 0.331841 0.014248 -0.195158 0.035297 -0.292155 -0.073271 
2777 0.293508 -0.471445 -0.095455 -0.173380 0.813764 -0.152140 0.145555 -0.046233 -0.075901 -0.465603 -0.013675 -0.658465 -0.433523 0.208088 0.054452 -0.378430 -0.176311 0.609155 -0.130900 -0.401692 0.188655 -0.545963 0.283502 -0.199987 -0.335674 -0.166785 -0.386080 0.749616 -0.045675 -0.393101 0.822508 0.064073 -0.235422 0.009256 0.305439 -0.109490 0.378545 0.006846 -0.139380 0.141911 -0.043121 -0.499318 0.043792 -0.104425 -0.334013 0.250865 0.553377 -0.351264 -0.299073 0.176278 -0.079494 0.579906 -0.265109 -0.111886 -0.092499 0.008308 -0.030105 0.006723 0.338764 0.296346 0.281927 0.167275 0.569127 0.039732 -0.196771 0.019054 0.195991 -0.148420 0.409289 0.571445 -0.216446 -0.610243 -0.102803 0.033449 -0.100550 -0.599186 -0.234538 0.254717 0.177554 0.528977 0.098516 0.281959 0.590114 -0.391646 -0.460279 0.357106 -0.469859 0.376839 -0.045907 -0.084873 0.514086 0.149789 -0.001041 0.481119 0.550086 -0.027806 -0.147336 0.008829 -0.429699 -0.161051 
2894 -0.005717 0.035801 -0.547273 0.114337 -0.363214 0.243558 -0.046356 -0.129704 -0.150079 -0.043463 0.324301 -0.135479 -0.263057 -0.358194 0.005968 -0.008249 0.301292 0.736795 -0.356433 -0.457230 -0.088036 0.106518 -0.344991 -0.164654 -0.045561 0.019323 0.264487 0.349986 0.273463 0.435645 0.433189 -0.052382 -0.412811 -0.374908 0.197626 0.189247 0.522056 0.112481 0.385044 -0.451511 0.207790 -0.306793 -0.049344 -0.339082 -0.675340 -0.108244 -0.119973 0.159680 0.033082 -0.144732 -0.075424 -0.179948 -0.234380 -0.248823 0.211568 -0.054652 -0.013514 0.294240 -0.032298 -0.367798 -0.181787 0.145712 -0.410924 0.358405 0.518360 0.305048 -0.428000 -0.112199 -0.333165 0.178270 -0.347873 -0.074131 -0.577362 0.169583 -0.370844 0.009238 0.071183 0.315867 0.331398 0.408677 0.036977 0.470588 -0.192985 -0.691472 -0.000326 0.460888 0.055081 0.063135 0.191630 0.095874 0.044262 -0.193888 0.032521 0.052228 -0.332678 -0.018604 -0.070478 -0.307137 -0.376825 0.137968 
3320 0.084692 -0.041487 -0.487601 0.197896 -0.499533 0.224254 0.039026 -0.362180 -0.164143 0.016937 0.411678 -0.192171 -0.252725 -0.444288 0.027129 -0.254003 0.158746 0.488730 -0.057880 -0.437156 0.025651 0.187039 -0.186518 -0.273767 -0.180183 -0.088009 0.198660 0.345876 0.260771 0.647497 0.524159 0.123438 -0.271998 -0.365033 0.071002 0.181817 0.429589 0.340521 0.654106 -0.520280 0.390711 -0.501522 -0.119142 -0.550209 -0.705175 -0.317190 -0.040388 0.354317 0.243237 -0.129933 -0.196868 -0.307696 -0.066285 -0.213723 0.283384 0.173579 -0.127065 0.465733 0.057012 -0.222155 -0.314439 0.022975 -0.401875 0.387149 0.387876 0.273403 -0.217772 -0.148564 -0.089055 0.080625 -0.442665 0.126904 -0.753990 0.026977 -0.376593 0.264402 -0.040909 0.410606 0.364403 0.399380 0.386629 0.568682 -0.483049 -0.616689 0.027999 0.311090 -0.004907 0.151205 0.266353 0.199738 0.101929 -0.196044 0.225374 0.099564 -0.624554 -0.161656 0.052135 -0.394331 -0.436855 0.017590 
2793 0.328087 -0.068961 -0.119418 0.124254 -0.333764 0.246439 0.213108 -0.236367 -0.081695 -0.017702 0.454991 -0.163500 -0.452026 -0.366962 -0.040116 -0.466868 0.091965 0.443858 0.289767 -0.365403 -0.119553 0.370642 0.056272 -0.322085 -0.325092 -0.133754 -0.188021 0.489258 0.207034 0.605532 0.569228 0.033108 -0.290950 -0.489715 -0.228071 0.208672 0.501871 0.397734 0.806243 -0.420961 0.363558 -0.303176 -0.077893 -0.753417 -0.408069 -0.197052 0.162054 0.520852 0.299407 0.013560 -0.105712 -0.338010 0.260737 -0.358436 0.386687 0.250375 0.046375 0.285259 0.132168 -0.263765 -0.494962 -0.091372 -0.312650 0.231118 0.303901 0.319046 0.047288 -0.261069 0.071051 -0.214737 -0.361771 0.261774 -0.735614 -0.125983 -0.256975 0.515675 0.080559 0.244245 0.497234 0.606516 0.394720 0.509771 -0.393488 -0.610627 -0.216612 0.111685 -0.152207 0.012837 0.112772 0.273455 0.227216 -0.008693 0.557109 -0.019562 -0.495091 -0.356914 0.099606 -0.321497 -0.574027 0.100653 
2787 0.339087 0.006969 0.028772 -0.022914 -0.041725 0.023439 -0.021518 0.092010 0.118475 -0.098477 0.258058 -0.212468 -0.278483 -0.087768 -0.132094 -0.296689 0.107674 0.223715 0.143530 -0.298592 -0.193857 0.238182 0.152968 -0.041404 -0.241307 -0.045223 -0.239218 0.344487 0.094278 0.311648 0.223356 -0.325811 -0.186273 -0.385072 -0.179143 0.270008 0.466535 0.060795 0.449190 -0.137564 0.125543 -0.132414 -0.006009 -0.504076 -0.144364 -0.108700 0.049794 0.111243 0.057289 0.142190 0.054641 -0.187084 0.243479 -0.257633 0.002804 -0.079029 0.259462 -0.035229 -0.054819 -0.211816 -0.426635 -0.163692 -0.169551 0.031845 0.106290 0.091557 0.017521 -0.049595 0.128093 -0.122277 -0.223761 -0.146372 -0.212440 -0.098344 0.076404 0.283165 0.216285 0.083490 0.271697 0.374276 0.214076 0.183611 -0.095277 -0.209602 -0.002333 0.021046 -0.237721 -0.020165 -0.153032 0.247662 0.180909 0.100021 0.327374 -0.095141 -0.235441 -0.093374 0.191715 -0.097006 -0.179651 0.168145 
3377 0.026592 0.007148 -0.474805 0.071402 -0.342253 0.087199 -0.036450 -0.092353 -0.118675 -0.015302 0.221552 -0.082433 -0.188841 -0.266072 0.014258 -0.097096 0.205935 0.572863 -0.235608 -0.365312 -0.040805 0.013726 -0.319283 -0.164677 -0.054377 0.026062 0.285342 0.250747 0.238548 0.429038 0.349027 -0.009091 -0.261273 -0.244031 0.108471 0.163014 0.441893 0.100776 0.317836 -0.408175 0.197874 -0.333176 -0.056378 -0.228858 -0.646986 -0.191939 -0.148980 0.084139 0.072459 -0.089454 -0.047441 -0.158605 -0.303902 -0.148717 0.037121 -0.036947 -0.093498 0.328012 0.011470 -0.235523 -0.212332 0.076581 -0.369094 0.336647 0.367913 0.098656 -0.241112 -0.134694 -0.128238 0.151469 -0.317866 -0.084844 -0.488769 0.150185 -0.281597 -0.050662 0.002423 0.328000 0.233683 0.256243 0.181682 0.383301 -0.265977 -0.447417 0.100041 0.286549 0.061991 0.134941 0.166987 0.155348 -0.027553 -0.232216 -0.018711 0.102350 -0.355314 0.031992 -0.007781 -0.244740 -0.208573 0.048976 
2778 0.090687 0.020655 -0.378322 0.064576 -0.478694 0.312104 0.175938 -0.070237 -0.167479 -0.058797 0.391735 0.063119 -0.482083 -0.417757 -0.126169 -0.197608 0.265734 0.829250 -0.063820 -0.353635 -0.110708 0.216823 -0.285875 -0.281283 -0.124966 0.008805 0.144719 0.432164 0.268982 0.566390 0.501420 0.094505 -0.515400 -0.465981 -0.024330 0.298182 0.624163 0.278989 0.505871 -0.517650 0.266960 -0.189012 -0.065773 -0.417200 -0.631322 -0.077201 0.085217 0.256748 0.196984 -0.073619 0.045984 -0.293356 -0.091843 -0.332349 0.356075 0.032141 -0.000595 0.353783 0.131542 -0.429935 -0.315468 0.030944 -0.459374 0.390711 0.600587 0.199803 -0.136013 -0.399944 -0.210690 -0.041088 -0.314429 0.102334 -0.743938 0.216915 -0.382987 0.139322 0.074540 0.245799 0.482333 0.529539 0.190864 0.513608 -0.255378 -0.725869 -0.149896 0.305076 0.099879 0.077969 0.172667 0.146703 0.112724 -0.182358 0.205782 0.017506 -0.359031 -0.241523 0.004478 -0.299979 -0.483340 0.154378 
3101 0.261767 0.009901 -0.134010 0.057997 -0.282754 0.248346 0.150716 -0.134258 -0.072232 -0.041002 0.425474 -0.137980 -0.421507 -0.377665 -0.115120 -0.356018 0.197015 0.515424 0.134538 -0.340554 -0.140461 0.355052 -0.007538 -0.258290 -0.226051 -0.081389 -0.103175 0.427534 0.229696 0.495499 0.458374 -0.021195 -0.333720 -0.496973 -0.154510 0.256207 0.461860 0.329754 0.710134 -0.383870 0.269743 -0.226510 -0.052353 -0.686355 -0.371668 -0.121137 0.115849 0.368253 0.219725 0.018600 -0.066058 -0.321926 0.259173 -0.352461 0.371350 0.164422 0.105391 0.209712 0.061734 -0.312178 -0.414319 -0.086089 -0.309730 0.250615 0.337531 0.276962 -0.034493 -0.187413 -0.064373 -0.166893 -0.254491 0.127446 -0.610284 0.002725 -0.226630 0.418153 0.153158 0.213031 0.491937 0.546821 0.285265 0.461202 -0.284928 -0.570998 -0.168373 0.146376 -0.113995 0.008014 0.085254 0.231211 0.180013 -0.057471 0.422681 -0.114676 -0.391672 -0.298974 0.096375 -0.288455 -0.493559 0.131937 
3214 0.324865 -0.024242 0.125167 -0.095599 0.027099 -0.002633 -0.073772 0.150502 0.153740 -0.105876 0.186843 -0.253613 -0.268014 -0.028668 -0.146521 -0.355155 0.166885 0.207708 0.158348 -0.329796 -0.180989 0.259218 0.217227 -0.000871 -0.225540 -0.060364 -0.326567 0.393282 0.067108 0.360204 0.190615 -0.489447 -0.150473 -0.419612 -0.127056 0.294008 0.501631 -0.062289 0.434313 -0.100262 0.042190 -0.073178 0.029906 -0.512814 -0.155239 -0.096922 -0.009814 -0.011986 -0.012947 0.232393 0.134086 -0.121093 0.255719 -0.248799 -0.062959 -0.170633 0.302125 -0.074318 -0.082404 -0.115695 -0.479385 -0.183208 -0.131558 -0.060230 0.016259 0.009692 -0.010039 -0.068430 0.221692 -0.155090 -0.223984 -0.210654 -0.142221 -0.100476 0.149880 0.304600 0.268395 0.052796 0.258182 0.374230 0.294486 0.123101 -0.002679 -0.167251 0.018578 -0.029482 -0.278665 0.026400 -0.229954 0.257521 0.210794 0.127565 0.341147 -0.065700 -0.175630 -0.084560 0.295116 -0.018761 -0.160299 0.161785 
3090 0.025856 -0.512906 0.102549 -0.467779 0.393885 0.454436 -0.071694 -0.224703 -0.188017 -0.545196 -0.094052 -0.309407 -0.159717 0.040882 0.156919 -0.316627 -0.074965 0.380958 -0.048905 -0.244896 -0.182669 -0.374703 -0.025980 0.028819 -0.103376 -0.060370 -0.416081 0.264445 -0.152530 -0.323431 0.581156 -0.286385 -0.054040 0.093654 0.368533 -0.311928 0.306769 -0.063394 0.114978 0.067511 -0.045335 -0.359407 0.176609 -0.046950 -0.479866 0.305015 0.162682 -0.105102 -0.185582 0.192592 -0.200021 0.657414 -0.356151 -0.002422 0.020593 -0.204727 -0.677511 -0.215585 -0.042200 0.275708 -0.128324 0.283505 -0.007759 0.165545 -0.091667 -0.136515 0.115974 -0.014621 0.279017 0.579919 -0.136217 0.176514 -0.186851 -0.111163 -0.173242 -0.444220 -0.143901 0.374431 0.177421 0.285905 -0.072638 0.239805 0.479773 -0.581800 0.037267 0.252093 -0.382610 0.096526 -0.000810 -0.066787 0.465137 -0.052955 0.005574 0.742689 0.424539 0.139472 -0.220039 0.353240 -0.231271 -0.131250 
2729 0.008152 -0.263236 -0.031913 -0.335511 0.140530 0.483202 -0.181255 -0.364033 -0.130072 -0.447398 -0.251718 -0.246077 -0.154227 0.215937 0.158893 -0.248964 -0.122686 0.472433 0.104538 -0.294794 -0.172328 -0.249450 -0.102960 -0.099441 0.172372 0.065567 -0.415506 0.203733 -0.131738 -0.110888 0.418668 -0.251869 0.089359 0.134467 0.159702 -0.377957 0.116521 -0.039717 0.299657 -0.053693 -0.062512 -0.405853 0.361444 -0.180705 -0.518887 0.142186 -0.005077 0.193097 -0.308253 0.294965 -0.171850 0.583960 -0.235182 -0.124078 -0.152418 -0.267354 -0.663113 -0.149090 -0.217198 0.318286 -0.158230 0.274313 -0.078344 0.127632 -0.103899 -0.217233 0.080548 -0.022637 0.368420 0.508688 -0.098758 0.249741 -0.244759 -0.013392 -0.199981 -0.271926 -0.060701 0.401071 0.349130 -0.076554 -0.003181 -0.053078 0.222778 -0.638506 0.130953 0.086019 -0.514422 -0.093949 0.274718 0.114673 0.375892 -0.103261 -0.050350 0.656223 0.523077 0.075260 0.058206 0.382911 -0.332421 -0.200801 
3085 0.226505 -0.422650 -0.054675 -0.168915 0.657206 -0.093427 0.120384 -0.067423 -0.024418 -0.431416 0.001712 -0.548406 -0.372832 0.170065 0.063448 -0.322720 -0.164654 0.527191 -0.116810 -0.337946 0.142960 -0.466062 0.244305 -0.180880 -0.276579 -0.127932 -0.320542 0.638840 -0.047090 -0.309262 0.686143 0.099419 -0.198796 -0.041308 0.260835 -0.094754 0.332827 -0.000934 -0.090524 0.115546 -0.051640 -0.386415 0.050520 -0.124580 -0.255760 0.232721 0.465239 -0.293577 -0.232019 0.127929 -0.065359 0.481324 -0.163153 -0.090401 -0.060463 -0.005840 -0.043612 -0.011144 0.298497 0.239175 0.217684 0.184449 0.479851 0.021161 -0.165756 0.042653 0.142076 -0.144067 0.340012 0.491721 -0.150437 -0.510033 -0.096517 0.024820 -0.093906 -0.510834 -0.202801 0.208794 0.160064 0.449830 0.098649 0.234947 0.502971 -0.357012 -0.406504 0.315042 -0.407316 0.318698 -0.047787 -0.078812 0.435962 0.140074 0.016772 0.390161 0.426216 -0.026934 -0.135692 -0.003067 -0.376356 -0.139833 
2966 0.156995 -0.612776 0.101103 -0.369364 0.699087 0.110597 0.037129 -0.120328 -0.126254 -0.556963 0.011240 -0.559949 -0.304814 0.106191 0.105149 -0.365026 -0.141033 0.470983 -0.124110 -0.301697 -0.003139 -0.480429 0.208315 -0.083718 -0.330403 -0.204046 -0.409810 0.610309 -0.151579 -0.450535 0.792320 -0.133031 -0.167792 0.023072 0.448002 -0.198809 0.393046 0.005373 -0.042615 0.149660 -0.034513 -0.471601 0.050196 -0.100179 -0.422922 0.339537 0.448010 -0.351250 -0.124274 0.177190 -0.169033 0.665433 -0.384136 -0.037064 0.047892 -0.023211 -0.313569 -0.110944 0.219722 0.313202 0.086743 0.223068 0.373237 0.075227 -0.203315 -0.016101 0.173571 -0.107942 0.360109 0.595539 -0.131280 -0.265851 -0.161061 -0.072321 -0.175366 -0.541232 -0.210396 0.379654 0.114327 0.533697 0.047592 0.353716 0.635754 -0.499161 -0.301355 0.374044 -0.407936 0.311146 -0.112712 -0.144782 0.553903 0.098739 0.002390 0.670702 0.449526 0.084552 -0.277555 0.144631 -0.354426 -0.111284 
3033 0.205634 -0.648391 0.145155 -0.375862 0.696594 0.082994 0.085805 -0.084627 -0.086568 -0.543508 0.086927 -0.577151 -0.303937 0.039148 0.088671 -0.366682 -0.124060 0.401926 -0.130270 -0.264457 0.006850 -0.434196 0.273143 -0.059486 -0.414650 -0.239195 -0.362768 0.621615 -0.143666 -0.439870 0.815942 -0.110660 -0.192484 -0.012767 0.464208 -0.135648 0.423544 -0.005230 -0.048997 0.187688 -0.030652 -0.409632 -0.016541 -0.084192 -0.348531 0.332072 0.506265 -0.422369 -0.069065 0.110620 -0.160932 0.576811 -0.334376 -0.000088 0.082910 0.029789 -0.245147 -0.099172 0.283505 0.272947 0.077575 0.204839 0.377337 0.055116 -0.228618 0.033600 0.184517 -0.128221 0.313119 0.552385 -0.158053 -0.293486 -0.130746 -0.101974 -0.127853 -0.496779 -0.233111 0.325531 0.042544 0.643303 0.063480 0.407509 0.618620 -0.419165 -0.342130 0.383769 -0.367910 0.356021 -0.195150 -0.181888 0.555816 0.094055 0.030958 0.629791 0.367373 0.064683 -0.317651 0.097111 -0.325697 -0.084922 
2919 0.228631 -0.494018 -0.016700 -0.266822 0.711535 -0.014587 0.122144 -0.067146 -0.096032 -0.465390 -0.002086 -0.544802 -0.324980 0.108721 0.106650 -0.341817 -0.159666 0.486077 -0.123687 -0.315824 0.082713 -0.460721 0.221973 -0.126006 -0.302846 -0.172748 -0.357649 0.605026 -0.065084 -0.353011 0.726153 -0.006512 -0.189829 0.006826 0.340736 -0.116914 0.396776 -0.008735 -0.082401 0.120643 -0.036554 -0.439905 0.013878 -0.071193 -0.328708 0.273645 0.422324 -0.285086 -0.239088 0.123512 -0.122870 0.564913 -0.255722 -0.081654 0.001749 0.003922 -0.152782 -0.052879 0.256867 0.274209 0.135551 0.149548 0.413106 0.077892 -0.137016 0.028590 0.176765 -0.062067 0.325198 0.509392 -0.158811 -0.407300 -0.111515 -0.005594 -0.101906 -0.520749 -0.173786 0.268255 0.113051 0.505799 0.052487 0.286234 0.556695 -0.379208 -0.341829 0.345428 -0.376433 0.324804 -0.088540 -0.104126 0.481007 0.103269 0.004278 0.480926 0.431190 0.060384 -0.165820 0.051723 -0.347108 -0.106693 
2893 0.123002 -0.077535 -0.049058 -0.047663 0.015651 0.016857 -0.006969 -0.031546 -0.010156 -0.072320 0.071394 -0.147320 -0.125939 -0.029363 -0.012435 -0.185836 -0.006436 0.178395 0.037600 -0.158935 -0.043722 -0.017521 0.041818 -0.044882 -0.079987 -0.027191 -0.092975 0.220244 0.021686 0.133867 0.199275 -0.127027 -0.065060 -0.099031 0.026981 0.035770 0.232198 -0.000709 0.162777 -0.084051 0.054757 -0.155291 -0.009931 -0.179211 -0.202940 -0.040110 0.035089 -0.008459 0.001133 0.065419 0.019454 0.024280 -0.041245 -0.076355 -0.029279 -0.048366 0.010170 0.027213 0.026582 -0.006115 -0.154829 -0.013697 -0.051843 0.049639 0.020466 -0.003611 0.015207 -0.074352 0.148680 0.040180 -0.136472 -0.072443 -0.162243 -0.023810 -0.037215 0.020864 0.032385 0.140600 0.120883 0.175441 0.148537 0.132959 -0.007663 -0.176853 0.008902 0.060996 -0.130628 0.059682 -0.026976 0.124502 0.086943 0.019866 0.078351 0.109760 -0.049951 -0.008055 0.046407 -0.009175 -0.109282 0.016491 
2771 0.172722 -0.062351 -0.004238 -0.075424 0.038358 0.010005 -0.039789 -0.007214 0.032785 -0.079806 0.087447 -0.197222 -0.136916 -0.007285 -0.025410 -0.223530 0.023055 0.148843 0.046384 -0.201395 -0.064170 0.016156 0.107268 -0.012185 -0.083862 -0.049643 -0.153688 0.254696 0.023243 0.175961 0.208474 -0.229730 -0.075391 -0.144735 0.034754 0.079248 0.294068 -0.031440 0.193672 -0.062970 0.053682 -0.141074 -0.006738 -0.231917 -0.187519 -0.042885 -0.012304 -0.066154 -0.011667 0.103981 0.058701 0.007239 0.015600 -0.087579 -0.069116 -0.061896 0.058477 0.008075 -0.002929 0.002103 -0.232998 -0.047051 -0.044836 0.017429 -0.005499 -0.023409 -0.006353 -0.062877 0.178251 0.024141 -0.160145 -0.123509 -0.123613 -0.039915 0.002892 0.045110 0.076577 0.121423 0.131095 0.212002 0.215782 0.114356 0.013426 -0.156007 0.028426 0.037552 -0.178195 0.044867 -0.086711 0.135642 0.099633 0.031692 0.117745 0.113564 -0.070414 -0.000596 0.119323 -0.016661 -0.100800 0.047605 
2749 0.170791 -0.442684 -0.012925 -0.243807 0.622927 0.033571 0.065331 -0.092136 -0.086967 -0.444602 -0.034713 -0.509693 -0.308586 0.100269 0.096169 -0.310034 -0.136020 0.456561 -0.096613 -0.290137 0.060273 -0.436980 0.195021 -0.113421 -0.255829 -0.139946 -0.348059 0.565401 -0.101130 -0.346041 0.683064 -0.029378 -0.177326 0.018627 0.312773 -0.121404 0.338181 -0.002667 -0.073819 0.102170 -0.054403 -0.417289 0.043684 -0.082825 -0.323632 0.254424 0.407449 -0.291155 -0.191126 0.142639 -0.118700 0.524918 -0.284492 -0.063546 -0.041656 -0.058519 -0.172667 -0.084488 0.220413 0.255413 0.140212 0.192850 0.375099 0.047056 -0.145050 0.009933 0.141571 -0.114345 0.308831 0.522282 -0.130028 -0.332571 -0.124513 -0.011639 -0.091392 -0.485476 -0.187794 0.251840 0.125698 0.427391 0.031557 0.235542 0.522888 -0.425604 -0.304080 0.321081 -0.382552 0.257464 -0.030577 -0.106559 0.449566 0.085034 0.000124 0.487957 0.432470 0.014192 -0.184058 0.087835 -0.335391 -0.089237 
2986 0.245460 -0.538307 -0.022553 -0.268254 0.756364 -0.008728 0.090072 -0.089699 -0.064960 -0.533157 -0.013436 -0.645586 -0.405739 0.167537 0.050730 -0.385527 -0.185330 0.539930 -0.127399 -0.376713 0.113804 -0.509933 0.255934 -0.185058 -0.315141 -0.188300 -0.408259 0.718392 -0.082418 -0.410611 0.842341 -0.033738 -0.203788 -0.013476 0.377800 -0.189318 0.393147 -0.005603 -0.084647 0.159604 -0.051946 -0.496945 0.073227 -0.137850 -0.381342 0.297837 0.514774 -0.343509 -0.224620 0.193175 -0.111444 0.615719 -0.279679 -0.111769 -0.069244 -0.013814 -0.177781 -0.039776 0.293868 0.335839 0.212192 0.205850 0.503176 0.054473 -0.240801 -0.008786 0.191182 -0.142705 0.389237 0.612311 -0.183908 -0.446558 -0.102938 0.009513 -0.107381 -0.580926 -0.268478 0.314095 0.169609 0.528955 0.077683 0.311014 0.637995 -0.452260 -0.416471 0.366457 -0.476128 0.332018 -0.050186 -0.105879 0.565758 0.116051 0.024461 0.582685 0.540877 0.013541 -0.200112 0.072087 -0.415456 -0.126727 
2829 0.387631 -0.179834 -0.187521 -0.087411 -0.051250 -0.321572 0.112059 -0.061068 -0.108006 -0.012852 -0.143076 -0.245243 -0.225997 0.066901 -0.085692 -0.682505 -0.400368 0.198029 0.304779 -0.074155 0.003090 -0.263598 0.082511 -0.129184 -0.071930 0.077227 -0.121520 0.462096 -0.122286 0.426525 0.354309 -0.253270 0.186228 0.131532 0.004944 -0.005388 0.515612 -0.123811 0.092537 -0.297082 0.192593 -0.412664 -0.117299 -0.066270 -0.571389 -0.349595 0.026906 -0.207206 0.143976 0.143457 0.202783 0.031303 -0.448819 0.023876 -0.533711 -0.114774 0.104744 0.273075 0.205426 0.147399 -0.434912 -0.074931 -0.142221 0.067738 -0.185064 -0.393647 0.389375 -0.408890 0.911146 -0.063543 -0.409039 -0.108287 -0.341892 -0.060097 -0.072193 -0.045089 0.023383 0.528361 -0.001699 0.158572 0.662903 0.257792 -0.134519 -0.083728 0.209388 -0.224679 -0.223742 0.186316 -0.146139 0.623707 -0.044069 0.066265 0.035374 0.579427 -0.190422 0.125798 0.076851 0.023982 0.028680 -0.111994 
2711 0.342048 -0.078566 -0.117872 -0.010282 -0.126886 -0.216842 0.049618 -0.064270 -0.060143 0.037601 -0.010942 -0.207834 -0.187386 -0.017681 -0.111942 -0.541275 -0.256162 0.144650 0.274216 -0.111438 -0.042849 -0.051623 0.079153 -0.105953 -0.091645 0.046984 -0.097806 0.350197 -0.042883 0.409037 0.240481 -0.230441 0.101020 -0.015441 -0.071725 0.084265 0.419609 -0.039518 0.212215 -0.264811 0.183015 -0.321808 -0.104416 -0.208613 -0.437459 -0.321731 -0.001440 -0.071195 0.177615 0.108160 0.142831 -0.114215 -0.214253 -0.043975 -0.337979 -0.067968 0.139503 0.235220 0.119481 0.047402 -0.429501 -0.119032 -0.191359 0.039251 -0.078490 -0.231139 0.258307 -0.285497 0.639515 -0.151444 -0.338674 -0.080202 -0.301779 -0.063869 -0.049101 0.121813 0.081997 0.388799 0.054332 0.161699 0.528205 0.210785 -0.205139 -0.078702 0.168362 -0.179917 -0.182195 0.121254 -0.109014 0.502385 -0.029597 0.046396 0.126160 0.332251 -0.292742 0.039376 0.131859 -0.054131 -0.037098 -0.042547 
2755 0.155717 -0.637830 0.104149 -0.365707 0.700266 0.096028 0.063802 -0.126323 -0.103747 -0.545891 0.006762 -0.589097 -0.319277 0.115867 0.060015 -0.370806 -0.155897 0.455600 -0.118078 -0.305737 0.034959 -0.479706 0.236390 -0.118704 -0.336869 -0.225651 -0.393363 0.639820 -0.125966 -0.432337 0.825075 -0.127644 -0.148066 0.031986 0.429793 -0.186437 0.370299 -0.001416 -0.050392 0.177904 -0.051703 -0.470314 0.051986 -0.152096 -0.424699 0.337217 0.469681 -0.372417 -0.097369 0.180203 -0.151002 0.627151 -0.364837 -0.044385 0.009119 -0.046467 -0.284100 -0.108096 0.247847 0.312837 0.131160 0.214409 0.369102 0.053010 -0.220156 -0.023764 0.172349 -0.143450 0.348965 0.623871 -0.143991 -0.269383 -0.163769 -0.040724 -0.151988 -0.535090 -0.248814 0.339976 0.117380 0.534851 0.043865 0.344498 0.647719 -0.492664 -0.317238 0.376702 -0.393889 0.281634 -0.074009 -0.142963 0.558880 0.111617 0.004459 0.650154 0.467697 0.043110 -0.273476 0.142992 -0.343961 -0.100289 
3149 0.128816 -0.614770 0.116120 -0.333172 0.662210 0.053454 0.103643 -0.060260 -0.116953 -0.490971 0.090715 -0.526398 -0.293644 0.030958 0.073429 -0.329324 -0.140001 0.382464 -0.123268 -0.266257 0.021250 -0.420374 0.208738 -0.056013 -0.404415 -0.231443 -0.351152 0.565929 -0.114516 -0.413529 0.760940 -0.093771 -0.189046 -0.010575 0.417421 -0.159983 0.393792 0.010171 -0.072383 0.160218 -0.000711 -0.399581 -0.028249 -0.099337 -0.329015 0.314474 0.449910 -0.386727 -0.028006 0.125082 -0.160093 0.570380 -0.324417 -0.014000 0.091899 0.030548 -0.250579 -0.085098 0.269366 0.288643 0.091774 0.179186 0.352633 0.097367 -0.184146 0.007631 0.180386 -0.127171 0.299038 0.524396 -0.153614 -0.286768 -0.127667 -0.075600 -0.150614 -0.458095 -0.202238 0.295177 0.036469 0.607255 0.053038 0.397434 0.589563 -0.408807 -0.283565 0.380811 -0.327385 0.307317 -0.172441 -0.139887 0.489761 0.094706 0.035426 0.588151 0.332747 0.041656 -0.316889 0.105600 -0.285198 -0.059802 
2887 0.054048 -0.294294 -0.088268 -0.309398 0.349007 0.326082 -0.117659 -0.274599 -0.125981 -0.471481 -0.223472 -0.342739 -0.242080 0.261150 0.138797 -0.259772 -0.123590 0.594756 -0.012371 -0.339328 -0.102453 -0.369812 -0.027053 -0.136166 0.107229 0.023532 -0.395556 0.340898 -0.105525 -0.178086 0.491451 -0.172394 -0.032976 0.109600 0.192457 -0.315950 0.199307 -0.053288 0.142252 -0.019441 -0.077107 -0.436703 0.318397 -0.112372 -0.493836 0.187805 0.129207 0.060947 -0.376306 0.286903 -0.129455 0.621908 -0.279431 -0.124887 -0.179099 -0.271372 -0.505973 -0.128949 -0.102498 0.292223 -0.037348 0.277755 0.071815 0.099737 -0.114227 -0.171370 0.087019 -0.049315 0.348371 0.560510 -0.120909 0.002485 -0.190975 0.038074 -0.183454 -0.416976 -0.078111 0.351261 0.341577 0.043395 -0.031531 -0.009651 0.330332 -0.616070 0.009178 0.180103 -0.503788 0.015807 0.199647 0.058900 0.420542 -0.033437 -0.076047 0.588267 0.591430 0.066509 0.017511 0.314773 -0.336164 -0.183720 
3247 0.236230 -0.117244 -0.066812 0.093093 -0.268882 0.408292 0.360973 -0.254820 -0.144179 -0.114869 0.464240 -0.065811 -0.537108 -0.414813 -0.054061 -0.385659 0.093240 0.566840 0.313308 -0.253337 -0.074287 0.351765 0.035137 -0.363493 -0.333239 -0.156031 -0.207563 0.485704 0.189596 0.406318 0.669390 0.269324 -0.417580 -0.510789 -0.219512 0.144090 0.401050 0.521242 0.696219 -0.382983 0.351657 -0.191812 -0.077427 -0.680169 -0.268324 0.035006 0.351336 0.562562 0.330141 -0.013513 -0.130557 -0.241066 0.311341 -0.392876 0.645623 0.356130 -0.063551 0.230844 0.255161 -0.314326 -0.339862 0.001219 -0.177590 0.259238 0.364634 0.391260 0.130093 -0.364579 -0.099732 -0.165458 -0.259942 0.407823 -0.738865 -0.074411 -0.350373 0.443450 0.011327 0.124104 0.587444 0.664512 0.251784 0.531632 -0.215644 -0.751029 -0.414658 0.214971 -0.088741 0.003230 0.201989 0.121046 0.365858 -0.028453 0.563852 -0.017188 -0.298198 -0.514743 -0.034281 -0.294159 -0.684629 0.100287 
3347 0.189830 0.010509 -0.270072 0.030545 -0.342721 0.281634 0.166074 -0.056096 -0.091299 -0.054395 0.389988 -0.036987 -0.460262 -0.369281 -0.079200 -0.232249 0.217287 0.678905 0.016592 -0.370189 -0.142728 0.240276 -0.181718 -0.264031 -0.213956 -0.042951 0.048021 0.417212 0.276769 0.547373 0.481999 0.061223 -0.445072 -0.511908 -0.134398 0.286197 0.568298 0.320134 0.600657 -0.459057 0.261000 -0.233960 -0.068850 -0.507297 -0.506597 -0.080098 0.128365 0.332560 0.187246 -0.043758 -0.035856 -0.282363 0.061529 -0.362229 0.356857 0.106658 0.004245 0.254719 0.120235 -0.396617 -0.356954 -0.015068 -0.368453 0.321799 0.492606 0.225542 -0.096396 -0.323258 -0.172126 -0.067938 -0.291196 0.127313 -0.688334 0.078918 -0.307180 0.241558 0.091562 0.194716 0.487134 0.551984 0.237053 0.497451 -0.268647 -0.653124 -0.176881 0.246633 0.027942 0.056121 0.140148 0.139194 0.161117 -0.136401 0.316326 -0.054987 -0.337949 -0.263641 0.053714 -0.280191 -0.456965 0.159907 
3065 0.246549 -0.513955 0.024620 -0.190212 0.706376 -0.110973 0.154813 -0.025483 -0.040887 -0.417580 0.107845 -0.572718 -0.355477 0.091939 0.029721 -0.331627 -0.144743 0.448084 -0.134388 -0.292486 0.126461 -0.423737 0.276270 -0.126756 -0.414677 -0.212633 -0.315746 0.654822 -0.062737 -0.368602 0.749684 0.038042 -0.224113 -0.041940 0.331397 -0.061586 0.370560 0.026050 -0.122358 0.158488 -0.002900 -0.384378 -0.049944 -0.128794 -0.266577 0.241440 0.535045 -0.383156 -0.108610 0.103719 -0.081249 0.468129 -0.225740 -0.034550 0.047829 0.069558 -0.030358 -0.008137 0.350969 0.222731 0.211903 0.160025 0.481055 0.050471 -0.189978 0.072477 0.164348 -0.147519 0.308018 0.461440 -0.165704 -0.482345 -0.110709 -0.039871 -0.100044 -0.474210 -0.224653 0.219034 0.082731 0.599367 0.115965 0.354876 0.538279 -0.307291 -0.414539 0.357436 -0.357960 0.376009 -0.145147 -0.126568 0.470617 0.137568 0.038850 0.427143 0.337887 -0.011713 -0.232739 -0.042955 -0.355359 -0.109865 
3286 0.140352 -0.278852 -0.097659 -0.160145 0.508004 0.003097 0.028536 -0.067581 -0.084749 -0.332076 -0.049767 -0.343881 -0.232147 0.139730 0.118246 -0.239301 -0.114903 0.433011 -0.104561 -0.275968 0.052258 -0.337802 0.119337 -0.124452 -0.118071 -0.046310 -0.274525 0.403645 -0.043120 -0.222557 0.412566 0.048604 -0.120501 -0.002662 0.181461 -0.093172 0.270703 -0.017545 -0.055398 0.029244 -0.047954 -0.315222 0.082996 -0.038497 -0.212236 0.154975 0.244520 -0.105475 -0.286939 0.132202 -0.084132 0.445477 -0.148264 -0.087078 -0.021190 -0.044191 -0.123419 -0.034321 0.132411 0.208149 0.063220 0.101210 0.281131 0.060324 -0.061896 0.004746 0.071449 0.002515 0.269933 0.350222 -0.132996 -0.318171 -0.079335 0.022866 -0.065991 -0.369111 -0.071403 0.174384 0.166332 0.250874 0.019318 0.114381 0.335113 -0.296135 -0.179703 0.193100 -0.325312 0.193009 -0.036321 -0.018268 0.304849 0.064174 -0.011393 0.310113 0.345131 0.053895 -0.025425 0.065220 -0.267969 -0.110171 
3419 0.240609 -0.020373 -0.020697 -0.041361 -0.226245 0.314819 0.268602 0.028306 -0.033095 -0.135614 0.412650 0.089066 -0.576942 -0.279895 -0.138018 -0.323994 0.211792 0.691973 0.226547 -0.256052 -0.216116 0.320916 -0.053003 -0.250001 -0.254012 -0.054197 -0.184699 0.427116 0.214031 0.445306 0.504230 0.064133 -0.520645 -0.481151 -0.246344 0.269472 0.576265 0.314740 0.576400 -0.332748 0.197822 -0.036350 0.000813 -0.561168 -0.242109 0.114206 0.302532 0.373863 0.198518 0.056387 0.088701 -0.230957 0.239473 -0.403544 0.439790 0.123766 0.086696 0.116169 0.188018 -0.402047 -0.343691 -0.070716 -0.283541 0.233790 0.441927 0.216596 0.090402 -0.426844 -0.137791 -0.187328 -0.158591 0.156133 -0.631037 0.032480 -0.248275 0.334904 0.127390 0.025922 0.538876 0.603423 0.159518 0.420138 -0.130551 -0.662871 -0.351977 0.170366 -0.014365 -0.042836 0.043675 0.110874 0.255306 0.012075 0.471070 -0.137688 -0.177758 -0.360731 0.047370 -0.190096 -0.502302 0.194929 
3319 0.203259 -0.039478 -0.084565 0.111089 -0.186941 0.073111 0.097623 -0.204950 -0.051150 0.005850 0.205416 -0.172471 -0.194276 -0.186390 -0.007315 -0.307748 -0.032759 0.124327 0.190114 -0.172442 0.002515 0.152323 0.058029 -0.149783 -0.153401 -0.057236 -0.117191 0.263692 0.076945 0.325237 0.315012 0.000038 -0.037039 -0.199210 -0.088092 0.055198 0.217193 0.190260 0.430630 -0.233700 0.217917 -0.230005 -0.057559 -0.414096 -0.241320 -0.179914 0.049548 0.231678 0.187691 -0.001196 -0.072081 -0.148268 0.114700 -0.118739 0.125596 0.135002 0.023353 0.163583 0.060293 -0.062409 -0.306409 -0.058936 -0.122263 0.101861 0.045480 0.118657 0.060122 -0.107068 0.185115 -0.084013 -0.232498 0.154357 -0.385452 -0.097087 -0.101232 0.312266 0.011034 0.219555 0.221859 0.259066 0.315643 0.273076 -0.244572 -0.272858 -0.056098 0.029485 -0.138955 0.029468 0.061663 0.243682 0.124254 0.009080 0.268618 0.086396 -0.320984 -0.172293 0.070003 -0.182934 -0.264652 -0.001554 
3046 0.230603 -0.096664 -0.039498 0.141144 -0.104223 0.196308 0.106253 -0.393535 -0.104741 -0.050944 0.265108 -0.264072 -0.088086 -0.257424 -0.000254 -0.331537 -0.015720 0.015883 0.198801 -0.235106 0.042069 0.205751 0.179888 -0.130013 -0.201486 -0.169271 -0.211617 0.279352 0.047858 0.177285 0.345283 0.059549 0.026903 -0.210114 -0.034231 -0.063712 0.032759 0.300181 0.536462 -0.118604 0.225313 -0.343973 -0.037706 -0.579543 -0.216710 -0.208640 0.126571 0.303419 0.205842 0.000083 -0.245787 -0.113963 0.339400 -0.120259 0.310470 0.241773 -0.047789 0.155309 0.002220 0.069383 -0.247037 -0.056892 0.031459 0.092630 0.017604 0.263229 0.009579 0.110219 0.103997 -0.020782 -0.227795 0.173109 -0.321815 -0.102877 -0.118309 0.436264 -0.033458 0.260361 0.330989 0.305978 0.359134 0.230967 -0.231106 -0.328745 -0.079341 0.084541 -0.255006 0.108153 0.073697 0.103110 0.273708 0.046697 0.311918 0.086704 -0.306458 -0.268962 0.121669 -0.212782 -0.405615 -0.058613 
2773 0.042691 -0.506631 0.049274 -0.432839 0.439325 0.372628 -0.116642 -0.256910 -0.152294 -0.577758 -0.164858 -0.398778 -0.211370 0.172604 0.140571 -0.295564 -0.165834 0.497966 -0.050852 -0.285397 -0.137810 -0.409886 0.058494 -0.091952 -0.046038 -0.066386 -0.417713 0.400928 -0.148620 -0.296190 0.639989 -0.237176 -0.046061 0.113735 0.356332 -0.354364 0.297697 -0.037551 0.102413 0.060839 -0.085788 -0.463460 0.235681 -0.132094 -0.487186 0.317203 0.216769 -0.092715 -0.225367 0.230619 -0.191248 0.680439 -0.355747 -0.081373 -0.071250 -0.216993 -0.565024 -0.198368 -0.027405 0.341674 -0.051987 0.282302 0.084943 0.111465 -0.146333 -0.152387 0.131051 -0.100467 0.369947 0.654845 -0.070812 0.055351 -0.159128 0.003693 -0.219580 -0.460860 -0.134640 0.402642 0.214847 0.247481 -0.031213 0.142650 0.520168 -0.655492 -0.049916 0.255457 -0.455029 0.079345 0.093543 -0.059905 0.490239 0.032204 -0.050718 0.695010 0.528643 0.122900 -0.136811 0.359855 -0.332590 -0.126450 
2666 0.106741 -0.653214 0.174624 -0.391964 0.638171 0.119872 0.083422 -0.089308 -0.137538 -0.502697 0.103346 -0.496398 -0.274635 -0.009774 0.068349 -0.327147 -0.121688 0.312985 -0.143244 -0.228352 -0.006020 -0.376380 0.207734 -0.032174 -0.409778 -0.253301 -0.347494 0.510827 -0.135913 -0.420167 0.799796 -0.174564 -0.157716 0.002952 0.467474 -0.181281 0.424431 0.007530 -0.071655 0.157986 -0.005990 -0.413992 -0.069024 -0.058794 -0.376852 0.329344 0.435882 -0.380502 0.018856 0.093221 -0.198216 0.570984 -0.385973 0.035695 0.097865 0.018147 -0.302939 -0.115430 0.238716 0.276484 0.067574 0.182620 0.307998 0.122002 -0.183555 0.010985 0.194870 -0.117053 0.293072 0.522922 -0.137900 -0.182196 -0.136384 -0.093856 -0.161924 -0.457379 -0.214775 0.326398 0.005001 0.630296 0.039258 0.449107 0.605210 -0.424930 -0.253456 0.355320 -0.273370 0.301940 -0.178375 -0.185106 0.509984 0.091362 0.061573 0.645703 0.296682 0.078622 -0.383818 0.135410 -0.278951 -0.036072 
2706 0.241608 -0.338062 -0.208207 -0.163529 0.748195 -0.089160 0.084485 -0.043485 -0.083355 -0.434007 -0.085081 -0.520766 -0.363737 0.220085 0.167276 -0.326758 -0.164354 0.634187 -0.158342 -0.403259 0.147129 -0.500600 0.192368 -0.208161 -0.161219 -0.049277 -0.366020 0.611498 -0.021103 -0.307841 0.589072 0.143784 -0.214122 -0.003608 0.210671 -0.095732 0.369589 -0.003255 -0.114617 0.059573 -0.056897 -0.460513 0.107706 -0.034845 -0.262698 0.195733 0.373998 -0.160929 -0.445329 0.192031 -0.078635 0.593516 -0.184116 -0.143387 -0.064092 -0.045268 -0.070738 0.000244 0.253939 0.292940 0.176716 0.133686 0.484307 0.092859 -0.102259 0.054690 0.110112 0.000466 0.376635 0.475899 -0.212077 -0.571514 -0.118234 0.041560 -0.069507 -0.508781 -0.113361 0.207059 0.254277 0.357227 0.034775 0.155101 0.441981 -0.374352 -0.334842 0.285491 -0.489377 0.309130 -0.034321 -0.017179 0.420066 0.092470 -0.037059 0.347846 0.528492 0.013729 -0.013349 0.025571 -0.399216 -0.165025 
2940 0.238801 -0.459783 -0.032417 -0.221912 0.687932 -0.038487 0.093112 -0.104416 -0.064267 -0.458975 -0.048376 -0.579407 -0.370347 0.191040 0.062804 -0.327331 -0.131365 0.530824 -0.097073 -0.343303 0.117504 -0.458923 0.219634 -0.183517 -0.283704 -0.155141 -0.364294 0.666632 -0.070752 -0.367416 0.732666 -0.008893 -0.180880 0.015651 0.308233 -0.125001 0.312725 0.003439 -0.065519 0.147873 -0.060214 -0.453468 0.076503 -0.127260 -0.349817 0.278214 0.471068 -0.308415 -0.248776 0.191795 -0.093007 0.537968 -0.270646 -0.100842 -0.090828 -0.033079 -0.122078 -0.034487 0.259271 0.283761 0.195943 0.172192 0.437378 0.021352 -0.195426 0.000296 0.171000 -0.109568 0.354223 0.550823 -0.180713 -0.428757 -0.116399 -0.007833 -0.081882 -0.517947 -0.211998 0.273602 0.171208 0.451697 0.061270 0.225524 0.538217 -0.404833 -0.370916 0.341236 -0.458583 0.267631 0.002237 -0.083345 0.512612 0.097643 -0.008290 0.496723 0.507322 -0.016825 -0.151453 0.045333 -0.381839 -0.111006 
2852 0.132342 -0.264100 -0.012377 -0.129974 0.400547 -0.024052 0.064532 -0.040896 -0.032553 -0.255702 0.005024 -0.318258 -0.210989 0.077725 0.039894 -0.209391 -0.083662 0.288546 -0.068037 -0.192962 0.059087 -0.261902 0.140905 -0.087541 -0.175137 -0.097093 -0.202245 0.365497 -0.036392 -0.195883 0.406105 0.000578 -0.120414 -0.007614 0.185300 -0.066209 0.216306 0.000549 -0.049818 0.069027 -0.019394 -0.245123 0.009796 -0.061221 -0.179522 0.144370 0.268345 -0.187362 -0.120266 0.081034 -0.051536 0.295956 -0.142819 -0.046907 -0.019435 -0.019621 -0.054964 -0.025631 0.171618 0.140589 0.108364 0.105014 0.261792 0.036402 -0.104492 0.012488 0.088547 -0.075961 0.187845 0.291160 -0.099825 -0.260112 -0.067000 -0.000098 -0.057876 -0.282997 -0.125508 0.146548 0.091508 0.280568 0.042278 0.159088 0.311226 -0.232056 -0.205124 0.192116 -0.230366 0.184517 -0.035898 -0.054347 0.276338 0.071043 0.001947 0.272834 0.245967 0.009473 -0.092658 0.016859 -0.201545 -0.061862 
3226 0.213198 -0.634827 0.089488 -0.312049 0.738092 -0.008094 0.115084 -0.057684 -0.092320 -0.509028 0.074249 -0.602194 -0.350484 0.046760 0.068950 -0.362623 -0.138601 0.425247 -0.146668 -0.285279 0.057450 -0.458256 0.278635 -0.104637 -0.420656 -0.248887 -0.352439 0.657848 -0.111089 -0.429570 0.826346 -0.062753 -0.221077 -0.017433 0.423807 -0.115212 0.429801 0.003587 -0.104268 0.176865 -0.018917 -0.435996 -0.053559 -0.099807 -0.371127 0.320413 0.530697 -0.439390 -0.071953 0.116454 -0.151328 0.564267 -0.351136 -0.014076 0.068734 0.039942 -0.168755 -0.076092 0.319784 0.274375 0.152803 0.165927 0.430243 0.067227 -0.203998 0.036404 0.208366 -0.132426 0.315635 0.523456 -0.176088 -0.386656 -0.138228 -0.072973 -0.117415 -0.526018 -0.239589 0.308040 0.051988 0.661256 0.087227 0.417375 0.619257 -0.397116 -0.357930 0.400322 -0.347951 0.354633 -0.182191 -0.149977 0.529294 0.119308 0.034270 0.577292 0.352098 0.039705 -0.305270 0.046513 -0.330481 -0.071000 
3316 0.209230 -0.101038 0.014078 0.026350 -0.183779 0.314628 0.340072 -0.169892 -0.098236 -0.113597 0.356348 0.004086 -0.487696 -0.285144 -0.036229 -0.353676 0.055553 0.450965 0.335081 -0.162740 -0.053727 0.275476 0.036155 -0.310719 -0.282761 -0.105163 -0.231181 0.389507 0.140269 0.338677 0.558612 0.286257 -0.352346 -0.397687 -0.249725 0.118583 0.355963 0.428783 0.544169 -0.297906 0.274168 -0.109488 -0.042177 -0.535848 -0.146448 0.078459 0.350994 0.465337 0.277136 0.028180 -0.041925 -0.169837 0.266302 -0.308527 0.496019 0.303394 -0.059141 0.168938 0.252319 -0.230282 -0.269899 -0.045186 -0.112439 0.193250 0.284920 0.256282 0.222870 -0.392394 -0.024692 -0.187666 -0.156022 0.360014 -0.615530 -0.052257 -0.252544 0.365803 -0.018072 0.038087 0.478785 0.554546 0.220022 0.421529 -0.152664 -0.578149 -0.389987 0.104481 -0.073500 -0.011270 0.151427 0.092264 0.311066 0.011862 0.512142 -0.021935 -0.167076 -0.439450 -0.006925 -0.202022 -0.537727 0.062161 
3050 0.234378 -0.046109 0.006113 -0.057317 0.002103 -0.002376 -0.011043 0.041170 0.061061 -0.078557 0.113700 -0.095882 -0.190286 -0.022184 -0.084740 -0.285521 0.054644 0.221266 0.126608 -0.204188 -0.138658 0.073975 0.063741 -0.031012 -0.137135 0.008595 -0.184083 0.235468 0.050004 0.215372 0.190601 -0.223936 -0.135439 -0.163103 -0.091925 0.129838 0.330664 -0.024292 0.268289 -0.111840 0.036784 -0.117575 0.033574 -0.271704 -0.179803 -0.046383 0.075120 0.063620 -0.003156 0.115222 0.083912 -0.048726 0.076363 -0.143577 -0.052148 -0.085873 0.126579 -0.013006 -0.010423 -0.110679 -0.280065 -0.072121 -0.118500 0.034560 0.055812 0.025014 0.041062 -0.089457 0.180668 -0.044702 -0.146727 -0.117462 -0.176858 -0.060359 0.008784 0.129600 0.126133 0.085918 0.164687 0.228297 0.164233 0.150450 -0.041965 -0.211545 0.002015 0.020245 -0.161506 0.000688 -0.120486 0.198355 0.122375 0.105329 0.205232 0.004677 -0.101968 -0.029430 0.095237 -0.023979 -0.118592 0.088797 
2667 0.217501 -0.029326 -0.014167 -0.025632 -0.048468 -0.017277 -0.060249 -0.010436 0.043514 -0.062883 0.133084 -0.190085 -0.140051 -0.060475 -0.046246 -0.275836 0.053482 0.168629 0.090528 -0.226793 -0.119297 0.113422 0.098438 -0.012069 -0.124807 -0.027399 -0.128668 0.248675 0.063038 0.286403 0.178199 -0.258476 -0.060679 -0.205128 -0.061672 0.126704 0.336892 -0.005469 0.285301 -0.147578 0.075773 -0.170067 0.003034 -0.329375 -0.213555 -0.154803 -0.004651 0.041185 0.046331 0.113671 0.048899 -0.077699 0.062528 -0.133384 -0.075965 -0.059492 0.109787 0.045706 -0.047460 -0.065840 -0.312565 -0.099639 -0.122784 0.048318 0.025465 0.025797 -0.001589 -0.061844 0.189966 -0.033343 -0.177978 -0.134136 -0.192855 -0.060387 0.033305 0.144074 0.129765 0.134522 0.156047 0.212468 0.205483 0.163147 -0.094916 -0.149377 0.052355 0.013701 -0.156174 0.015191 -0.079290 0.229706 0.087893 0.049973 0.193100 0.023654 -0.178501 0.001152 0.148868 -0.050609 -0.119395 0.088201 
3117 0.258220 -0.227107 0.091114 -0.097056 0.348657 -0.099779 0.024333 0.051157 0.169740 -0.228817 0.185075 -0.486369 -0.178892 0.019184 0.017095 -0.185744 -0.016984 0.070327 -0.095682 -0.199878 0.045912 -0.058780 0.326557 -0.062181 -0.274879 -0.153199 -0.236736 0.405814 -0.011853 -0.150427 0.315446 -0.124792 -0.126096 -0.184365 0.159511 0.061002 0.183549 0.040101 0.098089 0.167421 0.017979 -0.163693 -0.012476 -0.307444 0.021606 0.047600 0.280049 -0.239933 -0.057595 0.129065 -0.079271 0.145371 0.151215 -0.142761 0.029247 0.087231 0.174888 -0.070183 0.162799 0.152865 0.024618 0.011063 0.444696 -0.036585 -0.246369 0.133810 -0.024929 0.104234 0.144416 0.144641 -0.080672 -0.380325 0.076336 -0.070634 0.175485 -0.081460 -0.040551 0.048311 0.062563 0.360634 0.130856 0.117389 0.261178 -0.025467 -0.300328 0.141003 -0.280986 0.158767 -0.187444 -0.071706 0.308992 0.104195 0.160605 0.076453 0.063343 -0.100601 0.009816 -0.117402 -0.243293 0.021071 
3173 0.161772 -0.032533 -0.057369 -0.021296 -0.020926 0.015794 0.001596 0.004885 0.036209 -0.078638 0.139366 -0.133861 -0.163003 -0.055548 -0.052768 -0.168996 0.066432 0.234777 0.021547 -0.199854 -0.076244 0.039325 0.041351 -0.040052 -0.128326 -0.025423 -0.083766 0.245423 0.065970 0.155517 0.197569 -0.122732 -0.134039 -0.178977 -0.009873 0.101144 0.273853 0.012604 0.222247 -0.096780 0.056987 -0.117055 0.001689 -0.233263 -0.180420 -0.031328 0.062220 0.026804 0.004406 0.046911 0.046832 -0.023062 0.021663 -0.124805 0.027459 -0.032724 0.099606 0.035219 0.029061 -0.114656 -0.180120 -0.027918 -0.073045 0.057426 0.073161 0.071792 -0.039451 -0.060003 0.066104 0.017781 -0.149007 -0.108989 -0.162955 -0.021299 -0.034011 0.073044 0.072778 0.084217 0.146914 0.231238 0.116195 0.152141 -0.029879 -0.203000 -0.055761 0.085799 -0.105704 0.028407 -0.063745 0.113426 0.100113 0.044861 0.134628 0.021932 -0.100579 -0.047309 0.032545 -0.061910 -0.137569 0.078190 
2913 0.118298 -0.564889 0.130532 -0.338715 0.571250 0.150603 0.074229 -0.103416 -0.131626 -0.466044 0.078390 -0.433602 -0.218578 -0.000211 0.103737 -0.302853 -0.138183 0.301908 -0.095946 -0.225515 -0.012454 -0.342183 0.192332 -0.070195 -0.353979 -0.214540 -0.347662 0.457001 -0.106061 -0.383597 0.681639 -0.112227 -0.118987 -0.001500 0.398869 -0.174559 0.361192 0.040736 -0.016283 0.151903 -0.005165 -0.386789 -0.027685 -0.075463 -0.311824 0.305831 0.383662 -0.267419 -0.043173 0.098400 -0.191779 0.546726 -0.277415 -0.007938 0.124174 0.022633 -0.282663 -0.104543 0.203340 0.266984 0.035267 0.150710 0.304039 0.108420 -0.169615 0.027823 0.163001 -0.046884 0.242487 0.463203 -0.115854 -0.148233 -0.134303 -0.071150 -0.143644 -0.364694 -0.202475 0.273420 0.039724 0.542414 0.005581 0.355947 0.509542 -0.396543 -0.246035 0.298777 -0.279980 0.249501 -0.144421 -0.165957 0.459614 0.060042 0.048597 0.527066 0.310222 0.061243 -0.276812 0.123484 -0.290778 -0.043164 
2676 0.227727 -0.614364 0.091153 -0.280632 0.740699 -0.033431 0.145615 -0.039938 -0.087067 -0.485895 0.116139 -0.599934 -0.356829 0.044386 0.055364 -0.364823 -0.141524 0.435410 -0.143567 -0.289686 0.081041 -0.457702 0.281616 -0.087809 -0.453726 -0.228373 -0.348025 0.660172 -0.123336 -0.419427 0.829188 -0.041531 -0.236659 -0.043302 0.425463 -0.089540 0.415101 0.012110 -0.102353 0.166866 -0.001873 -0.409013 -0.076564 -0.081596 -0.325550 0.289041 0.568510 -0.464746 -0.059609 0.088056 -0.138152 0.530310 -0.298387 -0.003237 0.070111 0.062546 -0.128651 -0.059157 0.361127 0.248660 0.159376 0.198725 0.463991 0.067506 -0.211590 0.063146 0.177564 -0.154831 0.317146 0.493019 -0.175120 -0.404619 -0.146207 -0.095866 -0.111515 -0.522790 -0.260303 0.281442 0.060533 0.690644 0.094986 0.440040 0.608338 -0.372270 -0.401280 0.403730 -0.338288 0.404873 -0.195360 -0.168294 0.519110 0.113257 0.044366 0.565309 0.340395 0.028965 -0.329256 0.008712 -0.343152 -0.085498 
2878 0.194463 -0.046136 -0.037477 -0.027820 -0.041768 0.009720 0.009509 -0.026822 0.006671 -0.070707 0.101398 -0.137305 -0.173671 -0.044553 -0.053398 -0.238996 0.003392 0.188771 0.082096 -0.180409 -0.082203 0.057176 0.062766 -0.051013 -0.110998 -0.013739 -0.131072 0.239153 0.037012 0.200907 0.222159 -0.158879 -0.087641 -0.139287 -0.033754 0.085015 0.277949 0.025410 0.239277 -0.112972 0.074550 -0.140673 -0.010804 -0.255712 -0.188656 -0.087431 0.048474 0.033609 0.042394 0.080818 0.026157 -0.038587 0.013355 -0.107712 -0.042117 -0.039661 0.093372 0.047032 0.006972 -0.051764 -0.238556 -0.063147 -0.091877 0.055403 0.041648 0.005749 0.050346 -0.086108 0.167505 -0.028610 -0.158606 -0.065751 -0.198655 -0.035765 -0.015984 0.124843 0.071118 0.157509 0.158389 0.199274 0.186317 0.142764 -0.049729 -0.182216 -0.004680 0.018361 -0.132500 0.022499 -0.059472 0.182623 0.092658 0.057741 0.161008 0.071872 -0.121284 -0.027344 0.072742 -0.040269 -0.139511 0.039050 
3249 0.279528 -0.038850 -0.024344 -0.013108 -0.041044 -0.115522 -0.058325 -0.032854 0.038277 -0.033598 0.089288 -0.194444 -0.134743 -0.002488 -0.071235 -0.366949 -0.060833 0.115405 0.184482 -0.213439 -0.096160 0.046527 0.128782 -0.025734 -0.128366 0.004337 -0.162271 0.263801 0.018584 0.286905 0.199534 -0.287803 -0.004942 -0.107612 -0.104938 0.108454 0.343539 -0.040800 0.287383 -0.146300 0.091438 -0.231634 -0.023528 -0.283149 -0.249290 -0.193278 -0.003589 0.008257 0.061636 0.120704 0.094548 -0.072184 -0.010415 -0.073287 -0.200275 -0.080009 0.155821 0.075790 -0.011554 -0.014972 -0.362966 -0.131450 -0.153461 0.015608 -0.040008 -0.072381 0.100792 -0.091117 0.360117 -0.073299 -0.215081 -0.137310 -0.197239 -0.076338 0.034964 0.180772 0.103102 0.220156 0.109097 0.156488 0.294705 0.130617 -0.132203 -0.097703 0.110750 -0.063291 -0.202676 0.037515 -0.126886 0.310299 0.044728 0.119378 0.183148 0.120609 -0.223427 0.039934 0.162928 -0.009054 -0.053971 0.042549 
2897 0.244812 -0.484933 0.013528 -0.233435 0.670648 -0.054838 0.125348 -0.051163 -0.038519 -0.437660 0.026855 -0.568221 -0.329516 0.125124 0.033023 -0.343695 -0.143979 0.436796 -0.116337 -0.303602 0.097066 -0.438845 0.243354 -0.147423 -0.323684 -0.176867 -0.320443 0.629378 -0.053940 -0.358915 0.721775 -0.018057 -0.193743 -0.024872 0.326607 -0.090267 0.352120 0.015018 -0.073057 0.168022 -0.022971 -0.406198 0.004454 -0.119105 -0.307324 0.261916 0.474161 -0.339596 -0.164148 0.137838 -0.066973 0.508418 -0.247740 -0.070084 0.007548 0.004931 -0.088545 -0.049306 0.301882 0.238156 0.180230 0.147095 0.455671 0.041588 -0.208094 0.028722 0.161967 -0.122968 0.291064 0.484950 -0.171300 -0.428359 -0.106125 0.000203 -0.068912 -0.480551 -0.222820 0.239921 0.117679 0.508845 0.085141 0.315763 0.530693 -0.361460 -0.365050 0.343908 -0.389005 0.312518 -0.098159 -0.095192 0.465871 0.110692 0.010045 0.451823 0.400580 0.006610 -0.180605 0.011442 -0.338176 -0.081708 
3119 0.038565 -0.449140 0.028129 -0.430202 0.411318 0.409947 -0.143068 -0.269353 -0.121986 -0.561691 -0.172078 -0.407612 -0.233812 0.231447 0.126168 -0.285526 -0.147041 0.553585 -0.020294 -0.338046 -0.122249 -0.405235 0.016255 -0.114164 0.015449 -0.041224 -0.445090 0.408420 -0.142225 -0.300843 0.622664 -0.262382 -0.025647 0.104527 0.336991 -0.362731 0.262522 -0.029639 0.149103 0.062389 -0.084402 -0.469863 0.304821 -0.144135 -0.515101 0.298509 0.180616 -0.025828 -0.283644 0.307745 -0.169762 0.732898 -0.344438 -0.103783 -0.118744 -0.241183 -0.599357 -0.188889 -0.058814 0.370736 -0.031930 0.313673 0.108546 0.140416 -0.171494 -0.178509 0.117762 -0.053856 0.391717 0.663023 -0.083248 0.062165 -0.201317 0.022346 -0.206972 -0.438747 -0.131324 0.406197 0.289821 0.175354 -0.035221 0.089735 0.451987 -0.668547 -0.031975 0.247610 -0.539347 0.026622 0.163223 -0.023948 0.496438 -0.009194 -0.075918 0.705703 0.607834 0.085965 -0.086376 0.371297 -0.358461 -0.153764 
3204 0.179747 0.013545 -0.240777 0.062807 -0.340924 0.191060 0.127831 -0.063610 -0.077945 -0.044117 0.318296 -0.068962 -0.325784 -0.316967 -0.073092 -0.245689 0.131851 0.498335 0.070253 -0.261875 -0.113641 0.191219 -0.163529 -0.229203 -0.191493 -0.020175 0.042046 0.363570 0.194355 0.478205 0.388043 0.039489 -0.289208 -0.380031 -0.057863 0.222020 0.425935 0.253788 0.458113 -0.398859 0.236886 -0.199410 -0.052576 -0.438097 -0.429767 -0.139001 0.075984 0.224628 0.198722 -0.026869 -0.036480 -0.253375 0.020574 -0.295419 0.230776 0.110580 0.027840 0.244919 0.118918 -0.266318 -0.333971 -0.008570 -0.272742 0.245743 0.332044 0.137936 -0.053525 -0.253755 -0.034446 -0.069417 -0.285434 0.097989 -0.527986 0.062750 -0.215756 0.219459 0.064474 0.210807 0.337931 0.420719 0.270489 0.404468 -0.247356 -0.490934 -0.102332 0.146716 0.019141 0.067319 0.092882 0.155591 0.120407 -0.144844 0.263885 -0.011385 -0.350596 -0.217724 0.064963 -0.267230 -0.356330 0.102192 
3351 0.235738 -0.031075 -0.137113 0.049400 -0.316105 0.415731 0.287388 -0.147575 -0.112468 -0.113971 0.481617 -0.059593 -0.542691 -0.431297 -0.089295 -0.308969 0.198920 0.671651 0.175371 -0.330910 -0.149119 0.343001 -0.081086 -0.296022 -0.296343 -0.082972 -0.128344 0.486470 0.245269 0.476241 0.603970 0.140151 -0.486360 -0.579786 -0.158552 0.237402 0.483442 0.442031 0.686116 -0.414496 0.312637 -0.165743 -0.055119 -0.691228 -0.355574 0.029934 0.279305 0.460774 0.264550 -0.002600 -0.070908 -0.260023 0.264088 -0.441279 0.591179 0.234742 0.020996 0.199734 0.175483 -0.408335 -0.374867 -0.002616 -0.271317 0.278946 0.453267 0.361766 -0.015090 -0.321021 -0.191194 -0.147400 -0.270172 0.261117 -0.720026 -0.002561 -0.310603 0.402112 0.105907 0.132635 0.584786 0.680637 0.210088 0.534484 -0.241477 -0.776980 -0.348057 0.250335 -0.053335 0.010360 0.137756 0.126737 0.279312 -0.064772 0.495423 -0.076586 -0.318480 -0.437482 0.012631 -0.302693 -0.631929 0.180128 
2801 0.282993 -0.048168 -0.016326 -0.071029 0.050142 -0.121479 -0.116009 0.037848 0.087362 -0.069255 0.044426 -0.170470 -0.149023 0.073675 -0.080179 -0.355317 -0.011156 0.206379 0.117364 -0.267288 -0.171610 -0.037437 0.085636 0.033545 -0.133845 0.046869 -0.188551 0.268966 0.011999 0.237618 0.178496 -0.383671 -0.057926 -0.063167 -0.113372 0.104651 0.407050 -0.152533 0.230424 -0.093452 0.005582 -0.233236 0.021956 -0.225847 -0.261765 -0.135736 0.027373 -0.019778 -0.049942 0.143210 0.138238 0.010107 -0.061493 -0.056347 -0.280793 -0.189196 0.181290 -0.023135 -0.060076 -0.052492 -0.314516 -0.118984 -0.207744 0.022743 -0.016820 -0.105662 0.088657 -0.064639 0.361286 0.003049 -0.171159 -0.262641 -0.158345 -0.088774 0.065590 0.100074 0.141202 0.196291 0.129176 0.157372 0.217933 0.115388 -0.061923 -0.143389 0.134094 -0.006205 -0.217096 0.017113 -0.188555 0.330629 0.026716 0.189896 0.144739 0.088152 -0.145031 0.123516 0.126293 0.059972 0.005003 0.059787 
3256 0.405554 -0.039212 0.081165 -0.105030 0.137545 -0.078072 -0.236681 0.137675 0.214766 -0.166581 0.177667 -0.243784 -0.223441 0.140175 -0.137363 -0.427896 0.136220 0.375172 0.117000 -0.492978 -0.352738 0.069970 0.152801 0.113822 -0.274179 0.056605 -0.372064 0.322293 0.060985 0.271694 0.204868 -0.650009 -0.213222 -0.173196 -0.246031 0.241119 0.613999 -0.225220 0.446917 -0.040619 -0.050589 -0.266743 0.104113 -0.459739 -0.246055 -0.083837 0.113005 0.083124 -0.174766 0.231684 0.185697 -0.002776 0.112900 -0.177441 -0.327683 -0.329143 0.358867 -0.182536 -0.196371 -0.186568 -0.448794 -0.221096 -0.295869 0.016378 0.073305 -0.016245 0.008839 0.058474 0.340684 0.000225 -0.162768 -0.492768 -0.177731 -0.171131 0.139945 0.274301 0.301639 0.147612 0.257798 0.236429 0.100367 0.116153 -0.055548 -0.282389 0.126436 0.102262 -0.363342 -0.037930 -0.350098 0.383320 0.110039 0.353937 0.335053 -0.083435 -0.188439 0.150889 0.178579 0.087926 -0.077608 0.196835 
3191 0.293120 -0.081159 -0.178194 0.091494 -0.291085 -0.128545 0.126420 -0.183423 -0.079958 0.066906 0.114449 -0.134182 -0.221272 -0.144016 -0.029947 -0.533809 -0.221686 0.107895 0.353169 -0.102920 0.029469 0.035002 0.056208 -0.211973 -0.172416 0.008186 -0.054846 0.311905 0.027780 0.537649 0.355485 -0.006274 0.087588 -0.071333 -0.191494 0.066825 0.373463 0.140398 0.401911 -0.382705 0.317180 -0.360116 -0.127090 -0.304481 -0.403548 -0.344215 0.037583 0.163645 0.288150 0.031498 0.049760 -0.213532 -0.124316 -0.072701 -0.142028 0.126816 0.035543 0.339251 0.165765 -0.004598 -0.442191 -0.114247 -0.243184 0.128374 -0.022597 -0.123957 0.307748 -0.352569 0.568379 -0.172755 -0.367973 0.144455 -0.504164 -0.109526 -0.126135 0.279379 -0.013568 0.381915 0.137446 0.204558 0.581863 0.309775 -0.376843 -0.178603 0.105440 -0.142924 -0.102678 0.095152 0.037758 0.501090 -0.019206 0.010321 0.256424 0.290179 -0.441009 -0.101363 0.135085 -0.131081 -0.127503 -0.078364 
3203 0.340326 -0.075312 -0.047643 0.058917 -0.158621 -0.081334 0.074771 -0.178891 -0.012476 0.028306 0.140077 -0.211037 -0.152833 -0.099256 -0.021150 -0.498470 -0.164144 0.036361 0.306174 -0.169871 -0.018640 0.072873 0.147923 -0.123440 -0.179353 -0.018885 -0.180504 0.329637 0.012961 0.409384 0.296170 -0.179329 0.087005 -0.123979 -0.114533 0.088313 0.309957 0.097747 0.414068 -0.260926 0.222958 -0.292306 -0.089488 -0.379636 -0.296311 -0.295731 0.021527 0.134393 0.198802 0.102458 0.018186 -0.150857 0.014516 -0.077269 -0.119717 0.086571 0.096028 0.206293 0.063882 0.030875 -0.443154 -0.131316 -0.133132 0.059346 -0.071317 -0.072944 0.179079 -0.182912 0.497170 -0.140765 -0.316688 0.037838 -0.365993 -0.158942 0.007159 0.295597 0.044967 0.298330 0.141718 0.203507 0.511299 0.240241 -0.306219 -0.093751 0.097749 -0.140840 -0.205605 0.089924 -0.037451 0.410272 0.029303 0.034947 0.289365 0.197794 -0.385857 -0.067303 0.187639 -0.107487 -0.153538 -0.020719 
2846 0.261255 -0.081147 -0.043634 0.148746 -0.151612 0.185526 0.116180 -0.362917 -0.103340 -0.031471 0.287826 -0.249757 -0.122122 -0.285906 -0.022146 -0.354878 -0.007537 0.050291 0.223842 -0.237781 0.021779 0.209075 0.149092 -0.122368 -0.233443 -0.157614 -0.193732 0.295396 0.047879 0.232762 0.340849 0.033423 -0.012411 -0.222683 -0.051845 -0.012679 0.075539 0.297889 0.561902 -0.163925 0.232949 -0.328683 -0.042075 -0.600791 -0.229737 -0.242932 0.130544 0.291068 0.242681 -0.010305 -0.211759 -0.142213 0.327476 -0.119188 0.303731 0.229391 0.001351 0.171253 0.025419 0.011054 -0.294957 -0.081253 -0.009953 0.129152 0.049175 0.249508 0.033775 0.066122 0.113807 -0.064740 -0.259136 0.140845 -0.347713 -0.100852 -0.133861 0.460261 -0.002951 0.284605 0.325901 0.326162 0.380718 0.277974 -0.264268 -0.340037 -0.076982 0.070697 -0.250817 0.108013 0.036325 0.163962 0.230827 0.037013 0.339141 0.071548 -0.352941 -0.258467 0.130838 -0.235274 -0.400201 -0.043217 
