1034 100
953 0.081725 -0.019162 -0.221084 -0.182567 -0.019204 -0.184725 -0.598724 0.191871 -0.373408 -0.233484 0.207620 -0.394961 0.297768 0.385803 0.108451 -0.486696 0.022734 -0.258748 -0.419875 -0.274118 -0.121906 0.357989 -0.017684 0.091902 -0.381641 -0.375928 -0.039165 0.302631 -0.128317 0.268200 -0.038706 -0.293800 0.069669 -0.266394 -0.109049 0.124607 0.253364 0.202482 -0.133788 -0.272668 0.232678 -0.209469 -0.204680 0.127725 -0.092099 0.170350 0.000970 0.370996 0.200007 0.321126 0.158051 -0.284836 0.056228 -0.313084 -0.020340 -0.124009 0.132355 -0.198100 -0.029674 0.483340 0.522684 0.113418 0.058429 -0.088539 0.532360 -0.386301 0.322364 -0.236562 0.370055 -0.259083 -0.015599 0.096388 0.214083 -0.100183 -0.006205 0.027609 0.129132 -0.463935 0.020122 0.195313 0.314205 0.226116 0.237642 -0.232836 0.247900 -0.346351 -0.061989 0.119363 -0.026113 0.012991 0.213047 0.364308 -0.245115 0.039432 0.461578 0.211225 0.154240 0.263076 0.050336 0.041274 
1323 0.085543 -0.111443 -0.312193 -0.163744 -0.043810 -0.032893 -0.441953 0.214997 -0.396728 -0.214326 0.109602 -0.416214 0.232996 0.247465 0.043577 -0.446116 -0.008155 -0.282140 -0.279667 -0.200264 -0.145712 0.244588 -0.062478 0.049442 -0.493767 -0.348156 0.049818 0.273919 -0.048248 0.336536 -0.096652 -0.251976 0.007926 -0.267240 -0.139005 0.031148 0.196824 0.081488 -0.157499 -0.218623 0.176625 -0.370846 -0.206462 0.059807 -0.143770 0.056572 0.027853 0.280277 0.289465 0.468774 0.070030 -0.171458 0.166449 -0.308716 -0.045086 -0.132044 0.068821 -0.156450 0.002199 0.385073 0.447181 0.139849 0.084486 -0.114632 0.382898 -0.384829 0.330988 -0.072637 0.288226 -0.192631 0.006924 0.279797 0.209825 -0.240003 0.004557 -0.043822 0.197291 -0.440072 -0.001716 0.260255 0.391449 0.339321 0.225923 -0.299744 0.234932 -0.302568 0.006258 0.117189 0.025287 -0.035607 0.253598 0.261482 -0.187465 -0.005919 0.335474 0.161849 0.093812 0.435308 -0.077447 0.050235 
1789 0.251392 -0.545072 -0.314890 -0.090229 -0.205280 0.207251 -0.400861 0.251769 -0.371670 -0.325800 0.188689 -0.207375 0.352284 0.112649 0.040987 -0.437374 -0.068759 -0.084166 -0.270167 -0.358834 0.050005 0.166368 0.072188 0.000357 -0.350272 -0.284332 -0.095385 0.400380 0.162385 0.242834 -0.174941 -0.155243 0.187981 -0.412682 0.063193 0.129907 0.019215 0.078798 -0.129120 -0.250448 0.095732 -0.360793 -0.151724 -0.088473 -0.212089 0.167604 -0.050013 0.303082 0.066780 0.494169 0.086553 -0.089326 0.231177 -0.362078 0.108271 -0.399094 -0.154914 -0.227634 0.144859 0.736823 0.573791 0.388870 0.115495 -0.044004 0.327542 -0.389233 0.400736 -0.003941 0.193462 -0.092576 0.052341 0.334356 0.061730 -0.012979 0.144473 -0.130650 -0.079705 -0.546167 -0.123010 0.175235 0.081616 0.530170 -0.076893 -0.350689 0.306470 -0.306378 0.069211 -0.167936 -0.407880 0.144360 0.183086 0.098421 -0.262974 -0.057815 0.285293 -0.061688 0.257114 0.284046 -0.098864 0.002894 
1707 0.208703 -0.371549 -0.312033 -0.151686 -0.133698 0.010263 -0.591387 0.268130 -0.411744 -0.327837 0.235619 -0.289272 0.411535 0.281092 0.121421 -0.531518 -0.034868 -0.143163 -0.365297 -0.392488 -0.036226 0.291383 0.043256 0.075209 -0.388789 -0.344811 -0.109764 0.426361 0.033243 0.271911 -0.109792 -0.227849 0.171668 -0.372843 0.018133 0.188582 0.135120 0.193842 -0.163912 -0.346690 0.175933 -0.305151 -0.156073 -0.002171 -0.200317 0.249397 -0.053471 0.378916 0.110695 0.453293 0.166514 -0.233633 0.138603 -0.387548 0.091895 -0.318868 -0.028540 -0.254418 0.053012 0.775706 0.649555 0.318117 0.083918 -0.033105 0.469810 -0.450431 0.422878 -0.156412 0.329679 -0.196924 0.025886 0.206106 0.139559 -0.012996 0.123458 -0.060642 -0.028949 -0.582898 -0.069711 0.204713 0.167479 0.444287 0.062646 -0.298908 0.327908 -0.391166 0.003772 -0.072032 -0.323196 0.119284 0.200281 0.265923 -0.308790 -0.032709 0.465829 0.063975 0.242486 0.252578 -0.005666 0.029984 
1175 0.171352 -0.364440 -0.362536 -0.128253 -0.147330 0.093600 -0.310559 0.251306 -0.401892 -0.264406 0.077161 -0.347279 0.251887 0.127122 -0.003697 -0.423790 -0.037925 -0.215883 -0.214617 -0.236134 -0.061465 0.144325 -0.045733 0.024106 -0.495751 -0.302823 0.058574 0.319214 0.090267 0.320720 -0.160304 -0.178632 0.046765 -0.326652 -0.074508 0.016016 0.109225 0.013741 -0.180906 -0.187365 0.126069 -0.456060 -0.185345 -0.033909 -0.177567 0.025151 0.004731 0.242016 0.268139 0.528619 0.060923 -0.074569 0.236607 -0.334928 0.016921 -0.261839 -0.069275 -0.205086 0.080817 0.483269 0.448966 0.248819 0.109614 -0.105533 0.297182 -0.383392 0.356047 0.020744 0.215230 -0.120422 0.062952 0.397798 0.141952 -0.193915 0.066454 -0.110588 0.093163 -0.504750 -0.063425 0.264400 0.300838 0.480741 0.104873 -0.367589 0.267082 -0.310595 0.065973 0.008875 -0.089837 0.049368 0.256000 0.158839 -0.212642 -0.047781 0.248654 0.061220 0.113053 0.446554 -0.120459 0.032900 
1059 0.249600 -0.585949 -0.380553 -0.064426 -0.201872 0.304342 -0.260401 0.239483 -0.379615 -0.319508 0.103035 -0.277953 0.269204 0.055062 -0.036999 -0.421580 -0.114287 -0.132313 -0.180608 -0.301299 0.029061 0.072910 0.035021 -0.053783 -0.468962 -0.282737 0.012746 0.377772 0.217787 0.311895 -0.236958 -0.120150 0.103400 -0.452155 0.009103 0.044765 0.008506 -0.038722 -0.159108 -0.185619 0.057606 -0.485017 -0.217751 -0.112357 -0.235444 0.038254 -0.013566 0.247413 0.179238 0.612454 0.015409 0.007361 0.348729 -0.412486 0.085028 -0.399417 -0.200061 -0.202630 0.176752 0.621080 0.538900 0.395049 0.159346 -0.091836 0.245357 -0.413726 0.402851 0.126768 0.152511 -0.051323 0.103122 0.500447 0.078339 -0.149813 0.124624 -0.194070 -0.020114 -0.562307 -0.131084 0.222750 0.181320 0.620483 -0.064916 -0.439676 0.302951 -0.261886 0.135905 -0.165356 -0.347564 0.137209 0.245990 0.046603 -0.232887 -0.089856 0.157645 -0.070500 0.217445 0.471921 -0.206544 0.002224 
1329 0.135606 -0.282406 -0.390953 -0.135320 -0.080587 0.092207 -0.255822 0.233432 -0.424979 -0.267211 0.040462 -0.448521 0.185542 0.154861 -0.061108 -0.443480 -0.047666 -0.323133 -0.181982 -0.171249 -0.100251 0.120638 -0.096150 0.000309 -0.609378 -0.326793 0.137381 0.284929 0.067719 0.391621 -0.165797 -0.174841 -0.024071 -0.320391 -0.151474 -0.035660 0.139112 -0.032666 -0.209128 -0.150180 0.124392 -0.526789 -0.252053 -0.015555 -0.193547 -0.051692 0.045766 0.240192 0.375760 0.614646 0.021126 -0.065195 0.293670 -0.375559 -0.029021 -0.198425 -0.029745 -0.197268 0.082090 0.344824 0.429523 0.216709 0.135916 -0.157003 0.277908 -0.426107 0.340855 0.084031 0.241468 -0.141733 0.082383 0.455467 0.188563 -0.346017 0.039185 -0.132096 0.186386 -0.518243 -0.042032 0.307860 0.425493 0.473186 0.188580 -0.424828 0.250384 -0.290983 0.105799 0.083841 0.039021 -0.005845 0.310363 0.179744 -0.169793 -0.059885 0.203366 0.109491 0.073076 0.603937 -0.193496 0.038622 
1559 0.155928 -0.282429 -0.369721 -0.184782 -0.098434 -0.001355 -0.483117 0.269800 -0.455712 -0.280881 0.127059 -0.401255 0.301407 0.227580 0.046555 -0.518468 -0.008077 -0.255731 -0.290651 -0.268247 -0.106286 0.249233 -0.046501 0.043082 -0.540060 -0.365710 0.024996 0.351024 0.008126 0.341987 -0.124350 -0.253294 0.049123 -0.323816 -0.085442 0.068726 0.179081 0.110867 -0.184584 -0.280393 0.175781 -0.445406 -0.197196 0.019951 -0.190664 0.097111 0.008384 0.316060 0.277284 0.560487 0.102062 -0.184609 0.189940 -0.363425 0.006478 -0.239893 0.002138 -0.215732 0.030858 0.560204 0.544035 0.243801 0.097621 -0.095582 0.404073 -0.464442 0.385007 -0.064981 0.300746 -0.191565 0.039252 0.322206 0.177743 -0.215704 0.068618 -0.078177 0.139188 -0.562505 -0.040755 0.301032 0.361862 0.436301 0.185750 -0.344403 0.286695 -0.388374 0.026745 0.054128 -0.077736 0.012385 0.262395 0.265738 -0.256978 -0.031453 0.389921 0.123639 0.151222 0.440969 -0.072953 0.054166 
1804 0.194664 -0.388755 -0.338009 -0.158246 -0.153469 0.036710 -0.560766 0.283294 -0.434078 -0.309740 0.187932 -0.315179 0.398842 0.230149 0.092334 -0.527952 -0.027719 -0.165578 -0.345104 -0.363674 -0.050080 0.286151 0.013964 0.069801 -0.454512 -0.369139 -0.063175 0.394697 0.038473 0.297791 -0.118681 -0.243936 0.145639 -0.380233 -0.004846 0.136308 0.127074 0.168630 -0.173959 -0.311351 0.186267 -0.369021 -0.170762 -0.015203 -0.207523 0.183720 -0.019156 0.369481 0.166372 0.533336 0.142474 -0.213278 0.189496 -0.372059 0.058325 -0.324949 -0.030252 -0.248400 0.050946 0.741091 0.616020 0.300678 0.111040 -0.049331 0.429756 -0.466637 0.411583 -0.126375 0.309287 -0.175812 0.047537 0.276186 0.138221 -0.068988 0.116034 -0.080253 0.024017 -0.593604 -0.082294 0.240300 0.227707 0.465293 0.082554 -0.313345 0.321831 -0.396741 0.009550 -0.046981 -0.255614 0.105732 0.208794 0.257304 -0.316225 -0.029477 0.424965 0.060151 0.208761 0.313473 -0.035618 0.024568 
1898 0.133483 -0.113645 -0.208425 -0.193600 -0.058405 -0.196452 -0.688222 0.221283 -0.368698 -0.274809 0.267276 -0.329331 0.379495 0.425407 0.132681 -0.515292 0.018352 -0.178939 -0.498453 -0.374780 -0.058266 0.432734 0.064987 0.098091 -0.328760 -0.375974 -0.121984 0.380475 -0.120859 0.222571 -0.039012 -0.271775 0.130101 -0.303298 -0.055464 0.198792 0.257141 0.273888 -0.116470 -0.315368 0.214504 -0.168256 -0.167056 0.131672 -0.111545 0.278634 -0.046711 0.425184 0.093892 0.298812 0.229980 -0.306001 0.006921 -0.314230 0.052218 -0.183954 0.093795 -0.261936 -0.014726 0.660839 0.601869 0.164764 0.052384 -0.059897 0.571848 -0.388017 0.367102 -0.290942 0.407540 -0.297026 0.034455 0.018482 0.163462 0.018926 0.040319 0.058273 0.029702 -0.505510 0.011997 0.133989 0.218978 0.231116 0.172734 -0.199925 0.289719 -0.389566 -0.070968 0.028860 -0.152057 0.080741 0.148475 0.358893 -0.314325 0.029461 0.528991 0.169431 0.197698 0.154003 0.133474 0.046054 
1622 0.203112 -0.471715 -0.397459 -0.113132 -0.168870 0.215847 -0.331139 0.249588 -0.426477 -0.305835 0.102778 -0.330949 0.279489 0.094624 -0.025312 -0.442009 -0.087747 -0.193620 -0.203773 -0.269802 -0.035019 0.114536 -0.009326 -0.017372 -0.502041 -0.311920 0.023228 0.347670 0.147830 0.350721 -0.205615 -0.171246 0.094849 -0.414843 -0.032670 0.042589 0.050588 -0.013604 -0.187703 -0.207251 0.115541 -0.475501 -0.230508 -0.083329 -0.218787 0.041098 0.017662 0.255570 0.243711 0.603056 0.025204 -0.047322 0.327276 -0.400447 0.037983 -0.344309 -0.107948 -0.191787 0.128488 0.582129 0.539072 0.342618 0.127111 -0.109220 0.308908 -0.431134 0.390211 0.073300 0.195011 -0.099407 0.046903 0.475409 0.140026 -0.193343 0.095560 -0.154850 0.054142 -0.558152 -0.099967 0.259251 0.260885 0.585556 0.035258 -0.413537 0.294293 -0.290006 0.104920 -0.068192 -0.251775 0.091377 0.259162 0.121287 -0.237371 -0.076656 0.226088 0.005415 0.193086 0.488408 -0.186757 0.014676 
1520 0.163691 -0.368596 -0.397161 -0.118864 -0.120138 0.172888 -0.250118 0.224083 -0.399765 -0.251532 0.058887 -0.389524 0.204773 0.092440 -0.058647 -0.417435 -0.067473 -0.237057 -0.163888 -0.197530 -0.078275 0.086877 -0.053073 -0.023114 -0.536990 -0.300596 0.101568 0.313555 0.122183 0.363193 -0.196595 -0.180632 0.018747 -0.364997 -0.094144 -0.021969 0.083756 -0.051547 -0.186087 -0.167269 0.095155 -0.509519 -0.236774 -0.060361 -0.200507 -0.036794 0.027145 0.217727 0.308320 0.601678 -0.002752 -0.013806 0.327155 -0.373329 -0.009835 -0.247998 -0.078186 -0.161732 0.124151 0.411421 0.456163 0.273171 0.132205 -0.124425 0.268761 -0.399548 0.365678 0.116234 0.185350 -0.093386 0.054385 0.480827 0.148316 -0.280627 0.062679 -0.141548 0.131126 -0.496558 -0.062239 0.287949 0.347117 0.537877 0.104495 -0.423833 0.251766 -0.248922 0.103268 -0.001230 -0.111260 0.007510 0.284760 0.109123 -0.172843 -0.058387 0.184321 0.024559 0.121079 0.569233 -0.215196 0.037130 
1200 0.040755 0.005101 0.051745 0.012168 0.019320 -0.008631 0.014010 -0.050003 0.024269 -0.061555 0.014281 -0.064146 -0.028072 0.110839 -0.065303 -0.018562 -0.012341 0.004071 -0.092402 -0.064985 0.055630 0.014142 0.083925 -0.033571 -0.033711 -0.019031 0.020221 0.052723 -0.000914 -0.021890 -0.052167 0.009319 -0.031763 -0.051312 -0.036063 -0.009767 0.056669 0.016265 0.035111 0.050785 -0.046179 -0.006781 -0.073922 0.067528 0.002591 -0.012065 0.009390 0.035359 -0.007179 -0.010926 0.009107 0.030618 0.010983 -0.054929 0.022898 0.017062 -0.060094 -0.059748 0.082506 -0.023243 0.049267 -0.002143 0.022623 -0.051245 0.053981 -0.002498 0.051987 0.021238 0.040548 -0.062242 0.127840 -0.041198 -0.027606 0.001038 -0.025653 0.018169 -0.022393 -0.033577 0.031614 -0.080484 0.015323 -0.047460 0.030500 -0.056893 0.023631 -0.004621 0.027290 -0.017542 0.020173 0.012608 0.012778 -0.023897 -0.027367 -0.013908 -0.022215 -0.009490 0.015930 0.096319 0.032275 -0.005915 
1202 0.080221 -0.060951 0.037779 -0.001296 0.018698 0.012879 -0.033986 -0.028410 -0.035698 -0.107200 0.043756 -0.124216 -0.001271 0.168655 -0.094637 -0.083679 -0.017521 -0.026953 -0.169078 -0.121080 0.069232 0.055411 0.129328 -0.042804 -0.110811 -0.070102 0.025363 0.121101 0.005896 0.020320 -0.110568 -0.005879 -0.045836 -0.121941 -0.065141 -0.009546 0.083284 0.022431 0.042100 0.026767 -0.065458 -0.078372 -0.127124 0.093985 -0.016759 0.003500 -0.000420 0.095494 0.015210 0.044182 0.021667 0.037649 0.025663 -0.131244 0.043824 -0.002921 -0.100650 -0.113523 0.124970 0.042150 0.149912 0.031241 0.019900 -0.073224 0.112771 -0.049001 0.148424 0.034823 0.084456 -0.116126 0.201499 -0.023409 -0.027174 -0.001930 -0.038687 0.019991 -0.020813 -0.103066 0.055920 -0.087995 0.048351 -0.002081 0.046941 -0.126988 0.064040 -0.036938 0.047301 -0.028528 -0.002861 0.026856 0.033813 -0.010857 -0.067023 -0.020657 0.011055 -0.019031 0.047962 0.178975 0.043799 -0.005186 
1449 0.216925 -0.375957 -0.234958 -0.126893 -0.142194 -0.031142 -0.468641 0.241995 -0.330396 -0.285483 0.183458 -0.187619 0.360083 0.222498 0.094315 -0.449042 0.005277 -0.059364 -0.341784 -0.368775 0.012244 0.279568 0.059207 0.061675 -0.300699 -0.281117 -0.106905 0.391313 0.016914 0.150657 -0.103825 -0.155948 0.148008 -0.307630 0.038502 0.167556 0.110229 0.222674 -0.101830 -0.287791 0.109377 -0.249850 -0.083233 0.001129 -0.166806 0.239860 -0.063831 0.307096 0.059325 0.358153 0.206285 -0.196820 0.070077 -0.277312 0.096043 -0.289883 -0.067435 -0.287275 0.054093 0.712425 0.513916 0.284128 0.097701 -0.031480 0.367682 -0.367120 0.358697 -0.160474 0.285844 -0.178681 0.088806 0.120959 0.045470 0.051257 0.128097 -0.042644 -0.078602 -0.485480 -0.068305 0.116275 0.104556 0.355726 0.025033 -0.197206 0.281760 -0.368302 -0.017747 -0.093652 -0.269235 0.135601 0.123408 0.180748 -0.284423 -0.026609 0.411205 0.022555 0.198412 0.131061 0.079611 0.033323 
1836 0.140033 -0.254500 -0.143488 -0.049541 -0.064537 0.073368 -0.134985 0.096210 -0.175943 -0.179249 0.059091 -0.187017 0.123206 0.121209 -0.055066 -0.223278 -0.027413 -0.073840 -0.171206 -0.195416 0.034742 0.078220 0.067368 -0.024867 -0.266689 -0.153421 0.023643 0.223009 0.060727 0.115809 -0.141907 -0.062410 -0.001718 -0.227565 -0.040716 0.021230 0.071745 0.035089 -0.041398 -0.076633 -0.010042 -0.236061 -0.135915 0.011103 -0.108803 0.040013 -0.007799 0.143691 0.097953 0.266054 0.040442 -0.001307 0.122552 -0.215127 0.054169 -0.133764 -0.116306 -0.173425 0.115903 0.275426 0.286811 0.163619 0.065947 -0.067402 0.164706 -0.198685 0.238046 0.036284 0.130976 -0.103528 0.143742 0.166775 0.017823 -0.056398 0.025348 -0.043794 -0.009055 -0.268952 -0.011718 0.055771 0.111469 0.230145 0.034995 -0.218891 0.156811 -0.164543 0.052774 -0.048288 -0.097797 0.053700 0.106091 0.024028 -0.121711 -0.032681 0.116542 -0.029890 0.095141 0.267007 -0.022557 0.011945 
1156 0.175724 -0.271956 -0.257861 -0.147869 -0.092210 -0.044057 -0.530328 0.242716 -0.363751 -0.284438 0.211199 -0.257783 0.355236 0.274150 0.115251 -0.491895 -0.017324 -0.145347 -0.355061 -0.351098 -0.040491 0.305284 0.033479 0.067906 -0.345031 -0.327442 -0.090709 0.386390 -0.011498 0.229813 -0.093532 -0.214719 0.129884 -0.324568 0.000592 0.167961 0.158888 0.195190 -0.122004 -0.301462 0.156877 -0.252558 -0.132479 0.027727 -0.160458 0.240448 -0.041543 0.335308 0.117193 0.384537 0.171165 -0.221652 0.094171 -0.328323 0.057316 -0.261135 0.002028 -0.245402 0.011768 0.667805 0.571012 0.264800 0.085267 -0.031387 0.434174 -0.394650 0.374554 -0.161100 0.316046 -0.201739 0.021965 0.152843 0.124775 -0.006844 0.092490 -0.042325 -0.021378 -0.508118 -0.050051 0.177539 0.165682 0.373276 0.079253 -0.233039 0.283259 -0.369468 -0.022704 -0.042693 -0.251097 0.096098 0.172353 0.248572 -0.269556 -0.002790 0.433288 0.082604 0.208750 0.202881 0.042361 0.027432 
1605 0.147378 -0.160786 -0.221856 -0.172658 -0.065702 -0.135560 -0.651082 0.233397 -0.364626 -0.272100 0.264430 -0.301733 0.373588 0.378965 0.122872 -0.513468 0.015010 -0.165564 -0.438339 -0.360536 -0.053183 0.391904 0.057816 0.081443 -0.330973 -0.366964 -0.116503 0.393178 -0.078338 0.235207 -0.063260 -0.265697 0.134815 -0.305767 -0.038880 0.197005 0.210720 0.243324 -0.121660 -0.312951 0.195305 -0.185762 -0.157572 0.101689 -0.128691 0.265674 -0.036986 0.399300 0.100072 0.326783 0.212525 -0.271867 0.026200 -0.320233 0.050324 -0.204485 0.047174 -0.248535 0.003607 0.670723 0.601584 0.199824 0.067449 -0.043122 0.529708 -0.387245 0.374748 -0.239164 0.371688 -0.256312 0.013897 0.062569 0.154695 0.010566 0.058079 0.024162 0.010901 -0.506058 -0.010518 0.160852 0.200798 0.300492 0.134101 -0.222309 0.284217 -0.380587 -0.065111 -0.000144 -0.206409 0.057504 0.167304 0.315822 -0.291191 0.005307 0.491325 0.145959 0.205683 0.172426 0.087961 0.042287 
1149 0.211164 -0.502700 -0.397227 -0.098991 -0.159694 0.232790 -0.238387 0.244157 -0.387669 -0.285299 0.073476 -0.329908 0.250158 0.062751 -0.028966 -0.416574 -0.070142 -0.181729 -0.167632 -0.256048 -0.015349 0.076124 -0.008481 -0.028559 -0.510187 -0.275784 0.061971 0.358012 0.169939 0.331812 -0.227315 -0.133289 0.053676 -0.391480 -0.051864 0.017562 0.052044 -0.021688 -0.163415 -0.188916 0.058218 -0.494852 -0.200306 -0.100719 -0.231487 0.012306 0.009846 0.209975 0.244830 0.611885 0.015154 0.008277 0.322127 -0.378101 0.038226 -0.309479 -0.142424 -0.200133 0.146075 0.524339 0.479714 0.334758 0.147869 -0.099655 0.220320 -0.402221 0.378154 0.121554 0.172115 -0.064027 0.095061 0.480490 0.090902 -0.212685 0.085530 -0.168434 0.050516 -0.511831 -0.106323 0.256045 0.247118 0.585705 0.020245 -0.420668 0.261683 -0.279607 0.117968 -0.074745 -0.230326 0.067774 0.259503 0.069877 -0.177643 -0.073090 0.190725 -0.036120 0.161452 0.514905 -0.195649 0.026430 
1173 0.034589 0.055860 -0.190308 -0.153523 0.011078 -0.152500 -0.461976 0.156382 -0.321938 -0.171469 0.150217 -0.399664 0.190558 0.332971 0.051210 -0.412089 0.019580 -0.285805 -0.345101 -0.192611 -0.123822 0.291562 -0.024488 0.058199 -0.373340 -0.328640 0.032963 0.209691 -0.119881 0.274964 -0.043695 -0.263809 -0.005849 -0.219871 -0.154167 0.039200 0.238461 0.122240 -0.124370 -0.170508 0.191619 -0.218572 -0.224966 0.147252 -0.054583 0.077911 0.037925 0.305691 0.240445 0.310537 0.085491 -0.200564 0.079412 -0.277321 -0.060772 -0.039301 0.131288 -0.141665 -0.012597 0.294175 0.409112 0.032659 0.057521 -0.112887 0.446289 -0.312517 0.257005 -0.148085 0.312202 -0.228860 -0.000831 0.104000 0.228577 -0.180774 -0.046901 0.023778 0.203954 -0.382665 0.043512 0.192175 0.357794 0.163411 0.257368 -0.238541 0.202919 -0.265503 -0.033380 0.153308 0.072921 -0.032462 0.225327 0.303338 -0.182490 0.030477 0.335220 0.197091 0.092393 0.331485 0.007275 0.060647 
1180 0.080337 -0.133218 -0.213502 -0.119480 -0.044376 -0.042092 -0.418150 0.167695 -0.288540 -0.198272 0.145422 -0.275934 0.232198 0.230351 0.069288 -0.369077 -0.011006 -0.170324 -0.266117 -0.217522 -0.078981 0.241481 -0.012245 0.049308 -0.308146 -0.270756 -0.028798 0.251308 -0.025260 0.224249 -0.064554 -0.204625 0.071543 -0.232116 -0.059952 0.087720 0.153727 0.121390 -0.108290 -0.214647 0.143991 -0.218266 -0.146380 0.050564 -0.102450 0.124060 -0.011138 0.253124 0.150853 0.311109 0.099464 -0.165348 0.084890 -0.253276 -0.001589 -0.154938 0.048076 -0.149064 -0.001474 0.424806 0.406649 0.132333 0.061610 -0.046917 0.355811 -0.296529 0.264473 -0.127448 0.241803 -0.153846 0.003375 0.144093 0.139210 -0.080984 0.022766 -0.012368 0.071242 -0.368832 -0.019272 0.172773 0.209064 0.262233 0.127379 -0.215025 0.203991 -0.251914 -0.019896 0.033625 -0.082337 0.019399 0.166410 0.227572 -0.189586 0.000262 0.311072 0.112667 0.128560 0.219822 0.008761 0.032210 
1549 0.148147 0.050314 0.274303 0.066401 0.112008 -0.110598 0.128647 -0.218948 0.201770 -0.269354 0.085530 -0.238821 -0.149703 0.427946 -0.309005 -0.020780 -0.058712 -0.009694 -0.316948 -0.273911 0.272950 -0.025519 0.358413 -0.165061 -0.001019 -0.026659 0.148296 0.135964 -0.003682 -0.141409 -0.134617 0.072867 -0.120765 -0.193514 -0.117272 -0.071028 0.245942 0.079675 0.119232 0.250534 -0.138516 0.065588 -0.342881 0.317539 0.093125 -0.094826 0.052235 0.159747 -0.019656 -0.102389 -0.013610 0.174110 0.017437 -0.204729 0.112804 0.075902 -0.236311 -0.220714 0.297124 -0.149429 0.131925 -0.068109 0.137331 -0.251297 0.252480 0.019912 0.114442 0.045269 0.171318 -0.137711 0.521067 -0.143299 -0.103124 0.026366 -0.089381 0.058267 -0.154447 -0.172264 0.058923 -0.340899 0.054051 -0.286895 0.128370 -0.187377 0.106723 -0.029946 0.115765 -0.012953 0.085275 0.063546 0.069339 -0.044997 -0.109389 -0.063977 -0.171516 -0.049285 0.050503 0.320901 0.153915 -0.062075 
1412 0.097152 -0.014544 0.171109 0.050635 0.080132 -0.005108 0.084316 -0.131448 0.038205 -0.140717 0.067151 -0.175954 -0.109958 0.260993 -0.236062 -0.029544 -0.027833 -0.020954 -0.264471 -0.177210 0.141995 0.028381 0.267296 -0.124096 -0.060081 -0.029640 0.082033 0.122290 -0.015968 -0.064051 -0.171919 0.030846 -0.143496 -0.118536 -0.103919 -0.048463 0.139804 0.015577 0.131452 0.143460 -0.154467 -0.018653 -0.215939 0.199043 0.042200 -0.016276 0.006788 0.115592 -0.037154 -0.048489 -0.010374 0.129890 -0.036732 -0.135539 0.070190 0.088870 -0.171650 -0.149568 0.211676 -0.079003 0.112419 -0.027043 0.030878 -0.150600 0.124152 0.027530 0.169255 0.076919 0.095797 -0.160322 0.375792 -0.106476 -0.077938 0.023129 -0.100363 0.085216 -0.076509 -0.092506 0.124055 -0.241783 0.020379 -0.170746 0.043601 -0.133426 0.062577 0.031988 0.077172 -0.043728 0.075232 0.024676 -0.001912 -0.067760 -0.074135 -0.050586 -0.147108 -0.065771 0.022368 0.202723 0.094426 -0.031607 
1638 0.149752 -0.041240 0.210364 0.063504 0.072765 0.015256 0.084152 -0.197205 0.002949 -0.161037 0.093740 -0.221540 -0.168715 0.371529 -0.275950 -0.085173 0.010478 0.007501 -0.414519 -0.213797 0.186383 0.165045 0.378753 -0.155230 -0.186403 -0.070916 0.043302 0.242121 -0.026318 -0.084478 -0.300110 0.065079 -0.259437 -0.198939 -0.180762 -0.045113 0.201078 -0.031271 0.232623 0.160174 -0.282497 -0.109576 -0.266581 0.265528 0.009052 -0.003764 -0.019170 0.151759 -0.090149 -0.094028 0.021600 0.185931 -0.056610 -0.195475 0.080688 0.160809 -0.275317 -0.229336 0.329402 -0.113790 0.233553 0.009169 -0.020583 -0.138566 0.132213 0.062472 0.288794 0.160657 0.139867 -0.301222 0.510282 -0.193771 -0.129710 0.011915 -0.206630 0.140604 -0.088736 -0.009490 0.252450 -0.389422 -0.003343 -0.174946 0.074168 -0.226739 0.027440 0.124845 0.141869 -0.101592 0.120379 0.000287 -0.043792 -0.182048 -0.050226 -0.020174 -0.130496 -0.086597 0.021380 0.298577 0.149663 -0.025376 
942 0.187679 -0.097990 0.267268 0.104835 0.069626 0.001763 0.140161 -0.282262 -0.022163 -0.227040 0.146229 -0.309702 -0.272776 0.472429 -0.382936 -0.114706 0.046930 -0.006994 -0.607456 -0.302684 0.257976 0.241347 0.518121 -0.235378 -0.244311 -0.102099 0.085136 0.341218 -0.031565 -0.148104 -0.426271 0.091233 -0.413191 -0.294785 -0.279827 -0.033707 0.313842 -0.087481 0.316130 0.201878 -0.394958 -0.137076 -0.387511 0.366072 0.029961 0.022112 -0.046588 0.236344 -0.096872 -0.109581 0.013065 0.318020 -0.087790 -0.253165 0.101288 0.230756 -0.382901 -0.280075 0.482914 -0.148678 0.338373 0.045199 -0.027979 -0.219035 0.190560 0.082127 0.379740 0.240665 0.184669 -0.423611 0.678299 -0.225633 -0.180641 -0.018687 -0.347223 0.228601 -0.161525 -0.039165 0.353213 -0.598727 -0.016780 -0.266453 0.070035 -0.319662 0.030554 0.195714 0.212273 -0.130309 0.213102 -0.003663 -0.036611 -0.257461 -0.072049 -0.023345 -0.255137 -0.128759 -0.003062 0.388461 0.170502 -0.050816 
1448 0.206011 0.025094 0.316200 0.026115 0.136717 0.080600 0.034650 -0.230432 0.073697 -0.152078 0.036592 -0.234759 -0.115152 0.541448 -0.342906 -0.102476 -0.035678 0.062646 -0.447260 -0.244381 0.205357 0.213638 0.458218 -0.136463 -0.312388 -0.118926 -0.034436 0.287583 -0.041467 -0.016703 -0.390272 0.120207 -0.203380 -0.199435 -0.191503 -0.101068 0.193967 0.034523 0.323995 0.227538 -0.418761 -0.185327 -0.263885 0.345437 -0.020899 -0.038434 0.026309 0.110845 -0.156583 -0.131750 0.108751 0.116203 -0.023530 -0.281931 0.120741 0.218015 -0.321626 -0.340792 0.371147 -0.197689 0.273886 -0.065892 -0.085109 -0.082644 0.138177 0.103786 0.429047 0.198140 0.179616 -0.437050 0.720251 -0.372175 -0.159383 0.082994 -0.152808 0.137655 -0.005041 0.105663 0.348176 -0.373622 0.031890 -0.144803 0.150550 -0.291366 0.045305 0.120867 0.114838 -0.153845 0.072934 -0.031615 -0.119397 -0.238755 -0.048921 -0.018631 0.052487 -0.111089 0.119504 0.487612 0.258546 0.021744 
1786 0.227843 -0.089815 0.330729 0.108687 0.094002 0.036250 0.152437 -0.320456 -0.019546 -0.242170 0.154899 -0.343983 -0.283627 0.576743 -0.448927 -0.136932 0.035632 0.002911 -0.681944 -0.354348 0.280737 0.283544 0.593164 -0.256787 -0.317331 -0.127204 0.060663 0.407257 -0.041748 -0.143260 -0.501733 0.111262 -0.446654 -0.325405 -0.316501 -0.053975 0.341842 -0.087485 0.384281 0.245466 -0.482113 -0.186229 -0.428081 0.429492 0.017863 0.017990 -0.037038 0.244065 -0.144372 -0.136031 0.043823 0.325308 -0.098797 -0.308343 0.121868 0.271256 -0.451716 -0.348381 0.550467 -0.173215 0.388347 0.021034 -0.058906 -0.211875 0.197761 0.109047 0.480144 0.279779 0.207316 -0.509599 0.812867 -0.296291 -0.218401 -0.002332 -0.375586 0.249958 -0.149410 -0.002096 0.428085 -0.669391 -0.015941 -0.277812 0.103268 -0.370792 0.027605 0.233261 0.236434 -0.175340 0.212883 -0.021720 -0.076594 -0.317386 -0.072766 -0.036087 -0.221743 -0.151375 0.017324 0.472445 0.220459 -0.040677 
1768 0.098636 -0.193422 -0.337272 -0.174573 -0.072634 -0.028916 -0.438437 0.238895 -0.417757 -0.244014 0.108135 -0.429183 0.244471 0.242858 0.022965 -0.486846 -0.029919 -0.301913 -0.286258 -0.217447 -0.119130 0.233295 -0.076992 0.043123 -0.540381 -0.353926 0.063680 0.287921 -0.003188 0.361480 -0.096788 -0.229816 0.022722 -0.316630 -0.122608 0.017448 0.186620 0.060911 -0.197756 -0.215941 0.178500 -0.421803 -0.228451 0.048611 -0.164282 0.055787 0.028073 0.303088 0.326075 0.517759 0.077205 -0.169983 0.205514 -0.369396 -0.016046 -0.176029 0.021290 -0.191410 0.035916 0.435006 0.482305 0.173440 0.094217 -0.124417 0.391453 -0.428103 0.346089 -0.059165 0.308247 -0.189557 0.029352 0.325026 0.225503 -0.250045 0.024945 -0.067953 0.172520 -0.518811 -0.027217 0.279885 0.403599 0.404082 0.202481 -0.350176 0.271731 -0.334413 0.027360 0.096615 -0.001502 0.000937 0.287991 0.274042 -0.215763 -0.021942 0.329464 0.143776 0.108498 0.474029 -0.104112 0.054694 
1092 0.157052 -0.307260 -0.261237 -0.107319 -0.088742 0.086508 -0.268801 0.182746 -0.310804 -0.220124 0.089394 -0.257314 0.221025 0.140533 0.003809 -0.352966 -0.044214 -0.142198 -0.192769 -0.223237 -0.041302 0.131442 0.003784 0.017635 -0.373024 -0.235676 0.013990 0.276612 0.069505 0.238875 -0.133633 -0.124968 0.053037 -0.277205 -0.049737 0.058631 0.081524 0.034656 -0.122309 -0.178767 0.075519 -0.320917 -0.146778 -0.022975 -0.152540 0.058491 -0.008863 0.214394 0.167146 0.418613 0.059670 -0.061910 0.182268 -0.282581 0.042184 -0.208625 -0.069022 -0.176176 0.082566 0.429887 0.407184 0.232633 0.089659 -0.067007 0.233919 -0.322061 0.309118 0.011627 0.186519 -0.102749 0.070996 0.269373 0.088348 -0.126115 0.060745 -0.086085 0.033162 -0.391874 -0.035699 0.176862 0.205104 0.377023 0.058875 -0.284037 0.198225 -0.242726 0.055157 -0.037631 -0.152482 0.054727 0.178980 0.121699 -0.162975 -0.047727 0.219885 0.017180 0.123521 0.346248 -0.090605 0.018126 
927 0.128274 -0.296924 -0.318357 -0.106628 -0.087128 0.151797 -0.118062 0.176330 -0.334475 -0.207709 -0.016948 -0.346135 0.125096 0.060362 -0.090326 -0.335188 -0.041800 -0.237838 -0.106799 -0.118182 -0.072473 0.055738 -0.060789 -0.023496 -0.515429 -0.243776 0.131428 0.250134 0.110265 0.313995 -0.189599 -0.108978 -0.044251 -0.265772 -0.109558 -0.074931 0.081812 -0.072838 -0.141004 -0.108915 0.032332 -0.484697 -0.193988 -0.036924 -0.179766 -0.078055 0.030377 0.146738 0.307466 0.522723 -0.001791 0.011200 0.274109 -0.309017 -0.022090 -0.182193 -0.103983 -0.150051 0.109388 0.253527 0.317984 0.198264 0.115098 -0.126016 0.146851 -0.321502 0.306980 0.147422 0.142057 -0.090511 0.114783 0.419751 0.128880 -0.285621 0.041400 -0.133434 0.150649 -0.385762 -0.038148 0.241414 0.326600 0.428184 0.117879 -0.376754 0.198631 -0.222069 0.108057 0.024933 0.010505 -0.004746 0.248758 0.065756 -0.121677 -0.057822 0.129713 0.042121 0.047566 0.520527 -0.174327 0.036980 
1791 0.136827 -0.273578 -0.363809 -0.153521 -0.100078 0.024613 -0.449637 0.253582 -0.432473 -0.265587 0.124125 -0.409843 0.284975 0.211886 0.036479 -0.488341 -0.040128 -0.275718 -0.261131 -0.241822 -0.101594 0.221126 -0.054989 0.042945 -0.515205 -0.355975 0.042494 0.315248 0.035559 0.354266 -0.128062 -0.240079 0.053578 -0.338828 -0.089665 0.066096 0.143013 0.069360 -0.187798 -0.246116 0.178469 -0.420658 -0.211303 0.005541 -0.188720 0.076040 0.021433 0.317423 0.276119 0.554538 0.079376 -0.159825 0.220526 -0.375982 -0.004997 -0.245576 -0.003599 -0.197431 0.028454 0.525051 0.526797 0.231711 0.114917 -0.120833 0.371659 -0.433905 0.367613 -0.040361 0.275765 -0.153866 0.017337 0.351479 0.192520 -0.228567 0.063389 -0.099324 0.129326 -0.556202 -0.055464 0.294263 0.358351 0.461585 0.154724 -0.366341 0.271001 -0.341892 0.049931 0.053229 -0.089581 0.033063 0.285535 0.258601 -0.240762 -0.026512 0.333390 0.122124 0.134281 0.449107 -0.126271 0.045890 
1287 0.221223 -0.453965 -0.319860 -0.097866 -0.149489 0.120770 -0.364187 0.247983 -0.354126 -0.292619 0.150084 -0.223061 0.323383 0.126339 0.044193 -0.430183 -0.040369 -0.105120 -0.229975 -0.304581 0.006091 0.171510 0.014388 0.023416 -0.369459 -0.268388 -0.041740 0.378884 0.118965 0.253427 -0.142870 -0.134539 0.128332 -0.352867 0.020801 0.104939 0.054804 0.088881 -0.158003 -0.241923 0.087373 -0.345354 -0.129336 -0.056750 -0.206966 0.153699 -0.034293 0.264449 0.130136 0.487921 0.112164 -0.092023 0.199674 -0.325193 0.079163 -0.322475 -0.113891 -0.221663 0.085923 0.652930 0.515089 0.330320 0.123971 -0.051991 0.286681 -0.385873 0.358151 -0.027522 0.226314 -0.093369 0.050261 0.309965 0.078036 -0.050506 0.129365 -0.129163 -0.041764 -0.508791 -0.102962 0.196284 0.136042 0.476538 -0.005422 -0.306776 0.269384 -0.320731 0.063853 -0.112982 -0.311248 0.111040 0.192141 0.136061 -0.236591 -0.062785 0.293904 -0.007836 0.189903 0.287482 -0.084416 0.019302 
1516 0.266394 -0.571853 -0.427152 -0.128037 -0.200022 0.188555 -0.405318 0.299942 -0.457633 -0.355423 0.133963 -0.297472 0.381611 0.116581 0.038356 -0.515707 -0.056952 -0.142230 -0.252928 -0.364409 -0.004700 0.166544 0.004013 0.011567 -0.506212 -0.324843 -0.033805 0.436039 0.141190 0.334380 -0.188383 -0.179162 0.134957 -0.437839 0.023178 0.104594 0.076769 0.088802 -0.188822 -0.303442 0.114571 -0.490780 -0.176810 -0.094659 -0.260926 0.139321 -0.021891 0.319832 0.173635 0.651669 0.111144 -0.102714 0.277163 -0.422552 0.086467 -0.412077 -0.133042 -0.265717 0.120406 0.767494 0.604165 0.413540 0.155338 -0.079267 0.334536 -0.503351 0.443638 0.015568 0.249821 -0.112318 0.098492 0.440129 0.095478 -0.126306 0.151614 -0.176567 -0.024860 -0.641209 -0.123320 0.275125 0.205565 0.608045 0.008919 -0.394217 0.336260 -0.389931 0.088955 -0.122679 -0.332771 0.139745 0.234942 0.155771 -0.295928 -0.082267 0.332239 -0.020181 0.226867 0.396020 -0.118758 0.027091 
1044 0.155119 0.014150 0.227667 0.013661 0.094547 0.057833 0.027364 -0.169479 0.048197 -0.107535 0.034618 -0.187363 -0.097853 0.406905 -0.256780 -0.083751 -0.019829 0.045372 -0.346845 -0.180945 0.147100 0.175219 0.341895 -0.099406 -0.249799 -0.089820 -0.028822 0.227802 -0.031379 -0.015268 -0.314142 0.084951 -0.171532 -0.154675 -0.160845 -0.070148 0.143772 0.013710 0.252985 0.171699 -0.330702 -0.151523 -0.201965 0.258176 -0.016261 -0.014918 0.007353 0.089075 -0.123419 -0.098039 0.085240 0.088452 -0.021729 -0.211006 0.084370 0.168962 -0.253181 -0.261611 0.295514 -0.143531 0.226441 -0.043524 -0.071304 -0.055210 0.101875 0.078959 0.335751 0.160425 0.133468 -0.336086 0.542821 -0.284696 -0.123789 0.056904 -0.126785 0.106441 0.001819 0.091058 0.273831 -0.301438 0.026632 -0.103304 0.115571 -0.227707 0.034475 0.101437 0.087710 -0.118644 0.062555 -0.021677 -0.094657 -0.188789 -0.027608 -0.008553 0.045892 -0.085871 0.094183 0.361720 0.197313 0.021483 
1235 0.267838 0.010249 0.394740 0.034896 0.151756 0.111930 0.050068 -0.297319 0.074955 -0.181109 0.059416 -0.305544 -0.173806 0.686829 -0.440676 -0.139904 -0.021525 0.092770 -0.617949 -0.309495 0.254118 0.325192 0.588705 -0.167325 -0.426564 -0.154167 -0.057470 0.389665 -0.050073 -0.033498 -0.533892 0.163536 -0.306861 -0.256867 -0.262108 -0.108456 0.247933 0.012720 0.438897 0.285880 -0.574730 -0.260512 -0.325457 0.451637 -0.042021 -0.020550 0.010157 0.136890 -0.225395 -0.170502 0.145019 0.158828 -0.064010 -0.366125 0.144339 0.300797 -0.431215 -0.444221 0.495438 -0.260927 0.380721 -0.065377 -0.137396 -0.073493 0.146228 0.149040 0.578087 0.286004 0.237282 -0.594943 0.926179 -0.500453 -0.233978 0.099513 -0.237527 0.209029 -0.008539 0.184729 0.483623 -0.525976 0.018190 -0.187725 0.197873 -0.369361 0.031072 0.184598 0.158923 -0.204054 0.108189 -0.053260 -0.168688 -0.349254 -0.051180 -0.020373 0.066206 -0.145617 0.148213 0.611335 0.332456 0.031869 
1100 0.224007 0.027104 0.324385 0.013879 0.132920 0.121220 0.014156 -0.240704 0.059985 -0.136697 0.040245 -0.251473 -0.123033 0.574289 -0.366274 -0.128379 -0.019920 0.081213 -0.488584 -0.248772 0.195974 0.268081 0.486653 -0.131035 -0.387589 -0.137719 -0.071774 0.326475 -0.040453 0.009325 -0.443086 0.136205 -0.230078 -0.204108 -0.216223 -0.100145 0.189974 0.021639 0.361705 0.223543 -0.487202 -0.247779 -0.255335 0.358912 -0.045181 -0.021943 0.014583 0.103707 -0.193509 -0.139373 0.130953 0.104996 -0.040700 -0.311079 0.113166 0.243894 -0.353181 -0.380207 0.397458 -0.210258 0.315037 -0.063987 -0.130159 -0.041975 0.118568 0.115366 0.500507 0.235618 0.191144 -0.494335 0.771910 -0.422384 -0.180445 0.090203 -0.170234 0.155159 0.020074 0.159392 0.407692 -0.395915 0.031247 -0.131453 0.164294 -0.310724 0.042764 0.149551 0.118555 -0.183050 0.071283 -0.038237 -0.155033 -0.287969 -0.035094 -0.017805 0.106865 -0.118738 0.147389 0.525777 0.289744 0.041343 
1279 0.195831 0.017239 0.278245 0.014680 0.115030 0.076960 0.006557 -0.208286 0.052177 -0.141762 0.042875 -0.222330 -0.100338 0.500894 -0.305539 -0.106442 -0.028611 0.062119 -0.430600 -0.226594 0.180863 0.214756 0.419712 -0.110702 -0.310841 -0.127376 -0.041188 0.277560 -0.039201 -0.005006 -0.366738 0.109054 -0.189955 -0.190950 -0.182887 -0.092334 0.174362 0.031656 0.298360 0.201276 -0.395200 -0.194678 -0.238306 0.323778 -0.028329 -0.031336 0.015710 0.104262 -0.146401 -0.112133 0.109744 0.097661 -0.021121 -0.276643 0.106018 0.186968 -0.300630 -0.330041 0.357181 -0.166929 0.278518 -0.054578 -0.089549 -0.056392 0.130576 0.088495 0.419081 0.187760 0.178726 -0.407939 0.660054 -0.345009 -0.154051 0.077079 -0.148229 0.128874 0.003780 0.101006 0.329048 -0.344200 0.033815 -0.115018 0.151309 -0.281431 0.045862 0.104742 0.101584 -0.141055 0.061306 -0.027367 -0.116515 -0.225590 -0.043372 -0.016264 0.088401 -0.098016 0.115684 0.458221 0.240018 0.035557 
1366 0.151213 -0.048175 0.286577 0.108933 0.216664 0.008043 0.155062 -0.156183 0.043197 -0.248635 0.128031 -0.298023 -0.160428 0.371922 -0.444296 -0.001072 -0.085185 -0.102425 -0.405587 -0.283472 0.236879 -0.128789 0.436925 -0.204809 0.030853 -0.007421 0.227438 0.097185 -0.021646 -0.074751 -0.247769 0.004705 -0.168913 -0.142599 -0.121599 -0.126711 0.201208 0.065812 0.134674 0.265703 -0.135235 0.069829 -0.364556 0.307021 0.134259 -0.009891 0.031312 0.198795 -0.033393 -0.028327 -0.071575 0.218143 -0.109543 -0.216120 0.117467 0.111502 -0.220217 -0.188200 0.251650 -0.073027 0.098467 -0.060070 0.097709 -0.340417 0.248804 -0.024966 0.221862 0.034530 0.140411 -0.171306 0.600806 -0.085150 -0.103032 0.074951 -0.097316 0.114679 -0.108079 -0.319650 0.112220 -0.284838 0.079002 -0.308733 0.006510 -0.155380 0.158632 -0.047371 0.076240 -0.046374 0.102229 0.128206 0.040261 -0.008032 -0.221032 -0.137005 -0.365200 -0.102255 0.015533 0.241860 0.116318 -0.093103 
1472 0.126632 -0.068543 0.311656 0.140169 0.258026 0.004282 0.155278 -0.141987 0.012866 -0.246083 0.152340 -0.303516 -0.174830 0.386853 -0.460641 0.028466 -0.104183 -0.133255 -0.450095 -0.300376 0.235224 -0.169761 0.468708 -0.221199 0.066336 -0.004793 0.248852 0.067920 -0.051629 -0.039852 -0.258087 -0.010348 -0.190488 -0.112259 -0.115142 -0.161399 0.202448 0.075552 0.159929 0.286482 -0.123106 0.085204 -0.371521 0.306454 0.152666 0.021430 0.025637 0.225206 -0.032155 -0.018076 -0.074551 0.245557 -0.150353 -0.230209 0.128733 0.126277 -0.202664 -0.181431 0.236281 -0.069798 0.069859 -0.088920 0.080558 -0.348752 0.259653 -0.021115 0.249108 0.034971 0.125118 -0.167821 0.656768 -0.111790 -0.113856 0.104163 -0.085797 0.160321 -0.094684 -0.360757 0.118177 -0.288158 0.090713 -0.356378 -0.012503 -0.140673 0.183597 -0.079730 0.067780 -0.032925 0.102595 0.122871 0.031418 0.011856 -0.255408 -0.186927 -0.413069 -0.126626 0.017599 0.209928 0.116121 -0.086906 
1374 0.175243 0.097185 0.231633 0.029923 0.056910 -0.171883 0.098530 -0.237299 0.255770 -0.308604 0.066758 -0.246786 -0.122503 0.443788 -0.250230 -0.034825 -0.043859 0.025331 -0.262581 -0.280151 0.292324 -0.003702 0.316309 -0.154332 -0.015493 -0.050190 0.139813 0.150040 0.024559 -0.158678 -0.082339 0.086354 -0.080193 -0.253806 -0.107143 -0.029619 0.275793 0.094787 0.085123 0.229245 -0.110530 0.075997 -0.353924 0.321218 0.071912 -0.140769 0.061155 0.155912 0.010936 -0.123943 -0.017921 0.143095 0.101665 -0.215003 0.118511 0.030134 -0.256250 -0.244441 0.334111 -0.139125 0.151532 -0.048087 0.182743 -0.251886 0.281328 0.005066 0.035786 0.034122 0.189274 -0.118134 0.456448 -0.129385 -0.075789 -0.021362 -0.070095 -0.021536 -0.192187 -0.169647 0.013754 -0.341871 0.082212 -0.242928 0.191542 -0.232764 0.082510 -0.023813 0.101013 -0.012019 0.056377 0.055231 0.116934 -0.007973 -0.066509 -0.042021 -0.095202 0.002994 0.070904 0.362976 0.138467 -0.070966 
483 0.245852 0.108100 0.340138 0.087906 0.040881 -0.281303 0.202455 -0.405941 0.338103 -0.439955 0.123300 -0.365492 -0.264859 0.655865 -0.377629 -0.070889 -0.013047 0.037627 -0.477858 -0.420573 0.447157 0.089995 0.496993 -0.278327 -0.025096 -0.060830 0.216243 0.273432 0.035760 -0.320058 -0.154457 0.137813 -0.237543 -0.398901 -0.221166 0.000562 0.459381 0.066753 0.173213 0.324767 -0.233404 0.093662 -0.564160 0.506477 0.127678 -0.179914 0.059155 0.261326 0.000692 -0.218498 -0.041864 0.301668 0.111293 -0.299263 0.162845 0.092060 -0.425853 -0.344671 0.558650 -0.231057 0.266285 -0.041828 0.249172 -0.386552 0.397564 0.029845 0.058787 0.097401 0.279432 -0.224206 0.681055 -0.180746 -0.153969 -0.082783 -0.228452 0.058502 -0.348795 -0.196967 0.058772 -0.664332 0.049420 -0.426990 0.255747 -0.345974 0.077800 0.059537 0.225078 -0.026456 0.164352 0.067532 0.155484 -0.095213 -0.070054 -0.035465 -0.238721 -0.014223 0.051526 0.511188 0.195420 -0.122066 
1610 0.200046 -0.366334 -0.317340 -0.149445 -0.140387 0.004365 -0.587526 0.271047 -0.417472 -0.313882 0.219669 -0.282359 0.415033 0.261383 0.120498 -0.520783 -0.007849 -0.143599 -0.383294 -0.367440 -0.047027 0.320429 0.032219 0.067591 -0.387613 -0.362002 -0.101843 0.412764 0.006056 0.267498 -0.100591 -0.233176 0.161622 -0.371039 -0.000168 0.173890 0.155970 0.205919 -0.144567 -0.330245 0.191710 -0.325611 -0.162299 0.002873 -0.182643 0.225010 -0.031322 0.358313 0.124147 0.478157 0.175925 -0.220711 0.145948 -0.354073 0.067002 -0.313746 -0.032830 -0.262261 0.038369 0.753520 0.627423 0.292711 0.082870 -0.038653 0.447224 -0.447678 0.410839 -0.161812 0.323541 -0.211630 0.049222 0.212900 0.118808 -0.014330 0.112567 -0.055082 -0.008477 -0.567541 -0.065084 0.202608 0.185693 0.439215 0.073603 -0.284035 0.320521 -0.391927 -0.006420 -0.061599 -0.278767 0.118510 0.177031 0.258282 -0.325185 -0.023812 0.454935 0.062583 0.219186 0.236078 0.021206 0.024955 
1021 0.202927 0.021345 0.300469 0.019235 0.120925 0.093130 0.042851 -0.228963 0.057160 -0.143015 0.042372 -0.241862 -0.134362 0.524531 -0.340223 -0.117381 -0.022113 0.055284 -0.455241 -0.232162 0.188854 0.234565 0.451531 -0.142374 -0.351034 -0.127148 -0.033578 0.300072 -0.037995 -0.008324 -0.410897 0.119024 -0.235337 -0.203710 -0.215868 -0.092371 0.186421 0.000630 0.334235 0.222492 -0.444295 -0.216095 -0.262212 0.338476 -0.027717 -0.029037 0.011191 0.110027 -0.154027 -0.122365 0.103420 0.125606 -0.038409 -0.283973 0.111059 0.221307 -0.333181 -0.347010 0.392158 -0.211767 0.279356 -0.055143 -0.105619 -0.068517 0.115068 0.106696 0.446985 0.222978 0.179926 -0.446468 0.710238 -0.361835 -0.163744 0.058815 -0.177277 0.154823 0.002522 0.124145 0.362950 -0.392057 0.027561 -0.135691 0.160338 -0.301201 0.030598 0.148226 0.130616 -0.152310 0.091454 -0.044066 -0.126693 -0.269281 -0.031038 -0.019108 0.058814 -0.099666 0.110743 0.485032 0.257248 0.036732 
1322 0.260151 0.031729 0.377214 0.012686 0.148141 0.132638 0.023145 -0.280498 0.070529 -0.165757 0.044078 -0.287715 -0.138064 0.663301 -0.415686 -0.136823 -0.017367 0.093175 -0.560600 -0.279539 0.226776 0.313791 0.549958 -0.140551 -0.447707 -0.162166 -0.083941 0.365013 -0.053504 -0.002438 -0.518199 0.156542 -0.271256 -0.232753 -0.248218 -0.110514 0.211585 0.028043 0.428619 0.261437 -0.564258 -0.275175 -0.296409 0.412717 -0.056522 -0.024574 0.021139 0.119117 -0.213399 -0.162486 0.147584 0.127656 -0.043315 -0.358743 0.138427 0.286007 -0.398807 -0.433371 0.462889 -0.247947 0.359689 -0.069081 -0.155514 -0.054809 0.137167 0.146950 0.576795 0.279959 0.223481 -0.574125 0.884867 -0.491317 -0.215192 0.105358 -0.201911 0.188878 0.026205 0.194349 0.468278 -0.460610 0.034376 -0.153222 0.197870 -0.360157 0.033978 0.179757 0.139533 -0.208446 0.083362 -0.056156 -0.183938 -0.329646 -0.033251 -0.013177 0.127805 -0.134899 0.155890 0.609095 0.331922 0.047360 
923 0.053974 -0.038006 0.024174 -0.001184 0.018393 0.004623 -0.019893 -0.024855 -0.019474 -0.085808 0.038876 -0.100713 -0.006046 0.124687 -0.073958 -0.064960 -0.013399 -0.017109 -0.125415 -0.086564 0.047209 0.048512 0.105093 -0.039293 -0.084390 -0.055326 0.028273 0.091764 0.004579 0.005873 -0.082421 -0.005228 -0.042108 -0.087016 -0.051356 -0.015257 0.060979 0.016332 0.031444 0.028739 -0.054630 -0.055439 -0.092973 0.077928 -0.009599 -0.003508 0.009124 0.070145 0.008768 0.027262 0.010416 0.029913 0.018299 -0.089885 0.029625 0.007128 -0.075650 -0.082702 0.095500 0.020161 0.109257 0.022180 0.011762 -0.060817 0.088992 -0.030085 0.108040 0.029095 0.060045 -0.084362 0.154351 -0.015262 -0.016722 -0.006426 -0.024043 0.022880 -0.018645 -0.069403 0.049435 -0.064876 0.045490 -0.011708 0.035132 -0.090949 0.053779 -0.018868 0.030986 -0.025320 0.004902 0.016473 0.018277 -0.014793 -0.045427 -0.010916 0.009246 -0.009091 0.036258 0.139296 0.031741 -0.001695 
1505 0.087654 -0.049668 0.051426 -0.000460 0.028042 0.003591 -0.025040 -0.044442 -0.034611 -0.143405 0.051241 -0.188361 -0.014342 0.216010 -0.140862 -0.098143 -0.018946 -0.043216 -0.218649 -0.151648 0.091142 0.067540 0.185020 -0.064548 -0.148443 -0.091793 0.054796 0.150808 0.008348 0.018532 -0.137632 -0.007176 -0.071794 -0.143899 -0.093535 -0.030769 0.105898 0.024297 0.059569 0.056162 -0.086557 -0.107218 -0.166949 0.131225 -0.006518 -0.023236 0.009425 0.105625 0.031807 0.048637 0.024071 0.066696 0.044725 -0.167098 0.043125 0.021260 -0.119271 -0.153600 0.173775 0.014979 0.167992 0.032482 0.025586 -0.103504 0.141512 -0.049410 0.174093 0.053541 0.109645 -0.146516 0.270734 -0.028873 -0.019068 -0.013360 -0.052430 0.035345 -0.017120 -0.114013 0.079271 -0.119407 0.076568 -0.020489 0.061128 -0.173096 0.085332 -0.039029 0.065705 -0.030783 0.015366 0.027465 0.046404 -0.020626 -0.077039 -0.021078 0.001794 -0.030377 0.048964 0.245900 0.054211 0.000313 
1761 0.168617 -0.341666 -0.315545 -0.099711 -0.092139 0.128193 -0.150272 0.199052 -0.311528 -0.230051 0.015121 -0.271516 0.166188 0.061124 -0.053320 -0.351920 -0.042780 -0.167308 -0.118037 -0.172825 -0.021707 0.041266 -0.055980 -0.037041 -0.432075 -0.205030 0.088284 0.261422 0.110552 0.258008 -0.150123 -0.090347 0.004769 -0.255418 -0.056202 -0.024152 0.071169 -0.015901 -0.152633 -0.120283 0.036707 -0.405814 -0.164132 -0.049978 -0.193003 -0.000808 0.035035 0.175945 0.235966 0.505060 0.030883 -0.025424 0.244725 -0.288957 0.022807 -0.228301 -0.112669 -0.189181 0.098973 0.351080 0.340890 0.242713 0.142344 -0.111763 0.164337 -0.342142 0.284540 0.104637 0.168743 -0.068521 0.114261 0.385298 0.087541 -0.221439 0.084480 -0.143735 0.059667 -0.437462 -0.078361 0.209339 0.255037 0.412734 0.076845 -0.308682 0.223884 -0.232723 0.098871 -0.009007 -0.080810 0.029433 0.201476 0.083370 -0.151770 -0.076305 0.144766 0.008356 0.092362 0.417123 -0.142948 0.027706 
1566 0.102799 -0.052588 0.061874 -0.008078 0.034528 0.008780 -0.029400 -0.043518 -0.027093 -0.129703 0.047742 -0.154114 -0.016048 0.213726 -0.129352 -0.099943 -0.029892 -0.021101 -0.205868 -0.137495 0.087424 0.065209 0.167101 -0.066350 -0.129572 -0.076070 0.046994 0.128503 -0.003332 0.017218 -0.125916 0.008550 -0.062248 -0.131981 -0.083451 -0.023205 0.099251 0.031849 0.054568 0.051131 -0.085190 -0.094246 -0.162169 0.125188 -0.024275 -0.012207 0.015642 0.101620 0.007473 0.046460 0.024414 0.048764 0.037405 -0.157130 0.057089 0.002500 -0.118214 -0.142483 0.154537 0.021264 0.162612 0.025463 0.035350 -0.081448 0.135172 -0.055752 0.169746 0.048948 0.107711 -0.132398 0.250264 -0.038295 -0.020669 -0.019167 -0.042642 0.021852 -0.021211 -0.110595 0.073034 -0.108658 0.056168 -0.006479 0.064356 -0.147364 0.081499 -0.034748 0.061336 -0.032378 0.019687 0.029277 0.043739 -0.027107 -0.074667 -0.018871 0.010668 -0.031300 0.063354 0.226228 0.045597 -0.001164 
1211 0.223963 -0.452957 -0.362236 -0.150035 -0.152812 0.090089 -0.481344 0.288451 -0.417686 -0.340661 0.160692 -0.282237 0.389075 0.210130 0.084457 -0.508425 -0.036595 -0.150042 -0.292319 -0.375562 -0.030007 0.222749 0.012013 0.066800 -0.439127 -0.334927 -0.067730 0.420899 0.062972 0.300462 -0.158153 -0.200745 0.149296 -0.383288 0.022083 0.149402 0.112559 0.146957 -0.153633 -0.327584 0.143754 -0.391211 -0.149288 -0.058146 -0.227646 0.182227 -0.034138 0.319563 0.139470 0.548037 0.134908 -0.166075 0.189273 -0.376958 0.092228 -0.344308 -0.053179 -0.260409 0.061543 0.752243 0.612127 0.358428 0.114395 -0.054423 0.368394 -0.476582 0.422763 -0.072835 0.293746 -0.156563 0.069851 0.307680 0.106088 -0.060620 0.133605 -0.130650 -0.017050 -0.587193 -0.081984 0.227401 0.192241 0.504847 0.041199 -0.336242 0.308977 -0.387999 0.046621 -0.089437 -0.317734 0.131948 0.197229 0.206269 -0.278762 -0.048757 0.409746 0.019314 0.229713 0.320916 -0.045415 0.025753 
1835 0.150023 -0.332898 -0.407932 -0.128167 -0.114077 0.135818 -0.268276 0.242426 -0.419558 -0.255471 0.055475 -0.430871 0.200212 0.131484 -0.050456 -0.448930 -0.059350 -0.288210 -0.184816 -0.195868 -0.099606 0.127627 -0.071366 -0.008937 -0.598235 -0.324776 0.125682 0.292571 0.103735 0.395210 -0.187843 -0.199327 -0.000708 -0.357851 -0.126830 -0.023887 0.114864 -0.054508 -0.209709 -0.151702 0.109788 -0.532398 -0.250559 -0.022274 -0.200733 -0.034890 0.030233 0.246592 0.351206 0.631075 0.013537 -0.036851 0.318665 -0.377939 -0.011534 -0.240323 -0.073537 -0.177733 0.101548 0.413959 0.459775 0.252394 0.127802 -0.131154 0.287468 -0.411124 0.377777 0.095761 0.221129 -0.121490 0.067745 0.492435 0.170838 -0.308511 0.032075 -0.140453 0.177216 -0.526530 -0.052114 0.305354 0.387533 0.519810 0.150395 -0.430359 0.259967 -0.293363 0.102897 0.046584 -0.032316 -0.005247 0.310076 0.146726 -0.180772 -0.067334 0.206061 0.064575 0.098681 0.603739 -0.205373 0.041265 
896 0.290079 -0.013459 0.422912 0.054910 0.148728 0.103935 0.077231 -0.344205 0.053145 -0.223155 0.086656 -0.358783 -0.232783 0.740906 -0.496787 -0.158190 -0.001686 0.081930 -0.708457 -0.361269 0.293855 0.349566 0.668827 -0.217967 -0.456515 -0.166734 -0.035714 0.443220 -0.051989 -0.064710 -0.583129 0.174556 -0.378326 -0.319082 -0.314647 -0.103386 0.315796 -0.019969 0.475134 0.311716 -0.624958 -0.281587 -0.403094 0.499714 -0.034291 -0.020804 -0.005201 0.193888 -0.223568 -0.183170 0.132898 0.235115 -0.068228 -0.395935 0.160477 0.329987 -0.492607 -0.468791 0.580347 -0.269544 0.434355 -0.041573 -0.134223 -0.123847 0.188819 0.155894 0.625435 0.323813 0.261373 -0.639798 1.007221 -0.498383 -0.247303 0.081084 -0.306725 0.239007 -0.047096 0.155617 0.520637 -0.623453 0.015820 -0.238282 0.194781 -0.434645 0.036350 0.228121 0.200401 -0.225123 0.159314 -0.057555 -0.154113 -0.383315 -0.053631 -0.025379 0.002888 -0.161070 0.124970 0.665172 0.348071 0.021265 
1479 0.248592 0.022333 0.367975 0.009616 0.144905 0.119188 0.023136 -0.281176 0.071318 -0.165337 0.038957 -0.283042 -0.145004 0.647053 -0.401731 -0.147044 -0.017029 0.096203 -0.549964 -0.275764 0.225525 0.313446 0.546775 -0.146522 -0.434088 -0.150102 -0.077609 0.371796 -0.042188 -0.011604 -0.504452 0.157396 -0.267648 -0.242762 -0.240844 -0.103127 0.222724 0.025233 0.419549 0.254510 -0.554672 -0.271022 -0.288872 0.414315 -0.053762 -0.037833 0.016495 0.115052 -0.209834 -0.158061 0.143580 0.131479 -0.038248 -0.351082 0.138404 0.280417 -0.394499 -0.429528 0.461677 -0.253197 0.357174 -0.070142 -0.137500 -0.048012 0.129619 0.146759 0.553781 0.267253 0.215871 -0.561205 0.868289 -0.488992 -0.204362 0.104426 -0.201032 0.181049 0.007622 0.196056 0.448958 -0.458375 0.024090 -0.148797 0.189700 -0.361057 0.030322 0.178849 0.138700 -0.196632 0.082861 -0.062603 -0.173688 -0.324912 -0.031630 -0.000939 0.118893 -0.122438 0.152860 0.604892 0.327903 0.047076 
1215 0.156394 -0.052595 0.221713 0.068604 0.063879 0.031249 0.076450 -0.210589 0.008189 -0.167396 0.091077 -0.237412 -0.177248 0.399075 -0.301616 -0.089528 0.010437 0.013502 -0.450789 -0.239628 0.188744 0.183679 0.404054 -0.164445 -0.215796 -0.091486 0.032178 0.258666 -0.030895 -0.081986 -0.327818 0.086629 -0.277190 -0.206610 -0.211593 -0.040050 0.213272 -0.042353 0.252939 0.169787 -0.318869 -0.129409 -0.287380 0.291960 0.012383 0.001443 -0.014506 0.156886 -0.095801 -0.094248 0.043519 0.192410 -0.062330 -0.215345 0.085940 0.183565 -0.292782 -0.254666 0.363381 -0.121334 0.258931 0.003783 -0.038458 -0.131826 0.138497 0.064151 0.326123 0.175583 0.147674 -0.356467 0.553570 -0.211940 -0.146260 0.006879 -0.227097 0.167766 -0.091371 -0.004048 0.278015 -0.416581 -0.003308 -0.172057 0.074490 -0.240399 0.021651 0.139755 0.141738 -0.117102 0.132164 -0.009153 -0.052860 -0.201088 -0.064522 -0.017894 -0.121646 -0.094110 0.028839 0.333753 0.158212 -0.023573 
1199 0.201963 -0.360792 -0.326721 -0.153446 -0.138866 0.017001 -0.566182 0.268399 -0.410423 -0.322106 0.205992 -0.297224 0.403592 0.253611 0.109740 -0.513160 -0.021889 -0.164635 -0.359980 -0.369897 -0.044145 0.289242 0.026785 0.077848 -0.413805 -0.344916 -0.086306 0.407423 0.011051 0.278750 -0.102249 -0.224030 0.150531 -0.370286 0.010020 0.175430 0.134313 0.186945 -0.161326 -0.335584 0.180336 -0.326575 -0.155192 -0.007708 -0.189636 0.222071 -0.031596 0.360450 0.122232 0.480710 0.150145 -0.223799 0.143251 -0.378385 0.065516 -0.307218 -0.021247 -0.259738 0.028742 0.747211 0.616671 0.308714 0.095622 -0.050969 0.432868 -0.453795 0.405485 -0.150769 0.312599 -0.197643 0.052798 0.219502 0.136948 -0.047000 0.110233 -0.069313 0.002017 -0.572857 -0.064521 0.211141 0.198686 0.428007 0.074123 -0.290539 0.305721 -0.402610 -0.000570 -0.043437 -0.277307 0.116316 0.192019 0.257927 -0.309045 -0.035836 0.448256 0.070751 0.211004 0.263278 -0.002303 0.031956 
1539 0.216673 -0.480374 -0.372635 -0.083686 -0.161185 0.237741 -0.238101 0.230516 -0.366635 -0.293370 0.081919 -0.313279 0.234952 0.063887 -0.044760 -0.400087 -0.092247 -0.168612 -0.173613 -0.254443 -0.015307 0.079095 0.007239 -0.038950 -0.473278 -0.264619 0.051079 0.339175 0.173413 0.328177 -0.203955 -0.123684 0.071832 -0.398071 -0.025118 0.027269 0.036571 -0.038365 -0.159715 -0.167460 0.077654 -0.464476 -0.208127 -0.090520 -0.224381 0.010918 0.017099 0.219018 0.211551 0.580018 -0.001871 -0.005429 0.308154 -0.379003 0.037038 -0.334352 -0.155430 -0.185811 0.152109 0.524652 0.481079 0.314564 0.150577 -0.103995 0.236193 -0.392307 0.352064 0.109746 0.149313 -0.055592 0.073452 0.471964 0.102172 -0.190081 0.087808 -0.170369 0.038517 -0.509666 -0.121792 0.239259 0.223090 0.548835 -0.007060 -0.410853 0.271621 -0.251879 0.115572 -0.103894 -0.257406 0.097578 0.243263 0.082827 -0.197980 -0.063825 0.173815 -0.022304 0.167562 0.476173 -0.200855 0.017682 
1153 0.177620 -0.289329 -0.257311 -0.167795 -0.106271 -0.107963 -0.662652 0.262140 -0.393632 -0.317987 0.271270 -0.281907 0.419387 0.352233 0.136094 -0.539905 0.005485 -0.138886 -0.457207 -0.410122 -0.028601 0.397035 0.060893 0.086583 -0.341787 -0.362226 -0.144635 0.422271 -0.031917 0.233376 -0.073471 -0.253336 0.172668 -0.359703 0.006562 0.220596 0.188155 0.263914 -0.132088 -0.344855 0.206374 -0.221464 -0.143181 0.062471 -0.164456 0.300860 -0.052359 0.406166 0.085886 0.368481 0.223001 -0.285456 0.051145 -0.345799 0.083828 -0.288000 0.011535 -0.282593 0.012227 0.784649 0.645898 0.246115 0.077573 -0.034209 0.524290 -0.436599 0.400061 -0.247811 0.363727 -0.249014 0.038249 0.098812 0.131373 0.043312 0.100687 0.000884 -0.038683 -0.572968 -0.043311 0.162947 0.163329 0.354855 0.090291 -0.234127 0.331631 -0.421282 -0.037020 -0.032757 -0.265744 0.121957 0.162648 0.308347 -0.336141 0.007933 0.513795 0.104478 0.228745 0.159488 0.102180 0.038123 
1796 0.200382 -0.471477 -0.312275 -0.074407 -0.176527 0.211852 -0.305767 0.221839 -0.350909 -0.266379 0.116660 -0.248855 0.267713 0.086782 0.003881 -0.380845 -0.070627 -0.118707 -0.201744 -0.284014 0.008923 0.103655 0.033111 -0.008014 -0.381984 -0.254737 -0.014718 0.339480 0.148645 0.268911 -0.185163 -0.128538 0.114231 -0.381761 0.004268 0.056360 0.016889 0.017741 -0.129056 -0.194284 0.070518 -0.394774 -0.174296 -0.084633 -0.192641 0.077359 -0.019246 0.233630 0.141994 0.499355 0.044628 -0.031061 0.261089 -0.333088 0.059590 -0.316325 -0.130855 -0.174017 0.132377 0.572797 0.482141 0.327154 0.121095 -0.066543 0.257278 -0.367772 0.361261 0.061280 0.167413 -0.062773 0.057425 0.391211 0.078856 -0.100064 0.096392 -0.143125 -0.017469 -0.488831 -0.098938 0.193864 0.160889 0.509734 -0.043405 -0.350060 0.243885 -0.245962 0.095083 -0.127829 -0.292576 0.094876 0.195385 0.078826 -0.203887 -0.066744 0.213271 -0.037522 0.196165 0.365899 -0.159448 0.011281 
1355 0.113836 -0.030064 0.230931 0.087256 0.170177 0.003696 0.107238 -0.138018 0.046662 -0.186231 0.094318 -0.225559 -0.125982 0.310464 -0.340544 -0.002402 -0.064956 -0.074102 -0.330994 -0.225455 0.185419 -0.077414 0.359850 -0.150185 -0.000861 -0.023317 0.153940 0.088528 -0.021411 -0.067433 -0.203855 0.006872 -0.135523 -0.112735 -0.103705 -0.101366 0.163477 0.041660 0.123286 0.203440 -0.126901 0.034383 -0.275642 0.241228 0.101361 -0.006018 0.023689 0.154035 -0.035933 -0.033797 -0.045907 0.173013 -0.076563 -0.167721 0.089467 0.099539 -0.183942 -0.159883 0.208297 -0.065192 0.091734 -0.056903 0.061062 -0.252907 0.192436 -0.006196 0.183866 0.035475 0.110755 -0.160386 0.488474 -0.103794 -0.081750 0.065398 -0.085049 0.089825 -0.087751 -0.213978 0.107022 -0.237042 0.054919 -0.246085 0.029163 -0.130876 0.113510 -0.021110 0.071359 -0.045913 0.084791 0.086900 0.020589 -0.020134 -0.155798 -0.094749 -0.255167 -0.083824 0.015452 0.211915 0.110280 -0.062956 
1236 0.125847 -0.018328 0.247036 0.098440 0.180429 -0.000988 0.107681 -0.153618 0.041757 -0.202275 0.106347 -0.246676 -0.145542 0.344510 -0.365581 0.008126 -0.074375 -0.080151 -0.364337 -0.238684 0.196446 -0.075064 0.391818 -0.157243 0.005902 -0.020204 0.165059 0.089883 -0.026712 -0.060555 -0.226666 0.012562 -0.155195 -0.127849 -0.100793 -0.105904 0.177153 0.057480 0.141725 0.221395 -0.135406 0.034866 -0.293248 0.261547 0.103549 -0.002036 0.018287 0.161436 -0.041860 -0.036789 -0.036887 0.178444 -0.091717 -0.182056 0.094711 0.118646 -0.190182 -0.180598 0.218790 -0.073120 0.087120 -0.065475 0.051571 -0.271533 0.206203 -0.003264 0.216354 0.045079 0.118683 -0.174633 0.542672 -0.119945 -0.096279 0.080809 -0.094943 0.104013 -0.081958 -0.228299 0.114194 -0.258471 0.059265 -0.267261 0.030624 -0.133877 0.131079 -0.021150 0.061179 -0.048191 0.089716 0.087492 0.012765 -0.024802 -0.172544 -0.113168 -0.264110 -0.085496 0.020504 0.216302 0.121828 -0.061802 
1899 0.241839 0.024734 0.369253 0.024991 0.150973 0.113820 0.029134 -0.279330 0.071099 -0.160975 0.041942 -0.281378 -0.151444 0.637679 -0.413608 -0.136409 -0.017758 0.088960 -0.553816 -0.273284 0.229922 0.290338 0.537522 -0.147268 -0.408877 -0.148740 -0.064296 0.350017 -0.047094 -0.011488 -0.495929 0.148005 -0.266450 -0.224581 -0.242892 -0.107500 0.221367 0.017194 0.406465 0.263202 -0.537870 -0.259999 -0.289968 0.412543 -0.041432 -0.030969 0.016356 0.123762 -0.206346 -0.155590 0.142707 0.135217 -0.042609 -0.335922 0.126378 0.272552 -0.397320 -0.419078 0.450373 -0.247474 0.351835 -0.070773 -0.134539 -0.068125 0.132609 0.141193 0.548613 0.267177 0.207247 -0.544686 0.854084 -0.479099 -0.202879 0.103486 -0.204080 0.178433 0.009769 0.178243 0.452377 -0.465561 0.034520 -0.160003 0.190328 -0.351059 0.031954 0.171690 0.143908 -0.193783 0.090810 -0.055526 -0.167579 -0.319460 -0.036295 -0.013617 0.091325 -0.136006 0.142474 0.584636 0.317740 0.040930 
1884 0.159222 0.017327 0.243043 0.020937 0.105154 0.065064 0.021681 -0.175237 0.044122 -0.112893 0.035149 -0.184079 -0.096201 0.422875 -0.271977 -0.081717 -0.023241 0.047640 -0.362914 -0.188511 0.155471 0.180555 0.360972 -0.104738 -0.265963 -0.094990 -0.026779 0.225101 -0.034264 -0.010361 -0.321875 0.094686 -0.174363 -0.155054 -0.164125 -0.077424 0.146605 0.014934 0.256755 0.172760 -0.334478 -0.158346 -0.204883 0.272493 -0.026024 -0.016673 0.009297 0.082166 -0.120188 -0.094076 0.086388 0.089091 -0.019697 -0.225306 0.089762 0.172082 -0.254985 -0.267645 0.301410 -0.151153 0.220297 -0.046122 -0.076872 -0.056695 0.095924 0.078446 0.354029 0.158256 0.141522 -0.348406 0.561627 -0.300733 -0.130645 0.060337 -0.131337 0.112835 0.001920 0.083428 0.278651 -0.304359 0.021451 -0.108036 0.117462 -0.226640 0.033774 0.101709 0.093257 -0.117754 0.059652 -0.020688 -0.092421 -0.192315 -0.028733 -0.016087 0.041418 -0.091098 0.094974 0.380211 0.201744 0.020085 
1425 0.136825 0.053813 0.217742 0.040895 0.076031 -0.103581 0.087789 -0.183533 0.162369 -0.226715 0.059895 -0.191271 -0.112791 0.357148 -0.230997 -0.030518 -0.046589 0.015328 -0.257460 -0.209741 0.222508 0.010070 0.283335 -0.133874 -0.018033 -0.026520 0.107040 0.116381 -0.003645 -0.123338 -0.106710 0.067001 -0.096466 -0.170002 -0.096885 -0.038673 0.205260 0.069278 0.102525 0.184131 -0.124361 0.034576 -0.279492 0.261863 0.061472 -0.075598 0.052745 0.129086 -0.009884 -0.096159 -0.006421 0.124210 0.046818 -0.161384 0.091311 0.053219 -0.197746 -0.190361 0.253479 -0.131904 0.124850 -0.040140 0.106225 -0.184876 0.202281 0.019980 0.089264 0.044247 0.145251 -0.129032 0.409834 -0.125609 -0.077364 0.009216 -0.083282 0.035809 -0.117214 -0.116905 0.054953 -0.287036 0.046180 -0.211634 0.127637 -0.163244 0.075711 -0.016512 0.098231 -0.007678 0.065359 0.045641 0.053029 -0.049270 -0.066933 -0.030163 -0.089135 -0.027568 0.050389 0.279386 0.122948 -0.045090 
475 0.184235 0.082456 0.236552 0.044795 0.060005 -0.165779 0.105966 -0.239842 0.258085 -0.330364 0.071390 -0.262674 -0.111950 0.452905 -0.267242 -0.031396 -0.048397 0.024404 -0.267352 -0.280906 0.303644 -0.008353 0.319425 -0.169006 -0.003463 -0.047132 0.150943 0.148901 0.028923 -0.158100 -0.080875 0.075322 -0.076602 -0.253294 -0.094605 -0.036433 0.274339 0.105373 0.076146 0.231172 -0.106968 0.081266 -0.370443 0.329039 0.079120 -0.139716 0.074092 0.156594 0.017226 -0.109273 -0.019370 0.144370 0.108302 -0.224344 0.125256 0.016961 -0.261284 -0.239004 0.329782 -0.135609 0.150874 -0.038966 0.187883 -0.267848 0.288570 -0.015973 0.033505 0.021847 0.202444 -0.106559 0.468504 -0.115332 -0.077938 -0.019535 -0.059163 -0.020107 -0.188783 -0.206110 -0.006936 -0.348003 0.089826 -0.246128 0.188770 -0.229615 0.098847 -0.051531 0.108515 0.000419 0.047464 0.072939 0.124426 0.000383 -0.081795 -0.044948 -0.111253 -0.000214 0.070757 0.363533 0.131700 -0.068955 
1298 0.239536 0.034370 0.342983 0.010405 0.144276 0.122970 -0.002294 -0.249159 0.072825 -0.149020 0.033960 -0.251219 -0.104232 0.617633 -0.375320 -0.132786 -0.032304 0.088759 -0.497756 -0.253901 0.199281 0.286725 0.500246 -0.118283 -0.411282 -0.146454 -0.080517 0.328690 -0.050018 0.008914 -0.467400 0.144936 -0.216448 -0.209014 -0.218588 -0.108377 0.188752 0.039831 0.388776 0.242879 -0.513197 -0.255416 -0.252533 0.379631 -0.048997 -0.030227 0.027254 0.098053 -0.208228 -0.142955 0.151229 0.093428 -0.041497 -0.324099 0.133451 0.242308 -0.358963 -0.404210 0.413694 -0.223430 0.324607 -0.071432 -0.144586 -0.030193 0.132200 0.129485 0.527297 0.234124 0.199759 -0.521679 0.807910 -0.473705 -0.192798 0.111306 -0.161801 0.158285 0.032133 0.178653 0.422594 -0.406277 0.032213 -0.130875 0.188441 -0.326118 0.042567 0.141966 0.119515 -0.192022 0.054107 -0.045880 -0.168658 -0.293159 -0.039536 -0.013700 0.149249 -0.117103 0.160464 0.563174 0.315252 0.056652 
366 0.198123 0.115983 0.260387 0.045259 0.044028 -0.236668 0.115271 -0.276080 0.320384 -0.398435 0.069113 -0.297070 -0.128827 0.523021 -0.286553 -0.046350 -0.061064 0.028596 -0.293167 -0.334961 0.363873 -0.021519 0.354008 -0.181728 0.018455 -0.046075 0.186363 0.157783 0.041361 -0.201983 -0.054658 0.093793 -0.067465 -0.309940 -0.116444 -0.018848 0.338347 0.130474 0.065898 0.261743 -0.089927 0.115260 -0.431401 0.380777 0.100658 -0.176304 0.078102 0.199381 0.039493 -0.122726 -0.041333 0.167164 0.147469 -0.250175 0.146771 -0.002433 -0.297846 -0.282091 0.377036 -0.146989 0.179133 -0.053060 0.257957 -0.317004 0.359649 -0.025744 0.006546 0.010175 0.234797 -0.100605 0.501019 -0.111959 -0.081388 -0.044703 -0.059241 -0.041659 -0.244487 -0.248224 -0.044901 -0.399851 0.103622 -0.295933 0.241103 -0.261948 0.115863 -0.063919 0.131742 0.014614 0.057235 0.088598 0.170366 0.021969 -0.088355 -0.041813 -0.118040 0.021112 0.076617 0.430610 0.151406 -0.095067 
930 0.177344 0.100468 0.246916 0.047023 0.054463 -0.206614 0.120362 -0.259099 0.287261 -0.330463 0.064629 -0.253501 -0.133175 0.479120 -0.257433 -0.048187 -0.063545 0.020277 -0.280942 -0.301173 0.318786 0.002271 0.328127 -0.160859 -0.002358 -0.035638 0.161325 0.156315 0.023293 -0.194470 -0.059633 0.087684 -0.073132 -0.258506 -0.106592 -0.028603 0.300885 0.117433 0.080456 0.242115 -0.116719 0.083976 -0.386729 0.341537 0.097367 -0.143572 0.071970 0.168309 0.027027 -0.122051 -0.016043 0.152273 0.106092 -0.224493 0.121334 0.017946 -0.261548 -0.259690 0.343457 -0.153080 0.163309 -0.056728 0.211448 -0.271021 0.316862 -0.004330 0.026423 0.019564 0.216453 -0.115082 0.486714 -0.123696 -0.083711 -0.026365 -0.076115 -0.008882 -0.208622 -0.196130 -0.013143 -0.368956 0.073282 -0.278107 0.204812 -0.236205 0.098624 -0.057060 0.127301 0.014675 0.062023 0.064052 0.120734 -0.014068 -0.076388 -0.032541 -0.106754 0.002965 0.069491 0.386158 0.157927 -0.076587 
1230 0.182196 -0.359522 -0.371497 -0.164024 -0.123134 0.107932 -0.425563 0.262604 -0.443832 -0.300777 0.111124 -0.361947 0.320055 0.184363 0.029411 -0.476747 -0.048171 -0.252450 -0.243139 -0.286408 -0.082099 0.186674 -0.054278 0.053630 -0.486820 -0.339144 0.015254 0.364563 0.054428 0.353190 -0.149266 -0.198921 0.083851 -0.355795 -0.042367 0.086944 0.108791 0.071484 -0.183123 -0.263332 0.149067 -0.424565 -0.194839 -0.048183 -0.208105 0.091122 -0.005394 0.296764 0.235776 0.579492 0.083206 -0.137689 0.231526 -0.393076 0.033861 -0.276071 -0.008747 -0.218014 0.053803 0.579600 0.549808 0.318251 0.101277 -0.098075 0.334956 -0.455117 0.394082 -0.002469 0.263329 -0.156410 0.042504 0.375968 0.176811 -0.184307 0.088012 -0.120486 0.089998 -0.553468 -0.058898 0.294254 0.310920 0.484769 0.113143 -0.365140 0.285199 -0.359610 0.055433 -0.008826 -0.174511 0.065555 0.252096 0.211181 -0.230892 -0.057522 0.333401 0.077002 0.161655 0.426739 -0.124958 0.031348 
1621 0.217582 -0.477483 -0.390726 -0.122791 -0.150948 0.160683 -0.343664 0.264464 -0.420365 -0.302839 0.102337 -0.310552 0.312402 0.127034 0.016222 -0.466150 -0.049716 -0.182215 -0.209018 -0.290272 -0.026885 0.133849 -0.026094 0.009777 -0.491334 -0.301453 0.011814 0.366176 0.130228 0.315792 -0.190225 -0.160799 0.077954 -0.372255 -0.025365 0.068967 0.063550 0.032837 -0.181875 -0.250419 0.108311 -0.486343 -0.184579 -0.081414 -0.237572 0.070727 -0.005238 0.273838 0.221911 0.607705 0.082682 -0.086748 0.271411 -0.388229 0.056842 -0.335973 -0.114962 -0.241320 0.098307 0.608440 0.525237 0.341193 0.120432 -0.089595 0.285559 -0.433419 0.397528 0.046931 0.221775 -0.111747 0.080979 0.407849 0.100251 -0.176493 0.125518 -0.159733 0.030894 -0.570577 -0.086602 0.268441 0.261859 0.541144 0.045582 -0.383800 0.296571 -0.339951 0.078539 -0.063628 -0.220763 0.087039 0.241733 0.150717 -0.251820 -0.081192 0.277596 0.001660 0.171408 0.444086 -0.142264 0.016391 
1437 0.134178 -0.203479 -0.160826 -0.115029 -0.060805 0.002008 -0.347667 0.142781 -0.250063 -0.221912 0.128975 -0.221961 0.227733 0.215625 0.045116 -0.316902 -0.016092 -0.124244 -0.261209 -0.267226 -0.025956 0.182306 0.043422 0.050016 -0.269263 -0.222771 -0.027889 0.269377 -0.008542 0.169046 -0.083700 -0.132962 0.065251 -0.239032 -0.013350 0.102817 0.121359 0.127374 -0.064662 -0.201652 0.098857 -0.192452 -0.125301 0.025497 -0.101911 0.113844 -0.020722 0.236027 0.085909 0.285028 0.098804 -0.108856 0.071902 -0.259679 0.055698 -0.155917 -0.004047 -0.181651 0.054783 0.418581 0.404077 0.196033 0.053792 -0.053334 0.282514 -0.284686 0.288311 -0.068524 0.214356 -0.146947 0.093870 0.109898 0.086568 -0.023459 0.046177 -0.032085 -0.009207 -0.346307 0.001374 0.094692 0.137867 0.237302 0.079100 -0.208836 0.193233 -0.243168 -0.000008 -0.012194 -0.142619 0.063867 0.118031 0.162907 -0.168722 -0.021243 0.272009 0.039608 0.144083 0.224901 0.009669 0.027701 
1337 0.084619 -0.064458 0.008559 -0.018328 0.009152 0.015403 -0.072348 -0.021967 -0.054977 -0.126407 0.059623 -0.164471 0.018420 0.191357 -0.101123 -0.104109 -0.017158 -0.029907 -0.187512 -0.143936 0.064835 0.077508 0.129964 -0.046357 -0.146254 -0.098634 0.035119 0.136202 0.008071 0.024355 -0.107094 -0.023167 -0.056153 -0.134147 -0.068505 -0.001496 0.089399 0.023454 0.033348 0.010874 -0.047353 -0.103886 -0.132010 0.098588 -0.011739 -0.002719 0.013344 0.105081 0.049971 0.076213 0.026032 0.026307 0.032504 -0.150463 0.045015 -0.012336 -0.086577 -0.123483 0.147885 0.068631 0.178685 0.040060 0.031114 -0.073725 0.137652 -0.070539 0.170605 0.031606 0.097798 -0.118570 0.211951 -0.010507 -0.009570 -0.014574 -0.030806 0.027206 -0.004073 -0.125991 0.069627 -0.056520 0.088639 0.027502 0.055818 -0.143459 0.093627 -0.066781 0.043650 -0.026254 -0.006938 0.025142 0.055067 0.004727 -0.057513 -0.012572 0.039695 -0.026378 0.053906 0.213504 0.044338 0.010923 
1801 0.110550 0.051058 0.183454 0.041823 0.057394 -0.097824 0.076939 -0.174121 0.156132 -0.180342 0.054116 -0.162757 -0.092439 0.304084 -0.182652 -0.020337 -0.034339 0.017394 -0.220795 -0.185204 0.196054 0.022972 0.236723 -0.111771 -0.021146 -0.032407 0.083024 0.109594 -0.003352 -0.107210 -0.091020 0.058251 -0.082148 -0.147317 -0.084450 -0.036524 0.181324 0.055591 0.088688 0.162580 -0.121161 0.026121 -0.238100 0.223219 0.054042 -0.068052 0.031109 0.111308 -0.009451 -0.086165 0.002021 0.106476 0.031278 -0.147658 0.078378 0.047949 -0.178315 -0.166305 0.218114 -0.110132 0.107701 -0.035840 0.092713 -0.156746 0.171003 0.022596 0.075105 0.037191 0.128824 -0.109826 0.350427 -0.116803 -0.068710 0.008662 -0.068360 0.029151 -0.111921 -0.089518 0.050577 -0.255528 0.027454 -0.192386 0.109181 -0.150852 0.052256 -0.007389 0.077532 -0.011064 0.055541 0.037274 0.036839 -0.034411 -0.045707 -0.025653 -0.073637 -0.021570 0.040018 0.233341 0.116167 -0.043111 
1695 0.129365 0.070072 0.200886 0.045746 0.052156 -0.133294 0.096177 -0.203320 0.191799 -0.232658 0.057510 -0.195795 -0.108929 0.364571 -0.220212 -0.042742 -0.046803 0.015876 -0.248520 -0.230953 0.233541 0.018492 0.276058 -0.136010 -0.018324 -0.035793 0.114408 0.134681 0.009656 -0.142075 -0.084008 0.063367 -0.080815 -0.187817 -0.096363 -0.042741 0.225888 0.075225 0.091769 0.188822 -0.123240 0.043164 -0.291880 0.261734 0.070652 -0.100655 0.037202 0.131089 0.001795 -0.098058 -0.005647 0.125580 0.061062 -0.171379 0.093048 0.043173 -0.208598 -0.193707 0.267768 -0.127814 0.131177 -0.037464 0.128909 -0.193428 0.229422 0.007477 0.069183 0.030632 0.152890 -0.124091 0.406150 -0.115726 -0.069410 -0.003776 -0.071436 0.026327 -0.146574 -0.127532 0.037329 -0.297637 0.048002 -0.220224 0.137487 -0.174443 0.069669 -0.022523 0.104233 0.003673 0.064844 0.047781 0.071547 -0.034101 -0.060785 -0.027472 -0.096006 -0.011844 0.049802 0.287957 0.130599 -0.058925 
1795 0.221247 -0.537860 -0.343752 -0.066676 -0.181844 0.301062 -0.202081 0.197448 -0.347304 -0.282730 0.061443 -0.275277 0.213490 0.038182 -0.072398 -0.358979 -0.097852 -0.135800 -0.139049 -0.259226 0.010063 0.038253 0.036911 -0.047158 -0.462955 -0.246136 0.026464 0.328189 0.211134 0.314518 -0.230485 -0.099113 0.082820 -0.404430 -0.023682 0.002595 0.005846 -0.079034 -0.141543 -0.133688 0.040630 -0.484251 -0.202647 -0.112324 -0.214198 -0.015325 0.012519 0.214585 0.181071 0.576016 -0.017630 0.037355 0.341410 -0.369625 0.063422 -0.330389 -0.190410 -0.175249 0.182863 0.498994 0.475498 0.348255 0.140341 -0.090288 0.205488 -0.374590 0.361085 0.164682 0.118867 -0.032276 0.112450 0.486611 0.075929 -0.185440 0.092351 -0.186803 0.010730 -0.489259 -0.102135 0.210059 0.195102 0.563325 -0.049017 -0.427312 0.256772 -0.199067 0.144992 -0.134933 -0.269204 0.098757 0.222757 0.018888 -0.188559 -0.079577 0.113263 -0.077683 0.183910 0.499532 -0.221949 0.010483 
1839 0.221522 -0.381036 -0.303047 -0.170505 -0.136202 -0.012984 -0.582721 0.272653 -0.414370 -0.333700 0.227667 -0.266756 0.417114 0.283325 0.123540 -0.540095 -0.015399 -0.128828 -0.378343 -0.395915 -0.034931 0.316491 0.048969 0.084768 -0.397318 -0.356265 -0.121471 0.447759 0.017729 0.256152 -0.103960 -0.227992 0.169517 -0.350206 0.027377 0.201819 0.163899 0.227223 -0.139474 -0.357201 0.166708 -0.300585 -0.141873 0.006190 -0.197209 0.260846 -0.045520 0.374097 0.104827 0.454445 0.193719 -0.243265 0.112150 -0.367752 0.084984 -0.314810 -0.021478 -0.285026 0.027951 0.787517 0.632111 0.333160 0.092253 -0.038351 0.452079 -0.460321 0.435874 -0.163205 0.335747 -0.205052 0.056894 0.179125 0.110425 0.015292 0.130163 -0.065659 -0.044748 -0.582626 -0.053193 0.200341 0.166208 0.430702 0.072898 -0.272636 0.315149 -0.424196 -0.003207 -0.056107 -0.292409 0.112446 0.165458 0.257737 -0.321273 -0.022491 0.485798 0.061256 0.223201 0.221701 0.043517 0.048441 
1632 0.225991 -0.483813 -0.322314 -0.082345 -0.169361 0.220294 -0.306427 0.226707 -0.348053 -0.282201 0.110675 -0.254609 0.279958 0.101981 0.002572 -0.376412 -0.073457 -0.116884 -0.191286 -0.290291 0.000760 0.102475 0.025504 -0.001806 -0.392309 -0.264971 -0.013568 0.346390 0.153192 0.278928 -0.195107 -0.119461 0.116121 -0.388029 0.004563 0.073186 0.018109 0.009357 -0.144857 -0.198255 0.075933 -0.395454 -0.172220 -0.098458 -0.203650 0.068100 -0.008077 0.235565 0.144366 0.516059 0.028225 -0.034297 0.271384 -0.351373 0.061111 -0.345576 -0.139741 -0.183712 0.129801 0.578465 0.511142 0.335974 0.126341 -0.067615 0.262044 -0.378787 0.368329 0.052343 0.174350 -0.061371 0.062521 0.396762 0.077432 -0.110207 0.107784 -0.153831 -0.009985 -0.494003 -0.106150 0.190733 0.155415 0.527403 -0.038861 -0.362738 0.266699 -0.244364 0.088032 -0.135689 -0.302517 0.102329 0.197093 0.082502 -0.215452 -0.064871 0.208690 -0.050571 0.210517 0.380803 -0.142805 0.006431 
1370 0.211868 -0.307269 -0.217586 -0.158959 -0.113127 -0.121111 -0.676587 0.264818 -0.377684 -0.322874 0.280606 -0.237391 0.439900 0.369491 0.150531 -0.532296 0.015150 -0.094842 -0.481877 -0.449351 -0.001096 0.399660 0.097954 0.092344 -0.279995 -0.352774 -0.181742 0.449588 -0.038348 0.185447 -0.075513 -0.232610 0.192208 -0.341698 0.025885 0.251136 0.190654 0.303398 -0.114213 -0.356267 0.178957 -0.184933 -0.131901 0.066139 -0.163341 0.350157 -0.067049 0.424395 0.024524 0.325723 0.265673 -0.289872 0.016435 -0.331494 0.103951 -0.301160 0.002478 -0.317779 0.011769 0.826690 0.656183 0.277499 0.070663 -0.026108 0.538054 -0.410482 0.419228 -0.268275 0.379693 -0.263293 0.059642 0.037013 0.098441 0.120589 0.115773 0.003291 -0.097280 -0.571067 -0.043648 0.120749 0.102780 0.323385 0.067863 -0.205810 0.328602 -0.424000 -0.051332 -0.082143 -0.317971 0.142431 0.120776 0.298813 -0.354328 0.001010 0.541244 0.079944 0.243341 0.089347 0.146170 0.026310 
1340 0.225059 -0.544775 -0.292366 -0.016371 -0.181053 0.321901 -0.156941 0.170484 -0.276636 -0.267765 0.083137 -0.201872 0.196966 0.027666 -0.074679 -0.299828 -0.111331 -0.069771 -0.136343 -0.259669 0.071945 0.006746 0.085250 -0.069433 -0.361323 -0.206449 0.008646 0.307115 0.224817 0.247246 -0.231435 -0.051069 0.101135 -0.391219 0.017896 0.013364 -0.036685 -0.078061 -0.107677 -0.104749 0.003920 -0.417248 -0.180631 -0.120075 -0.199553 0.005646 -0.016097 0.180900 0.102642 0.499863 -0.016466 0.075179 0.308378 -0.339815 0.088324 -0.338386 -0.225746 -0.160396 0.207760 0.491787 0.440647 0.345150 0.128013 -0.077855 0.171405 -0.304388 0.339405 0.160848 0.089293 -0.019007 0.120224 0.421656 0.029269 -0.108936 0.097496 -0.172412 -0.049829 -0.441082 -0.108360 0.144550 0.098610 0.522745 -0.106483 -0.385874 0.233440 -0.152673 0.150942 -0.179842 -0.330361 0.129040 0.184026 -0.032092 -0.169913 -0.081266 0.071800 -0.115069 0.204563 0.420856 -0.207391 -0.002015 
1871 0.212793 -0.089212 0.296583 0.095700 0.087336 0.024965 0.145225 -0.304110 -0.018963 -0.220245 0.145748 -0.317785 -0.275936 0.525745 -0.415910 -0.130379 0.041863 -0.001520 -0.633959 -0.325349 0.261821 0.265867 0.553074 -0.247108 -0.284731 -0.120482 0.065730 0.372153 -0.040522 -0.142500 -0.467333 0.100165 -0.424463 -0.305202 -0.301079 -0.035462 0.323959 -0.084545 0.352326 0.224533 -0.436289 -0.168091 -0.393736 0.396170 0.019417 0.028449 -0.047195 0.240552 -0.125464 -0.126731 0.034529 0.311520 -0.098822 -0.278320 0.113828 0.253702 -0.418067 -0.319805 0.503012 -0.157924 0.367389 0.028239 -0.042855 -0.214051 0.190906 0.087806 0.432745 0.255641 0.194519 -0.474518 0.737162 -0.267124 -0.197236 -0.009307 -0.352169 0.242418 -0.149647 -0.010595 0.392957 -0.622346 -0.022607 -0.267089 0.085559 -0.339659 0.033922 0.215494 0.221174 -0.159974 0.209310 -0.016410 -0.060023 -0.293106 -0.083463 -0.025733 -0.234168 -0.140525 0.012828 0.414881 0.193122 -0.047121 
954 0.179815 -0.071270 0.254017 0.088374 0.076982 0.021143 0.122749 -0.253975 -0.007952 -0.196730 0.125488 -0.270492 -0.221138 0.439542 -0.351921 -0.107283 0.026948 0.006631 -0.535396 -0.282222 0.231839 0.215636 0.472043 -0.210356 -0.223634 -0.090109 0.068220 0.309504 -0.026760 -0.116580 -0.378050 0.083652 -0.343673 -0.249086 -0.246452 -0.043209 0.273546 -0.068195 0.291586 0.198946 -0.363934 -0.134883 -0.344772 0.340804 0.017839 0.005045 -0.036815 0.190812 -0.098333 -0.106955 0.021564 0.255964 -0.076444 -0.239763 0.104829 0.204298 -0.346752 -0.269175 0.432617 -0.138626 0.303757 0.026310 -0.027904 -0.178055 0.164197 0.073361 0.359752 0.218208 0.169996 -0.391393 0.633963 -0.216778 -0.168083 0.000791 -0.291105 0.195855 -0.127504 -0.013344 0.322966 -0.525451 -0.014908 -0.233037 0.076134 -0.287757 0.022903 0.164805 0.189536 -0.123691 0.172686 -0.010945 -0.048685 -0.233288 -0.061629 -0.027649 -0.195476 -0.117807 0.005166 0.354864 0.162662 -0.037596 
1718 0.105062 -0.192024 -0.127798 -0.064163 -0.045124 0.062044 -0.102106 0.071821 -0.163028 -0.155587 0.032544 -0.221864 0.065067 0.135697 -0.079729 -0.202048 -0.032118 -0.103455 -0.164551 -0.153615 0.009746 0.060552 0.060927 -0.037341 -0.269900 -0.151835 0.076371 0.188787 0.053684 0.128917 -0.134955 -0.062364 -0.048548 -0.195491 -0.067638 -0.006167 0.071358 0.000772 -0.052232 -0.052092 -0.007092 -0.236574 -0.144277 0.034923 -0.084103 -0.007879 0.006266 0.121942 0.126749 0.243589 0.027124 0.021254 0.111902 -0.209625 0.033184 -0.083292 -0.096783 -0.156420 0.130509 0.176688 0.235533 0.124040 0.045343 -0.092092 0.141323 -0.181352 0.221183 0.058624 0.123912 -0.097777 0.156330 0.158324 0.043923 -0.110017 0.006551 -0.027122 0.033831 -0.230917 0.030172 0.065093 0.161011 0.200115 0.076184 -0.213557 0.140606 -0.136316 0.055797 -0.009107 -0.012917 0.027317 0.115392 0.037642 -0.097294 -0.030898 0.075598 -0.001910 0.063188 0.317072 -0.029633 0.020749 
1846 0.111725 -0.202071 -0.143053 -0.057737 -0.053105 0.035582 -0.118546 0.099235 -0.184843 -0.171844 0.038092 -0.219417 0.089216 0.132009 -0.060710 -0.232607 -0.018554 -0.107143 -0.176160 -0.163148 0.012283 0.084866 0.046325 -0.019976 -0.295840 -0.157347 0.059896 0.207769 0.054731 0.140698 -0.128350 -0.070826 -0.033722 -0.205039 -0.075488 -0.010517 0.086716 0.020156 -0.058276 -0.063744 -0.003862 -0.256515 -0.140652 0.033456 -0.091356 0.003435 0.002474 0.143902 0.148070 0.280117 0.043521 -0.008501 0.125949 -0.209782 0.025008 -0.113201 -0.107557 -0.154595 0.116580 0.224818 0.254909 0.120497 0.057131 -0.088962 0.169561 -0.183891 0.235978 0.046552 0.132922 -0.112835 0.151108 0.163430 0.048766 -0.106102 0.015135 -0.040802 0.038629 -0.266331 0.001261 0.077639 0.166749 0.219979 0.066109 -0.222532 0.150120 -0.164718 0.056624 -0.003802 -0.018289 0.015707 0.134426 0.044244 -0.115828 -0.040628 0.112299 0.010535 0.063325 0.306893 -0.027040 0.023982 
1582 0.150198 -0.070871 0.207786 0.083039 0.056674 -0.002278 0.114993 -0.224277 -0.015022 -0.192508 0.128144 -0.258090 -0.210874 0.378599 -0.316549 -0.091831 0.019248 -0.012154 -0.478804 -0.255630 0.207164 0.169299 0.411721 -0.199159 -0.181346 -0.081050 0.081094 0.272645 -0.026713 -0.118548 -0.324708 0.069260 -0.308356 -0.236797 -0.215525 -0.027909 0.253554 -0.070909 0.234059 0.171891 -0.293884 -0.100311 -0.315585 0.298273 0.025039 0.014254 -0.034287 0.196621 -0.075093 -0.078927 0.002486 0.252809 -0.068982 -0.206479 0.089128 0.168986 -0.308881 -0.229251 0.377091 -0.099581 0.265260 0.034004 -0.010444 -0.184411 0.161777 0.052226 0.300990 0.179752 0.153028 -0.317282 0.538842 -0.166369 -0.149427 -0.015891 -0.255108 0.173409 -0.132724 -0.053008 0.258089 -0.470359 -0.013476 -0.213900 0.052284 -0.257215 0.034640 0.139483 0.167732 -0.096141 0.156994 0.000328 -0.011490 -0.196714 -0.066785 -0.029236 -0.212921 -0.097032 -0.002799 0.310532 0.135086 -0.047328 
1438 0.173197 0.006813 0.250641 0.014153 0.100045 0.077770 0.015381 -0.185419 0.041778 -0.129103 0.029270 -0.198071 -0.098121 0.445468 -0.277811 -0.102453 -0.015996 0.060340 -0.380065 -0.190593 0.157784 0.195441 0.375362 -0.103515 -0.295327 -0.107289 -0.042297 0.248276 -0.029724 -0.008103 -0.341324 0.105705 -0.178048 -0.172836 -0.168980 -0.074325 0.157735 0.018191 0.272417 0.176631 -0.362727 -0.187391 -0.213284 0.289706 -0.032490 -0.019055 0.018563 0.089472 -0.130088 -0.105864 0.089774 0.089238 -0.026112 -0.245173 0.097842 0.181585 -0.276922 -0.291657 0.316465 -0.162216 0.250401 -0.046434 -0.081037 -0.053398 0.101935 0.089332 0.378531 0.184845 0.146579 -0.372664 0.600707 -0.309587 -0.139245 0.059496 -0.131313 0.120669 0.006302 0.102592 0.299096 -0.310002 0.026044 -0.103314 0.127962 -0.252202 0.027630 0.102005 0.104990 -0.133365 0.064932 -0.035533 -0.105363 -0.211490 -0.036439 -0.011104 0.074754 -0.087232 0.106302 0.416517 0.219467 0.030053 
1060 0.203027 0.010742 0.289498 0.024135 0.115100 0.073913 0.037369 -0.225924 0.056745 -0.151020 0.055599 -0.227223 -0.119128 0.503842 -0.326227 -0.111809 -0.021638 0.058507 -0.454174 -0.243232 0.193225 0.226999 0.441935 -0.134162 -0.301770 -0.122367 -0.027991 0.290687 -0.037804 -0.026436 -0.383263 0.113098 -0.218065 -0.208143 -0.199321 -0.082612 0.197105 0.016866 0.314907 0.203414 -0.409753 -0.190740 -0.261160 0.325264 -0.023475 -0.012423 0.012074 0.114146 -0.148332 -0.122369 0.097541 0.126685 -0.030967 -0.274666 0.106705 0.201854 -0.317066 -0.322025 0.369624 -0.177536 0.284619 -0.045541 -0.078499 -0.077374 0.133474 0.089213 0.413117 0.194695 0.184668 -0.423906 0.675522 -0.349158 -0.162831 0.067007 -0.175215 0.142301 -0.016898 0.094666 0.333567 -0.384907 0.026079 -0.138478 0.136563 -0.281559 0.036892 0.129068 0.128978 -0.152981 0.076154 -0.028410 -0.111987 -0.238606 -0.041497 -0.011610 0.039806 -0.096570 0.103089 0.448664 0.242306 0.012722 
1859 0.196855 0.013550 0.279475 0.016191 0.114398 0.086809 0.027106 -0.215056 0.054625 -0.132589 0.035789 -0.214254 -0.110292 0.494829 -0.312003 -0.110989 -0.017339 0.060132 -0.426570 -0.214995 0.177393 0.231549 0.419356 -0.115720 -0.332658 -0.120716 -0.044310 0.285370 -0.040201 -0.004912 -0.390123 0.118065 -0.202274 -0.188128 -0.187747 -0.085045 0.162458 0.018246 0.318968 0.204554 -0.419963 -0.210658 -0.231423 0.325094 -0.032942 -0.021419 0.017452 0.095100 -0.156888 -0.119120 0.100311 0.100666 -0.023968 -0.268328 0.105092 0.205647 -0.313818 -0.327389 0.356578 -0.184087 0.270540 -0.053653 -0.104841 -0.042468 0.109928 0.104540 0.423622 0.207476 0.161135 -0.432813 0.667742 -0.365467 -0.157441 0.074847 -0.157338 0.137005 0.015545 0.127983 0.352179 -0.361592 0.028019 -0.119002 0.141558 -0.273108 0.032261 0.125121 0.114939 -0.145429 0.072159 -0.037091 -0.124411 -0.250123 -0.032657 -0.013018 0.082942 -0.102452 0.119361 0.458495 0.249466 0.033953 
1816 0.235674 -0.473387 -0.304989 -0.114018 -0.174982 0.103120 -0.541124 0.263613 -0.383760 -0.331137 0.224631 -0.227698 0.410904 0.210432 0.098768 -0.478756 -0.039656 -0.087708 -0.344649 -0.401577 0.020293 0.260376 0.072335 0.048476 -0.336385 -0.327333 -0.135061 0.429961 0.080354 0.253687 -0.145137 -0.180806 0.211323 -0.410422 0.050157 0.188263 0.078332 0.173680 -0.136953 -0.326201 0.157316 -0.307475 -0.144355 -0.043621 -0.193788 0.223727 -0.056724 0.364771 0.061431 0.474653 0.159079 -0.177307 0.160892 -0.372913 0.111109 -0.379559 -0.093606 -0.256279 0.079760 0.806389 0.640247 0.363116 0.097095 -0.038299 0.423662 -0.425005 0.419840 -0.110510 0.263705 -0.152555 0.031610 0.245451 0.097051 0.039923 0.135376 -0.097967 -0.084110 -0.578438 -0.100152 0.182951 0.104101 0.485724 -0.036083 -0.307488 0.335333 -0.359619 0.016829 -0.143141 -0.409184 0.170892 0.175583 0.192524 -0.316427 -0.040258 0.398076 -0.010260 0.270694 0.214713 -0.032421 0.014844 
1619 0.198961 -0.315356 -0.220486 -0.168330 -0.107335 -0.114847 -0.655953 0.252144 -0.369601 -0.326984 0.281697 -0.233840 0.426262 0.364342 0.146585 -0.525079 -0.001523 -0.076152 -0.463363 -0.437141 0.011508 0.397325 0.101510 0.086447 -0.289139 -0.344236 -0.174661 0.449609 -0.030873 0.181685 -0.078111 -0.238887 0.195660 -0.350451 0.039780 0.248937 0.176755 0.303319 -0.109099 -0.355760 0.163094 -0.176237 -0.128301 0.066957 -0.158136 0.340822 -0.074317 0.409170 0.016921 0.326862 0.248546 -0.289103 0.021771 -0.333953 0.117482 -0.284957 -0.011137 -0.303728 0.030096 0.822918 0.651837 0.279625 0.076981 -0.026531 0.515559 -0.416130 0.414908 -0.259874 0.366710 -0.250716 0.058548 0.043186 0.096228 0.113878 0.119455 0.010884 -0.098785 -0.562368 -0.038395 0.112532 0.099258 0.339115 0.069954 -0.207188 0.321895 -0.412144 -0.041632 -0.086472 -0.334181 0.128113 0.127933 0.289643 -0.353017 -0.000567 0.532871 0.073784 0.253203 0.095658 0.132270 0.024361 
1431 0.197511 -0.383956 -0.314927 -0.136314 -0.141311 0.068253 -0.452408 0.247359 -0.394835 -0.300411 0.153637 -0.275494 0.352912 0.190087 0.061779 -0.462789 -0.030810 -0.135151 -0.289228 -0.309996 -0.014590 0.233125 0.015694 0.035240 -0.402012 -0.309942 -0.061908 0.369730 0.070153 0.271916 -0.115007 -0.173678 0.137911 -0.349011 0.002423 0.128230 0.096219 0.123071 -0.161566 -0.283809 0.125329 -0.354589 -0.138185 -0.030258 -0.197865 0.167229 -0.036051 0.314782 0.132128 0.482944 0.127471 -0.170876 0.174716 -0.355570 0.069711 -0.316454 -0.072348 -0.226694 0.063776 0.668367 0.545943 0.304138 0.087950 -0.059545 0.369337 -0.410342 0.373827 -0.070553 0.259729 -0.152590 0.062403 0.261377 0.123750 -0.062041 0.113732 -0.090472 -0.008053 -0.543079 -0.070966 0.203300 0.178621 0.441231 0.042190 -0.305081 0.292948 -0.354939 0.036064 -0.078338 -0.254150 0.112608 0.191861 0.206752 -0.277714 -0.057936 0.360613 0.024367 0.197575 0.270823 -0.038658 0.028966 
1734 0.125198 -0.263487 -0.289630 -0.103165 -0.085583 0.082681 -0.239544 0.189466 -0.321466 -0.216032 0.057936 -0.296564 0.184679 0.119821 -0.020559 -0.345527 -0.042717 -0.192908 -0.154070 -0.177199 -0.065302 0.116105 -0.051436 0.000409 -0.419189 -0.247798 0.054302 0.249756 0.063119 0.278818 -0.136415 -0.131478 0.025531 -0.266800 -0.075576 0.014645 0.076473 0.001316 -0.137531 -0.155431 0.078726 -0.369353 -0.165453 -0.025742 -0.153140 0.012077 0.011861 0.192854 0.229355 0.443587 0.028876 -0.063871 0.210662 -0.289681 0.001218 -0.189541 -0.042033 -0.160849 0.062000 0.365169 0.367168 0.208441 0.101753 -0.092677 0.232906 -0.314344 0.278895 0.039298 0.184636 -0.105658 0.054378 0.322122 0.125651 -0.198029 0.058546 -0.106192 0.085547 -0.398824 -0.044329 0.205581 0.260078 0.390325 0.088555 -0.309656 0.196810 -0.237898 0.054909 0.010607 -0.077501 0.026019 0.210376 0.136424 -0.158174 -0.043230 0.187265 0.047745 0.100901 0.387681 -0.113218 0.035809 
944 0.117675 -0.019647 0.226094 0.073326 0.162487 -0.001561 0.105270 -0.139419 0.042383 -0.188010 0.101149 -0.233506 -0.135276 0.325061 -0.338246 0.003745 -0.065427 -0.069500 -0.339836 -0.220190 0.182579 -0.058963 0.354234 -0.154296 -0.007445 -0.021538 0.154628 0.098169 -0.033001 -0.055730 -0.211483 0.021166 -0.143671 -0.118858 -0.103262 -0.096206 0.169332 0.047375 0.131588 0.207239 -0.132840 0.036374 -0.287191 0.247517 0.084720 -0.006713 0.016454 0.154551 -0.041214 -0.036809 -0.036495 0.174091 -0.072506 -0.178803 0.088319 0.106623 -0.182369 -0.161690 0.211034 -0.078353 0.095143 -0.049725 0.049802 -0.236309 0.190379 -0.000318 0.193604 0.045964 0.110642 -0.160096 0.494922 -0.117083 -0.099886 0.058088 -0.091131 0.098488 -0.077803 -0.200462 0.118825 -0.252427 0.051857 -0.242302 0.027156 -0.138322 0.105977 -0.012137 0.074427 -0.044325 0.090581 0.078749 0.023978 -0.038099 -0.144745 -0.096480 -0.239293 -0.077105 0.011917 0.215878 0.110029 -0.053229 
1428 0.100954 -0.025295 0.185048 0.062897 0.127424 -0.010844 0.076721 -0.111574 0.032440 -0.158215 0.082229 -0.193941 -0.098034 0.276125 -0.263919 0.003153 -0.057212 -0.054785 -0.281844 -0.180268 0.162342 -0.035628 0.287175 -0.123090 -0.001334 -0.018282 0.137883 0.081347 -0.026709 -0.033380 -0.171748 0.011782 -0.125763 -0.104999 -0.081960 -0.088955 0.153758 0.046375 0.117234 0.176672 -0.111042 0.017019 -0.233449 0.201938 0.074054 -0.016901 0.014419 0.133263 -0.027716 -0.029168 -0.024225 0.147164 -0.054464 -0.165513 0.081692 0.083407 -0.156564 -0.138899 0.184924 -0.060638 0.085709 -0.043765 0.050911 -0.188558 0.168891 -0.006387 0.164255 0.042952 0.101754 -0.133622 0.418453 -0.105686 -0.072432 0.041560 -0.065925 0.089937 -0.062250 -0.175571 0.095130 -0.210480 0.046793 -0.197491 0.028708 -0.118102 0.098378 -0.023410 0.057310 -0.026111 0.068945 0.058978 0.018753 -0.027783 -0.117455 -0.084841 -0.176343 -0.065791 0.017671 0.191001 0.091265 -0.038510 
1097 0.096107 -0.000708 0.153499 0.038415 0.067921 -0.040464 -0.004626 -0.148592 0.034663 -0.184697 0.066501 -0.192280 0.004151 0.287358 -0.173516 0.041409 -0.091101 0.061945 -0.259742 -0.168771 0.134690 0.057330 0.282539 -0.091492 -0.102853 -0.056012 0.163013 0.135778 -0.039969 -0.087419 -0.185876 -0.033147 -0.038835 -0.117574 -0.145199 -0.124626 0.119399 0.024222 0.161923 0.125893 -0.100361 -0.062072 -0.160148 0.163238 0.015737 -0.058527 -0.025185 0.113999 0.080684 -0.000625 0.026363 0.150198 0.096932 -0.108157 0.131916 0.047453 -0.170048 -0.148020 0.252156 -0.085417 0.148719 0.021206 0.052204 -0.106298 0.114438 -0.051568 0.168600 0.069477 0.103890 -0.197628 0.307032 -0.158763 -0.118253 0.049252 -0.071078 0.077164 -0.020610 -0.106243 0.105701 -0.229114 0.045234 -0.149350 0.041516 -0.156757 0.076449 -0.041811 0.096086 -0.016639 0.052025 0.038414 0.009895 -0.014238 -0.056403 -0.041991 -0.065792 -0.094714 0.014645 0.274215 0.050932 -0.017831 
958 0.082747 0.006902 0.140706 0.037744 0.059558 -0.031740 0.009095 -0.138256 0.046868 -0.147253 0.049285 -0.150307 -0.015071 0.242477 -0.154881 0.028667 -0.065725 0.057069 -0.217959 -0.145233 0.120306 0.051671 0.234310 -0.080336 -0.079845 -0.041719 0.122485 0.117013 -0.039772 -0.082558 -0.159402 -0.011547 -0.050803 -0.102011 -0.119028 -0.095277 0.099679 0.017312 0.147896 0.109113 -0.101766 -0.045793 -0.142491 0.147969 0.018925 -0.044698 -0.013490 0.086790 0.047241 -0.014137 0.015996 0.122654 0.060701 -0.090915 0.106066 0.053788 -0.143694 -0.128324 0.210200 -0.087166 0.114159 0.006050 0.035883 -0.087675 0.097104 -0.020314 0.138163 0.063346 0.089281 -0.176251 0.281051 -0.142473 -0.098799 0.041547 -0.068231 0.073591 -0.025820 -0.067711 0.097634 -0.212438 0.031888 -0.142482 0.043268 -0.131236 0.057751 -0.019600 0.080891 -0.023658 0.048307 0.023792 -0.008929 -0.034220 -0.041784 -0.027888 -0.057777 -0.080333 0.013086 0.228170 0.064361 -0.021159 
1488 0.201592 -0.296945 -0.256354 -0.168157 -0.129826 -0.085524 -0.619958 0.265439 -0.379304 -0.307878 0.250082 -0.260553 0.420719 0.320279 0.134494 -0.518306 -0.007531 -0.103998 -0.435657 -0.407139 -0.016190 0.370139 0.082886 0.080573 -0.324816 -0.360215 -0.134969 0.426365 -0.016954 0.208451 -0.079331 -0.241799 0.182865 -0.341954 0.033628 0.222265 0.173256 0.258866 -0.139833 -0.343186 0.175417 -0.225576 -0.125661 0.061289 -0.160144 0.295529 -0.062823 0.392893 0.053278 0.362426 0.216408 -0.252964 0.055148 -0.336468 0.084807 -0.294254 -0.007645 -0.283496 0.026690 0.781580 0.627770 0.276919 0.082890 -0.025494 0.514611 -0.410649 0.395285 -0.233344 0.359873 -0.238688 0.044520 0.094850 0.108472 0.060011 0.109307 -0.013573 -0.049816 -0.550212 -0.050312 0.144967 0.128916 0.354288 0.082239 -0.231903 0.323444 -0.403814 -0.034477 -0.066729 -0.290945 0.125143 0.155588 0.274210 -0.338396 -0.008549 0.491783 0.086466 0.222111 0.150128 0.094363 0.048320 
1471 0.210191 -0.404287 -0.298155 -0.150041 -0.155023 0.011383 -0.546526 0.274015 -0.397479 -0.309844 0.212422 -0.252581 0.400989 0.235633 0.098690 -0.501023 -0.019137 -0.106008 -0.363071 -0.388028 -0.017929 0.289357 0.038019 0.060081 -0.376511 -0.334835 -0.101812 0.406855 0.036962 0.243593 -0.121063 -0.215915 0.163942 -0.372844 0.020604 0.173115 0.106288 0.206284 -0.136413 -0.323412 0.169368 -0.307953 -0.130222 -0.008133 -0.192854 0.226417 -0.051650 0.343023 0.103076 0.463135 0.186156 -0.211617 0.133193 -0.354192 0.087792 -0.328614 -0.063915 -0.265131 0.057583 0.755345 0.601949 0.312217 0.096441 -0.043618 0.412289 -0.434553 0.400488 -0.139246 0.296263 -0.184220 0.068087 0.206876 0.097047 -0.001310 0.131929 -0.055116 -0.042059 -0.564697 -0.068412 0.191160 0.156126 0.444647 0.045816 -0.280426 0.316141 -0.403867 -0.009833 -0.077223 -0.295334 0.126381 0.167182 0.232432 -0.320214 -0.033149 0.438481 0.034587 0.226876 0.211762 0.025244 0.033959 
1613 0.190325 -0.429373 -0.402335 -0.137077 -0.150274 0.120286 -0.404457 0.275268 -0.437975 -0.298404 0.116868 -0.359039 0.304504 0.162081 0.023741 -0.489586 -0.043024 -0.208726 -0.237222 -0.275551 -0.063093 0.175446 -0.032449 0.008785 -0.534189 -0.338996 0.020641 0.370125 0.086369 0.358625 -0.161704 -0.205855 0.079415 -0.390776 -0.053308 0.049016 0.108170 0.043806 -0.204685 -0.243515 0.138875 -0.490977 -0.206649 -0.044348 -0.234781 0.066221 0.006022 0.283425 0.262585 0.604949 0.058550 -0.126767 0.282592 -0.386651 0.033060 -0.318722 -0.078022 -0.208567 0.085276 0.600417 0.549199 0.294818 0.119576 -0.091085 0.339707 -0.452839 0.388181 0.008547 0.242644 -0.123072 0.046473 0.421494 0.156170 -0.199550 0.103485 -0.137269 0.075786 -0.570649 -0.094072 0.283461 0.294485 0.553904 0.087325 -0.400649 0.298331 -0.337406 0.071080 -0.027417 -0.186540 0.046529 0.266178 0.194866 -0.247507 -0.058463 0.315573 0.053867 0.178567 0.459067 -0.131987 0.024402 
1250 0.249780 -0.577516 -0.361436 -0.063821 -0.201209 0.298120 -0.299892 0.231759 -0.369610 -0.320849 0.124731 -0.269287 0.279784 0.079542 -0.034792 -0.409318 -0.113301 -0.129458 -0.204814 -0.316740 0.043442 0.084449 0.061769 -0.032217 -0.425224 -0.284148 -0.007013 0.377155 0.219149 0.308230 -0.228249 -0.113232 0.138562 -0.456705 0.020325 0.063166 -0.005407 -0.030635 -0.153414 -0.182160 0.077904 -0.439543 -0.214803 -0.117477 -0.227159 0.049025 -0.019098 0.267364 0.140454 0.587533 0.021200 -0.000241 0.339826 -0.411112 0.087555 -0.397402 -0.202185 -0.186750 0.196917 0.640474 0.557402 0.380336 0.149299 -0.081914 0.269950 -0.393596 0.392143 0.102292 0.151548 -0.052522 0.071837 0.478808 0.084514 -0.128859 0.120367 -0.178693 -0.043096 -0.555487 -0.128274 0.200487 0.157342 0.603905 -0.083990 -0.426599 0.290245 -0.236527 0.135043 -0.163369 -0.379450 0.140949 0.249491 0.055773 -0.227833 -0.087742 0.178311 -0.073426 0.231875 0.463857 -0.214053 0.000707 
1833 0.267942 -0.561635 -0.386964 -0.130913 -0.201278 0.166848 -0.403255 0.278875 -0.427424 -0.360544 0.141523 -0.271832 0.384024 0.129763 0.047028 -0.499296 -0.056745 -0.115052 -0.265519 -0.374863 0.005154 0.181180 0.029688 0.015398 -0.467925 -0.307530 -0.054988 0.432616 0.141298 0.281009 -0.189909 -0.151996 0.161473 -0.423887 0.038322 0.124336 0.059484 0.113405 -0.165933 -0.299407 0.113857 -0.447833 -0.166715 -0.101007 -0.246207 0.145150 -0.036831 0.312731 0.130556 0.598996 0.111501 -0.117664 0.262751 -0.405233 0.100942 -0.406365 -0.148500 -0.275139 0.123352 0.762002 0.594726 0.402850 0.143523 -0.052066 0.330106 -0.469093 0.438499 -0.000326 0.248735 -0.122798 0.102815 0.382020 0.066591 -0.075886 0.156531 -0.153654 -0.051928 -0.610545 -0.116230 0.225305 0.163594 0.560911 -0.003954 -0.368731 0.319710 -0.375940 0.087839 -0.140160 -0.356417 0.151464 0.200400 0.148702 -0.298434 -0.086246 0.347489 -0.037313 0.224726 0.353055 -0.090139 0.002926 
1085 0.081158 -0.043776 0.080151 0.027947 0.033266 0.012292 -0.016398 -0.077496 -0.007297 -0.134962 0.079526 -0.172722 -0.021966 0.238758 -0.152451 -0.076424 -0.030311 -0.021485 -0.229441 -0.138333 0.104403 0.066361 0.222293 -0.076254 -0.121757 -0.079434 0.024818 0.139368 -0.004267 0.000088 -0.141511 0.014630 -0.098559 -0.140186 -0.116220 -0.044944 0.097273 0.014261 0.081797 0.069255 -0.096852 -0.108326 -0.151300 0.146091 0.000452 -0.012802 0.021186 0.116449 0.018253 0.030755 0.034237 0.061647 0.020827 -0.150936 0.057004 0.041341 -0.130889 -0.137099 0.202992 -0.019377 0.159785 0.018547 0.029663 -0.117345 0.146731 -0.029788 0.172526 0.066388 0.102004 -0.153822 0.283718 -0.060863 -0.037473 0.010539 -0.066787 0.061186 -0.021154 -0.105244 0.099719 -0.123884 0.076231 -0.050152 0.060478 -0.165332 0.098602 -0.041937 0.070578 -0.049212 0.006404 0.033362 0.034642 -0.010530 -0.055636 -0.018479 -0.015099 -0.048977 0.046625 0.227197 0.054703 0.005945 
1518 0.085539 -0.078009 0.008087 0.004032 0.002012 0.028649 -0.040548 -0.022034 -0.050212 -0.114891 0.055680 -0.147627 0.005449 0.167451 -0.108466 -0.091972 -0.025230 -0.039060 -0.165345 -0.120149 0.067290 0.058360 0.126769 -0.046957 -0.136339 -0.079168 0.034207 0.123471 0.007778 0.035349 -0.119751 -0.008030 -0.047721 -0.133186 -0.067950 -0.015399 0.078081 -0.001114 0.033612 0.032020 -0.055481 -0.107673 -0.135041 0.084642 -0.020655 -0.010769 0.006590 0.098534 0.030006 0.084976 0.010685 0.040849 0.053802 -0.146021 0.035251 -0.013366 -0.104076 -0.116760 0.143621 0.050047 0.168632 0.045928 0.024848 -0.081852 0.120560 -0.056668 0.163320 0.057322 0.079574 -0.104947 0.191054 0.008156 -0.013681 -0.021186 -0.036625 0.016053 -0.010159 -0.114243 0.060173 -0.065620 0.069973 0.029551 0.046200 -0.157502 0.078631 -0.042575 0.057868 -0.033833 -0.006949 0.022987 0.049383 -0.013532 -0.062066 -0.018782 0.005079 -0.028363 0.059459 0.208206 0.015247 -0.002185 
1163 0.220057 -0.345110 -0.238880 -0.150517 -0.124002 -0.064268 -0.619650 0.259015 -0.366839 -0.328651 0.270938 -0.224820 0.430103 0.327167 0.139453 -0.526091 -0.000838 -0.080742 -0.442245 -0.430227 0.012440 0.368995 0.084190 0.074382 -0.294539 -0.339493 -0.164263 0.457125 0.001764 0.185598 -0.093093 -0.221849 0.181887 -0.360928 0.037726 0.226898 0.153999 0.268285 -0.112012 -0.337450 0.155325 -0.209778 -0.117747 0.046710 -0.176746 0.323284 -0.074964 0.389097 0.025020 0.345588 0.236504 -0.243562 0.041088 -0.336003 0.116062 -0.307773 -0.038203 -0.309790 0.041278 0.820004 0.641651 0.297155 0.095426 -0.018194 0.477555 -0.408115 0.407158 -0.227747 0.345884 -0.219386 0.064417 0.085650 0.076941 0.093959 0.115546 -0.017882 -0.105708 -0.555016 -0.064088 0.121358 0.093365 0.372374 0.046156 -0.212831 0.315161 -0.413956 -0.027851 -0.092917 -0.344948 0.141261 0.131440 0.261346 -0.342659 -0.006339 0.494388 0.057870 0.233650 0.110699 0.104663 0.028211 
1040 0.145002 -0.171127 -0.144311 -0.151471 -0.067620 -0.135831 -0.589003 0.199436 -0.310132 -0.265485 0.237961 -0.235899 0.351329 0.360185 0.118085 -0.440220 0.017794 -0.091901 -0.425089 -0.359208 -0.019653 0.351025 0.080884 0.094139 -0.237681 -0.293791 -0.145455 0.368375 -0.072284 0.148322 -0.045548 -0.209181 0.143715 -0.270957 0.005923 0.208821 0.182301 0.273164 -0.086785 -0.298988 0.148246 -0.116283 -0.118619 0.095590 -0.103923 0.291424 -0.062467 0.364499 0.017456 0.224015 0.218399 -0.264009 -0.012202 -0.279804 0.070946 -0.198934 0.030507 -0.258164 0.005579 0.648880 0.544852 0.191762 0.044590 -0.032562 0.471966 -0.336410 0.334298 -0.246990 0.328709 -0.254283 0.045850 -0.017722 0.102066 0.097585 0.071743 0.046382 -0.056391 -0.459537 -0.000390 0.085081 0.113720 0.212990 0.092256 -0.162506 0.259541 -0.361629 -0.064175 -0.037438 -0.214439 0.099667 0.098917 0.286899 -0.296574 0.003725 0.461468 0.092513 0.200239 0.072693 0.147050 0.022595 
1900 0.099874 -0.097444 -0.082977 -0.083260 -0.027277 -0.068639 -0.308424 0.096466 -0.178328 -0.174684 0.132059 -0.194636 0.170281 0.249380 0.022976 -0.258198 -0.000922 -0.078596 -0.279803 -0.211774 -0.001856 0.210338 0.070650 0.029915 -0.193253 -0.188740 -0.045419 0.216941 -0.041506 0.106188 -0.062212 -0.113587 0.050036 -0.185814 -0.035431 0.093960 0.134158 0.130159 -0.035463 -0.134682 0.065531 -0.105331 -0.118963 0.080930 -0.056534 0.129290 -0.022200 0.228375 0.036706 0.150351 0.109048 -0.126393 0.023719 -0.198335 0.040022 -0.097807 -0.016504 -0.166902 0.044181 0.330735 0.336390 0.100630 0.029813 -0.045931 0.287431 -0.201801 0.229716 -0.112441 0.200313 -0.162943 0.078412 0.016245 0.062695 0.013915 0.008340 0.020967 -0.006374 -0.280720 0.021204 0.036269 0.103234 0.129147 0.075244 -0.150260 0.164723 -0.193701 -0.008170 -0.007412 -0.087784 0.042610 0.085540 0.154836 -0.165878 0.002110 0.238255 0.059393 0.110835 0.141053 0.060961 0.010430 
1819 0.231866 -0.557555 -0.361003 -0.040762 -0.184141 0.347613 -0.106017 0.180796 -0.339929 -0.283230 0.049449 -0.308974 0.178597 0.001680 -0.108262 -0.328903 -0.125052 -0.144198 -0.114262 -0.229624 0.036060 -0.016466 0.041777 -0.080629 -0.481834 -0.244513 0.079629 0.316098 0.247448 0.308182 -0.276946 -0.074362 0.043900 -0.416165 -0.032449 -0.030926 -0.014140 -0.125815 -0.133837 -0.093725 0.001931 -0.521989 -0.238269 -0.118094 -0.223780 -0.063351 0.024247 0.166948 0.213166 0.594135 -0.063247 0.098405 0.381094 -0.387479 0.057698 -0.338069 -0.247447 -0.175737 0.224921 0.427632 0.443604 0.343242 0.146790 -0.113750 0.149411 -0.344941 0.373705 0.221696 0.085058 -0.010716 0.138570 0.532840 0.067420 -0.218527 0.086471 -0.199490 0.022934 -0.469801 -0.099970 0.208738 0.205038 0.599621 -0.061710 -0.459897 0.256297 -0.180501 0.182682 -0.144695 -0.247071 0.087577 0.248630 -0.035188 -0.164794 -0.092968 0.036900 -0.095883 0.161247 0.568703 -0.254620 0.011811 
