747 100
2290 -0.252228 -0.255603 0.127862 0.187986 -0.056680 0.053598 0.065898 0.385251 -0.377952 -0.031948 0.114062 -0.064613 0.054239 -0.192789 0.490708 0.088608 -0.389117 0.077030 0.614789 0.007547 -0.397181 0.190435 0.135329 -0.117840 -0.324077 -0.126650 -0.438836 -0.546943 -0.146665 0.123962 0.182065 0.616449 -0.121360 -0.213934 0.451204 -0.163635 -0.155019 -0.172758 0.572915 0.030707 0.603476 -0.029713 0.000680 -0.041511 0.243347 -0.601194 -0.253791 0.225629 -0.188084 0.202502 -0.273920 -0.163609 -0.053799 0.008016 0.264038 -0.061027 -0.012549 -0.450443 0.408755 -0.297200 0.541276 -0.138613 -0.282978 0.114725 0.323200 0.422358 0.440660 0.120299 0.210275 -0.088858 -0.161512 0.335900 -0.200034 -0.046822 -0.485881 -0.213207 -0.032248 -0.153959 -0.021684 -0.226075 0.085630 0.463414 0.023059 0.266444 0.325597 -0.091332 -0.322799 -0.562396 0.256791 0.124924 0.120324 0.239270 0.253994 0.069524 0.112856 -0.218365 -0.494698 0.200974 0.150168 0.257704 
2363 -0.237582 -0.245253 0.129566 0.179307 -0.050151 0.045112 0.077998 0.367099 -0.351885 -0.034378 0.103630 -0.068918 0.050776 -0.172180 0.478104 0.096722 -0.373590 0.076316 0.585529 0.008240 -0.378403 0.186008 0.118920 -0.126245 -0.323895 -0.132664 -0.395779 -0.520470 -0.141826 0.115816 0.166421 0.573832 -0.109241 -0.195728 0.428707 -0.157409 -0.173429 -0.156131 0.542624 0.042748 0.574171 -0.021927 -0.001809 -0.039005 0.234801 -0.582441 -0.244198 0.210657 -0.181234 0.189507 -0.257231 -0.178846 -0.063463 -0.005788 0.248458 -0.064143 -0.004820 -0.420064 0.406207 -0.293407 0.527860 -0.119801 -0.263935 0.124663 0.302366 0.403371 0.419617 0.115873 0.199209 -0.086708 -0.132462 0.333747 -0.202025 -0.030368 -0.451344 -0.217037 -0.037061 -0.151552 -0.027413 -0.219319 0.078920 0.447735 0.012678 0.251008 0.315776 -0.088176 -0.312240 -0.548647 0.247501 0.129489 0.109656 0.206850 0.235858 0.076581 0.107675 -0.215736 -0.472546 0.198429 0.134306 0.253042 
2346 0.129310 -0.068192 -0.040388 -0.046865 -0.009206 -0.067285 -0.148835 0.057767 -0.329572 0.167710 0.186084 -0.067088 -0.153655 -0.137065 0.001853 -0.269978 0.079164 -0.163568 0.223370 -0.011384 -0.163598 -0.209025 -0.225674 0.068367 0.007480 0.077515 -0.288590 -0.101440 0.115853 -0.033063 -0.027668 0.271186 0.068649 -0.324554 0.093184 -0.106208 0.164977 0.094477 0.330868 -0.081877 0.036502 -0.174434 -0.067482 -0.141720 -0.008033 -0.042666 -0.135377 -0.191997 0.039710 0.183518 -0.070812 0.176392 0.231752 0.037424 -0.136535 -0.186163 -0.004289 -0.026327 -0.042348 -0.144120 -0.156267 0.044574 -0.142031 -0.163946 -0.136592 0.117777 0.215561 0.128221 -0.156099 0.183472 -0.206953 0.036107 0.038947 -0.253429 -0.127181 0.249261 -0.090345 -0.135499 -0.047825 0.131697 -0.056715 -0.005781 0.168832 0.204983 -0.013011 0.022990 0.108000 -0.237107 -0.113290 0.226264 -0.003633 0.219096 0.107080 0.136969 0.256234 0.212207 -0.042252 0.261606 0.095224 -0.088404 
2025 0.132517 -0.069443 -0.043414 -0.050774 0.003110 -0.064144 -0.135630 0.067186 -0.312833 0.151038 0.158026 -0.069407 -0.147788 -0.126230 0.005765 -0.248595 0.067397 -0.154632 0.210300 -0.012407 -0.167475 -0.190267 -0.212982 0.071019 0.004276 0.067681 -0.261296 -0.098354 0.100799 -0.032144 -0.026777 0.263576 0.063883 -0.309432 0.084366 -0.119483 0.154373 0.089815 0.319019 -0.083210 0.046000 -0.159640 -0.058869 -0.133205 0.006338 -0.052657 -0.148648 -0.180418 0.033565 0.172173 -0.055248 0.156215 0.219850 0.039582 -0.121299 -0.170092 -0.006009 -0.022279 -0.043868 -0.138336 -0.142026 0.043155 -0.124437 -0.139971 -0.131355 0.113888 0.212625 0.124621 -0.150537 0.167840 -0.180475 0.040846 0.046336 -0.231810 -0.129605 0.229256 -0.086249 -0.149773 -0.047304 0.117590 -0.050335 0.000028 0.159713 0.202671 -0.007376 0.020370 0.108637 -0.235167 -0.101566 0.215769 -0.010168 0.196834 0.106890 0.134249 0.236103 0.188195 -0.033671 0.255258 0.084151 -0.088450 
2140 -0.231858 -0.237363 0.122609 0.170698 -0.041079 0.049110 0.063032 0.365213 -0.356123 -0.029794 0.109345 -0.068181 0.055729 -0.181533 0.473273 0.090604 -0.370857 0.079091 0.566516 0.012930 -0.382989 0.185663 0.117735 -0.121998 -0.310892 -0.125737 -0.408835 -0.516937 -0.144424 0.114646 0.180395 0.579832 -0.112563 -0.201657 0.428548 -0.148787 -0.162005 -0.159559 0.541856 0.044370 0.571792 -0.030465 0.007551 -0.045713 0.239428 -0.565570 -0.248160 0.209014 -0.177071 0.179023 -0.257209 -0.166907 -0.052410 0.002232 0.250540 -0.065280 0.001729 -0.419309 0.388836 -0.286442 0.517277 -0.130590 -0.271710 0.111057 0.308384 0.393194 0.412488 0.109592 0.204587 -0.082334 -0.144391 0.318913 -0.198211 -0.039283 -0.447671 -0.203295 -0.030280 -0.150276 -0.022751 -0.219358 0.086915 0.436487 0.020641 0.245572 0.319930 -0.089396 -0.311886 -0.535280 0.244592 0.118730 0.115043 0.218148 0.243473 0.063653 0.101109 -0.210566 -0.472211 0.201457 0.134559 0.236155 
2428 -0.228272 -0.228198 0.108251 0.162300 -0.046343 0.045533 0.076420 0.352234 -0.325885 -0.029327 0.098339 -0.067279 0.042668 -0.158081 0.450133 0.096756 -0.348226 0.069271 0.551505 -0.003645 -0.353149 0.183144 0.116161 -0.116789 -0.292594 -0.132400 -0.360406 -0.489351 -0.136267 0.103512 0.157295 0.530489 -0.099666 -0.188566 0.395759 -0.151291 -0.152579 -0.148347 0.507821 0.044404 0.540747 -0.029842 -0.003961 -0.043612 0.221264 -0.546035 -0.226242 0.184645 -0.166508 0.164688 -0.252718 -0.153864 -0.058607 -0.008688 0.248118 -0.049151 -0.000681 -0.402901 0.380125 -0.275908 0.501646 -0.122683 -0.239697 0.119690 0.291199 0.376160 0.396541 0.110085 0.193676 -0.078213 -0.133535 0.317113 -0.191208 -0.030844 -0.424478 -0.211475 -0.029501 -0.146686 -0.027186 -0.200092 0.084864 0.431606 0.006246 0.239169 0.296702 -0.079238 -0.285433 -0.521903 0.232159 0.118143 0.097350 0.198210 0.230695 0.069295 0.102076 -0.213631 -0.425964 0.179710 0.130573 0.233600 
2201 -0.244206 -0.244615 0.130725 0.178619 -0.050338 0.050013 0.080657 0.375425 -0.358623 -0.030001 0.105846 -0.071930 0.044245 -0.183896 0.487517 0.091114 -0.377974 0.076076 0.589112 0.015627 -0.382419 0.201848 0.125997 -0.118195 -0.310327 -0.129092 -0.414149 -0.534461 -0.149119 0.113357 0.170847 0.592308 -0.105909 -0.204746 0.435306 -0.163801 -0.166626 -0.165179 0.554734 0.030772 0.596084 -0.025661 -0.000741 -0.033342 0.246625 -0.592951 -0.250005 0.217959 -0.181135 0.184770 -0.261548 -0.171894 -0.053022 0.007295 0.248830 -0.065473 0.002641 -0.435735 0.413337 -0.293729 0.533385 -0.133230 -0.270131 0.125543 0.318039 0.415415 0.428721 0.110822 0.211434 -0.077401 -0.144712 0.333963 -0.198967 -0.038947 -0.461535 -0.218758 -0.033279 -0.155144 -0.026862 -0.227441 0.089412 0.457656 0.007427 0.247132 0.324322 -0.087127 -0.328060 -0.557835 0.257677 0.124539 0.115304 0.224751 0.245837 0.072115 0.109136 -0.234219 -0.482738 0.198994 0.140959 0.250153 
2506 -0.209339 -0.220014 0.120900 0.145114 -0.030105 0.044583 0.059587 0.330494 -0.321382 -0.029615 0.089821 -0.064100 0.046265 -0.171452 0.425826 0.077519 -0.323422 0.074464 0.515886 0.006887 -0.342092 0.169776 0.115871 -0.106033 -0.270393 -0.116765 -0.351505 -0.468061 -0.124009 0.084636 0.157643 0.526119 -0.094940 -0.178412 0.374820 -0.135645 -0.142307 -0.158636 0.477633 0.026325 0.514913 -0.027971 0.004189 -0.031455 0.222486 -0.520887 -0.221658 0.190831 -0.172828 0.152843 -0.235220 -0.155028 -0.052845 0.008810 0.217376 -0.068287 0.000136 -0.384337 0.348260 -0.265858 0.466139 -0.112586 -0.247729 0.097536 0.267878 0.346695 0.368235 0.108135 0.195140 -0.066130 -0.127927 0.297125 -0.180068 -0.039677 -0.400581 -0.181439 -0.025478 -0.129994 -0.029198 -0.193479 0.070034 0.393909 0.009201 0.214631 0.289327 -0.073907 -0.279837 -0.481118 0.228431 0.109076 0.089609 0.198662 0.212995 0.060155 0.083064 -0.204453 -0.418207 0.178989 0.132156 0.207340 
2425 0.277444 0.064187 -0.041852 -0.133236 0.048796 -0.094388 -0.016184 0.124407 -0.177146 0.078658 -0.061171 -0.106206 -0.212555 -0.129409 0.085440 -0.077914 0.095488 -0.071137 0.110440 -0.066870 -0.231294 -0.077236 -0.280851 0.033872 0.104106 0.007195 0.106831 -0.037831 0.075419 0.013112 -0.132666 0.214686 0.081863 -0.275598 -0.042274 -0.288799 0.102610 0.048944 0.247919 -0.058807 0.071018 -0.177047 0.016594 0.002469 0.012683 -0.149434 -0.227351 -0.211156 0.014306 0.052375 -0.009300 0.033092 0.154148 0.115635 -0.023828 -0.035795 0.080241 0.198889 -0.052796 -0.085604 -0.061704 0.086824 0.048896 -0.061304 -0.181883 0.093908 0.181630 0.092578 -0.064667 0.213718 -0.000018 0.044764 0.166829 0.025987 -0.095959 0.079388 -0.092048 -0.295273 -0.165918 -0.034213 -0.028980 0.020987 0.005203 0.171314 0.120719 0.026122 0.167682 -0.292185 -0.007802 0.195015 -0.116164 -0.028069 0.107034 0.068369 0.121111 0.030493 0.099636 0.179314 -0.030050 -0.185362 
2557 0.306076 0.082877 -0.049480 -0.138244 0.061891 -0.100531 -0.019442 0.096136 -0.162786 0.086787 -0.074577 -0.117743 -0.206647 -0.130083 0.072202 -0.078616 0.106119 -0.070804 0.079992 -0.069632 -0.214191 -0.083538 -0.289175 0.037036 0.127519 0.018235 0.138587 -0.020697 0.075918 0.008893 -0.136226 0.183508 0.092894 -0.259147 -0.064105 -0.292116 0.094617 0.066378 0.225966 -0.051901 0.056175 -0.158439 0.006111 0.004846 -0.002326 -0.128925 -0.226318 -0.216259 0.027582 0.052737 0.015409 0.030693 0.150926 0.123726 -0.027045 -0.037428 0.084748 0.214005 -0.061803 -0.068691 -0.087074 0.106051 0.069030 -0.065869 -0.192620 0.083156 0.160999 0.080573 -0.077502 0.221740 0.012781 0.019973 0.177459 0.043653 -0.066187 0.078166 -0.093914 -0.300886 -0.157796 -0.033727 -0.036968 0.003458 0.004569 0.160014 0.108302 0.023272 0.172315 -0.279038 -0.026657 0.199983 -0.133235 -0.052321 0.109825 0.070788 0.118872 0.044726 0.138121 0.166069 -0.030673 -0.204390 
2532 -0.227230 -0.226757 0.131772 0.159189 -0.037661 0.039905 0.062412 0.342292 -0.338384 -0.027980 0.108925 -0.073904 0.056647 -0.183778 0.441103 0.083288 -0.342928 0.076036 0.542489 0.011630 -0.354093 0.173755 0.121091 -0.112636 -0.295083 -0.114323 -0.384923 -0.485209 -0.128463 0.092732 0.173063 0.549998 -0.110853 -0.191865 0.390884 -0.131773 -0.147103 -0.152056 0.507203 0.042681 0.526217 -0.032247 -0.000350 -0.045342 0.222822 -0.535133 -0.239311 0.202769 -0.172800 0.174201 -0.236247 -0.164696 -0.048689 -0.006578 0.225301 -0.066487 -0.014173 -0.399025 0.366865 -0.275856 0.491698 -0.113899 -0.250503 0.098657 0.283120 0.372471 0.399455 0.106450 0.188905 -0.065145 -0.133405 0.298521 -0.186418 -0.037107 -0.434559 -0.174594 -0.016702 -0.138243 -0.019694 -0.203728 0.065067 0.406658 0.022505 0.223956 0.300549 -0.069332 -0.284339 -0.502012 0.234269 0.118565 0.104153 0.219406 0.225226 0.057471 0.100423 -0.191629 -0.445069 0.180108 0.132053 0.234687 
2073 -0.243961 -0.250032 0.121423 0.174347 -0.049951 0.048387 0.075709 0.370700 -0.358124 -0.024756 0.120653 -0.066999 0.046082 -0.175109 0.482465 0.095901 -0.376642 0.077913 0.587297 0.006262 -0.377643 0.187707 0.122529 -0.119689 -0.312048 -0.131252 -0.408788 -0.527206 -0.144384 0.116712 0.176857 0.591049 -0.113035 -0.198933 0.434990 -0.165628 -0.162278 -0.163721 0.551325 0.042129 0.576834 -0.033416 -0.004867 -0.043720 0.242274 -0.574970 -0.245286 0.213067 -0.173906 0.183311 -0.261451 -0.166889 -0.055974 0.004363 0.247527 -0.058880 -0.008319 -0.434402 0.402499 -0.298528 0.532129 -0.129292 -0.265752 0.115115 0.303860 0.407172 0.421130 0.105881 0.211601 -0.087973 -0.147261 0.331589 -0.202093 -0.038673 -0.462373 -0.204992 -0.023867 -0.149859 -0.022450 -0.214108 0.083968 0.451008 0.013682 0.245173 0.318820 -0.089288 -0.317272 -0.549281 0.253045 0.128051 0.113741 0.215561 0.246352 0.069708 0.110944 -0.226828 -0.470980 0.205808 0.147488 0.253397 
2278 -0.190633 -0.193918 0.107090 0.146884 -0.042295 0.036869 0.064340 0.303416 -0.279779 -0.037633 0.080193 -0.072547 0.039771 -0.151452 0.400391 0.077903 -0.295946 0.079654 0.470593 0.009398 -0.309063 0.171648 0.105657 -0.107042 -0.253942 -0.105509 -0.311432 -0.426056 -0.117030 0.083696 0.127792 0.475414 -0.082341 -0.154270 0.345704 -0.142881 -0.141313 -0.135666 0.434519 0.022054 0.473169 -0.016467 0.011950 -0.028562 0.193060 -0.474667 -0.214250 0.186230 -0.149705 0.129962 -0.215767 -0.159073 -0.049958 0.008654 0.200972 -0.044483 0.008689 -0.340482 0.323851 -0.232657 0.428567 -0.097170 -0.217464 0.101920 0.257452 0.328722 0.338539 0.085742 0.171330 -0.067474 -0.111867 0.278578 -0.156699 -0.013658 -0.370257 -0.187303 -0.019473 -0.134168 -0.026254 -0.185531 0.070731 0.367521 0.003292 0.202592 0.264326 -0.082281 -0.259574 -0.447794 0.212415 0.103624 0.085034 0.165492 0.193127 0.050609 0.081727 -0.188106 -0.381985 0.157927 0.116037 0.187867 
2551 -0.202689 -0.214638 0.113753 0.145121 -0.046730 0.045601 0.075749 0.328342 -0.316694 -0.023341 0.086012 -0.062036 0.043605 -0.159307 0.424812 0.088061 -0.335533 0.071417 0.516238 0.006890 -0.343401 0.164856 0.104728 -0.109733 -0.273480 -0.116063 -0.339155 -0.453582 -0.128222 0.112621 0.145954 0.521968 -0.093499 -0.175943 0.368509 -0.149713 -0.153929 -0.150276 0.466939 0.032077 0.515934 -0.026076 -0.005741 -0.031035 0.201795 -0.517889 -0.220374 0.183493 -0.151389 0.159538 -0.233093 -0.152550 -0.053155 0.018292 0.219426 -0.055692 0.005940 -0.371918 0.351133 -0.246478 0.473946 -0.104338 -0.223705 0.112383 0.268714 0.350292 0.367946 0.093148 0.184215 -0.063788 -0.118466 0.284385 -0.166592 -0.028149 -0.400982 -0.194883 -0.025471 -0.148370 -0.027437 -0.207496 0.075132 0.401205 0.008293 0.213497 0.277515 -0.074595 -0.277134 -0.480864 0.214086 0.113693 0.090059 0.174801 0.213747 0.062218 0.080098 -0.197357 -0.412855 0.173849 0.114318 0.221651 
2077 -0.229182 -0.239793 0.120467 0.177793 -0.047333 0.051681 0.055695 0.363871 -0.344652 -0.037320 0.107591 -0.068170 0.038621 -0.184419 0.456199 0.088026 -0.365061 0.073748 0.562901 0.015139 -0.378160 0.175707 0.120679 -0.116102 -0.302337 -0.128753 -0.387005 -0.513850 -0.139168 0.113159 0.169725 0.562573 -0.110164 -0.191081 0.404783 -0.153363 -0.148565 -0.151644 0.528314 0.044663 0.551323 -0.030845 0.007508 -0.036992 0.231666 -0.554880 -0.241637 0.206828 -0.171265 0.182556 -0.252424 -0.170051 -0.046396 -0.002090 0.248748 -0.060222 -0.011835 -0.416179 0.386823 -0.289427 0.512419 -0.116051 -0.265982 0.100374 0.302114 0.398275 0.416897 0.112394 0.194818 -0.073059 -0.144999 0.321858 -0.196984 -0.039090 -0.445858 -0.197432 -0.026300 -0.136489 -0.017041 -0.207348 0.079243 0.434131 0.021807 0.242704 0.305249 -0.086561 -0.303936 -0.521347 0.242172 0.121427 0.104035 0.223081 0.249697 0.069238 0.116521 -0.200145 -0.449009 0.191174 0.129824 0.237013 
2369 -0.216892 -0.229741 0.115018 0.164560 -0.051916 0.043079 0.064064 0.346242 -0.340691 -0.029363 0.101863 -0.056093 0.038671 -0.168764 0.449958 0.086333 -0.352724 0.070337 0.550605 0.005884 -0.354533 0.184148 0.112219 -0.116180 -0.296388 -0.122248 -0.387301 -0.494846 -0.142002 0.110739 0.159690 0.555482 -0.105024 -0.191840 0.406969 -0.156705 -0.148326 -0.159872 0.506640 0.031269 0.546581 -0.030707 -0.004048 -0.026426 0.236851 -0.538635 -0.236740 0.196764 -0.164096 0.169996 -0.252982 -0.159259 -0.046582 0.009725 0.233025 -0.060762 -0.005556 -0.400901 0.377492 -0.276837 0.495455 -0.123153 -0.259079 0.119482 0.297287 0.369674 0.394610 0.099028 0.200120 -0.075426 -0.134752 0.310970 -0.177290 -0.038837 -0.434964 -0.205836 -0.022615 -0.138698 -0.029153 -0.194586 0.086101 0.414851 0.006931 0.238759 0.288911 -0.083647 -0.301512 -0.515893 0.236528 0.109343 0.098772 0.209977 0.233199 0.061830 0.093685 -0.218566 -0.447061 0.191830 0.140848 0.237765 
1465 0.600200 0.199529 -0.079860 -0.241163 0.124378 -0.209921 -0.029559 0.197966 -0.282290 0.114944 -0.157936 -0.282403 -0.378799 -0.215980 0.169947 -0.095186 0.184330 -0.069465 0.133228 -0.128815 -0.400403 -0.108783 -0.563186 0.055565 0.293626 0.059987 0.317152 -0.079785 0.119856 -0.007276 -0.302446 0.311771 0.217986 -0.420139 -0.168594 -0.610415 0.124838 0.107808 0.395304 -0.055410 0.155547 -0.250782 -0.007162 -0.022604 -0.039827 -0.268923 -0.464919 -0.356585 0.023053 0.068561 0.024317 0.017170 0.235247 0.227779 -0.045993 -0.099692 0.248603 0.362146 -0.080683 -0.109726 -0.167087 0.221259 0.146418 -0.069668 -0.342193 0.170075 0.298949 0.104532 -0.165162 0.408922 0.066393 0.050841 0.299210 0.148078 -0.103645 0.077237 -0.203086 -0.574094 -0.270128 -0.093119 -0.089422 0.029572 -0.053621 0.310198 0.245258 0.000972 0.294514 -0.583241 -0.024537 0.421448 -0.294641 -0.162434 0.255242 0.168652 0.183859 0.072374 0.267632 0.307775 -0.077942 -0.424986 
2592 0.632965 0.214776 -0.080125 -0.253017 0.150891 -0.226610 -0.029938 0.192927 -0.298986 0.127718 -0.159576 -0.288088 -0.388575 -0.223183 0.190165 -0.086150 0.186413 -0.087967 0.143367 -0.130650 -0.412366 -0.116403 -0.594334 0.056839 0.315829 0.063476 0.337723 -0.076344 0.110877 0.006773 -0.307237 0.321138 0.228589 -0.426124 -0.174322 -0.630614 0.117545 0.124605 0.416328 -0.043922 0.158716 -0.269156 -0.014862 -0.024035 -0.028195 -0.276082 -0.486681 -0.385172 0.027465 0.074415 0.027891 0.028911 0.235524 0.243391 -0.053185 -0.111203 0.246610 0.375057 -0.075017 -0.117061 -0.155521 0.228298 0.156829 -0.061613 -0.357629 0.181074 0.314611 0.115358 -0.162245 0.414132 0.080147 0.044107 0.329062 0.158669 -0.121449 0.081182 -0.192082 -0.586052 -0.280536 -0.091696 -0.097861 0.038822 -0.064226 0.316897 0.253505 -0.002759 0.294228 -0.604283 -0.019608 0.426677 -0.319205 -0.167390 0.263995 0.190646 0.186638 0.078584 0.284681 0.307106 -0.078907 -0.428557 
2046 -0.232780 -0.228624 0.130500 0.162039 -0.035234 0.043509 0.068967 0.361312 -0.337074 -0.027556 0.096570 -0.075129 0.042580 -0.184760 0.456546 0.100983 -0.367602 0.085495 0.557328 0.018417 -0.375389 0.186622 0.116632 -0.115386 -0.299953 -0.125399 -0.378518 -0.511795 -0.139471 0.112455 0.166739 0.566042 -0.099939 -0.180625 0.412596 -0.153838 -0.158809 -0.161408 0.516245 0.031775 0.556178 -0.016937 0.003677 -0.036788 0.225854 -0.560593 -0.244403 0.210640 -0.174440 0.168985 -0.249621 -0.175806 -0.066754 -0.004806 0.244000 -0.065458 -0.001628 -0.407588 0.388417 -0.282345 0.513121 -0.124187 -0.248845 0.112132 0.292095 0.390918 0.408333 0.111897 0.199665 -0.065309 -0.134480 0.314066 -0.188869 -0.033070 -0.444421 -0.201638 -0.023574 -0.143836 -0.030273 -0.217600 0.082030 0.441567 0.010904 0.231075 0.317949 -0.074043 -0.304603 -0.531685 0.240220 0.122753 0.091295 0.209497 0.238277 0.071795 0.092605 -0.209571 -0.444186 0.193183 0.123427 0.235398 
1941 0.117328 0.085410 0.039559 0.003812 0.023089 -0.059840 0.088062 0.162549 -0.011043 -0.089135 -0.169323 -0.112576 -0.058642 -0.057794 0.217018 0.151136 -0.041235 0.123490 0.057880 -0.043657 -0.180535 0.154406 -0.086503 -0.052430 0.075935 -0.041048 0.215980 -0.116358 -0.049246 0.021533 -0.080793 0.107294 0.022960 -0.017725 -0.029934 -0.251402 -0.109231 -0.043617 0.100325 0.051669 0.207306 0.012449 0.034927 0.032699 0.007006 -0.242805 -0.187731 0.023908 -0.084682 -0.036234 -0.022400 -0.165059 -0.060604 0.052115 0.137595 0.031990 0.137398 0.011639 0.107108 -0.029646 0.136260 0.070073 0.064316 0.083238 0.037332 0.129922 0.116575 -0.019321 0.063589 0.051292 0.093717 0.087924 0.040282 0.218709 -0.094915 -0.191482 -0.071536 -0.197621 -0.064000 -0.175002 -0.011067 0.147443 -0.131446 0.051591 0.205574 -0.062593 -0.018339 -0.274253 0.115135 0.111392 -0.068114 -0.136738 0.137126 0.023813 -0.051914 -0.129462 0.024061 0.023438 -0.049940 -0.052279 
2518 0.385157 0.130600 -0.061701 -0.183916 0.111167 -0.118123 -0.013026 0.112827 -0.197840 0.076683 -0.093926 -0.176264 -0.240471 -0.155477 0.113601 -0.039893 0.097639 -0.054318 0.093276 -0.072408 -0.251971 -0.096038 -0.357482 0.037095 0.185094 0.024115 0.225764 -0.057084 0.057557 -0.002420 -0.166662 0.224161 0.133173 -0.274696 -0.096487 -0.373343 0.083463 0.092944 0.277770 -0.020747 0.072501 -0.182933 0.006364 0.007046 -0.002171 -0.187177 -0.290899 -0.229087 0.016709 0.060018 0.012650 0.008559 0.155397 0.161017 -0.038867 -0.056163 0.143772 0.249961 -0.037851 -0.082956 -0.090848 0.142709 0.099337 -0.049711 -0.245063 0.098199 0.197815 0.067472 -0.082472 0.256486 0.048964 0.013540 0.206475 0.084531 -0.071287 0.046251 -0.109652 -0.370210 -0.194868 -0.045817 -0.049568 0.004028 -0.046064 0.189337 0.160049 -0.000519 0.190210 -0.362465 -0.016996 0.254075 -0.203848 -0.100395 0.151425 0.111403 0.124095 0.037843 0.177781 0.173690 -0.054954 -0.259518 
2132 0.542563 0.175897 -0.082174 -0.255832 0.183096 -0.143400 -0.038020 0.114515 -0.293905 0.132331 -0.115446 -0.227786 -0.322322 -0.215420 0.162961 -0.058249 0.117554 -0.107664 0.161047 -0.081545 -0.351660 -0.150348 -0.479710 0.065814 0.250178 0.052810 0.308382 -0.088132 0.073292 0.025445 -0.191966 0.311294 0.190851 -0.368431 -0.134181 -0.480235 0.111785 0.128233 0.389757 -0.040012 0.094337 -0.256631 -0.019060 0.001349 0.000997 -0.226337 -0.402628 -0.314023 0.029603 0.093388 0.015107 0.039234 0.188804 0.243607 -0.051541 -0.083261 0.170918 0.343709 -0.043512 -0.105947 -0.106001 0.175274 0.114391 -0.068791 -0.348548 0.121875 0.257284 0.102186 -0.114319 0.355052 0.071522 0.000179 0.297465 0.096703 -0.095157 0.092355 -0.119707 -0.494782 -0.253133 -0.039426 -0.089156 -0.004061 -0.080404 0.267596 0.199448 -0.011222 0.264367 -0.488464 -0.032362 0.321839 -0.306675 -0.128460 0.209999 0.164876 0.178157 0.065444 0.260741 0.229013 -0.073597 -0.342375 
2650 0.132534 0.011363 -0.016834 -0.051059 0.039458 -0.047878 -0.015993 0.099828 -0.147288 0.045904 0.003541 -0.084452 -0.105504 -0.095574 0.107139 -0.030751 -0.001964 -0.040228 0.140272 -0.032054 -0.169850 -0.036685 -0.146214 -0.001970 0.035530 -0.000137 0.001407 -0.092318 0.018815 0.020818 -0.050224 0.194340 0.053869 -0.169994 0.033548 -0.186887 0.043382 0.012959 0.220025 -0.020682 0.118515 -0.098173 0.000317 -0.016845 0.026327 -0.147256 -0.162223 -0.085859 -0.021560 0.065257 -0.028996 -0.000959 0.083143 0.068573 0.008524 -0.049343 0.057269 0.040689 0.015042 -0.086228 0.021038 0.039489 -0.011125 -0.019545 -0.058933 0.112772 0.151717 0.065582 -0.029020 0.120814 -0.016303 0.054916 0.060782 -0.001189 -0.101103 0.017490 -0.047216 -0.179835 -0.078273 -0.045313 -0.014291 0.063621 0.003695 0.132840 0.100912 0.007447 0.041771 -0.240533 0.015494 0.131072 -0.064467 0.023735 0.100973 0.059026 0.088263 0.013485 -0.002801 0.118669 0.003300 -0.083714 
2207 0.094212 -0.006869 -0.007645 -0.025345 0.032365 -0.036563 -0.004085 0.103481 -0.138359 0.034728 0.007024 -0.067778 -0.076054 -0.079451 0.118269 -0.019619 -0.029386 -0.020047 0.142944 -0.019177 -0.149360 -0.016916 -0.107523 -0.006092 0.015222 -0.010363 -0.020875 -0.108462 0.007191 0.025095 -0.030183 0.183881 0.037048 -0.138834 0.049068 -0.156518 0.024482 0.000429 0.203610 -0.020068 0.128012 -0.082568 -0.005363 -0.019753 0.038046 -0.156766 -0.143325 -0.056016 -0.021457 0.053459 -0.032775 -0.012169 0.065398 0.052081 0.018050 -0.041285 0.051936 0.008681 0.038912 -0.087397 0.045635 0.023446 -0.021960 -0.006412 -0.026638 0.108635 0.138974 0.057349 -0.008021 0.088859 -0.021340 0.072264 0.034368 0.004772 -0.103989 -0.005714 -0.034525 -0.148636 -0.064265 -0.044008 -0.004105 0.069620 0.000625 0.118505 0.093338 0.003277 0.013959 -0.213215 0.026543 0.110850 -0.043844 0.027976 0.095079 0.054650 0.070847 -0.008159 -0.024085 0.098425 0.012752 -0.051816 
2553 -0.241717 -0.247577 0.128133 0.174315 -0.053091 0.056132 0.070969 0.361688 -0.357436 -0.022617 0.116806 -0.061568 0.048714 -0.176989 0.458620 0.084123 -0.360415 0.064641 0.572609 0.015365 -0.378729 0.175453 0.118535 -0.109707 -0.306592 -0.122852 -0.402260 -0.501249 -0.146771 0.108167 0.179094 0.580382 -0.097143 -0.192933 0.423936 -0.151379 -0.150085 -0.164019 0.537531 0.033126 0.555157 -0.031704 -0.000189 -0.040252 0.236725 -0.561892 -0.243700 0.208374 -0.170121 0.185047 -0.263353 -0.160466 -0.052246 0.008421 0.242069 -0.062674 -0.007341 -0.419397 0.382464 -0.287242 0.510281 -0.128336 -0.269905 0.101450 0.303682 0.384492 0.407739 0.108272 0.203351 -0.077357 -0.144227 0.313855 -0.188052 -0.039504 -0.441234 -0.190907 -0.025346 -0.143036 -0.021270 -0.208121 0.085604 0.420399 0.025049 0.248132 0.300402 -0.080964 -0.305558 -0.531017 0.236880 0.117189 0.108945 0.225837 0.231102 0.062799 0.114587 -0.204476 -0.464149 0.192183 0.144857 0.240064 
2078 -0.227860 -0.233517 0.121582 0.161872 -0.052225 0.054990 0.075358 0.350362 -0.337164 -0.025418 0.095500 -0.064562 0.042247 -0.166993 0.450431 0.092450 -0.350136 0.079102 0.560402 0.003660 -0.360752 0.191481 0.112356 -0.114901 -0.299988 -0.114518 -0.382741 -0.493041 -0.141173 0.107539 0.168187 0.563740 -0.104793 -0.188031 0.402771 -0.163778 -0.157832 -0.159041 0.515872 0.032556 0.555789 -0.023184 -0.006274 -0.031595 0.236266 -0.548241 -0.236779 0.203172 -0.169267 0.165511 -0.257484 -0.159344 -0.045544 0.009203 0.242324 -0.057333 -0.002556 -0.410104 0.381527 -0.273030 0.502795 -0.125177 -0.245821 0.123214 0.296919 0.380002 0.395160 0.098355 0.205629 -0.076340 -0.124949 0.316386 -0.184122 -0.035373 -0.435890 -0.209828 -0.030096 -0.148851 -0.029862 -0.212298 0.087021 0.428178 0.006848 0.240230 0.304548 -0.091932 -0.301924 -0.529150 0.242201 0.115799 0.106253 0.196074 0.230195 0.066130 0.092909 -0.218586 -0.447281 0.189317 0.143345 0.239300 
2203 0.600841 0.173258 -0.084871 -0.252155 0.096413 -0.225529 -0.047295 0.194764 -0.300673 0.123986 -0.124777 -0.273465 -0.402437 -0.214474 0.126238 -0.139339 0.211065 -0.098855 0.131949 -0.123000 -0.415195 -0.153490 -0.599988 0.070448 0.299370 0.061013 0.270211 -0.065511 0.148285 -0.039604 -0.319606 0.329733 0.205732 -0.494133 -0.139077 -0.603585 0.170310 0.131321 0.434415 -0.060333 0.123136 -0.281690 -0.012860 -0.028138 -0.048017 -0.264960 -0.464119 -0.410203 0.043655 0.095840 0.031677 0.037272 0.305699 0.219204 -0.085084 -0.105918 0.219855 0.362934 -0.109301 -0.138185 -0.204535 0.240928 0.131285 -0.118252 -0.365153 0.176130 0.327039 0.138532 -0.207725 0.436601 0.027864 0.045551 0.296747 0.086788 -0.110570 0.126443 -0.210655 -0.583481 -0.292215 -0.074289 -0.091947 0.004475 -0.007391 0.319772 0.236524 0.028272 0.315147 -0.572846 -0.037914 0.420360 -0.263735 -0.112527 0.262060 0.190099 0.232920 0.105457 0.248954 0.327623 -0.053384 -0.432506 
2143 0.485479 0.112823 -0.089218 -0.201547 0.059715 -0.181509 -0.092167 0.134012 -0.304839 0.150797 -0.040362 -0.222987 -0.335365 -0.185110 0.051636 -0.210752 0.208129 -0.121332 0.133040 -0.092546 -0.314863 -0.184102 -0.522452 0.073276 0.237808 0.094481 0.121952 -0.053590 0.153855 -0.048676 -0.254121 0.298370 0.187646 -0.451394 -0.092478 -0.465341 0.174172 0.135136 0.391935 -0.086405 0.066722 -0.260409 -0.027268 -0.077599 -0.054086 -0.156587 -0.365483 -0.370894 0.065422 0.119268 0.021452 0.096266 0.300265 0.166162 -0.124172 -0.132292 0.152901 0.259608 -0.123857 -0.132542 -0.240239 0.199710 0.055635 -0.151045 -0.330603 0.139341 0.279927 0.129326 -0.230841 0.368024 -0.047791 0.032631 0.232694 -0.034716 -0.096724 0.180048 -0.181313 -0.456063 -0.218937 0.006045 -0.099024 -0.026847 0.053935 0.278973 0.142860 0.019562 0.279518 -0.458570 -0.092516 0.386815 -0.191760 -0.008753 0.214660 0.182344 0.246205 0.170477 0.190779 0.327214 -0.011111 -0.350116 
2224 0.686120 0.213441 -0.107577 -0.291236 0.133613 -0.241993 -0.041511 0.227270 -0.315615 0.136168 -0.177058 -0.302385 -0.441493 -0.239730 0.166199 -0.119819 0.218389 -0.092118 0.143186 -0.150459 -0.465435 -0.152155 -0.661556 0.069901 0.332999 0.061169 0.350050 -0.074666 0.151816 -0.020100 -0.357215 0.363716 0.237111 -0.522024 -0.171159 -0.682491 0.156804 0.138178 0.481721 -0.054638 0.158701 -0.306417 -0.001812 -0.020228 -0.039394 -0.314743 -0.515106 -0.432994 0.029935 0.084550 0.034088 0.038179 0.306907 0.243652 -0.069051 -0.107109 0.265800 0.422687 -0.100653 -0.145071 -0.186392 0.257478 0.165197 -0.105106 -0.401354 0.191982 0.353068 0.147431 -0.209545 0.469232 0.059235 0.049643 0.338588 0.127548 -0.123633 0.105319 -0.225473 -0.656121 -0.328250 -0.097757 -0.106186 0.026654 -0.040873 0.353668 0.275114 0.021341 0.336702 -0.652153 -0.034524 0.468827 -0.316268 -0.156864 0.297359 0.196956 0.239492 0.097597 0.288673 0.352415 -0.079398 -0.481319 
2510 0.655297 0.216039 -0.095254 -0.281467 0.145374 -0.238858 -0.035679 0.215868 -0.314079 0.136608 -0.171447 -0.290603 -0.431708 -0.243467 0.177928 -0.109454 0.206309 -0.094378 0.149478 -0.149719 -0.453282 -0.143828 -0.626096 0.069912 0.329130 0.069689 0.333599 -0.076446 0.133270 -0.018603 -0.331265 0.351096 0.242235 -0.492275 -0.178306 -0.658083 0.157857 0.132382 0.459809 -0.055045 0.155536 -0.293383 -0.008873 -0.019117 -0.036436 -0.306358 -0.505571 -0.418917 0.026662 0.088298 0.021648 0.034208 0.274912 0.236745 -0.059734 -0.107679 0.254863 0.403489 -0.098255 -0.122940 -0.176737 0.246281 0.157365 -0.092701 -0.383364 0.185739 0.333528 0.128558 -0.186602 0.451116 0.061925 0.046410 0.342376 0.141469 -0.122243 0.105453 -0.212777 -0.630623 -0.305985 -0.093975 -0.106423 0.029729 -0.054388 0.339789 0.267833 0.020216 0.335029 -0.636304 -0.029289 0.458002 -0.316772 -0.164907 0.289182 0.188109 0.215239 0.097330 0.298712 0.334727 -0.078907 -0.462997 
2240 -0.223877 -0.230909 0.116950 0.162739 -0.047629 0.053301 0.065568 0.352738 -0.340986 -0.023882 0.107807 -0.056073 0.036100 -0.167048 0.446203 0.084015 -0.347692 0.074230 0.557729 0.007526 -0.355497 0.174709 0.113055 -0.106701 -0.297900 -0.118446 -0.373510 -0.488189 -0.136185 0.112717 0.155378 0.552716 -0.104720 -0.200754 0.408584 -0.159467 -0.147674 -0.159404 0.515533 0.030587 0.544592 -0.027340 -0.002036 -0.033863 0.223717 -0.544790 -0.230411 0.190649 -0.168248 0.171665 -0.250949 -0.148148 -0.054155 0.007432 0.237564 -0.058807 -0.004309 -0.403836 0.372050 -0.276435 0.495602 -0.114677 -0.249007 0.117591 0.292439 0.376657 0.397647 0.098574 0.197270 -0.069469 -0.129766 0.315713 -0.179244 -0.035992 -0.424468 -0.199255 -0.029791 -0.144120 -0.031480 -0.199100 0.076384 0.414992 0.008018 0.239446 0.295942 -0.082360 -0.293937 -0.522319 0.226330 0.117054 0.102702 0.203631 0.227091 0.062845 0.102284 -0.210858 -0.448564 0.192561 0.132717 0.227716 
2563 -0.217654 -0.225685 0.122673 0.155870 -0.044687 0.038431 0.074507 0.338814 -0.339571 -0.024442 0.093073 -0.078288 0.045793 -0.169723 0.450876 0.091151 -0.342034 0.071262 0.537558 0.012341 -0.359784 0.168931 0.106370 -0.106948 -0.289471 -0.127450 -0.364314 -0.485115 -0.126783 0.105252 0.167784 0.539534 -0.104150 -0.176344 0.393491 -0.147699 -0.156842 -0.153629 0.502256 0.047181 0.535583 -0.016823 -0.000377 -0.033897 0.216264 -0.546031 -0.236225 0.191502 -0.171788 0.168068 -0.244093 -0.157008 -0.053898 -0.001646 0.233213 -0.061958 -0.008950 -0.405103 0.375007 -0.275428 0.489214 -0.107600 -0.251209 0.112814 0.285070 0.372288 0.397288 0.101095 0.184723 -0.066459 -0.134064 0.302399 -0.189900 -0.039096 -0.420376 -0.197286 -0.025356 -0.144468 -0.025831 -0.206769 0.079909 0.412846 0.010420 0.233129 0.290197 -0.068033 -0.290537 -0.510630 0.232802 0.115595 0.098827 0.197979 0.226197 0.069775 0.091552 -0.193666 -0.433810 0.175180 0.120901 0.226055 
2122 -0.235488 -0.248454 0.124327 0.172538 -0.054377 0.047228 0.070425 0.365665 -0.358945 -0.033030 0.111164 -0.079296 0.052530 -0.187752 0.469392 0.095495 -0.366270 0.073609 0.571399 0.015936 -0.379683 0.182012 0.129107 -0.108858 -0.308930 -0.127711 -0.395384 -0.516222 -0.141655 0.113443 0.167391 0.583840 -0.103637 -0.194200 0.429606 -0.143281 -0.148268 -0.165657 0.536047 0.036791 0.563005 -0.020287 -0.002267 -0.039396 0.229635 -0.571774 -0.245260 0.214525 -0.172896 0.187611 -0.258615 -0.174938 -0.050893 -0.002318 0.249850 -0.063021 -0.006486 -0.433108 0.386222 -0.284428 0.522334 -0.126022 -0.267309 0.110421 0.308442 0.395991 0.426829 0.108163 0.198689 -0.072569 -0.147129 0.332366 -0.199887 -0.036779 -0.453658 -0.208941 -0.021399 -0.147393 -0.025764 -0.218810 0.081309 0.447486 0.024239 0.244275 0.311135 -0.086006 -0.308556 -0.539425 0.248539 0.127267 0.102552 0.219806 0.247169 0.078080 0.116907 -0.212030 -0.471610 0.190165 0.143097 0.241897 
2118 -0.237299 -0.244050 0.122317 0.170200 -0.049826 0.060200 0.077467 0.371735 -0.349948 -0.037186 0.105572 -0.064467 0.043862 -0.180858 0.470016 0.104529 -0.366966 0.074431 0.576971 0.004854 -0.374872 0.197141 0.125622 -0.127610 -0.299362 -0.136855 -0.390066 -0.514746 -0.146293 0.109405 0.170719 0.569876 -0.106605 -0.192820 0.424682 -0.159197 -0.158381 -0.162015 0.539549 0.039368 0.573032 -0.030001 0.008097 -0.042416 0.235249 -0.570837 -0.239281 0.207821 -0.182372 0.183874 -0.259755 -0.172047 -0.060715 -0.002027 0.249477 -0.051631 -0.002160 -0.421931 0.401506 -0.286849 0.521831 -0.124018 -0.260092 0.115571 0.308742 0.395168 0.414023 0.112791 0.205748 -0.076315 -0.140362 0.329611 -0.195154 -0.028786 -0.453194 -0.214150 -0.034743 -0.149122 -0.033242 -0.210312 0.082942 0.444303 0.010314 0.252644 0.311345 -0.085458 -0.308620 -0.546328 0.240634 0.129220 0.109980 0.215471 0.245577 0.070320 0.104250 -0.223838 -0.462052 0.197245 0.131753 0.242671 
1944 0.304731 0.076654 -0.043498 -0.143118 0.052830 -0.102961 -0.023927 0.102414 -0.167813 0.089892 -0.068054 -0.110008 -0.211276 -0.128346 0.072853 -0.084144 0.106495 -0.067580 0.084353 -0.074492 -0.222966 -0.091787 -0.300310 0.039686 0.125479 0.009908 0.129122 -0.022485 0.079625 0.007581 -0.144013 0.196186 0.084317 -0.273067 -0.067157 -0.290470 0.103208 0.060723 0.232641 -0.056262 0.056466 -0.171758 0.017333 0.001367 0.001543 -0.126370 -0.225354 -0.218686 0.022150 0.051214 0.005341 0.036503 0.156438 0.124782 -0.026397 -0.040621 0.085106 0.216848 -0.062009 -0.075571 -0.082608 0.098136 0.058187 -0.065464 -0.198035 0.072221 0.170556 0.085012 -0.076613 0.215965 0.015358 0.032344 0.181601 0.033191 -0.070367 0.084290 -0.097529 -0.302753 -0.166385 -0.025565 -0.036895 0.001751 0.002557 0.169395 0.110525 0.025445 0.181811 -0.276369 -0.026951 0.194560 -0.126700 -0.044797 0.110880 0.065416 0.123627 0.039343 0.128130 0.163022 -0.031660 -0.204454 
2117 0.569699 0.181180 -0.081874 -0.240582 0.104509 -0.195496 -0.020597 0.196365 -0.272064 0.119570 -0.157102 -0.247825 -0.376457 -0.199642 0.139083 -0.095179 0.176640 -0.083438 0.123921 -0.134258 -0.383008 -0.121665 -0.552502 0.046388 0.259831 0.041113 0.284475 -0.052750 0.127101 -0.007470 -0.301747 0.317805 0.204619 -0.436011 -0.145132 -0.572832 0.130931 0.102561 0.401591 -0.069730 0.125701 -0.272076 0.020420 0.001459 -0.019336 -0.249104 -0.436525 -0.365542 0.039420 0.076958 0.029308 0.037010 0.246569 0.223301 -0.039827 -0.076319 0.224536 0.356833 -0.101796 -0.116508 -0.151294 0.204666 0.148873 -0.085732 -0.332651 0.165943 0.300858 0.128673 -0.154528 0.381829 0.051652 0.042585 0.305607 0.114510 -0.109583 0.088485 -0.183915 -0.555768 -0.279138 -0.098354 -0.090041 0.015874 -0.032630 0.287016 0.227764 0.026424 0.302454 -0.544654 -0.027895 0.394081 -0.267962 -0.135830 0.233329 0.146170 0.187032 0.068537 0.242300 0.308787 -0.076371 -0.403603 
2611 -0.198018 -0.216394 0.100282 0.135580 -0.040760 0.036096 0.065556 0.333210 -0.321168 -0.019020 0.092180 -0.064062 0.022068 -0.161166 0.419806 0.072117 -0.324349 0.071912 0.526715 -0.000263 -0.354178 0.163204 0.098594 -0.111727 -0.265705 -0.115412 -0.334319 -0.454219 -0.133282 0.097024 0.144615 0.524127 -0.099758 -0.193283 0.366515 -0.160452 -0.132202 -0.146816 0.489899 0.026271 0.519324 -0.035181 -0.010722 -0.028107 0.229863 -0.527525 -0.236707 0.180405 -0.152724 0.162716 -0.226469 -0.150371 -0.041581 0.009474 0.213577 -0.052504 -0.004685 -0.375153 0.351715 -0.254849 0.463322 -0.110778 -0.231449 0.108411 0.267682 0.345713 0.369623 0.102838 0.194448 -0.065487 -0.120653 0.295004 -0.169996 -0.023703 -0.404151 -0.181276 -0.023421 -0.145819 -0.035645 -0.187191 0.075530 0.386419 0.006930 0.232865 0.286750 -0.079070 -0.275389 -0.496287 0.228632 0.109840 0.082413 0.177870 0.222763 0.068910 0.092619 -0.199102 -0.412460 0.191091 0.130096 0.211082 
2184 -0.225111 -0.240020 0.121353 0.164497 -0.041472 0.054434 0.070190 0.355492 -0.327873 -0.027290 0.108198 -0.053927 0.045195 -0.174553 0.453562 0.092547 -0.351376 0.070659 0.558546 0.007713 -0.353801 0.178285 0.125956 -0.115857 -0.297038 -0.136352 -0.377209 -0.495124 -0.134869 0.107835 0.165603 0.552545 -0.100997 -0.189631 0.409467 -0.158982 -0.143909 -0.159766 0.509641 0.032501 0.559071 -0.034692 -0.002373 -0.046129 0.235155 -0.549972 -0.236693 0.188792 -0.170376 0.166764 -0.255642 -0.158900 -0.063240 -0.010494 0.245895 -0.052501 -0.008051 -0.401368 0.381236 -0.268707 0.510152 -0.110055 -0.246459 0.115684 0.293267 0.378181 0.393639 0.110830 0.195507 -0.072341 -0.125261 0.315601 -0.190869 -0.027121 -0.441249 -0.198161 -0.023219 -0.145849 -0.024145 -0.199261 0.087510 0.424683 0.007379 0.245340 0.296322 -0.074368 -0.291895 -0.522869 0.229974 0.120491 0.099159 0.205062 0.230571 0.071116 0.098499 -0.209572 -0.446681 0.184448 0.140084 0.230821 
2354 -0.241947 -0.240379 0.120320 0.179854 -0.041081 0.042068 0.071662 0.366645 -0.347025 -0.032763 0.094634 -0.076276 0.044405 -0.179751 0.487446 0.103771 -0.367572 0.082354 0.579178 0.006491 -0.387535 0.204064 0.128901 -0.131331 -0.301828 -0.133452 -0.374025 -0.522549 -0.148227 0.109801 0.171100 0.568554 -0.108197 -0.187066 0.410356 -0.164820 -0.164459 -0.159770 0.533997 0.045742 0.574322 -0.023885 0.007130 -0.042623 0.233823 -0.583729 -0.251246 0.217958 -0.177372 0.176173 -0.264198 -0.169476 -0.064376 0.005532 0.262122 -0.055923 -0.001197 -0.422912 0.400859 -0.289099 0.526358 -0.113369 -0.249764 0.127031 0.309626 0.398960 0.418558 0.113620 0.202294 -0.083188 -0.142965 0.333345 -0.204672 -0.029363 -0.449788 -0.215575 -0.032020 -0.150019 -0.031856 -0.226865 0.077145 0.456231 0.011541 0.243965 0.317174 -0.083991 -0.314928 -0.545708 0.252501 0.130843 0.098441 0.206075 0.245063 0.075966 0.098485 -0.223556 -0.459698 0.188522 0.138820 0.244830 
2169 0.650187 0.196463 -0.092373 -0.283531 0.121471 -0.222022 -0.036434 0.208262 -0.306807 0.136737 -0.164059 -0.292827 -0.420315 -0.237448 0.164836 -0.120837 0.212481 -0.084439 0.154800 -0.132997 -0.438753 -0.142235 -0.622874 0.058256 0.304140 0.053488 0.327561 -0.076108 0.143963 -0.021296 -0.323835 0.345415 0.226278 -0.493828 -0.156322 -0.635512 0.161336 0.140330 0.455972 -0.060952 0.136949 -0.296037 -0.000362 -0.021315 -0.035690 -0.295769 -0.486140 -0.403762 0.039755 0.096106 0.034426 0.028386 0.299862 0.238216 -0.070042 -0.105125 0.238047 0.394333 -0.095203 -0.140901 -0.179958 0.247969 0.147438 -0.106740 -0.391910 0.176794 0.327745 0.133194 -0.192920 0.448504 0.062399 0.041091 0.328153 0.119945 -0.117996 0.102513 -0.211903 -0.617644 -0.309000 -0.091250 -0.089099 0.010261 -0.037671 0.337106 0.257100 0.017541 0.326021 -0.613296 -0.034966 0.441071 -0.295624 -0.147522 0.270599 0.189485 0.228151 0.091170 0.281327 0.338477 -0.074118 -0.449415 
2283 0.658755 0.214102 -0.092547 -0.287955 0.145921 -0.234369 -0.034199 0.201808 -0.311103 0.131477 -0.158652 -0.292752 -0.419758 -0.235489 0.171371 -0.099564 0.200965 -0.102118 0.142140 -0.143671 -0.441118 -0.139241 -0.620720 0.062437 0.316384 0.062706 0.343709 -0.083893 0.131971 -0.002722 -0.328234 0.353055 0.228921 -0.481762 -0.162011 -0.652266 0.145592 0.127725 0.459890 -0.056467 0.159993 -0.298487 -0.008536 -0.021549 -0.025558 -0.297497 -0.502861 -0.412449 0.042457 0.089557 0.020470 0.037975 0.268062 0.251167 -0.052073 -0.095113 0.250563 0.409152 -0.102526 -0.128940 -0.172595 0.242450 0.158027 -0.091191 -0.397223 0.188594 0.341794 0.139394 -0.181818 0.446960 0.061415 0.047719 0.343761 0.141382 -0.118893 0.100968 -0.207538 -0.629394 -0.309186 -0.099571 -0.101073 0.021081 -0.053843 0.328139 0.266669 0.014438 0.326299 -0.622070 -0.030498 0.435510 -0.327230 -0.163170 0.285173 0.183118 0.214510 0.087067 0.289034 0.322479 -0.081526 -0.452630 
2620 0.124380 -0.118147 -0.053385 -0.036964 -0.025229 -0.068197 -0.203370 0.052126 -0.413489 0.213794 0.268438 -0.063841 -0.163347 -0.154185 -0.038824 -0.367000 0.097488 -0.220074 0.273933 0.000401 -0.168501 -0.279967 -0.252253 0.098650 -0.020827 0.100252 -0.423427 -0.117721 0.153739 -0.051704 -0.008272 0.322147 0.073237 -0.388177 0.121720 -0.080485 0.227550 0.126540 0.410023 -0.116128 0.014408 -0.204643 -0.085431 -0.190907 -0.013482 -0.012169 -0.134727 -0.235775 0.068032 0.254663 -0.077966 0.246231 0.290902 0.033188 -0.203745 -0.252288 -0.044105 -0.074538 -0.058974 -0.172737 -0.218199 0.038705 -0.200703 -0.212096 -0.165628 0.121083 0.251232 0.154375 -0.212670 0.199913 -0.280493 0.043700 0.023340 -0.366517 -0.146693 0.343218 -0.114647 -0.132171 -0.030177 0.211512 -0.072736 -0.028274 0.244753 0.243442 -0.065386 0.042199 0.129393 -0.248345 -0.163451 0.263053 0.023923 0.320229 0.116218 0.175193 0.323915 0.283049 -0.076669 0.330189 0.137319 -0.079739 
1998 0.118425 -0.101299 -0.050044 -0.036371 -0.016803 -0.069348 -0.193978 0.054171 -0.397134 0.219334 0.252969 -0.058270 -0.157673 -0.154222 -0.028332 -0.353153 0.091172 -0.210002 0.272466 0.003501 -0.173990 -0.272883 -0.245654 0.095276 -0.004695 0.098970 -0.407159 -0.113617 0.145398 -0.055246 -0.013701 0.313848 0.070340 -0.381113 0.119011 -0.074083 0.214137 0.118519 0.391204 -0.108226 0.023105 -0.202668 -0.084349 -0.190739 -0.011587 -0.016682 -0.133432 -0.224867 0.065518 0.244893 -0.080018 0.243626 0.285670 0.036571 -0.190347 -0.235306 -0.034075 -0.071354 -0.059691 -0.167009 -0.206551 0.038224 -0.195040 -0.208669 -0.165310 0.117218 0.244296 0.155535 -0.206894 0.209026 -0.276019 0.035221 0.029149 -0.355024 -0.149806 0.334081 -0.104226 -0.128210 -0.032276 0.205862 -0.073369 -0.025773 0.231299 0.242631 -0.053383 0.033334 0.135919 -0.231533 -0.157097 0.263294 0.008531 0.306944 0.117370 0.160769 0.321281 0.282826 -0.064982 0.322047 0.127899 -0.089018 
2654 -0.243081 -0.242995 0.135316 0.185500 -0.051670 0.054563 0.068373 0.367922 -0.359461 -0.027353 0.116420 -0.071068 0.046867 -0.194316 0.474404 0.098963 -0.380462 0.074471 0.593521 0.016926 -0.394760 0.191082 0.127961 -0.119722 -0.314385 -0.129161 -0.415760 -0.524739 -0.148553 0.115903 0.183981 0.596133 -0.120880 -0.199499 0.430552 -0.149658 -0.162336 -0.159049 0.550186 0.037211 0.576566 -0.028367 0.008235 -0.045770 0.242362 -0.578831 -0.251901 0.210750 -0.188565 0.190893 -0.264474 -0.180986 -0.057053 -0.003822 0.260623 -0.067061 -0.012854 -0.434989 0.403290 -0.293567 0.527116 -0.126135 -0.274344 0.114248 0.317762 0.408234 0.427704 0.116395 0.204796 -0.067955 -0.151995 0.329427 -0.198615 -0.036175 -0.462423 -0.208610 -0.027050 -0.148686 -0.021591 -0.220342 0.073581 0.457489 0.022841 0.247348 0.323703 -0.085280 -0.309942 -0.557778 0.253337 0.134469 0.106934 0.229724 0.257323 0.076821 0.108256 -0.211234 -0.473092 0.195466 0.139704 0.259782 
2646 -0.219763 -0.221764 0.122618 0.167363 -0.042599 0.036250 0.069286 0.330563 -0.310089 -0.026917 0.099400 -0.077362 0.030348 -0.158024 0.441346 0.090784 -0.332172 0.075940 0.521114 0.002166 -0.353249 0.189178 0.124978 -0.125125 -0.282560 -0.127857 -0.339034 -0.468970 -0.120236 0.091951 0.151190 0.505193 -0.103849 -0.174233 0.372715 -0.143405 -0.146367 -0.144392 0.493238 0.048291 0.513749 -0.017407 0.001499 -0.045989 0.200987 -0.514474 -0.225603 0.184157 -0.156003 0.164009 -0.233968 -0.150826 -0.055173 -0.004618 0.234134 -0.051025 -0.007546 -0.390783 0.349056 -0.262434 0.483818 -0.097063 -0.227831 0.108981 0.277513 0.358514 0.380808 0.104090 0.182628 -0.074290 -0.130421 0.304289 -0.171982 -0.013241 -0.411824 -0.190374 -0.023115 -0.134494 -0.028845 -0.195582 0.080541 0.414745 -0.000030 0.222552 0.286341 -0.075304 -0.262844 -0.497781 0.222412 0.121415 0.091846 0.185261 0.214401 0.062474 0.093814 -0.187069 -0.409331 0.166077 0.118016 0.221717 
2228 0.148736 -0.005748 -0.010076 -0.052258 0.038719 -0.061902 -0.015718 0.111176 -0.159755 0.080832 0.020349 -0.081600 -0.138558 -0.098598 0.084936 -0.063133 0.009446 -0.082295 0.155082 -0.035660 -0.160600 -0.055910 -0.161145 -0.000572 0.008913 0.000280 -0.024171 -0.067842 0.031316 0.030603 -0.058284 0.212782 0.053387 -0.201391 0.022360 -0.180358 0.073625 0.017908 0.242365 -0.044513 0.111155 -0.113525 0.003838 -0.022782 0.067278 -0.133254 -0.165952 -0.120181 0.010224 0.083104 -0.017934 0.035167 0.085936 0.075375 0.013000 -0.038923 0.053470 0.066004 0.008260 -0.084586 0.016769 0.048601 -0.000803 -0.026951 -0.084662 0.137097 0.177838 0.090676 -0.030510 0.129767 -0.030499 0.056901 0.068710 0.003176 -0.115699 0.049883 -0.046942 -0.199156 -0.091354 -0.037352 -0.008051 0.039946 0.023543 0.165605 0.095282 0.022989 0.052168 -0.225458 0.005935 0.137985 -0.074647 -0.007601 0.100239 0.053078 0.106366 0.030988 0.009460 0.132913 0.015914 -0.100094 
2082 0.139858 0.001075 -0.013162 -0.046401 0.032483 -0.049592 -0.017010 0.109834 -0.153670 0.064159 0.005936 -0.083621 -0.119007 -0.095378 0.089438 -0.049393 0.004509 -0.050403 0.150820 -0.028471 -0.160120 -0.038638 -0.146080 0.008175 0.014626 0.000599 -0.018885 -0.091593 0.028407 0.018509 -0.054890 0.198525 0.043984 -0.183354 0.027600 -0.185499 0.053908 0.015968 0.226774 -0.027935 0.116968 -0.098069 -0.003729 -0.022871 0.048722 -0.145628 -0.161339 -0.099697 0.001215 0.074430 -0.029079 0.014506 0.078608 0.061498 0.008179 -0.047678 0.050205 0.045785 0.016254 -0.087815 0.016670 0.043950 -0.009269 -0.027014 -0.066569 0.123466 0.160740 0.070026 -0.034020 0.114900 -0.026346 0.055104 0.059569 -0.006380 -0.110280 0.035744 -0.055384 -0.187426 -0.088541 -0.043335 -0.011110 0.060775 0.017844 0.152458 0.103724 0.013170 0.037755 -0.234424 0.006961 0.144347 -0.066022 0.008641 0.104985 0.063329 0.100246 0.024514 -0.001696 0.136543 0.012603 -0.088750 
1979 -0.223987 -0.230954 0.117929 0.169867 -0.053903 0.043732 0.068637 0.361833 -0.344656 -0.026246 0.104527 -0.068805 0.040042 -0.165726 0.454923 0.082809 -0.362873 0.068271 0.573415 0.011653 -0.370079 0.177248 0.122829 -0.116793 -0.297884 -0.122199 -0.398708 -0.500728 -0.144320 0.111144 0.170001 0.580670 -0.102652 -0.186227 0.414174 -0.148727 -0.159334 -0.159859 0.521769 0.041608 0.561125 -0.024301 -0.004354 -0.041606 0.236449 -0.564376 -0.240487 0.204710 -0.170445 0.176070 -0.263674 -0.164570 -0.053988 0.014749 0.237994 -0.070267 -0.006145 -0.409384 0.393011 -0.280665 0.518988 -0.127204 -0.264609 0.113349 0.302651 0.390610 0.410077 0.095342 0.206320 -0.080886 -0.145124 0.324717 -0.200611 -0.045916 -0.442537 -0.208085 -0.027029 -0.150919 -0.018784 -0.210014 0.088411 0.428452 0.022370 0.237565 0.315944 -0.081801 -0.307975 -0.535052 0.237219 0.121858 0.115498 0.204620 0.232348 0.068568 0.093405 -0.209430 -0.469346 0.188152 0.138677 0.241052 
2484 -0.235669 -0.243232 0.131271 0.170581 -0.043125 0.042458 0.064844 0.355705 -0.351911 -0.022658 0.105837 -0.061711 0.054549 -0.184443 0.466034 0.090012 -0.365668 0.076527 0.563676 0.012703 -0.373743 0.182243 0.121688 -0.121303 -0.313032 -0.131645 -0.397404 -0.498167 -0.135655 0.114175 0.175997 0.571714 -0.117232 -0.197180 0.418420 -0.150933 -0.151115 -0.156363 0.532052 0.041381 0.560564 -0.020713 0.004540 -0.035838 0.230254 -0.545918 -0.248761 0.198151 -0.170829 0.186835 -0.253832 -0.164858 -0.049625 -0.006575 0.241205 -0.058286 -0.001799 -0.417791 0.385059 -0.281220 0.505262 -0.118384 -0.269494 0.116003 0.304244 0.394522 0.405127 0.106631 0.189995 -0.073014 -0.141743 0.312612 -0.196773 -0.033172 -0.438821 -0.194691 -0.016738 -0.144049 -0.024159 -0.209725 0.087694 0.434367 0.025885 0.237071 0.306943 -0.075052 -0.296023 -0.527789 0.235520 0.119543 0.097244 0.222046 0.244793 0.067863 0.103573 -0.197772 -0.460594 0.190919 0.128648 0.240299 
2257 -0.221684 -0.228561 0.113321 0.169136 -0.055223 0.040023 0.076197 0.355868 -0.337473 -0.028677 0.098157 -0.064753 0.043000 -0.168634 0.456035 0.084216 -0.356104 0.076937 0.555239 0.014221 -0.371573 0.176721 0.113698 -0.117446 -0.301144 -0.120668 -0.391209 -0.493187 -0.134642 0.108877 0.167837 0.555904 -0.108193 -0.194928 0.407481 -0.159070 -0.157000 -0.155460 0.525610 0.030341 0.550192 -0.025008 0.001859 -0.047219 0.229833 -0.552717 -0.238549 0.212486 -0.170329 0.180884 -0.256093 -0.162036 -0.054753 0.008235 0.238508 -0.061836 -0.000058 -0.418355 0.380267 -0.278180 0.511047 -0.112685 -0.256501 0.124604 0.289538 0.384701 0.402659 0.105212 0.201321 -0.070610 -0.136825 0.320776 -0.199436 -0.037539 -0.430783 -0.203835 -0.030397 -0.146630 -0.031488 -0.211449 0.084922 0.429281 0.008890 0.244669 0.307527 -0.078318 -0.310663 -0.527271 0.242741 0.120678 0.109277 0.201612 0.240733 0.071418 0.092096 -0.215156 -0.459643 0.190748 0.129459 0.242585 
2005 -0.234381 -0.231383 0.113716 0.170821 -0.055772 0.041796 0.071578 0.371760 -0.343607 -0.032355 0.099834 -0.066832 0.048269 -0.169366 0.478733 0.107375 -0.376899 0.076025 0.572542 0.003159 -0.366551 0.192145 0.118614 -0.128032 -0.304454 -0.136217 -0.389295 -0.513240 -0.145319 0.124967 0.163704 0.566418 -0.103709 -0.183320 0.417690 -0.164084 -0.158098 -0.166275 0.536079 0.037110 0.575113 -0.024174 0.004227 -0.043154 0.232698 -0.576729 -0.239479 0.210919 -0.168529 0.178411 -0.258037 -0.170190 -0.060154 0.000389 0.255449 -0.054096 -0.006662 -0.407609 0.396253 -0.277429 0.520109 -0.124368 -0.256212 0.122076 0.301588 0.394628 0.409786 0.105603 0.204910 -0.078070 -0.139312 0.322604 -0.194911 -0.035361 -0.454222 -0.213831 -0.024641 -0.151904 -0.021466 -0.224520 0.089072 0.450336 0.008777 0.249833 0.310650 -0.086222 -0.316377 -0.547800 0.244472 0.123097 0.105060 0.208447 0.234532 0.078801 0.102701 -0.220889 -0.449578 0.186903 0.134248 0.238007 
2560 -0.190111 -0.183097 0.097684 0.147060 -0.035183 0.039977 0.076923 0.315927 -0.276480 -0.034764 0.059523 -0.062401 0.034480 -0.146207 0.406892 0.098486 -0.309942 0.072579 0.472559 0.008692 -0.328740 0.183362 0.094928 -0.101883 -0.252203 -0.108327 -0.294478 -0.430973 -0.128149 0.094783 0.134636 0.476515 -0.090618 -0.143979 0.338146 -0.152198 -0.145194 -0.142102 0.440820 0.033986 0.493055 -0.014173 0.006103 -0.011727 0.196221 -0.490936 -0.212947 0.176463 -0.142702 0.140480 -0.218139 -0.148646 -0.064564 0.011460 0.225766 -0.039356 0.013752 -0.339514 0.334485 -0.225121 0.444353 -0.103609 -0.206393 0.116175 0.261510 0.331996 0.337534 0.082373 0.177328 -0.072219 -0.101664 0.273334 -0.157622 -0.004143 -0.382109 -0.195388 -0.020049 -0.135945 -0.030986 -0.190849 0.072589 0.366754 -0.018580 0.196599 0.268931 -0.075317 -0.262385 -0.461639 0.219674 0.102497 0.073643 0.147840 0.202060 0.048871 0.065832 -0.202537 -0.375019 0.155582 0.095945 0.207411 
1962 -0.247594 -0.244905 0.129221 0.176097 -0.060086 0.056439 0.068402 0.375352 -0.356815 -0.030108 0.114936 -0.065531 0.051029 -0.184101 0.485093 0.093000 -0.374123 0.078143 0.598306 0.011090 -0.383122 0.189093 0.129359 -0.128057 -0.322099 -0.132948 -0.412315 -0.529515 -0.147139 0.119321 0.171508 0.590830 -0.110212 -0.207018 0.436377 -0.161756 -0.162622 -0.163154 0.552165 0.032057 0.593346 -0.028045 -0.003024 -0.042044 0.245483 -0.587884 -0.247493 0.217578 -0.173710 0.182358 -0.268557 -0.176567 -0.056081 0.007277 0.252889 -0.057833 0.000726 -0.437108 0.402278 -0.292773 0.530826 -0.131904 -0.270527 0.124491 0.315458 0.413845 0.423924 0.107083 0.213958 -0.075086 -0.147973 0.329153 -0.204609 -0.046740 -0.463455 -0.213492 -0.026054 -0.149802 -0.030273 -0.224766 0.093944 0.454545 0.015715 0.256339 0.327066 -0.092356 -0.327041 -0.558999 0.253496 0.124044 0.106797 0.223352 0.249128 0.074041 0.115253 -0.222436 -0.477644 0.205594 0.141782 0.249333 
2206 -0.224583 -0.236265 0.119821 0.161634 -0.046736 0.044393 0.073177 0.353505 -0.340890 -0.031232 0.103500 -0.060886 0.041302 -0.168449 0.448525 0.089876 -0.349695 0.069578 0.556469 0.004847 -0.358744 0.185943 0.112065 -0.124361 -0.291290 -0.119264 -0.377997 -0.494638 -0.135771 0.110933 0.163006 0.551163 -0.102407 -0.188395 0.404850 -0.156939 -0.151248 -0.157580 0.514394 0.042641 0.547530 -0.026626 -0.002093 -0.040673 0.228060 -0.550825 -0.232397 0.192831 -0.161482 0.174261 -0.257614 -0.152478 -0.051169 -0.001735 0.236778 -0.050359 -0.003582 -0.408582 0.384167 -0.278586 0.499630 -0.115394 -0.243560 0.113132 0.289965 0.369537 0.395405 0.097520 0.198595 -0.079060 -0.135217 0.312896 -0.189904 -0.037477 -0.428998 -0.209143 -0.024058 -0.148377 -0.023551 -0.204064 0.081978 0.422643 0.012806 0.233785 0.308030 -0.082728 -0.296894 -0.519231 0.229793 0.121213 0.101376 0.204587 0.228325 0.064321 0.098500 -0.218326 -0.452243 0.187282 0.146062 0.232370 
2520 -0.227219 -0.238891 0.121223 0.173265 -0.046629 0.045608 0.058884 0.352914 -0.360526 -0.031729 0.103344 -0.062052 0.047522 -0.187387 0.457128 0.088111 -0.365102 0.062650 0.563739 0.011581 -0.377899 0.174240 0.125767 -0.119406 -0.300626 -0.127799 -0.394980 -0.505648 -0.143707 0.099002 0.179186 0.569049 -0.111329 -0.189291 0.422574 -0.146415 -0.150106 -0.159193 0.531399 0.035663 0.557557 -0.036894 0.004886 -0.044436 0.238001 -0.560740 -0.249284 0.216288 -0.168591 0.183013 -0.249311 -0.168163 -0.052581 -0.002144 0.245834 -0.061405 -0.003309 -0.417266 0.388088 -0.278699 0.510988 -0.119078 -0.264963 0.104368 0.299624 0.387055 0.404947 0.105535 0.199126 -0.080959 -0.140831 0.317675 -0.194686 -0.032677 -0.445256 -0.190085 -0.015827 -0.143743 -0.015903 -0.201459 0.076894 0.427873 0.020328 0.247273 0.304885 -0.083172 -0.309439 -0.521838 0.249636 0.114147 0.108632 0.227099 0.243211 0.060148 0.100991 -0.221352 -0.455725 0.196828 0.140068 0.242863 
2104 -0.242546 -0.237567 0.126934 0.174287 -0.055630 0.057610 0.080944 0.366344 -0.347181 -0.026377 0.107849 -0.072705 0.045928 -0.184666 0.477843 0.103740 -0.373139 0.074918 0.588622 0.005225 -0.378335 0.199278 0.124358 -0.118749 -0.315389 -0.126949 -0.393548 -0.526694 -0.141170 0.110448 0.177759 0.580634 -0.107179 -0.200047 0.427300 -0.158877 -0.156816 -0.166590 0.537655 0.043253 0.578615 -0.020659 0.004704 -0.040614 0.234854 -0.580026 -0.254354 0.217879 -0.178140 0.185012 -0.263975 -0.167824 -0.054758 -0.003104 0.248996 -0.062022 -0.004671 -0.435307 0.407057 -0.291459 0.525781 -0.119606 -0.257725 0.117797 0.313088 0.394088 0.421912 0.106945 0.206865 -0.080896 -0.144014 0.328067 -0.192921 -0.035838 -0.458860 -0.220814 -0.021263 -0.154665 -0.031132 -0.221993 0.085247 0.456617 0.018977 0.253806 0.314004 -0.086681 -0.314725 -0.552058 0.242960 0.122337 0.109609 0.208773 0.251505 0.079386 0.104590 -0.220761 -0.474116 0.200593 0.143116 0.256735 
2602 -0.225810 -0.229502 0.111989 0.150851 -0.041643 0.045063 0.073995 0.336727 -0.328456 -0.020997 0.103051 -0.057536 0.049723 -0.165372 0.441262 0.085389 -0.338714 0.076866 0.547067 0.007302 -0.348165 0.181237 0.117002 -0.108818 -0.293563 -0.118860 -0.364039 -0.485199 -0.141345 0.108763 0.166395 0.539001 -0.105823 -0.191524 0.395223 -0.147071 -0.155363 -0.155809 0.502295 0.033579 0.530103 -0.030628 -0.004887 -0.033909 0.220341 -0.529741 -0.233904 0.185384 -0.158829 0.172183 -0.250213 -0.153619 -0.048861 0.006933 0.225056 -0.055391 -0.004064 -0.397747 0.367011 -0.264008 0.483402 -0.113668 -0.241109 0.116522 0.285453 0.366968 0.389781 0.101816 0.192119 -0.078451 -0.124988 0.297287 -0.183200 -0.034709 -0.414641 -0.196312 -0.033752 -0.141052 -0.029257 -0.196028 0.072540 0.409841 0.013651 0.232288 0.290753 -0.081667 -0.291307 -0.502794 0.225920 0.119165 0.104276 0.195473 0.226804 0.066947 0.095448 -0.206941 -0.443341 0.187564 0.136924 0.238795 
2521 -0.228581 -0.230277 0.119438 0.176188 -0.042255 0.045232 0.076456 0.351740 -0.334154 -0.035427 0.107078 -0.080692 0.041631 -0.181411 0.467491 0.101356 -0.367636 0.069203 0.549827 0.011059 -0.370164 0.187694 0.122744 -0.117631 -0.288151 -0.124887 -0.369717 -0.506072 -0.132901 0.103516 0.165753 0.550969 -0.103258 -0.178430 0.408624 -0.146006 -0.144366 -0.161959 0.510491 0.034972 0.543359 -0.018999 0.004633 -0.046150 0.212087 -0.552461 -0.242551 0.214084 -0.170244 0.167349 -0.247612 -0.174725 -0.055539 -0.009916 0.249642 -0.066132 -0.003267 -0.401593 0.379841 -0.276026 0.505225 -0.111490 -0.258080 0.117563 0.289209 0.379534 0.401440 0.101097 0.200185 -0.062341 -0.132111 0.315376 -0.184041 -0.022971 -0.439930 -0.198880 -0.021769 -0.137676 -0.026708 -0.206698 0.082549 0.430769 0.017351 0.233470 0.297988 -0.079177 -0.297489 -0.530779 0.241980 0.117659 0.094341 0.202039 0.236789 0.061229 0.096213 -0.208316 -0.446794 0.178219 0.116851 0.233271 
2233 -0.079433 -0.119996 0.073334 0.076190 -0.023491 0.010247 0.057137 0.237139 -0.216138 -0.015619 0.034578 -0.067706 -0.011935 -0.106772 0.294188 0.071024 -0.196882 0.058748 0.345465 -0.007053 -0.256626 0.126534 0.011616 -0.078017 -0.147946 -0.070581 -0.177043 -0.303426 -0.074494 0.069303 0.063881 0.358457 -0.042679 -0.151028 0.227903 -0.169712 -0.091092 -0.100462 0.345450 0.028606 0.360541 -0.031582 0.002634 -0.006205 0.130275 -0.372389 -0.193188 0.095848 -0.104455 0.097006 -0.159525 -0.112018 -0.007095 0.032520 0.154969 -0.034623 0.031989 -0.207692 0.241090 -0.175370 0.294973 -0.054695 -0.118680 0.075626 0.160592 0.242925 0.269333 0.054961 0.115336 -0.014441 -0.057724 0.192086 -0.082102 0.013600 -0.267959 -0.144030 -0.034473 -0.149703 -0.047901 -0.149372 0.052424 0.272395 -0.014821 0.168284 0.228256 -0.054598 -0.153901 -0.375157 0.143026 0.109292 0.028823 0.092385 0.170041 0.054838 0.059919 -0.146976 -0.246806 0.136847 0.070508 0.104144 
2200 -0.248670 -0.240031 0.122164 0.174694 -0.051568 0.046075 0.069708 0.364138 -0.353038 -0.027150 0.116122 -0.068908 0.042136 -0.180218 0.470248 0.082602 -0.369562 0.065487 0.585425 0.013638 -0.380578 0.190269 0.121410 -0.119456 -0.315086 -0.129104 -0.402056 -0.502313 -0.136174 0.118234 0.171350 0.576929 -0.107207 -0.204772 0.422791 -0.155005 -0.159159 -0.159173 0.538276 0.044155 0.565179 -0.034561 -0.007104 -0.039432 0.239169 -0.573930 -0.239788 0.206345 -0.181759 0.186056 -0.253474 -0.164840 -0.057651 -0.001497 0.242330 -0.053363 -0.013973 -0.426978 0.396010 -0.293336 0.525039 -0.126940 -0.262400 0.113438 0.308937 0.392030 0.417123 0.109298 0.199621 -0.073649 -0.149422 0.330071 -0.197088 -0.050943 -0.449311 -0.212054 -0.032023 -0.141754 -0.026312 -0.208157 0.091292 0.433336 0.012934 0.249660 0.308775 -0.087059 -0.313499 -0.542860 0.238832 0.124587 0.108349 0.224119 0.235388 0.079569 0.110646 -0.212638 -0.473459 0.199844 0.144964 0.243065 
2294 0.671647 0.200445 -0.101973 -0.300916 0.167831 -0.210977 -0.047378 0.189638 -0.356791 0.149629 -0.150433 -0.291684 -0.414134 -0.256459 0.170552 -0.103637 0.186529 -0.120261 0.175960 -0.121685 -0.444264 -0.176941 -0.623798 0.083982 0.310350 0.065208 0.342835 -0.078780 0.117694 0.003256 -0.290838 0.386613 0.233759 -0.494233 -0.150716 -0.623068 0.164459 0.160703 0.478671 -0.051912 0.115361 -0.318158 -0.010051 -0.015364 -0.016958 -0.282839 -0.505535 -0.416457 0.040167 0.104291 0.034626 0.043971 0.281922 0.263373 -0.073798 -0.109311 0.221579 0.418718 -0.080840 -0.147283 -0.178766 0.229665 0.145298 -0.112032 -0.413421 0.173551 0.337404 0.139588 -0.184267 0.449108 0.054241 0.017294 0.355152 0.109077 -0.112813 0.117695 -0.182817 -0.626476 -0.308607 -0.066293 -0.109399 -0.000235 -0.052669 0.341608 0.251171 0.006284 0.332571 -0.608244 -0.035417 0.429706 -0.327941 -0.141834 0.268118 0.198281 0.237032 0.090613 0.308333 0.320373 -0.080597 -0.449479 
1981 0.537502 0.175118 -0.080936 -0.253232 0.190856 -0.145692 -0.049742 0.115154 -0.296470 0.130525 -0.094662 -0.224137 -0.316546 -0.218801 0.162914 -0.068359 0.119607 -0.120458 0.167654 -0.082052 -0.340934 -0.157822 -0.461328 0.068765 0.237979 0.054950 0.279659 -0.081824 0.067438 0.037178 -0.174483 0.312496 0.185114 -0.349345 -0.125424 -0.453833 0.115214 0.130430 0.390004 -0.039753 0.084572 -0.247178 -0.025509 -0.018266 0.015175 -0.210343 -0.395808 -0.307119 0.026971 0.102865 0.015361 0.060899 0.174256 0.236601 -0.060144 -0.097175 0.165450 0.339085 -0.045763 -0.098643 -0.105147 0.151669 0.102314 -0.054324 -0.343052 0.117624 0.255306 0.106417 -0.102342 0.343489 0.061730 -0.007200 0.298500 0.098180 -0.098911 0.115504 -0.113848 -0.465462 -0.233425 -0.028274 -0.093423 0.010166 -0.075373 0.260052 0.183306 -0.010463 0.252218 -0.472431 -0.034812 0.314845 -0.300889 -0.118282 0.201191 0.168570 0.171277 0.084097 0.262240 0.223490 -0.072877 -0.331626 
2187 0.708441 0.215943 -0.097329 -0.286401 0.122940 -0.264370 -0.052526 0.244447 -0.328478 0.138761 -0.178951 -0.315099 -0.462888 -0.252662 0.162844 -0.139387 0.234141 -0.092956 0.147392 -0.157076 -0.475117 -0.154680 -0.688170 0.069373 0.352473 0.073906 0.345653 -0.080926 0.161118 -0.035254 -0.385992 0.373385 0.256942 -0.535577 -0.175596 -0.708150 0.165653 0.135664 0.491031 -0.065297 0.170651 -0.304480 -0.003074 -0.023244 -0.055498 -0.319497 -0.535545 -0.452958 0.036601 0.090667 0.031960 0.042412 0.321505 0.247213 -0.069092 -0.120954 0.273350 0.423301 -0.114520 -0.144023 -0.212513 0.267748 0.167316 -0.107653 -0.405237 0.205219 0.362689 0.140541 -0.223599 0.487563 0.054866 0.059901 0.353599 0.130414 -0.129951 0.109351 -0.247683 -0.670606 -0.322338 -0.103216 -0.114918 0.025105 -0.033489 0.365914 0.288800 0.019354 0.357028 -0.672925 -0.032100 0.500621 -0.314870 -0.163257 0.306099 0.204746 0.252978 0.111091 0.296721 0.384334 -0.074691 -0.504579 
1916 0.595845 0.165345 -0.097118 -0.276366 0.130750 -0.187781 -0.047098 0.170318 -0.313597 0.130034 -0.125563 -0.262519 -0.371469 -0.220497 0.126144 -0.111645 0.176566 -0.097229 0.153692 -0.113607 -0.389028 -0.149083 -0.562939 0.064965 0.265311 0.052325 0.298400 -0.075369 0.126749 -0.019338 -0.268580 0.340774 0.193375 -0.467648 -0.132455 -0.560485 0.156315 0.142196 0.428230 -0.058341 0.098253 -0.290207 0.000751 -0.007640 -0.025225 -0.249350 -0.440609 -0.368875 0.038668 0.107833 0.025207 0.036367 0.283666 0.227190 -0.079058 -0.104078 0.193493 0.363283 -0.083114 -0.126922 -0.179315 0.220155 0.122104 -0.114711 -0.369603 0.153753 0.304117 0.126536 -0.170648 0.401835 0.043014 0.019806 0.303580 0.079671 -0.111751 0.105142 -0.177353 -0.558821 -0.288745 -0.060034 -0.082870 -0.008106 -0.033980 0.300004 0.218098 0.013963 0.308681 -0.533720 -0.038588 0.396382 -0.283080 -0.109707 0.235790 0.178192 0.214154 0.089232 0.248945 0.300811 -0.063996 -0.400558 
1945 0.710036 0.228209 -0.112074 -0.311857 0.148265 -0.245562 -0.038543 0.231288 -0.334501 0.143109 -0.169764 -0.301370 -0.468381 -0.261238 0.167336 -0.127990 0.217961 -0.111197 0.159080 -0.154173 -0.482345 -0.172376 -0.679986 0.073317 0.343587 0.064883 0.353175 -0.077348 0.146025 -0.021263 -0.360703 0.385102 0.252614 -0.544944 -0.175979 -0.699149 0.167189 0.153458 0.510551 -0.059730 0.160166 -0.320499 -0.006756 -0.010154 -0.040915 -0.317566 -0.536498 -0.455153 0.041732 0.097178 0.025442 0.048853 0.316207 0.258032 -0.067198 -0.111393 0.262738 0.446952 -0.111875 -0.148572 -0.182403 0.256162 0.171075 -0.106067 -0.428282 0.195031 0.361024 0.147191 -0.205682 0.479052 0.061323 0.043031 0.371824 0.134401 -0.138296 0.111484 -0.232966 -0.676432 -0.342365 -0.094721 -0.109621 0.018331 -0.050984 0.360424 0.281265 0.023904 0.363900 -0.672678 -0.024966 0.494979 -0.333451 -0.165079 0.302796 0.203759 0.254144 0.095633 0.306090 0.370955 -0.082510 -0.484351 
1959 0.610901 0.214838 -0.082818 -0.267136 0.168436 -0.194418 -0.030766 0.172730 -0.286494 0.115635 -0.152685 -0.273952 -0.365994 -0.221914 0.188227 -0.061016 0.156332 -0.086545 0.156356 -0.112180 -0.402622 -0.123345 -0.554795 0.061577 0.292876 0.066849 0.346399 -0.082805 0.091486 0.025558 -0.267541 0.327193 0.225316 -0.410040 -0.166521 -0.587223 0.105451 0.121829 0.405521 -0.033292 0.149094 -0.258494 -0.016657 -0.020076 -0.013783 -0.267119 -0.467510 -0.361045 0.022508 0.068197 0.024503 0.032375 0.207576 0.249149 -0.039835 -0.091915 0.230811 0.372620 -0.064006 -0.107331 -0.122436 0.208571 0.145718 -0.057009 -0.367672 0.158942 0.290864 0.115132 -0.130239 0.400842 0.081968 0.033180 0.325079 0.154019 -0.112397 0.085732 -0.169593 -0.563245 -0.281721 -0.091592 -0.100962 0.039526 -0.077909 0.292254 0.238162 -0.003861 0.285920 -0.567592 -0.023434 0.397433 -0.323492 -0.158168 0.245464 0.176848 0.184334 0.067204 0.280084 0.272535 -0.093501 -0.401703 
1971 -0.233354 -0.243244 0.126065 0.173374 -0.044918 0.046127 0.073064 0.369353 -0.342263 -0.029038 0.099348 -0.061174 0.047416 -0.172548 0.467248 0.103688 -0.364922 0.077139 0.564545 0.006700 -0.377308 0.185841 0.115617 -0.123205 -0.304758 -0.123220 -0.383553 -0.501985 -0.151237 0.110065 0.173375 0.573929 -0.099757 -0.191887 0.418569 -0.169476 -0.159696 -0.160563 0.528813 0.039550 0.570720 -0.028102 0.000847 -0.031524 0.238325 -0.560391 -0.244847 0.204794 -0.174441 0.179708 -0.266779 -0.163073 -0.064351 -0.000447 0.254670 -0.047530 0.006223 -0.418545 0.392301 -0.289144 0.510006 -0.115093 -0.259602 0.116976 0.306988 0.394747 0.405041 0.106407 0.198728 -0.081263 -0.133346 0.317326 -0.201265 -0.031518 -0.438442 -0.210004 -0.034062 -0.145646 -0.031641 -0.212020 0.083393 0.431875 0.013768 0.245815 0.312533 -0.090269 -0.300491 -0.542627 0.240319 0.127086 0.097189 0.208381 0.242086 0.071704 0.095514 -0.218248 -0.464471 0.195701 0.137940 0.243398 
2436 0.623531 0.198928 -0.091153 -0.258616 0.115548 -0.221902 -0.044365 0.203422 -0.298615 0.130924 -0.150021 -0.272985 -0.408833 -0.219487 0.152343 -0.117946 0.196277 -0.088244 0.138134 -0.137268 -0.417692 -0.143280 -0.604830 0.067537 0.312073 0.068597 0.308950 -0.069353 0.135076 -0.021078 -0.324239 0.337334 0.223401 -0.475234 -0.150153 -0.616704 0.145034 0.128530 0.433281 -0.054457 0.145010 -0.270384 -0.009734 -0.022828 -0.042097 -0.276405 -0.484379 -0.405301 0.033570 0.076237 0.025878 0.033954 0.275283 0.222922 -0.070139 -0.103132 0.239787 0.385135 -0.088252 -0.129243 -0.180404 0.235452 0.152591 -0.092534 -0.371666 0.177927 0.321431 0.134546 -0.189894 0.426558 0.054489 0.053825 0.317168 0.115954 -0.121217 0.113550 -0.197364 -0.591654 -0.295229 -0.091630 -0.102898 0.022410 -0.030751 0.327800 0.253112 0.013978 0.316016 -0.604424 -0.028726 0.427040 -0.290563 -0.137661 0.268853 0.182710 0.215404 0.087003 0.272050 0.330185 -0.071794 -0.434600 
2042 0.615995 0.198540 -0.089600 -0.243490 0.113554 -0.231485 -0.040517 0.219582 -0.287918 0.123637 -0.155863 -0.289844 -0.393208 -0.206153 0.164472 -0.111926 0.203651 -0.067325 0.130625 -0.136592 -0.417331 -0.121539 -0.606135 0.060159 0.308594 0.073469 0.301394 -0.067489 0.135301 -0.017524 -0.334531 0.328499 0.229091 -0.463236 -0.170504 -0.634060 0.142372 0.116662 0.416625 -0.063013 0.158350 -0.266269 -0.000510 -0.033699 -0.043038 -0.272917 -0.478204 -0.391846 0.034690 0.069115 0.027934 0.022950 0.264526 0.227104 -0.055547 -0.108411 0.247452 0.367796 -0.100963 -0.120133 -0.181319 0.238223 0.151581 -0.088672 -0.350755 0.188044 0.325653 0.121942 -0.181848 0.427605 0.053144 0.047443 0.313724 0.132363 -0.114431 0.093807 -0.212464 -0.590421 -0.276897 -0.104027 -0.104551 0.030384 -0.032828 0.314049 0.250957 0.011178 0.308274 -0.590307 -0.030159 0.440509 -0.277530 -0.147388 0.270759 0.178839 0.200294 0.097741 0.266324 0.329667 -0.074002 -0.437220 
2084 -0.196146 -0.214996 0.097004 0.133628 -0.034394 0.039530 0.059771 0.318488 -0.332058 -0.022152 0.091534 -0.072661 0.041111 -0.158262 0.417211 0.082492 -0.327323 0.072739 0.515206 0.009711 -0.339634 0.151843 0.089479 -0.100453 -0.267546 -0.105531 -0.340028 -0.455537 -0.130132 0.101639 0.153105 0.520876 -0.097135 -0.187696 0.367707 -0.146697 -0.135733 -0.151593 0.486607 0.038072 0.496416 -0.031899 -0.008944 -0.030090 0.213329 -0.508195 -0.221638 0.177240 -0.157016 0.169102 -0.231624 -0.138689 -0.033475 0.012196 0.210909 -0.051768 -0.005275 -0.378461 0.334998 -0.255375 0.454771 -0.109194 -0.236142 0.089828 0.259022 0.340727 0.369510 0.097044 0.184716 -0.053780 -0.118748 0.293116 -0.173393 -0.038829 -0.395417 -0.178834 -0.018894 -0.129783 -0.026971 -0.177400 0.073795 0.374300 0.011412 0.226082 0.286676 -0.077937 -0.273001 -0.472307 0.225132 0.116718 0.086586 0.181919 0.216694 0.063282 0.094218 -0.202747 -0.410890 0.188404 0.129203 0.206662 
2624 -0.230230 -0.230718 0.118289 0.162978 -0.052773 0.051473 0.064945 0.359161 -0.351068 -0.024314 0.097893 -0.059525 0.052459 -0.178115 0.458013 0.090491 -0.359012 0.077863 0.566437 0.005701 -0.366174 0.175445 0.115134 -0.113354 -0.297868 -0.124356 -0.395581 -0.500165 -0.142295 0.115865 0.168451 0.574196 -0.107808 -0.196034 0.417055 -0.152915 -0.153925 -0.162778 0.526192 0.039464 0.562660 -0.028264 -0.003352 -0.036252 0.233139 -0.561534 -0.244956 0.212737 -0.172844 0.179931 -0.254918 -0.164397 -0.048871 0.010004 0.237977 -0.052953 0.001963 -0.414145 0.386055 -0.281176 0.505662 -0.129740 -0.260670 0.112348 0.291855 0.391639 0.404911 0.103268 0.198794 -0.081964 -0.136547 0.316072 -0.198768 -0.040217 -0.445673 -0.205582 -0.025232 -0.154217 -0.026759 -0.211895 0.075176 0.427431 0.013320 0.239950 0.302537 -0.078502 -0.311434 -0.523910 0.241292 0.121322 0.104262 0.215396 0.229424 0.064947 0.093432 -0.216392 -0.460527 0.193820 0.146591 0.239037 
2364 0.098945 -0.135676 -0.046655 -0.027201 -0.037723 -0.064777 -0.232831 0.052880 -0.436050 0.247748 0.304104 -0.053051 -0.166149 -0.164200 -0.047486 -0.406415 0.108240 -0.244766 0.301073 0.003098 -0.177425 -0.313579 -0.257109 0.101215 -0.032553 0.111462 -0.486988 -0.127601 0.164711 -0.053501 0.006670 0.346064 0.064083 -0.421417 0.141200 -0.054506 0.250773 0.124332 0.435046 -0.127983 0.022815 -0.219323 -0.097738 -0.219471 -0.003942 -0.003210 -0.127130 -0.237176 0.071872 0.274678 -0.091348 0.281707 0.318671 0.019950 -0.218851 -0.274282 -0.053880 -0.101197 -0.071977 -0.181937 -0.230859 0.036113 -0.227122 -0.239230 -0.165169 0.134889 0.273803 0.168255 -0.228134 0.213287 -0.322778 0.046763 0.009604 -0.417381 -0.161895 0.378884 -0.108933 -0.120254 -0.026892 0.235432 -0.074548 -0.022260 0.272528 0.257175 -0.075907 0.047580 0.142479 -0.244682 -0.177014 0.275253 0.027913 0.366413 0.115763 0.179052 0.360015 0.313754 -0.093543 0.351874 0.160685 -0.075979 
1991 0.121284 -0.102616 -0.050550 -0.042708 -0.011921 -0.062217 -0.200631 0.046094 -0.396945 0.213537 0.249726 -0.060948 -0.165229 -0.151942 -0.033221 -0.347656 0.095916 -0.205339 0.270464 -0.003912 -0.174257 -0.277847 -0.246908 0.091056 -0.008817 0.093478 -0.401286 -0.122210 0.141616 -0.050546 -0.017108 0.309776 0.066944 -0.380901 0.116291 -0.082680 0.215607 0.120934 0.394729 -0.114268 0.029137 -0.201420 -0.088279 -0.186947 -0.007503 -0.016822 -0.139458 -0.224734 0.060052 0.242151 -0.084354 0.233517 0.286960 0.034863 -0.185353 -0.239287 -0.031941 -0.064166 -0.057681 -0.165009 -0.199109 0.049402 -0.183937 -0.212927 -0.157065 0.124053 0.244060 0.152151 -0.196321 0.210630 -0.266711 0.041919 0.030965 -0.349486 -0.146993 0.332973 -0.101778 -0.127447 -0.035429 0.200341 -0.069992 -0.024632 0.232922 0.244101 -0.058769 0.043349 0.130427 -0.247678 -0.157401 0.256427 0.007172 0.301397 0.118802 0.170095 0.309973 0.276989 -0.068547 0.315721 0.122759 -0.089893 
2110 0.442638 0.144372 -0.067939 -0.216193 0.165316 -0.106403 -0.031487 0.082786 -0.250971 0.113431 -0.078034 -0.184335 -0.250350 -0.183098 0.130779 -0.052973 0.084810 -0.106887 0.144362 -0.056056 -0.273936 -0.127917 -0.372547 0.060514 0.198247 0.049147 0.233546 -0.073466 0.049288 0.038362 -0.135266 0.260360 0.161822 -0.277932 -0.101867 -0.366029 0.099150 0.114979 0.320542 -0.026084 0.066770 -0.212744 -0.029021 -0.009261 0.017994 -0.172918 -0.319261 -0.245830 0.019679 0.085060 0.017639 0.057196 0.140863 0.198596 -0.056688 -0.074622 0.131142 0.278945 -0.029796 -0.081634 -0.075767 0.124654 0.083547 -0.042984 -0.291812 0.101275 0.197715 0.086720 -0.076677 0.272473 0.055939 -0.007491 0.252558 0.074122 -0.087748 0.098353 -0.079159 -0.377524 -0.202134 -0.023629 -0.073347 0.003816 -0.064880 0.210418 0.144235 -0.003771 0.209878 -0.381336 -0.032344 0.256005 -0.259578 -0.098538 0.152783 0.138816 0.139365 0.066131 0.218475 0.182419 -0.069358 -0.269089 
2029 0.359337 0.097874 -0.050685 -0.164247 0.094692 -0.110318 -0.028908 0.090620 -0.194107 0.096982 -0.071751 -0.147056 -0.221290 -0.144978 0.091461 -0.069924 0.098880 -0.079194 0.099729 -0.067395 -0.235328 -0.109627 -0.326701 0.044192 0.143926 0.030245 0.177628 -0.044442 0.066704 0.020182 -0.137230 0.216827 0.109025 -0.276274 -0.082160 -0.320094 0.095459 0.077449 0.259688 -0.038639 0.053580 -0.184117 0.005604 -0.004567 0.011670 -0.140464 -0.265883 -0.220462 0.029477 0.063905 0.006502 0.033486 0.146344 0.156090 -0.038695 -0.053949 0.107682 0.236674 -0.045712 -0.076795 -0.090870 0.112330 0.069117 -0.056752 -0.230783 0.085928 0.178412 0.087336 -0.086836 0.239825 0.028395 0.009245 0.195767 0.042493 -0.069667 0.086857 -0.093598 -0.329400 -0.177216 -0.024117 -0.047813 -0.000477 -0.017589 0.181959 0.129919 0.008302 0.188751 -0.317183 -0.032121 0.215895 -0.178995 -0.072110 0.127906 0.103865 0.123105 0.055736 0.157096 0.173307 -0.046817 -0.234741 
2607 -0.227209 -0.236799 0.115352 0.163962 -0.052413 0.054154 0.072558 0.355373 -0.342458 -0.028432 0.100916 -0.059421 0.043810 -0.175876 0.457556 0.084697 -0.359217 0.070829 0.566472 0.010752 -0.363948 0.184789 0.120655 -0.115623 -0.296206 -0.121284 -0.393074 -0.496868 -0.144174 0.112358 0.173681 0.568642 -0.111190 -0.192490 0.408835 -0.149320 -0.153375 -0.164024 0.525592 0.042336 0.555661 -0.027796 -0.000567 -0.032739 0.232823 -0.563819 -0.236046 0.198666 -0.164172 0.179453 -0.255869 -0.154700 -0.050395 0.003892 0.233881 -0.054166 -0.011243 -0.411018 0.392286 -0.282113 0.506150 -0.117979 -0.251653 0.116030 0.299055 0.384491 0.406351 0.099208 0.195195 -0.081510 -0.135581 0.314651 -0.191560 -0.037380 -0.437794 -0.206375 -0.027117 -0.151220 -0.021516 -0.206766 0.084502 0.423211 0.020547 0.243632 0.307573 -0.083657 -0.309370 -0.531195 0.233533 0.118233 0.112170 0.210265 0.230990 0.066590 0.100798 -0.217512 -0.458155 0.194084 0.144429 0.243155 
2649 0.668422 0.200783 -0.103038 -0.288194 0.138566 -0.242487 -0.041516 0.223691 -0.322380 0.136436 -0.155998 -0.287902 -0.441489 -0.248733 0.152783 -0.128952 0.219893 -0.102418 0.160745 -0.138867 -0.458500 -0.165617 -0.648349 0.069404 0.334345 0.067863 0.338466 -0.076702 0.142058 -0.016485 -0.344453 0.364232 0.235103 -0.524482 -0.168510 -0.662606 0.171502 0.140112 0.480354 -0.060820 0.139350 -0.304387 -0.003261 -0.013400 -0.034900 -0.304520 -0.510064 -0.423216 0.031044 0.086579 0.036460 0.048056 0.306292 0.240328 -0.076140 -0.106924 0.251227 0.418320 -0.105197 -0.133720 -0.184096 0.248606 0.159091 -0.110779 -0.405161 0.188086 0.340290 0.142470 -0.205690 0.463001 0.057745 0.046756 0.344325 0.113982 -0.124808 0.112099 -0.218059 -0.645767 -0.320588 -0.080237 -0.101379 0.018243 -0.041022 0.351848 0.267454 0.026385 0.342808 -0.640685 -0.028223 0.462763 -0.306759 -0.149467 0.289215 0.192561 0.242850 0.092473 0.287488 0.350447 -0.077296 -0.464734 
2087 0.690839 0.210248 -0.099699 -0.287049 0.124900 -0.253409 -0.038454 0.242228 -0.316882 0.130036 -0.181236 -0.307514 -0.442072 -0.242605 0.184033 -0.110740 0.222806 -0.085974 0.143028 -0.151773 -0.462778 -0.132622 -0.660894 0.062527 0.330497 0.065176 0.353416 -0.079712 0.144359 -0.021711 -0.363601 0.355903 0.235587 -0.507510 -0.183021 -0.692671 0.149030 0.130863 0.469096 -0.057370 0.170283 -0.295300 -0.001150 -0.020353 -0.038411 -0.316999 -0.516811 -0.436296 0.033139 0.089266 0.034627 0.020236 0.294636 0.256350 -0.056233 -0.108386 0.259049 0.412685 -0.111886 -0.134330 -0.187053 0.257724 0.169290 -0.094472 -0.393967 0.191867 0.348818 0.129093 -0.204715 0.472063 0.071102 0.058798 0.350329 0.146587 -0.126352 0.092688 -0.229313 -0.655671 -0.327525 -0.111254 -0.103829 0.028506 -0.043788 0.345463 0.283581 0.009502 0.344102 -0.658889 -0.026345 0.472565 -0.309770 -0.166145 0.289675 0.197835 0.227418 0.088689 0.296569 0.356737 -0.080736 -0.480496 
2188 -0.234899 -0.242352 0.122173 0.180445 -0.057341 0.051696 0.075350 0.371048 -0.357945 -0.027019 0.109397 -0.072100 0.045964 -0.168954 0.471677 0.090451 -0.373676 0.081464 0.582299 0.009492 -0.385299 0.185877 0.124679 -0.126724 -0.310442 -0.130875 -0.402586 -0.515262 -0.148751 0.119690 0.170556 0.590519 -0.103617 -0.197128 0.430803 -0.156773 -0.159007 -0.163317 0.543877 0.039193 0.586155 -0.022143 0.005439 -0.037201 0.242537 -0.577111 -0.236917 0.214620 -0.176422 0.186771 -0.263143 -0.174294 -0.054093 0.004809 0.254989 -0.065321 -0.007859 -0.426806 0.406862 -0.292164 0.527407 -0.131854 -0.265695 0.126001 0.306761 0.399998 0.419146 0.105049 0.203665 -0.084789 -0.137553 0.332654 -0.199610 -0.038131 -0.452186 -0.219406 -0.036476 -0.152867 -0.020809 -0.211450 0.084488 0.440938 0.012554 0.242942 0.316599 -0.091772 -0.325927 -0.551854 0.255028 0.133845 0.112562 0.208287 0.246215 0.070714 0.103075 -0.218849 -0.471064 0.200407 0.148444 0.246572 
2477 -0.233500 -0.243049 0.117724 0.168420 -0.046899 0.044653 0.057967 0.352067 -0.339898 -0.021339 0.110007 -0.061960 0.041241 -0.179893 0.437138 0.083531 -0.357561 0.063811 0.552179 0.004922 -0.361460 0.162763 0.120652 -0.112035 -0.303471 -0.128326 -0.392586 -0.483296 -0.135662 0.110123 0.161987 0.552451 -0.103597 -0.196438 0.415011 -0.140603 -0.148982 -0.152165 0.511731 0.038255 0.544329 -0.030865 0.001538 -0.041263 0.224924 -0.536698 -0.230308 0.205383 -0.164080 0.173007 -0.245340 -0.165511 -0.050438 -0.006512 0.236879 -0.062208 -0.010075 -0.404747 0.367287 -0.279876 0.487427 -0.112883 -0.255966 0.104344 0.295365 0.381384 0.402215 0.115512 0.186747 -0.074443 -0.150340 0.314400 -0.188512 -0.050332 -0.436635 -0.192238 -0.028812 -0.136769 -0.018270 -0.201257 0.077637 0.427376 0.030113 0.231782 0.288598 -0.079351 -0.293715 -0.511201 0.230206 0.117869 0.109088 0.218657 0.238457 0.069484 0.116744 -0.204194 -0.446342 0.188860 0.142296 0.230962 
2386 -0.245679 -0.243400 0.122269 0.182241 -0.051701 0.043116 0.074192 0.362474 -0.364536 -0.027145 0.121995 -0.074800 0.050967 -0.194168 0.484179 0.098917 -0.376825 0.071916 0.582416 0.010277 -0.391047 0.190392 0.120206 -0.125197 -0.315962 -0.136195 -0.408755 -0.518217 -0.138323 0.113929 0.171881 0.575983 -0.111369 -0.194385 0.425798 -0.146654 -0.159307 -0.161859 0.551400 0.050302 0.576688 -0.027938 0.008106 -0.050307 0.228509 -0.583937 -0.248728 0.210817 -0.180946 0.193030 -0.255171 -0.166428 -0.056686 -0.002829 0.244991 -0.066286 -0.006546 -0.438611 0.396536 -0.289261 0.521818 -0.122995 -0.279166 0.115773 0.306774 0.406485 0.428802 0.120078 0.206769 -0.074873 -0.152307 0.327346 -0.196773 -0.043785 -0.460694 -0.206565 -0.022019 -0.142935 -0.027598 -0.222034 0.076879 0.455010 0.022438 0.252793 0.310370 -0.078062 -0.316681 -0.548589 0.252933 0.123329 0.115793 0.224852 0.241179 0.066363 0.115082 -0.207975 -0.472362 0.191682 0.140159 0.250692 
2543 0.107725 0.073500 0.046915 0.003958 0.016027 -0.063084 0.089831 0.150486 -0.007401 -0.090811 -0.185206 -0.122735 -0.050204 -0.037212 0.216186 0.154457 -0.053643 0.131156 0.053494 -0.042502 -0.191381 0.169453 -0.085053 -0.051373 0.076152 -0.052691 0.227681 -0.122613 -0.046261 0.023626 -0.086944 0.108132 0.028746 -0.042494 -0.017992 -0.265852 -0.129773 -0.072713 0.093898 0.076199 0.215455 0.023934 0.037745 0.048864 0.003259 -0.253778 -0.177252 0.036120 -0.087011 -0.054395 -0.022154 -0.171698 -0.055849 0.061841 0.122934 0.048301 0.133280 0.024638 0.105985 -0.050034 0.137814 0.067205 0.066760 0.085780 0.040016 0.119461 0.122634 -0.021313 0.064696 0.048958 0.124492 0.098612 0.051520 0.217297 -0.093573 -0.200863 -0.068627 -0.191827 -0.077832 -0.202714 0.014001 0.142287 -0.126543 0.038877 0.215578 -0.056053 -0.025595 -0.269645 0.136498 0.104546 -0.065694 -0.129274 0.141734 0.014963 -0.060542 -0.150870 0.004606 0.024102 -0.055375 -0.054443 
2604 -0.222659 -0.222181 0.114618 0.163211 -0.049129 0.048005 0.067002 0.354927 -0.329075 -0.032916 0.097191 -0.057099 0.044440 -0.164017 0.454962 0.098336 -0.346220 0.079930 0.556229 0.008906 -0.355137 0.191616 0.119467 -0.123425 -0.296373 -0.124365 -0.364309 -0.490294 -0.134247 0.113558 0.159075 0.549967 -0.109699 -0.188926 0.405152 -0.158192 -0.149461 -0.151575 0.513776 0.032437 0.556428 -0.022779 -0.004284 -0.030038 0.229767 -0.538109 -0.240172 0.197757 -0.166871 0.169610 -0.245568 -0.154969 -0.053539 0.007698 0.240622 -0.043561 0.001916 -0.402733 0.377879 -0.273227 0.495576 -0.125218 -0.249361 0.127369 0.293991 0.377138 0.397413 0.100442 0.197050 -0.078340 -0.134024 0.307530 -0.190610 -0.032770 -0.435961 -0.211824 -0.032556 -0.153922 -0.032968 -0.209809 0.085912 0.428877 0.010242 0.231536 0.298350 -0.088864 -0.303024 -0.528968 0.239943 0.114497 0.096560 0.195021 0.224739 0.068812 0.093877 -0.217239 -0.436834 0.178532 0.133810 0.239497 
2561 -0.221240 -0.224131 0.122094 0.162202 -0.039860 0.052974 0.077088 0.353281 -0.339449 -0.027463 0.102180 -0.076710 0.053637 -0.173921 0.461143 0.092188 -0.354978 0.080051 0.553760 0.010557 -0.357035 0.181910 0.126577 -0.117241 -0.288759 -0.122366 -0.369456 -0.499972 -0.142213 0.096566 0.159024 0.549549 -0.111117 -0.185882 0.401789 -0.151782 -0.141041 -0.163639 0.502338 0.036694 0.549688 -0.023994 -0.005035 -0.040260 0.216658 -0.547688 -0.237219 0.202897 -0.174998 0.159731 -0.247681 -0.160447 -0.052754 -0.007931 0.239988 -0.060465 -0.001896 -0.405092 0.377193 -0.270877 0.501691 -0.112749 -0.247119 0.115120 0.280444 0.374032 0.399513 0.109226 0.200684 -0.073284 -0.127414 0.304309 -0.182365 -0.024945 -0.431486 -0.191105 -0.020662 -0.142058 -0.017258 -0.203308 0.069295 0.421155 0.013802 0.233617 0.299688 -0.075472 -0.298507 -0.519895 0.244441 0.115965 0.100201 0.203735 0.237527 0.056900 0.092232 -0.211247 -0.441615 0.191592 0.123435 0.236295 
2433 -0.230388 -0.243075 0.126061 0.167176 -0.041908 0.043904 0.067934 0.350189 -0.351543 -0.026792 0.110768 -0.069697 0.043564 -0.190941 0.454891 0.082383 -0.358400 0.067536 0.570938 0.017149 -0.374398 0.179693 0.121112 -0.119701 -0.302924 -0.123611 -0.406479 -0.511537 -0.131583 0.104030 0.174340 0.570661 -0.113665 -0.186458 0.417449 -0.139996 -0.147853 -0.157828 0.532825 0.038799 0.554463 -0.023588 0.008935 -0.044644 0.232276 -0.552112 -0.246564 0.209125 -0.168515 0.175261 -0.252581 -0.163604 -0.050143 0.002490 0.247646 -0.067792 0.000076 -0.418172 0.376707 -0.283652 0.510967 -0.122891 -0.261162 0.106873 0.296956 0.387813 0.411194 0.116977 0.194450 -0.076279 -0.133895 0.311572 -0.193805 -0.037864 -0.438452 -0.186180 -0.020751 -0.147776 -0.018867 -0.217053 0.077645 0.437893 0.017657 0.233339 0.312293 -0.084045 -0.301840 -0.516628 0.244641 0.106347 0.108525 0.223762 0.240530 0.066130 0.110211 -0.203976 -0.457502 0.190821 0.136428 0.244649 
2496 0.352499 0.113712 -0.047146 -0.148045 0.074071 -0.124544 -0.028995 0.119818 -0.171083 0.076560 -0.087387 -0.158870 -0.234035 -0.130422 0.097402 -0.066612 0.112424 -0.055510 0.084929 -0.079739 -0.234022 -0.080353 -0.348903 0.036563 0.178699 0.039323 0.168718 -0.045903 0.074729 -0.001932 -0.180594 0.183946 0.126904 -0.259024 -0.088072 -0.358599 0.085601 0.070779 0.246410 -0.035821 0.084329 -0.154138 -0.009459 -0.015472 -0.021140 -0.157668 -0.273329 -0.225551 0.020124 0.045144 0.016109 0.025932 0.156256 0.125087 -0.033492 -0.062275 0.133526 0.215929 -0.058328 -0.071526 -0.107198 0.137718 0.082807 -0.058102 -0.207548 0.108367 0.182738 0.074005 -0.104257 0.245455 0.038070 0.031175 0.178910 0.067282 -0.065322 0.064921 -0.121840 -0.340761 -0.167252 -0.044124 -0.063424 0.011916 -0.024923 0.190420 0.142257 0.009294 0.171698 -0.338564 -0.021504 0.246129 -0.162428 -0.083893 0.156171 0.108494 0.115042 0.057248 0.161216 0.190302 -0.043400 -0.252308 
2153 0.671635 0.214746 -0.087711 -0.275812 0.130913 -0.234878 -0.030753 0.231564 -0.310711 0.135667 -0.181423 -0.304355 -0.425473 -0.227302 0.174621 -0.111900 0.217126 -0.087803 0.139209 -0.142098 -0.442772 -0.134288 -0.656182 0.057392 0.333173 0.068342 0.354132 -0.081386 0.145292 -0.019294 -0.360528 0.358378 0.240584 -0.500171 -0.170628 -0.677885 0.145927 0.118227 0.455029 -0.057630 0.161270 -0.289503 0.007166 -0.016847 -0.046010 -0.301846 -0.509557 -0.420232 0.036743 0.086031 0.031592 0.021607 0.287838 0.243841 -0.054483 -0.106313 0.270498 0.401372 -0.102286 -0.132187 -0.182347 0.259702 0.161034 -0.097590 -0.378639 0.199249 0.343962 0.126474 -0.198193 0.460464 0.069167 0.055284 0.342192 0.139620 -0.117105 0.090603 -0.227999 -0.644400 -0.317252 -0.113942 -0.104146 0.027092 -0.042803 0.341622 0.276393 0.012689 0.341373 -0.648082 -0.021940 0.469012 -0.315501 -0.157222 0.288066 0.200944 0.216682 0.094137 0.287535 0.358841 -0.074557 -0.473600 
2536 -0.138880 -0.162853 0.088742 0.107314 -0.025745 0.028967 0.047041 0.230380 -0.234657 -0.020247 0.060139 -0.053816 0.024208 -0.123454 0.310001 0.058670 -0.233015 0.042523 0.373444 0.003594 -0.253659 0.119706 0.066428 -0.073111 -0.185653 -0.087517 -0.247143 -0.334855 -0.090437 0.060715 0.113079 0.387323 -0.071406 -0.132615 0.280043 -0.107811 -0.095597 -0.102921 0.343628 0.019741 0.365713 -0.017332 -0.000648 -0.017789 0.161361 -0.370782 -0.168844 0.135128 -0.109910 0.108637 -0.163409 -0.106633 -0.028996 0.007544 0.164100 -0.039647 -0.001481 -0.278583 0.250743 -0.195447 0.339816 -0.078999 -0.177659 0.066033 0.188176 0.262126 0.269026 0.067664 0.133056 -0.042022 -0.088795 0.207960 -0.124617 -0.019457 -0.290068 -0.133473 -0.015739 -0.097061 -0.025195 -0.133615 0.057576 0.276531 0.014609 0.160854 0.199669 -0.045171 -0.206096 -0.351878 0.157460 0.087943 0.069851 0.135584 0.154739 0.042016 0.071738 -0.149607 -0.298780 0.121208 0.090477 0.156570 
2482 -0.233852 -0.225876 0.118325 0.175783 -0.051338 0.046376 0.072662 0.357786 -0.336213 -0.039638 0.099760 -0.069072 0.041799 -0.181623 0.478741 0.107164 -0.362567 0.078318 0.561202 0.006594 -0.377340 0.201689 0.127583 -0.121412 -0.297802 -0.131604 -0.370719 -0.518408 -0.139497 0.099974 0.160878 0.554869 -0.102193 -0.189828 0.407844 -0.151833 -0.149407 -0.151875 0.520794 0.045127 0.565169 -0.019555 0.002833 -0.045642 0.227760 -0.554453 -0.240550 0.200604 -0.179263 0.177283 -0.256047 -0.175392 -0.062109 -0.010657 0.256914 -0.053523 -0.000628 -0.412149 0.390191 -0.275075 0.517502 -0.108912 -0.240843 0.125869 0.300253 0.383659 0.412463 0.110509 0.203312 -0.076561 -0.127751 0.321994 -0.185552 -0.030824 -0.446704 -0.208461 -0.032382 -0.143519 -0.028794 -0.214000 0.071787 0.444581 0.004187 0.239368 0.314429 -0.091679 -0.301770 -0.532933 0.241973 0.126989 0.098212 0.204039 0.242714 0.073339 0.100618 -0.210729 -0.442114 0.190805 0.124744 0.250112 
2512 0.367413 0.123790 -0.051692 -0.167851 0.071438 -0.129907 0.007149 0.123382 -0.159653 0.035571 -0.119473 -0.168856 -0.223031 -0.125955 0.115522 -0.022240 0.091822 -0.008519 0.060559 -0.073019 -0.253395 -0.048004 -0.335978 0.014172 0.179877 0.006341 0.261515 -0.050997 0.057597 -0.017834 -0.187651 0.194730 0.114083 -0.269039 -0.095322 -0.380263 0.066515 0.061292 0.237353 -0.002747 0.091373 -0.155792 0.017609 0.019188 -0.008808 -0.201998 -0.289565 -0.209299 0.010785 0.025835 0.035087 -0.032869 0.143291 0.143145 -0.017208 -0.027999 0.144200 0.221741 -0.038778 -0.077999 -0.070146 0.145768 0.107070 -0.046517 -0.204270 0.104047 0.175832 0.057761 -0.078630 0.242564 0.061643 0.037504 0.180235 0.119721 -0.066454 0.004070 -0.113047 -0.361560 -0.187573 -0.076559 -0.041743 0.018776 -0.047381 0.168836 0.173323 0.003162 0.175564 -0.340910 0.010324 0.231980 -0.172321 -0.113977 0.148957 0.100325 0.096388 0.011475 0.154649 0.161770 -0.061583 -0.243755 
2010 0.617705 0.178541 -0.100279 -0.273933 0.115993 -0.210939 -0.035673 0.199338 -0.302791 0.127979 -0.152735 -0.274369 -0.388038 -0.217428 0.135722 -0.116292 0.194324 -0.085751 0.139130 -0.116549 -0.410549 -0.139580 -0.594621 0.057165 0.284233 0.059450 0.311698 -0.069094 0.138109 -0.023614 -0.301740 0.339427 0.210822 -0.481889 -0.142268 -0.598869 0.149610 0.127510 0.428852 -0.064424 0.122922 -0.287861 0.003296 -0.011858 -0.037342 -0.265012 -0.454587 -0.388650 0.044346 0.088042 0.032646 0.024284 0.290944 0.228966 -0.070691 -0.095821 0.221336 0.373539 -0.098138 -0.136513 -0.182630 0.233135 0.138295 -0.114545 -0.362834 0.165305 0.319797 0.132840 -0.182847 0.419361 0.042149 0.043090 0.304397 0.103934 -0.116246 0.097386 -0.196337 -0.584383 -0.289873 -0.073496 -0.092988 0.006312 -0.021066 0.310928 0.244983 0.011523 0.313423 -0.565347 -0.041061 0.415867 -0.270129 -0.122232 0.254650 0.175299 0.216407 0.092428 0.250317 0.316264 -0.073385 -0.417197 
2103 -0.230658 -0.242104 0.113891 0.168114 -0.048050 0.051537 0.074924 0.354781 -0.346499 -0.026010 0.111417 -0.065279 0.048198 -0.173790 0.457117 0.088885 -0.353662 0.068601 0.571857 0.016255 -0.363653 0.180824 0.119832 -0.116208 -0.299100 -0.126415 -0.396705 -0.505534 -0.138625 0.109934 0.173114 0.558381 -0.113010 -0.194086 0.413564 -0.150343 -0.143463 -0.153470 0.521824 0.039437 0.558688 -0.031489 0.002191 -0.045245 0.225392 -0.555027 -0.239164 0.192025 -0.168084 0.174727 -0.259441 -0.157979 -0.058991 -0.006907 0.246432 -0.069547 -0.006779 -0.406631 0.382447 -0.273067 0.511022 -0.114498 -0.251452 0.119327 0.295968 0.379608 0.406774 0.107655 0.200696 -0.074095 -0.132790 0.322542 -0.195308 -0.039030 -0.448411 -0.194094 -0.021788 -0.151868 -0.028785 -0.209346 0.072853 0.426651 0.021115 0.241212 0.297634 -0.082984 -0.308163 -0.525917 0.239685 0.125621 0.102479 0.217010 0.243461 0.065163 0.099388 -0.203456 -0.451368 0.193238 0.143150 0.242154 
2253 -0.230727 -0.237270 0.114029 0.181966 -0.053684 0.050466 0.073961 0.367854 -0.342273 -0.031310 0.106626 -0.066479 0.048224 -0.178446 0.467756 0.094792 -0.373685 0.080073 0.575418 0.012485 -0.364306 0.188281 0.119660 -0.121590 -0.303052 -0.130877 -0.392391 -0.509516 -0.137435 0.113361 0.167862 0.565860 -0.113324 -0.188331 0.408496 -0.157110 -0.160734 -0.157955 0.524474 0.032727 0.569313 -0.022393 0.004699 -0.047942 0.226524 -0.572604 -0.245176 0.203872 -0.176999 0.170339 -0.254260 -0.169265 -0.057265 -0.003218 0.253291 -0.059374 -0.007930 -0.415466 0.395364 -0.286219 0.520103 -0.115144 -0.254027 0.117531 0.298470 0.394606 0.408190 0.113919 0.196201 -0.081151 -0.140465 0.315898 -0.189421 -0.033166 -0.442959 -0.212801 -0.027276 -0.155304 -0.027555 -0.211327 0.078151 0.446770 0.011443 0.250048 0.303961 -0.083090 -0.303630 -0.537786 0.244597 0.118648 0.106329 0.206644 0.244369 0.064201 0.104251 -0.214354 -0.459575 0.194339 0.130398 0.249756 
2500 -0.239095 -0.250001 0.125441 0.181262 -0.045133 0.055273 0.065207 0.370432 -0.354722 -0.023056 0.105388 -0.068967 0.053981 -0.177400 0.483034 0.099514 -0.371049 0.072684 0.580575 0.007748 -0.378526 0.196222 0.126454 -0.115468 -0.308540 -0.134583 -0.411976 -0.517453 -0.149774 0.112771 0.170144 0.586528 -0.106318 -0.208184 0.435182 -0.164042 -0.160608 -0.165172 0.540331 0.042803 0.581814 -0.036702 0.006679 -0.044326 0.240699 -0.580688 -0.250063 0.214390 -0.177824 0.189282 -0.273482 -0.170138 -0.056809 0.007632 0.246150 -0.057553 -0.011341 -0.424601 0.408663 -0.291955 0.527333 -0.128123 -0.266212 0.116253 0.309720 0.407516 0.421033 0.106711 0.200844 -0.084191 -0.146993 0.329111 -0.194940 -0.042981 -0.455690 -0.205962 -0.034966 -0.153353 -0.023310 -0.218634 0.085095 0.450364 0.015890 0.253121 0.314401 -0.083706 -0.313740 -0.545997 0.239451 0.127698 0.111432 0.219313 0.247927 0.068233 0.104763 -0.217093 -0.475152 0.190867 0.147605 0.255692 
2063 -0.211542 -0.214801 0.107395 0.162228 -0.041870 0.036952 0.066585 0.336460 -0.302906 -0.032348 0.095532 -0.061673 0.040300 -0.166095 0.432696 0.100721 -0.340588 0.080166 0.516877 0.015079 -0.347440 0.176331 0.113381 -0.108941 -0.273791 -0.118607 -0.330758 -0.468186 -0.124769 0.104305 0.154128 0.497846 -0.099002 -0.166613 0.370546 -0.142892 -0.143975 -0.139597 0.491346 0.051814 0.504281 -0.020384 0.009219 -0.043925 0.202133 -0.519260 -0.217570 0.179911 -0.157465 0.168474 -0.230092 -0.155884 -0.063994 -0.009032 0.236233 -0.054974 -0.004858 -0.380859 0.360063 -0.253257 0.475893 -0.106878 -0.232429 0.108956 0.280809 0.355966 0.376594 0.103433 0.185045 -0.076215 -0.124984 0.303905 -0.172581 -0.020693 -0.409971 -0.204996 -0.031035 -0.129242 -0.031996 -0.205637 0.080605 0.406492 0.010322 0.223352 0.289448 -0.071894 -0.262899 -0.491056 0.227953 0.116358 0.091138 0.186867 0.218222 0.065169 0.089263 -0.197050 -0.400812 0.171258 0.110992 0.215693 
2509 0.679716 0.211482 -0.106757 -0.309303 0.186393 -0.199595 -0.045440 0.179077 -0.352072 0.158516 -0.149002 -0.294983 -0.407181 -0.253186 0.183294 -0.097968 0.175987 -0.130245 0.184342 -0.126990 -0.442699 -0.173661 -0.615727 0.083100 0.315122 0.069133 0.353386 -0.087486 0.105076 0.017772 -0.281671 0.389567 0.238683 -0.487221 -0.160287 -0.623061 0.152937 0.150351 0.471107 -0.055031 0.123679 -0.309782 -0.008098 -0.010398 -0.012508 -0.283641 -0.508514 -0.410045 0.045772 0.107031 0.026291 0.044787 0.267162 0.275645 -0.072080 -0.116390 0.227552 0.425944 -0.072134 -0.141626 -0.158225 0.236282 0.145453 -0.097911 -0.425856 0.165529 0.334085 0.139596 -0.167108 0.446500 0.058233 0.013704 0.369184 0.121750 -0.113829 0.113536 -0.179000 -0.620610 -0.310991 -0.071772 -0.109792 0.002838 -0.061581 0.333304 0.258434 0.003263 0.329094 -0.619497 -0.036477 0.427464 -0.355375 -0.152274 0.264501 0.203687 0.229804 0.096216 0.304342 0.315383 -0.095253 -0.444327 
2399 0.566224 0.167963 -0.086299 -0.260768 0.137399 -0.186392 -0.046850 0.163674 -0.292195 0.132414 -0.118060 -0.256770 -0.348522 -0.219342 0.140105 -0.087727 0.158225 -0.099058 0.150288 -0.100011 -0.370803 -0.146780 -0.524548 0.053574 0.261118 0.047041 0.298120 -0.067313 0.109327 -0.008030 -0.253623 0.316279 0.199885 -0.421886 -0.130897 -0.537611 0.141987 0.137953 0.405727 -0.045400 0.109580 -0.261702 -0.005422 -0.011708 -0.021034 -0.250650 -0.424841 -0.339523 0.030352 0.099840 0.032314 0.030958 0.246750 0.223084 -0.065655 -0.095228 0.201753 0.357493 -0.075897 -0.124097 -0.152940 0.207600 0.120197 -0.095620 -0.348344 0.154266 0.287036 0.115281 -0.157766 0.376940 0.054224 0.019159 0.295036 0.096353 -0.096777 0.100918 -0.157323 -0.526143 -0.262811 -0.061918 -0.079675 0.003975 -0.039128 0.291927 0.225200 0.003734 0.286096 -0.525471 -0.036332 0.372893 -0.282746 -0.129184 0.222636 0.173345 0.193699 0.087459 0.249635 0.268541 -0.077933 -0.379106 
2150 -0.218518 -0.228545 0.109894 0.158979 -0.054341 0.045948 0.073459 0.349494 -0.329761 -0.032581 0.095543 -0.056632 0.046586 -0.178176 0.451418 0.085777 -0.345113 0.072779 0.552904 0.007468 -0.356167 0.179288 0.118970 -0.110926 -0.288508 -0.123751 -0.370144 -0.488264 -0.134039 0.102846 0.167294 0.543353 -0.107142 -0.187928 0.398828 -0.149490 -0.152708 -0.156796 0.510928 0.037347 0.540991 -0.019106 -0.003031 -0.038708 0.230697 -0.546891 -0.233903 0.193332 -0.168725 0.173190 -0.249628 -0.159942 -0.058120 0.000684 0.232421 -0.061425 0.004951 -0.398982 0.385129 -0.275138 0.486789 -0.116733 -0.245653 0.116716 0.293079 0.367268 0.393439 0.098827 0.201673 -0.075770 -0.133809 0.312422 -0.184793 -0.032917 -0.427106 -0.200664 -0.026625 -0.145570 -0.025036 -0.196828 0.080913 0.417691 0.010594 0.227944 0.307009 -0.084380 -0.290216 -0.512019 0.238138 0.114566 0.100580 0.195814 0.223586 0.074953 0.096673 -0.216990 -0.441389 0.181133 0.126652 0.236542 
2030 -0.236495 -0.236489 0.138711 0.180743 -0.043941 0.054996 0.076058 0.368640 -0.354015 -0.031057 0.097432 -0.062897 0.048190 -0.179994 0.473619 0.095208 -0.369697 0.077737 0.581747 0.007593 -0.382746 0.195545 0.124639 -0.127179 -0.310003 -0.127263 -0.400347 -0.518408 -0.144653 0.111325 0.167958 0.585091 -0.109835 -0.189464 0.421462 -0.162819 -0.168422 -0.160496 0.530675 0.036604 0.581932 -0.026579 0.006046 -0.041797 0.236155 -0.571875 -0.251960 0.214324 -0.180475 0.181259 -0.265602 -0.176436 -0.062987 0.006855 0.252674 -0.054283 0.004427 -0.423477 0.400799 -0.290147 0.526065 -0.118334 -0.264430 0.128173 0.306977 0.395549 0.416299 0.109778 0.205701 -0.073414 -0.136755 0.326595 -0.194627 -0.033221 -0.451551 -0.217241 -0.027785 -0.155639 -0.032192 -0.224629 0.080575 0.448629 0.011619 0.249571 0.317941 -0.087772 -0.317517 -0.545223 0.243309 0.123802 0.106882 0.218103 0.251536 0.071230 0.103112 -0.218717 -0.475858 0.193247 0.137156 0.246810 
2374 -0.239770 -0.256739 0.137614 0.180595 -0.050397 0.057116 0.071427 0.372539 -0.371862 -0.027743 0.115615 -0.067045 0.054223 -0.193568 0.475159 0.090822 -0.375075 0.065280 0.589295 0.012725 -0.382674 0.192248 0.127241 -0.116635 -0.316792 -0.135283 -0.418145 -0.523917 -0.138188 0.104837 0.180189 0.599060 -0.110264 -0.206485 0.441756 -0.153960 -0.158790 -0.159962 0.552455 0.038925 0.584587 -0.031143 0.007251 -0.039336 0.242931 -0.583552 -0.251522 0.209107 -0.173222 0.191245 -0.262937 -0.172761 -0.059082 -0.005492 0.250140 -0.071813 -0.009634 -0.429554 0.400343 -0.293050 0.537395 -0.131842 -0.272764 0.109658 0.319049 0.403216 0.423316 0.109239 0.200554 -0.073013 -0.142955 0.328813 -0.199086 -0.045439 -0.462940 -0.202896 -0.021428 -0.148643 -0.019934 -0.220956 0.085020 0.456780 0.024611 0.246844 0.317667 -0.089365 -0.320548 -0.552416 0.247996 0.125810 0.106420 0.227749 0.250838 0.064597 0.111539 -0.218748 -0.487405 0.201705 0.145191 0.255322 
1986 -0.237794 -0.239592 0.112126 0.170712 -0.050883 0.046046 0.058756 0.361279 -0.362566 -0.027146 0.108276 -0.070966 0.048210 -0.175343 0.452648 0.066824 -0.360395 0.070480 0.571454 0.008269 -0.372032 0.178202 0.119068 -0.116104 -0.300301 -0.129209 -0.414494 -0.503500 -0.138724 0.114862 0.166881 0.571605 -0.105376 -0.193147 0.416417 -0.147991 -0.141128 -0.168230 0.534332 0.028169 0.546111 -0.033068 -0.001790 -0.033391 0.230790 -0.560709 -0.247173 0.215392 -0.163390 0.182853 -0.257305 -0.155739 -0.033957 0.003162 0.230500 -0.074462 -0.010522 -0.418788 0.373322 -0.277721 0.509869 -0.132309 -0.275683 0.104638 0.300237 0.387719 0.409152 0.116117 0.200268 -0.080202 -0.147189 0.323570 -0.183933 -0.046812 -0.436601 -0.192318 -0.016939 -0.143356 -0.029263 -0.196381 0.088657 0.422821 0.030179 0.244823 0.299001 -0.084692 -0.302158 -0.515513 0.241568 0.107531 0.115408 0.221026 0.235902 0.061045 0.108114 -0.211841 -0.464755 0.195502 0.152273 0.240422 
2630 -0.238915 -0.246806 0.127391 0.162245 -0.039558 0.046251 0.073815 0.360036 -0.357543 -0.030914 0.103985 -0.067448 0.043673 -0.173170 0.471841 0.097104 -0.368798 0.082683 0.580845 0.011122 -0.374339 0.184514 0.111889 -0.128103 -0.313943 -0.122815 -0.401830 -0.509766 -0.144267 0.108705 0.176999 0.584310 -0.106271 -0.202044 0.418384 -0.162246 -0.164682 -0.156659 0.540958 0.040964 0.575704 -0.031013 0.001597 -0.038345 0.234145 -0.567596 -0.250079 0.210591 -0.175900 0.179313 -0.261275 -0.166748 -0.062040 0.006013 0.240656 -0.061866 0.001096 -0.426129 0.391493 -0.285487 0.517600 -0.124336 -0.271031 0.113463 0.301605 0.388775 0.409451 0.108082 0.199024 -0.085178 -0.138669 0.320924 -0.199289 -0.040431 -0.449239 -0.206546 -0.021662 -0.148356 -0.026349 -0.215743 0.077882 0.436729 0.021714 0.244133 0.319041 -0.081700 -0.315996 -0.533720 0.249183 0.125846 0.107270 0.216517 0.236865 0.068931 0.093152 -0.221094 -0.473441 0.191332 0.140377 0.249112 
2376 -0.225468 -0.241911 0.120755 0.159407 -0.054205 0.045162 0.069752 0.351750 -0.340205 -0.020960 0.118481 -0.064408 0.039153 -0.169067 0.444997 0.076928 -0.355861 0.063423 0.562715 0.017000 -0.365812 0.169124 0.120319 -0.120365 -0.304619 -0.120385 -0.395402 -0.485200 -0.132755 0.111875 0.168655 0.562607 -0.101471 -0.194997 0.414706 -0.147080 -0.145263 -0.154364 0.516841 0.022562 0.545836 -0.027785 0.000970 -0.043702 0.236801 -0.547034 -0.238416 0.202885 -0.166610 0.177451 -0.248932 -0.156659 -0.046450 0.007205 0.239187 -0.061905 -0.005197 -0.418469 0.375531 -0.277009 0.498796 -0.125283 -0.258107 0.109745 0.289954 0.380437 0.394840 0.109950 0.199845 -0.077601 -0.146149 0.317890 -0.186399 -0.046132 -0.428025 -0.187803 -0.027538 -0.136717 -0.034007 -0.194698 0.083137 0.419971 0.024270 0.235174 0.289340 -0.084237 -0.302770 -0.510629 0.236921 0.112058 0.097844 0.211397 0.227571 0.067790 0.102458 -0.210751 -0.449459 0.194566 0.138624 0.243583 
2326 -0.230931 -0.247145 0.126209 0.171565 -0.045025 0.052942 0.065940 0.368107 -0.351475 -0.031738 0.111228 -0.065778 0.052931 -0.182527 0.474611 0.096997 -0.360620 0.074854 0.573753 0.014685 -0.376635 0.195886 0.130855 -0.119055 -0.312481 -0.133094 -0.402101 -0.515769 -0.132339 0.103900 0.170447 0.570713 -0.106441 -0.195562 0.416011 -0.149234 -0.164155 -0.161605 0.531289 0.044550 0.568918 -0.034962 0.010852 -0.042516 0.237981 -0.563157 -0.244101 0.206160 -0.177854 0.183766 -0.257304 -0.166244 -0.056943 0.000767 0.247526 -0.068632 -0.001902 -0.418399 0.398689 -0.292378 0.521644 -0.111487 -0.265092 0.117877 0.305381 0.392563 0.417649 0.109710 0.198682 -0.085112 -0.138417 0.324145 -0.199318 -0.027482 -0.451520 -0.201079 -0.031602 -0.148607 -0.026642 -0.212299 0.081555 0.441238 0.015555 0.245462 0.312909 -0.091389 -0.302801 -0.532209 0.245643 0.121258 0.105747 0.221074 0.238867 0.067090 0.111293 -0.208224 -0.467513 0.192472 0.143816 0.251153 
