224 100
436 0.496468 -0.206204 0.195521 -0.338070 -0.208086 -0.067168 -0.093684 0.525672 -0.141725 -0.338095 0.453406 0.327646 -0.757696 0.317292 0.182185 0.038182 0.414966 0.406528 0.279904 -0.026121 0.631814 -0.363028 -0.119536 0.442644 -0.119415 -0.014604 0.541845 -0.506885 -0.368991 -0.202750 -0.190117 -0.177106 0.461972 0.143634 0.018125 0.647890 -0.147667 0.555868 -1.205348 -0.224640 0.430224 0.231864 -0.059245 -0.448680 -0.329509 0.389851 0.609064 -0.214255 0.167648 -0.073524 0.055868 -0.102572 0.184063 -0.475213 -0.298131 0.025869 0.527947 0.104518 -0.536821 0.185243 -0.197569 0.799368 -0.517441 -0.321016 0.384310 0.361916 -0.052404 -0.292977 0.019306 -0.073674 0.250002 0.467646 -0.380328 0.402266 -0.472109 0.742006 -0.223201 0.185074 0.199700 -0.425419 0.060580 -0.238442 0.844556 -0.156856 -0.571450 -0.118204 -0.671410 0.155468 -0.904215 0.384725 0.258847 -0.952796 -0.222679 0.309985 -0.058351 0.244875 -0.472034 0.495801 0.082167 0.373018 
428 0.254024 0.062151 0.299045 0.184800 0.575031 0.366042 -0.209751 -0.079892 -0.221220 0.449672 0.233380 0.788254 -0.750000 0.293312 0.227492 -0.364573 0.743407 -0.049087 -0.157477 0.120912 -0.117539 -0.184361 -0.668401 0.583020 -0.334060 0.043741 0.187104 -0.089180 -0.297745 -0.233966 0.390170 0.174046 0.329685 -0.399745 -0.379131 0.289408 0.316080 0.335972 -0.300329 0.491910 -0.137656 -0.079363 0.490724 -0.199181 -0.382262 0.029232 0.197201 0.169660 -0.178457 0.099114 0.127649 -0.597535 -0.585852 0.284774 -0.316761 -0.045751 -0.047699 0.259241 -0.617953 0.047417 0.732598 -0.059094 -0.549607 -0.112758 -0.162102 0.361262 -0.404971 -0.272450 0.080912 -0.033069 0.155839 0.250000 -0.210890 0.272052 -0.638987 0.092003 0.591501 0.403885 0.280749 -0.130933 -0.654742 -0.044269 -0.536907 0.007447 0.035300 -0.082830 -0.572893 0.052535 -0.798954 0.520732 -0.168470 -1.225888 -0.018156 -0.125141 0.205830 0.168193 -0.215395 -0.207829 -0.351183 0.022612 
450 -0.293963 -0.480042 0.748449 -0.487438 -0.512123 0.413076 -0.121780 -0.348354 0.008309 -0.747179 -0.379538 0.410094 -0.303582 0.009545 -0.108489 0.074941 -0.037353 0.243177 -0.446902 0.178359 0.339797 0.064954 -0.537621 0.420816 0.362687 0.085077 0.153442 -0.551704 -0.105198 0.154591 -0.121272 -0.141508 0.412253 -0.203240 0.328203 0.252342 0.257868 0.270200 -0.434217 -0.334685 -0.059637 0.062336 -0.626255 0.107241 0.221186 -0.121297 0.243472 -0.143833 0.127603 0.463645 0.184492 0.197020 0.385516 -0.311318 -0.130531 -0.625391 0.280289 0.435394 -0.194648 -0.050872 0.055504 0.225052 0.787929 -0.239995 0.337274 0.004321 0.081027 -0.367180 -1.265786 0.305124 0.554570 0.298229 -0.479802 0.419500 -0.044097 -0.537893 0.426433 -0.119127 0.242794 0.032629 0.093299 0.363944 -0.659864 -0.520875 0.518285 -0.138007 -0.438240 -0.281377 -0.551312 0.307841 0.533128 -0.706068 0.068730 -0.437882 -0.611768 0.540058 0.368230 0.861039 -0.589081 -0.065358 
531 -0.104269 -0.331134 0.036463 0.006811 -0.226796 1.069236 -0.175898 0.057916 0.463025 -0.553729 -0.380952 0.095088 -0.334386 0.088762 -0.386704 0.240604 -0.206471 -0.243775 -0.617375 -0.172154 0.012253 -0.022296 0.122695 -0.065893 0.010998 -0.110961 0.145483 -0.532305 -0.254460 -0.249186 -0.651792 0.010248 0.513616 -0.382324 -0.063066 -0.377204 -0.031702 -0.110577 0.271080 0.271950 -0.589379 0.226927 -1.081774 0.006960 -0.071750 -0.519376 -0.258865 -0.205669 0.618134 0.430408 -0.144841 -0.087816 0.087325 0.103372 -0.113853 -0.166584 0.142706 0.867353 0.240640 0.398206 0.543344 0.142707 0.855741 -0.575865 -0.171728 0.137261 0.201427 -0.727065 -0.396525 -0.339504 -0.126352 -0.199298 -0.622018 0.698210 0.237221 -0.555920 0.184033 0.376427 0.485631 -0.057597 -0.417378 0.323599 -0.632852 0.312559 0.817986 -0.216457 -0.506078 0.004119 -0.175291 0.383014 0.041962 -1.113772 0.323069 -0.128871 -0.179410 0.380161 0.714411 0.622594 -0.310207 0.138665 
538 -0.125231 -0.269095 0.579119 -0.449364 -0.020737 -0.145331 -0.578656 -0.381417 -0.387989 -0.396725 0.080393 -0.488387 -0.044018 -0.134157 0.253988 0.310677 0.009111 -0.477270 -0.317172 0.221675 0.574361 -0.447188 -0.094900 -0.131236 -0.145658 -0.700146 -0.180703 -0.097173 -0.492547 -0.232817 -0.345897 -0.177759 0.796940 -0.246094 -0.255041 0.669959 0.027937 0.209829 -0.248338 -0.205749 0.238394 -0.283407 -0.034612 -0.712605 -0.933925 0.082576 0.639191 0.324786 -0.335660 -0.093393 0.324157 -0.072242 0.300474 0.078339 0.074518 0.396341 0.959264 -0.557454 -0.692427 -0.067079 0.265900 0.493299 0.096475 -0.035822 0.055944 -0.187371 0.096206 -0.523969 0.213845 -0.005874 0.180614 0.022290 -0.460163 -0.157375 -0.606844 0.138411 0.539901 0.017481 0.027778 0.250094 -0.421309 0.299982 -0.119523 -0.039484 -0.365229 -0.726105 -0.023637 -0.131914 -0.383715 0.067839 -0.321345 -0.610966 -0.280962 0.397777 -0.047508 -0.292818 -0.359740 0.953461 0.115779 0.037254 
404 -0.095619 -0.443370 0.192483 0.692980 -0.387437 0.163552 -0.407606 -0.164361 -0.267512 -0.315427 0.545944 -0.048571 0.217977 -0.322347 -0.246543 0.082587 0.416581 0.053605 0.020493 0.972021 0.223846 -0.540871 -0.042530 -0.024767 -0.467851 -0.802371 -0.158188 -0.064588 -0.455913 -0.427876 -0.133275 -0.483925 0.742615 0.342812 -0.000614 0.083699 -0.091106 -0.374192 -0.548650 -0.224495 -0.321546 -0.208647 -0.121976 -0.404909 -0.389283 -0.133239 0.251908 0.412384 0.057399 -0.482094 -0.320586 0.700497 0.380109 -0.127867 -0.299701 0.620720 0.727556 -0.365135 -0.070474 -0.048818 0.697694 0.239285 -0.158535 -0.536819 -0.684680 -0.467466 0.258629 0.156171 -0.034894 -0.457240 0.249058 -0.009031 -0.011220 0.042255 -0.847344 0.223282 0.688925 -0.204038 -0.045178 0.197452 -0.778736 -0.015863 -0.041803 -0.125678 0.003321 -0.752461 0.386535 -0.082965 -1.305605 0.384449 0.113464 -0.640549 -0.198301 0.503397 -0.137761 -0.070793 0.246412 0.873843 -0.026026 0.431006 
565 -0.109695 -0.034207 0.808929 0.360338 0.014232 -0.201491 -0.875094 -0.231980 -0.793883 0.077272 -0.321447 -0.145167 -0.320161 0.273811 0.463629 0.316010 0.325392 -0.100675 -0.257380 -0.361063 0.579138 -0.707166 -0.199845 -0.271013 0.089614 0.087650 -0.034085 -0.623919 -0.415172 -0.057759 -0.855605 0.631192 0.486974 -0.218743 -0.584478 0.018858 0.281421 0.231354 -0.464279 -0.238004 -0.517780 0.154331 -0.192216 0.636392 -0.514121 0.113544 0.598043 0.205892 -0.144109 -0.098817 0.252386 -0.136308 -0.758361 -0.600848 -0.150369 -0.139854 0.018950 0.732016 -0.212353 0.180200 0.428712 0.222948 -0.135485 -0.123031 -0.170898 -0.125209 0.194242 0.204690 -0.053558 -0.123483 -0.385223 0.809010 -0.273554 0.298653 -0.247169 0.282286 -0.035775 -0.331437 0.657705 -0.335135 0.420322 0.089690 0.403739 -0.573507 -0.205811 -0.489146 -0.172257 -0.539135 -0.148590 0.421305 -0.449436 -0.129976 0.759104 0.074403 0.538113 0.456340 1.358984 0.535384 -0.261229 -0.280084 
412 0.523434 -0.141263 0.398860 0.320053 -0.366178 0.720090 -0.774298 0.447297 -0.530568 0.016736 0.026347 0.702856 -0.537240 0.207488 0.144883 0.357864 0.359307 -0.050129 -0.628863 0.795652 0.877990 -0.782232 0.149268 0.268243 -0.053393 -0.025510 -0.058614 0.039789 0.032476 0.161383 -0.242415 0.679088 -0.082936 -0.414495 0.366935 0.517868 0.205970 -0.296709 0.163086 -0.345753 -0.399876 -0.397253 -0.093623 0.094550 0.189496 0.229897 0.568069 0.701383 -0.672361 -0.343129 -0.123923 0.305958 0.051072 -0.644693 -0.127226 -0.069476 -0.414289 0.293526 0.063120 -0.614078 0.450455 -0.112855 -0.329698 -0.663584 0.491260 -0.345652 -0.438818 0.311132 0.166877 -0.186978 0.160191 -0.124511 -0.239630 0.030034 0.165153 -0.137210 0.202496 0.067037 -0.086798 0.372245 -0.653212 -0.308296 0.663120 0.295565 -0.305155 0.098624 0.138265 0.386948 -0.315535 0.422127 -0.038851 -0.072185 0.159198 -0.156209 0.083197 -0.090032 0.058107 -0.233309 -0.758970 0.058951 
471 0.125719 -0.355187 0.403914 -0.482332 0.177790 0.008227 -0.673568 0.463336 -0.492666 0.198566 -0.133672 -0.024802 -0.387153 0.254800 0.224411 -0.178780 0.574288 0.002520 -0.588846 -0.308964 0.922131 -0.266391 -0.108779 0.490299 0.352355 -0.200066 0.043234 -0.133171 -0.924642 -0.982128 -0.152809 0.807403 0.375989 0.208086 -0.409035 -0.009539 0.325593 -0.302822 -0.198235 0.442713 -0.373656 0.383765 0.137224 -0.676012 -0.134220 -0.153913 -0.298633 0.765371 0.281249 -0.031765 -0.414705 0.244078 -0.443660 0.201566 -0.219058 0.695652 0.330823 0.337784 -0.602701 0.559856 0.725858 0.503216 -0.093287 -0.675297 0.321221 -0.013668 -0.356289 -1.134691 -0.293143 -0.311238 -0.262177 0.390676 0.089734 0.610821 -0.546709 0.458803 0.509595 0.082949 0.399902 0.059638 -0.195311 -0.334156 0.581587 -0.029208 -0.087741 0.057013 0.087767 -0.076096 0.163760 0.121829 -0.476708 -0.815568 -0.165413 0.750921 0.369058 0.464951 0.241275 0.744948 0.453041 0.134570 
461 0.563977 -0.298853 0.851402 -0.355661 -0.129350 -0.016969 0.117523 0.540175 -0.490373 -0.071845 0.080422 1.000784 -0.502964 0.928710 0.511884 -0.006962 -0.028984 0.566331 -0.032154 0.132115 0.328867 -0.245483 -0.421712 0.067519 0.074057 0.298876 -0.172157 -0.041026 -0.230011 -0.517691 0.658147 -0.007455 -0.080780 -0.415752 -0.211166 0.702569 0.377253 0.594450 -0.422064 -0.229161 0.207017 0.200050 0.058082 0.101950 -0.341530 0.079666 0.485624 0.008618 -0.155578 0.820122 0.544847 0.248642 -0.536723 -0.637227 -0.258172 -0.094514 0.439595 0.059165 -0.736013 0.624061 -0.122374 0.972379 0.096011 -0.383349 0.852056 0.322790 -0.029865 -0.354417 -0.355924 0.782526 0.050612 0.383724 -0.413849 -0.222653 -0.251484 0.591626 0.028179 0.561283 0.006644 -0.459037 -0.359034 -0.005757 0.489724 0.142116 -0.777505 -0.364861 -0.652180 0.014045 -0.205574 0.200524 0.032177 -0.586332 -0.269050 0.526033 -0.364153 0.361379 0.337440 0.452284 -0.247657 0.086415 
544 0.286716 -0.470550 0.462834 0.116700 -0.055692 0.292230 -0.029237 0.469071 -0.228339 -0.257863 0.354920 0.458748 -0.220294 0.335648 0.390625 -0.316979 0.069077 0.426554 -0.641463 -0.517708 0.856996 0.240245 0.003428 0.199285 -0.050706 0.521022 0.345396 -0.297149 -0.251027 -0.836013 -0.068215 0.134569 0.770109 -0.233884 -0.031977 -0.112968 0.086769 -0.182440 -0.641055 0.067601 0.022293 0.215086 -0.437884 0.434307 -0.277438 -0.216778 0.560275 0.869782 0.181517 0.318651 0.724246 0.162536 -0.217800 0.398639 -0.127170 0.195042 0.148350 -0.330315 -0.484217 0.418851 -0.494724 0.781173 -0.249090 -0.438612 -0.500629 0.466030 0.111598 -0.297860 -0.034295 0.010056 -0.064321 -0.151969 -0.259859 1.190714 -0.278704 -0.071244 -0.059103 -0.086388 0.467662 0.027495 0.735611 0.146770 -0.334652 0.277581 -0.534276 -0.521208 0.130983 0.116022 -0.665517 0.271170 0.081284 -0.895474 -0.092222 -0.201578 -0.714297 0.414632 -0.201716 0.357156 0.007782 0.069604 
414 0.125660 -0.326365 0.574134 0.463609 0.191388 0.186058 -1.145954 1.038600 -0.332609 0.082050 -0.073596 0.403910 -0.595197 0.434955 -0.607898 0.364037 -0.197723 -0.056252 0.328280 0.057306 0.365224 -0.596065 -0.011809 0.411568 -0.582790 0.245326 0.034027 -0.295949 -0.933854 -0.407887 -0.400787 -0.091399 0.927617 0.113978 -0.688876 0.273486 -0.552127 0.390163 -0.402194 0.288368 -0.026338 -0.057626 0.371956 -0.799860 -0.190917 0.085673 0.053058 0.372966 0.188961 -0.390642 -0.468994 -0.707073 -0.312078 -0.011977 0.648532 0.023154 0.253334 -0.419451 0.071560 0.381861 0.428339 0.894969 0.177730 -0.155470 0.570235 -0.085793 0.038170 -0.591173 -0.066789 0.157902 0.503695 0.103527 -0.346458 0.072436 0.353120 1.028339 -0.449313 -0.238585 0.158809 -0.733535 0.062856 0.126994 0.583960 0.196108 -0.203176 -0.041639 -0.527335 -0.023677 -0.486538 0.279238 -0.290367 -0.311520 -0.206841 0.496819 0.135784 -0.090769 0.471372 -0.042570 -0.203592 0.239327 
465 -0.251093 -0.290664 0.409050 0.070555 0.309555 0.379057 -0.073350 0.726085 -0.905371 0.329029 -0.122950 1.079595 -0.152161 0.517220 -0.043472 0.244096 0.285576 0.321968 0.036886 0.405600 0.407221 -0.093339 -0.352624 0.577225 0.159085 0.154979 0.063400 0.093986 -0.287056 -0.349939 0.488742 0.465846 -0.043707 0.049173 0.324562 0.413334 0.623192 -0.320962 -0.527626 -0.007027 -0.499993 -0.368680 -0.035872 -0.301928 0.335733 0.191004 -0.407088 0.319924 -0.661163 -0.162561 -0.250492 0.258087 0.026370 0.065145 0.026277 0.411252 0.165790 -0.257071 -0.493045 0.276959 0.244907 0.441615 0.623618 -0.575450 -0.023800 -0.284277 -0.339022 -0.528723 -0.229431 0.799638 -0.171704 -0.021067 -0.320369 0.672204 -0.288801 -0.013465 0.387068 0.337688 -0.081314 0.172789 -0.653106 -0.012822 0.426549 0.284883 0.241781 -0.262268 0.322628 0.290486 -0.652772 0.693011 -0.148156 -0.240601 0.476926 0.640127 -0.504050 0.225361 -0.153048 0.022752 0.555479 0.089044 
546 -0.329013 0.096965 0.498923 -0.372810 -0.046526 0.535093 0.121292 -0.445569 0.056236 -0.467903 0.046624 0.407806 -0.619854 0.288087 -0.072527 -0.056234 -0.174131 -0.218565 -0.895190 -0.184347 0.520892 -0.176331 0.240684 0.493031 -0.320231 -0.377519 -0.102088 -0.182658 -0.214834 -0.047515 -0.596846 0.744778 0.687610 -0.527112 -0.392292 0.025308 -0.172168 0.035101 0.001041 0.334965 0.299167 0.817808 -0.624772 -0.154270 -0.569480 -0.133805 -0.074302 0.132999 0.234565 0.452668 -0.048418 -0.566003 0.051884 -0.043204 -0.136519 -0.708360 -0.050889 1.003104 0.394506 0.001590 0.175728 0.298913 0.650761 -0.083655 0.252560 -0.181883 0.353630 -0.710303 -1.091955 -0.319298 0.098497 0.261272 -0.737551 0.514303 0.241112 -0.555297 0.145111 0.127208 0.270248 -0.142637 0.027402 -0.029416 -0.028653 -0.187287 0.773999 -0.015541 -0.043835 -0.392799 -0.095836 0.570306 -0.265351 -0.319651 0.262928 0.083236 -0.022391 0.190193 0.897664 0.742991 -0.018468 -0.550832 
547 0.016634 0.101835 0.755797 -0.201327 -0.179005 0.303546 -0.148050 0.042593 -0.144012 -0.371137 -0.484379 0.493933 -0.784537 0.158244 0.007032 0.386049 -0.270536 -0.038644 -0.912177 0.319077 0.246951 -0.409174 0.159402 0.325797 0.479527 0.554404 0.263408 -0.422651 0.104556 -0.175510 0.027504 -0.498679 0.236290 -0.556114 -0.003382 0.196109 -0.179509 0.505852 0.298434 0.039514 -0.027370 0.110112 -0.782108 0.542983 0.169816 -0.189676 0.362719 0.267089 0.016008 0.158839 -0.042382 -0.051434 0.137392 -0.378210 0.433009 -0.538599 0.600214 0.716955 -0.178717 0.146016 0.338916 -0.059013 0.799733 -0.399262 0.002845 0.559191 0.051771 0.191673 -0.683784 -0.043340 0.462225 0.141394 -1.219008 0.542193 0.244476 -0.667109 0.161024 0.071133 -0.111584 -0.495288 -0.274045 0.188473 0.013521 -0.140716 0.740051 -0.397211 -0.527762 -0.291839 -0.695997 0.217429 0.637015 -0.159360 0.888652 -0.314381 -0.343450 0.362122 0.994861 0.852547 -0.355330 0.079198 
475 0.354179 -0.571119 0.512345 -0.644740 -0.474961 0.541376 -0.192871 0.030794 -0.332483 -0.139131 0.179892 0.835943 -0.200011 -0.181377 0.263699 0.033560 -0.233147 0.113528 -0.140675 0.205283 0.459866 -0.131788 -0.036917 0.109753 -0.197758 -0.234298 0.037273 -0.217637 -0.206502 -0.276958 -0.355057 -0.315736 -0.086602 0.295819 -0.622062 0.077883 0.206030 0.750366 -0.165835 -0.260850 0.380508 0.120828 -0.068910 -0.028528 0.231054 0.430757 0.468746 0.581417 0.348766 0.232385 0.324337 0.099525 0.055333 -0.127083 -0.235716 0.172147 0.256970 0.048396 -0.216325 0.264785 -0.377612 0.547569 -0.249350 -0.400186 0.428997 -0.128829 0.234849 0.463357 -0.243863 0.227792 0.544922 -0.086194 -0.313565 0.583410 -0.245950 -0.485948 0.166478 -0.328805 -0.339431 -0.229073 0.258295 -0.271929 -0.321179 0.047599 -0.669371 0.852643 -0.363418 -0.046864 -0.174547 1.123176 0.087524 -0.638955 0.171298 0.135443 -0.586357 0.624372 -0.206334 0.558065 -0.333846 0.316104 
446 0.011486 0.083914 0.954031 -0.150196 -0.192939 0.528437 -0.193735 -0.025147 -0.828586 -0.533782 -0.219231 -0.287757 -0.601519 0.109709 -0.228006 -0.176842 0.220839 0.033086 -0.551260 0.102196 0.151648 -0.284826 0.171841 0.831056 -0.062571 -0.533482 0.307470 -0.329909 0.037025 -0.283655 -0.652239 -0.023585 0.342804 -0.236669 0.433682 0.344277 -0.402974 0.320531 -0.850946 -0.716646 0.157487 -0.029122 0.047231 -0.168438 0.080097 -0.111823 0.521442 0.084465 0.083699 0.067759 0.212043 0.080287 0.310358 -0.388863 0.168355 0.375339 -0.069625 -0.553205 -0.380603 -0.440369 0.570284 0.560459 0.370292 -0.448639 1.215320 0.152656 -0.053330 -0.516121 -0.949529 0.316954 1.015106 -0.343314 -0.521002 0.437474 0.058116 -0.189322 0.507640 -0.300883 -0.546544 0.071377 -0.291509 0.721108 -0.127059 -0.366123 -0.370914 0.408919 -0.250351 -0.254230 -0.040437 0.099173 0.174357 -0.664363 -0.101137 0.183158 0.065438 0.780494 -0.349783 0.483176 -0.552282 0.113138 
536 0.605540 -0.348159 0.199988 -0.158178 -0.261781 -0.156471 -0.355731 -0.516012 -0.628579 0.123989 0.435872 -0.116449 -0.122601 -0.039709 0.316448 -0.097003 -0.135086 -0.142667 -0.450854 0.719972 0.654733 -0.500269 0.111830 0.166184 -0.271213 -0.493632 0.188653 0.144955 -0.125379 -0.282852 -0.151749 -0.130531 0.766330 -0.328496 -0.040679 -0.060497 0.204936 -0.353288 -0.885297 0.160320 -0.040036 -0.015847 -0.270350 -0.043079 -0.683034 0.513301 0.269081 0.114515 -0.953844 -0.382656 -0.134458 -0.073048 0.360495 -0.205195 -0.600004 -0.118404 0.750293 -0.699308 -0.672692 -0.631278 0.076456 0.222956 0.414884 -0.249170 -0.515669 -0.022936 -0.468526 -0.165513 0.464867 0.135442 -0.503716 -0.266562 -0.455065 -0.165990 -1.001280 0.346470 0.684733 0.073534 -0.045216 -0.281406 -0.324577 0.156385 -0.051884 -0.382564 -0.477931 -0.725067 -0.326083 -0.258240 0.004221 0.661264 -0.324044 -1.168962 -0.013732 0.408595 0.235251 -0.677431 -0.078419 0.651373 -0.093776 -0.159006 
398 0.081674 0.249998 0.031289 0.159565 0.204971 -0.410841 -0.275740 -0.279716 -0.107882 0.262878 0.442978 -0.377351 -0.021724 0.003940 0.269588 0.129327 0.089295 0.005677 -0.580290 0.129585 0.416575 -0.628001 -0.002004 0.118897 0.182350 0.041828 0.193234 -0.056276 -0.385636 0.101689 -0.544620 -0.171052 0.698411 -0.034666 0.012839 0.198815 -0.410652 0.135390 -0.752953 0.278676 0.008817 -0.168255 -0.156242 -0.323418 -0.297881 0.181717 0.153498 0.130901 -0.816551 -0.159435 -0.118408 0.445718 0.569024 -0.095477 -0.322850 -0.023159 0.793391 -0.627688 -0.579762 -0.325766 0.290040 0.029633 0.233208 0.299740 0.065969 0.251490 -0.354819 -0.264073 0.155288 0.302422 -0.278043 -0.393325 -0.560114 -0.379481 -1.138217 0.172427 0.417901 0.667326 -0.280137 -0.243361 -0.597057 0.473992 -0.072003 -0.427963 -0.361730 -0.802139 -0.431847 -0.171169 -0.006940 0.781403 -0.039135 -1.004961 -0.286350 0.572999 0.455865 -0.591220 -0.020079 0.797940 -0.117545 -0.013409 
367 0.299426 -0.341428 0.984895 -0.369947 -0.414405 0.058593 0.190117 -0.125932 -0.608427 -0.732126 -0.200338 -0.099513 -0.672178 0.272228 -0.294297 -0.146991 0.195896 -0.181201 -1.096840 0.296247 0.414050 0.106354 0.637479 0.317474 0.263476 0.042765 0.389685 -0.396660 -0.626242 0.166457 -0.637002 0.195622 0.368706 -0.424887 0.426293 -0.006730 -0.188588 -0.021309 -0.082115 -0.456591 -0.149353 0.139086 -0.415147 -0.123783 0.393262 0.124571 0.594140 1.239769 -0.009535 0.184642 -0.105368 -0.237062 0.201546 -0.927700 0.369967 -0.363855 0.467183 -0.036823 -0.009346 -0.006594 -0.143412 0.127724 -0.158547 -1.143679 0.641588 0.759879 -0.028770 -0.438002 -0.479485 -0.139956 0.175844 -0.427803 -0.706749 0.182597 0.287409 -0.260755 -0.368052 -0.610681 0.179485 -0.284997 0.706029 0.358075 0.573227 0.270079 -0.001125 0.650799 -0.199221 -0.601763 -0.224343 -0.052664 0.101457 -0.359189 0.162860 -0.403139 0.138266 0.828882 0.869424 0.606707 -0.174207 -0.367712 
452 0.290362 -0.453509 0.793315 -0.237186 -0.137267 0.249186 -0.122964 0.048861 0.108350 0.094375 -0.152211 0.238616 -0.181029 -0.402421 -0.011275 -0.540899 -0.694633 0.050704 -0.465786 0.576157 0.463016 -0.168433 -0.228752 0.350843 0.070935 0.034199 0.246894 0.132678 0.053363 -0.168302 0.665501 -0.857627 0.490603 -0.118290 -0.638961 -0.503043 0.581993 -0.247927 0.097863 0.454021 -0.283237 0.106553 -0.377410 0.768804 0.561430 0.415444 -0.226547 0.375404 0.460828 0.202148 -0.156302 -0.130546 0.153013 -0.207893 0.308234 -0.874376 0.717769 0.688686 0.281385 0.444629 0.135829 0.802354 -0.104147 -0.233399 0.174641 0.145054 -0.001293 -0.252457 -0.901277 -0.312850 0.330198 0.601145 -0.430411 0.206073 -0.699285 0.202406 -0.218607 0.318663 0.031486 -0.640047 -0.295698 -0.058183 0.561288 -0.189820 -0.004859 0.201415 -0.040110 -0.027281 -0.225154 1.004902 -0.008663 0.102342 0.196633 0.493257 -0.373955 -0.417810 0.622473 1.637300 0.009684 0.228998 
560 0.005353 -0.580977 0.181319 -0.281360 -0.674855 -0.045429 -0.578031 -0.464815 -0.570719 -0.038206 -0.121441 0.054532 -1.110708 0.590272 0.057918 0.405839 -0.076202 -0.728576 -0.424892 0.282546 0.165125 -0.090520 -0.680290 -0.092217 0.504595 0.620684 -0.537760 -0.031360 -0.097956 -0.560326 0.332948 0.459101 0.015432 -0.190971 0.172590 0.709820 -0.334544 -0.006588 -0.839187 0.559248 0.153845 -0.566630 -0.515326 -0.039437 0.143967 -0.136588 0.723062 -0.277317 -0.139109 0.208416 -0.492396 0.355274 -0.354931 -0.762278 0.036137 -0.200544 0.213822 -0.177576 -0.426463 0.306523 0.465953 0.197412 0.336856 0.006404 0.710691 -0.343888 -0.555437 0.091906 -0.073029 0.624349 0.143792 0.500718 -0.663111 -0.921205 -0.912397 0.029044 0.885814 0.303847 0.037659 -0.203008 -0.717772 -0.018429 -0.403137 -0.127811 -0.234216 -0.783858 -0.075600 -0.061699 0.163755 0.404129 0.123356 -0.462149 -0.271650 -0.546071 -0.339809 -0.335084 -0.333942 0.713505 -0.592430 0.178081 
493 -0.541594 -0.212525 0.476372 -0.173854 0.371068 0.095476 -0.047403 -0.431221 -0.272649 -0.431222 0.770281 -0.272816 0.040169 -0.330185 0.189183 0.049618 0.151505 -0.075986 -0.456186 0.154001 0.312112 -0.304233 -0.405573 0.506839 -0.395080 -0.605975 -0.005784 0.208400 -0.403214 -0.317548 -0.545019 0.060184 0.261110 -0.032262 0.183687 -0.217396 -0.192291 -0.438662 -0.693935 0.234731 -0.219058 -0.333896 -0.435143 -0.590763 -0.165132 0.200829 0.013129 0.318916 -0.843288 0.189666 -0.099844 0.391304 -0.031060 0.036109 -0.160453 0.125736 0.397796 -0.547606 -0.894213 0.037064 0.482071 0.331647 0.051186 -0.364594 -0.202459 -0.246221 -0.421883 -0.451241 -0.188684 -0.215304 0.106065 -0.127178 -0.314489 -0.013161 -0.979689 -0.056596 0.224634 -0.153485 -0.242823 0.804719 -0.131788 0.780304 0.567889 -0.733648 -0.183359 -0.948377 0.097521 -0.234825 -0.903805 0.172516 0.171618 -0.149334 -0.170015 0.015057 -0.342484 0.048121 -0.326552 0.747983 0.060462 -0.594488 
361 0.003405 -0.235040 0.760132 -0.220148 -0.146636 0.630147 -0.341481 0.022159 0.365818 -0.321629 -0.357618 0.117022 -0.396472 -0.097267 -0.108258 0.205725 -0.330837 -0.058465 -0.517538 -0.039703 -0.167305 -0.227487 -0.209434 0.464735 0.011439 -0.056145 -0.026918 -0.513871 -0.156489 -0.016473 -0.192714 -0.491196 0.426462 -0.445831 -0.018792 -0.368705 0.026990 0.208146 0.279899 -0.190599 -0.538549 -0.028862 -0.921930 -0.004322 0.157342 0.160919 -0.355618 0.225793 0.653778 0.540215 0.041135 -0.011539 0.387107 -0.282556 0.038674 -0.410597 0.579505 1.064281 -0.120852 0.130365 0.468582 0.146982 1.012396 -0.266114 0.151804 0.224300 0.092091 -0.113335 -1.247354 -0.074924 0.276534 0.360729 -1.028767 0.589777 0.227315 -0.527549 0.102909 0.023628 0.121444 -0.393637 -0.224792 0.524969 -0.639678 -0.395721 0.816338 0.121829 -0.255126 -0.208533 -0.165501 0.205752 -0.125434 -0.873792 0.428040 -0.142820 0.059575 0.336280 0.840011 0.740570 -0.542538 -0.160088 
359 0.010967 -0.105363 0.843998 -0.600048 -0.055141 0.534048 -0.143934 -0.129845 -0.183547 -0.285840 -0.559401 0.176054 -0.305489 -0.325523 -0.383785 -0.078822 -0.043385 -0.177193 -0.633523 0.365098 -0.004003 -0.298572 0.364403 0.821011 -0.365083 -0.039401 0.660713 -0.400612 -0.071808 0.424627 -0.292104 -0.179198 0.225931 -0.356024 0.105222 -0.244395 0.130452 0.077271 0.159799 -0.480456 -0.259760 -0.036852 -0.629180 -0.186684 -0.008834 0.172806 -0.075352 0.541086 -0.003389 0.261917 -0.034224 -0.398146 0.604354 -0.103204 0.080382 -0.355989 0.312383 0.602538 -0.267654 -0.428960 0.205992 -0.277708 0.708227 -0.826290 0.208567 0.272355 -0.301700 0.067675 -0.849485 -0.330410 0.234579 -0.004310 -0.855427 0.781116 0.798661 -0.420339 -0.035696 -0.141774 -0.012449 -0.022713 -0.016717 0.348798 -0.125652 0.104167 0.584110 0.499244 -0.122308 -0.489207 -0.327786 0.368997 -0.271765 -0.936259 0.815727 0.147291 0.324017 0.349711 0.834141 0.526257 -0.402436 -0.688764 
402 -0.363584 -0.135468 0.608216 0.435028 -0.022709 0.041213 -0.355446 0.686865 0.177292 0.139985 0.531398 0.559176 0.003163 0.195595 -0.078115 -0.008484 0.227849 0.549097 -0.613577 -0.085550 0.390600 -0.165312 -0.213168 0.064703 0.149515 -0.245254 0.021688 -0.106011 0.396550 -0.986314 0.130009 0.268881 0.716100 -0.591467 -0.946240 0.366679 0.132777 0.264788 0.243332 0.076565 -0.780109 0.093311 0.358916 0.137138 -1.064996 -0.122540 0.184774 -0.112521 -0.106892 0.190904 0.207467 -0.300686 -0.471582 -0.405472 0.118186 -0.242549 0.094509 0.295558 -0.180000 0.523427 0.360264 0.405797 0.777196 -0.093169 0.017018 0.182604 0.857375 -0.200404 0.115872 0.456180 0.557707 0.017659 -0.309268 0.373073 -0.488366 0.623021 0.436390 0.091216 0.325135 -0.412614 0.012060 0.126900 0.269473 -0.537330 -0.450095 -0.380060 0.109813 0.141288 -0.000787 0.115819 -0.423619 -0.526661 0.367912 0.510175 -0.254453 0.185199 0.628086 -0.183375 -0.221983 0.109678 
520 -0.272597 0.607064 0.559073 0.802313 0.654389 0.287252 -0.372514 0.304099 0.172059 0.352730 0.766381 0.158540 -0.811304 0.110011 0.626613 0.190517 0.775326 0.543483 -0.156441 -0.043929 0.634858 -0.297983 -0.071873 -0.100002 -0.180996 0.508516 0.101077 -0.079224 -0.335639 -0.337842 0.074108 0.322997 0.634755 -0.346219 -0.491522 0.729572 -0.804631 0.068481 -0.661915 0.129837 0.337965 0.184627 -0.100572 -0.395396 -0.602476 -0.704266 0.667226 -0.050946 -0.089931 0.259606 0.229664 0.519198 -0.491376 0.329103 -0.120675 0.504669 0.201459 -0.306542 -0.324108 -0.075885 0.146598 0.880758 0.254476 0.511540 0.814776 -0.096424 0.510421 -0.163357 -0.155663 0.162591 -0.406827 -0.008854 -0.464017 0.467290 -0.131174 0.084925 0.654405 0.471894 0.067274 -0.530844 -0.015627 -0.349627 -0.300939 -0.272232 -0.680648 -0.187174 0.024542 -0.241256 -0.431621 0.163708 0.394554 -0.872076 -0.192337 0.268483 -0.387065 -0.453899 0.062998 0.435003 -0.235302 -0.026956 
567 -0.251741 -0.452284 0.592553 -0.207608 0.111967 -0.095713 -0.208770 0.203725 -0.567487 -0.263657 0.521835 -0.006078 -0.132358 0.697812 0.011402 0.298691 -0.020831 0.124660 -0.349115 0.143786 0.907702 0.277966 0.151187 -0.088601 0.155524 0.792823 0.063628 -0.331123 -0.649493 -0.025119 0.093853 0.591602 0.276341 -0.111369 0.078048 0.427992 0.494398 0.001190 -0.895594 0.081488 0.109878 0.062081 -0.538603 0.215139 0.066652 -0.566038 0.624497 0.258900 -0.060424 0.147097 0.682109 0.583771 -0.564465 0.346452 -0.026740 -0.058973 0.317296 -0.204503 -0.489731 0.724680 0.040847 0.515723 -0.433421 -1.003199 0.275441 0.113757 -0.202683 -0.525680 -0.559484 -0.193242 -0.619193 0.522129 -0.047230 0.217322 -0.237994 0.765711 0.739714 -0.086668 0.550623 0.577303 0.039937 0.266670 0.441127 0.616271 -0.320330 -0.470424 -0.298163 -0.326433 -0.490456 0.266988 -0.138399 -0.259024 0.488975 -0.094293 0.015101 0.321503 -0.268131 0.568800 0.378475 0.043727 
542 0.679949 -0.356892 0.774918 0.360367 0.221338 -0.574490 -0.602119 0.083481 -0.134486 0.052147 0.141444 0.174897 -0.256831 1.096089 0.524156 0.205662 0.269048 0.125557 -0.507007 -0.081665 1.133289 -0.145340 -0.180864 0.031762 0.142393 0.491393 -0.515474 -0.455675 -0.291785 0.069368 0.417131 -0.252043 0.667397 -0.455729 -0.053121 0.407617 -0.004627 -0.014185 -0.435348 -0.198334 0.140763 -0.620737 -0.208348 -0.133182 0.179698 0.426919 0.093690 -0.002303 -0.092035 -0.306687 0.909897 0.539052 -0.531933 -0.364896 0.126121 0.068350 0.155979 -0.150371 -0.563093 0.265590 0.329657 0.235834 0.293416 0.127735 -0.098638 -0.071697 -0.617831 -0.155088 -0.312624 0.522657 -0.207572 0.672437 -0.311618 -0.322565 -0.964321 0.573184 -0.090396 0.563790 -0.014951 -0.194653 0.744205 0.387707 -0.480849 -0.449803 -0.310495 -0.472671 0.394863 0.181212 -0.314677 -0.068635 0.424517 -0.538803 -0.416297 0.673610 -0.160258 0.221056 0.096541 0.260431 -0.783973 -0.229698 
510 0.320887 0.128082 -0.024642 -0.770439 -0.438052 0.267084 0.489016 0.188076 0.015266 0.046918 0.115939 0.395772 -0.809072 -0.205333 0.472234 0.331921 -0.136619 0.211009 -1.142110 -0.451666 0.826485 -0.308527 0.263446 0.157220 0.297092 0.301093 0.496923 -0.126128 0.016041 -0.031453 -0.055211 0.714568 -0.092098 -0.462470 -0.470132 0.371857 -0.002760 -0.432317 -0.411284 0.230435 -0.293110 0.599884 -0.836133 0.321275 -0.187337 -0.600627 0.494063 0.438292 0.552395 0.354582 0.307861 0.285581 -0.227943 -0.103322 -0.153751 -0.326321 -0.190610 0.918350 0.094303 0.060628 0.172411 -0.308230 0.163061 -0.749153 -0.054418 -0.013543 0.012967 0.279895 -0.139817 -0.255776 -0.538129 0.067860 -0.709165 0.530388 -0.254944 -0.042010 -0.229236 -0.405766 0.346921 -0.367013 0.471411 -0.074030 0.504475 0.126331 -0.573065 0.201238 -0.330831 0.029913 -0.093607 0.869268 0.075160 -0.850661 0.639454 -0.133096 0.022334 0.607936 1.341802 0.297896 0.179877 -0.626357 
521 0.331822 0.884933 0.315564 0.155983 -0.163686 0.343745 -0.320751 0.067838 -0.478889 0.123972 -0.236427 -0.008411 -0.192097 0.097844 -0.371962 -0.032731 -0.082846 0.486213 -1.110770 0.786611 0.365059 -1.164223 0.349268 0.758584 0.229707 0.111828 -0.025275 0.161881 0.306119 -0.159418 -0.207262 0.354863 0.493153 -0.493287 -0.398213 0.172513 0.245141 -0.642147 -0.062478 0.047639 -0.115940 0.089280 -0.490704 -0.204621 -0.001606 -0.232791 0.320268 0.765343 -0.108889 -0.301463 0.168715 -0.063645 0.197505 -0.488116 -0.605063 -0.425577 0.113808 0.003946 -0.197992 0.209112 0.493090 0.349519 0.262327 0.238440 -0.303770 -0.576936 -0.055740 -0.075516 -0.351972 -0.275826 0.002136 -0.011707 -0.830317 0.756795 0.074985 -0.400496 -0.008759 0.226967 -0.335147 0.148230 -0.495660 -0.126657 0.289077 -0.416491 -0.294788 -0.623005 -0.008954 -0.286628 -0.656589 0.400103 -0.053421 0.384542 0.190170 0.184950 -0.640524 -0.366470 0.914561 0.683831 -0.315035 -0.049072 
559 0.360756 -0.348253 0.493027 -0.437493 -0.080003 0.072753 -0.179836 0.171004 -0.609947 -0.104189 -0.162273 0.171447 0.197529 0.216081 -0.340958 -0.167538 0.110707 0.050821 -0.203507 0.273274 0.558589 -0.206159 -0.219886 0.793151 0.809250 0.067336 0.207107 0.412364 0.028362 0.222465 -0.069857 -0.068118 0.488147 0.126485 0.026738 0.481244 0.265449 0.171004 -0.657885 0.271827 -0.011596 0.064162 0.030308 -0.235794 -0.507619 0.102544 0.597371 0.174298 -0.572593 0.065476 0.383443 -0.032086 0.065553 -0.160064 -0.464818 0.231160 0.329495 -0.428148 -0.648526 0.251434 0.001438 0.246449 -0.393060 -0.138096 0.247028 -0.431989 -0.045400 -0.305613 -0.154914 0.113834 0.222986 -0.113339 -0.359623 0.183183 -0.299155 0.521147 0.165187 0.293334 0.113206 0.241325 -0.239423 -0.294212 -0.296456 0.094095 -0.551423 -0.087436 0.031737 -0.508065 -0.369265 0.796662 0.158767 -0.440113 0.006375 0.432450 -0.415145 -0.055475 -0.090289 0.541060 0.332200 -0.264685 
557 -0.040264 -0.576231 0.600606 -0.136943 -0.303795 0.726867 0.390380 -0.460533 -0.057037 -0.568469 -0.374889 -0.165543 -0.635157 0.004780 -0.305397 0.213078 -0.217122 -0.104802 -0.651246 -0.147646 0.154037 0.076343 -0.065069 0.282648 0.458035 -0.029715 -0.380684 0.262914 -0.064549 -0.267142 0.540553 0.219710 -0.250190 -0.096854 0.132724 -0.035487 0.435122 0.321254 0.048650 0.532803 -0.077482 0.594661 -0.585345 0.360629 0.236094 -0.256921 0.013661 0.460327 -0.078456 -0.019847 0.121298 0.375667 -0.083127 0.197572 0.362701 0.021177 0.792214 0.851876 0.298024 0.603571 0.923207 -0.122750 0.491803 -1.038776 -0.032740 -0.518108 0.750865 -0.674688 -1.161021 0.372632 0.270878 -0.088570 -0.426039 -0.243492 0.066188 -0.282836 -0.158460 0.217246 0.010398 -0.270788 -0.606947 0.164276 0.302989 -0.070034 -0.062846 -0.249804 0.220805 0.247080 0.111244 0.982639 0.357166 -0.406118 0.474393 0.714238 -0.767789 0.430397 0.819531 0.698670 0.125645 0.363026 
376 -0.097221 -0.384740 0.194388 -0.163221 -0.107354 0.258967 -0.003564 0.065413 -0.111672 -0.636518 -0.079159 0.420346 0.150409 0.427644 0.361350 0.108334 0.019207 0.389619 -0.154804 -0.188161 0.230068 0.312636 -0.431579 0.092877 -0.359056 -0.106945 0.656843 -0.086791 -0.386261 -0.534849 -0.006015 0.028733 -0.201638 0.618219 -0.369699 0.095483 0.186160 0.428049 -0.476476 -0.281093 -0.179844 -0.012528 0.394904 0.612905 -0.197947 0.281074 -0.332358 0.432139 0.181544 -0.037632 0.382148 0.545469 -0.017838 -0.160398 -0.773220 -0.099965 0.577591 -0.160814 -0.120093 0.151971 -0.264587 0.370544 -0.091775 -0.389869 0.439856 0.534959 -0.004380 0.018982 -0.401516 0.335380 0.402067 -0.298689 -0.188480 0.539755 -0.091477 -0.271792 -0.147277 -0.102220 -0.097577 0.122133 -0.248320 0.063576 -0.421547 0.204906 -0.360263 0.517566 -0.250430 0.293971 -0.053177 0.858838 0.114957 -0.672982 0.282561 0.217396 -0.305257 0.251876 0.469739 0.568130 -0.225511 -0.133532 
555 -0.143589 0.346884 0.693947 -0.492464 0.003393 -0.074613 -0.166710 0.436908 -0.223272 -0.201685 -0.218502 0.092310 -0.886563 -0.316651 -0.007705 -0.044398 0.327542 0.524801 -0.821205 -0.051403 0.210418 -0.198945 0.030006 0.313456 0.645768 0.269634 0.385842 -0.362766 0.138496 -0.183296 0.704974 -0.068322 0.194429 0.019392 -0.060077 0.443585 -0.171723 0.172464 0.251292 0.041952 -0.156549 0.605295 -0.532207 0.319124 0.122210 -0.034290 0.229892 0.726811 0.109872 -0.017492 -0.062325 0.461484 0.244645 -0.227216 0.368861 -0.379601 0.286028 0.674382 -0.352129 0.173350 0.203867 0.017041 0.244679 -0.367820 0.085555 0.370007 -0.046655 0.099593 -0.638874 0.475111 0.230684 0.168828 -0.657982 0.459596 -0.266140 -0.660178 0.209832 -0.120864 0.415808 -0.749487 0.244343 -0.174340 -0.247021 -0.772167 0.500320 0.554794 -0.341979 -0.558608 -0.477401 -0.061120 0.727262 -0.285433 1.139192 -0.368572 0.084987 0.445122 0.983114 0.459108 -0.185691 -0.292223 
500 -0.057895 -0.589626 0.762378 -0.918114 -0.792996 0.864845 0.554584 -0.559480 -0.122701 -0.006621 -0.013195 0.381348 -0.488755 -0.336730 -0.458914 -0.241153 0.461923 -0.396383 -0.493392 0.426424 0.400260 0.296732 0.067483 -0.437616 -0.027986 0.147758 0.199326 -0.245314 -0.033397 -0.114032 -0.446494 -0.010518 0.007320 0.221693 0.384332 0.279481 0.426360 0.103957 -0.263946 -0.552172 0.526584 -0.099803 -0.357207 -0.397713 0.694443 0.072125 0.519294 -0.468470 -0.055931 0.120712 0.629993 0.353894 -0.100212 -0.461219 0.113568 0.075980 0.677501 -0.200031 -0.258632 0.669188 0.086797 0.263976 0.859504 -0.499674 0.319425 -0.359069 0.145220 0.045314 -0.507869 -0.196260 -0.596552 0.153258 -0.285256 -0.310783 -0.039291 0.036657 -0.505153 -0.432913 -0.291184 0.546258 0.063394 0.122297 0.385103 0.140957 -0.400943 -0.613282 -0.314601 0.145095 0.042280 0.730545 -0.090394 -0.183248 -0.373873 0.381120 -0.904704 0.450535 0.507022 0.810605 0.149577 -0.466179 
469 0.484679 -0.067206 0.114480 -0.672206 -0.476541 -0.723367 -0.191505 0.474558 0.139393 0.848100 0.097239 -0.105498 -0.539681 -0.162774 0.115625 0.328094 -0.280099 0.259012 0.177774 -0.348505 0.313479 -0.336247 0.052337 0.810016 0.655724 -0.186022 -0.123128 -0.125000 -0.235639 -0.314908 0.355319 0.352403 0.282360 0.389779 -0.109903 0.222778 -0.194410 -0.042381 -0.834412 0.316674 0.057080 -0.149836 -0.547338 -0.244187 -0.509907 -0.248775 0.269275 0.451105 -0.281339 0.626206 -0.149515 -0.114041 -0.044226 -0.162757 -0.274963 -0.312336 0.302894 0.323594 0.005118 0.540948 0.844603 0.104896 0.257312 -0.161240 0.340374 0.212429 -0.419432 0.005057 -0.691201 0.434506 -0.447493 0.044149 -0.076917 0.112618 -0.498228 0.550577 0.388992 -0.041485 1.161364 -0.577924 0.175342 -0.328492 -0.280557 -0.526180 -0.087662 0.034348 0.263177 -0.417891 1.016128 -0.003897 -0.335579 -0.848378 0.522887 0.139373 0.887360 0.110329 0.295198 0.468834 0.172434 -0.305976 
516 0.600033 0.041545 -0.032964 -0.540007 -0.450667 -0.346638 -0.074708 0.320091 0.178355 0.342764 0.180842 0.029364 -0.265470 -0.374426 -0.042690 0.487037 -0.609147 0.234136 0.201628 -0.148017 0.302903 0.010863 0.287191 0.572242 -0.296120 -0.175242 -0.336521 -0.211432 -0.577425 -0.426015 0.193685 0.117219 0.301052 0.237299 -0.052278 -0.136449 -0.356825 -0.274726 -0.699948 0.112312 -0.240470 -0.164889 -0.748011 -0.260950 -0.867134 -0.379399 0.090447 0.418351 -0.041294 0.544840 -0.275959 0.010747 -0.077500 -0.077759 -0.486867 -0.192470 0.635809 0.061657 -0.041652 0.181681 0.610002 0.222969 0.555147 -0.570783 -0.023596 -0.258463 -0.343258 -0.089010 -0.448773 0.021800 -0.719213 -0.064656 -0.032592 0.024696 -0.330371 0.336916 0.432384 -0.242617 1.019012 -0.433509 0.178838 0.147282 -0.618943 -0.092586 0.062272 -0.052356 -0.074796 -0.307496 0.554541 0.022024 -0.500777 -1.204222 0.616794 0.136256 1.094517 -0.100937 -0.045333 0.717539 0.088260 -0.360512 
378 -0.322617 0.029961 0.272415 -0.578869 -0.765047 -0.102909 -0.316663 0.749511 -0.546698 0.084428 0.197644 0.400784 0.178303 0.443175 -0.346540 0.903276 -0.314859 0.364502 -0.246323 -0.460872 0.685228 -1.119199 0.380036 0.428716 -0.349068 -0.316313 0.197269 -0.329992 -0.302338 0.320793 -0.791511 -0.030216 0.757223 0.187179 -0.281971 0.606519 -0.129578 0.646819 -0.789286 0.101085 0.721267 -0.222538 0.002249 -0.790404 0.124640 -0.310843 0.495212 0.492127 0.209229 -0.015125 0.442062 -0.160953 -0.073974 0.296317 0.067117 -0.279114 -0.374530 -0.509689 -0.238327 0.301447 0.154697 0.732973 -0.186317 -0.399799 0.071413 0.009301 0.014732 -0.522760 0.254438 0.096659 0.310663 -0.162929 -0.382986 0.958077 -0.118172 0.294220 0.181875 0.064302 0.193439 0.028345 -0.344521 0.236506 -0.128131 -0.213698 -0.490948 0.182982 -0.330240 0.182789 -0.197094 0.531037 0.193606 0.070559 0.232530 0.050978 -0.145102 0.178977 0.343807 0.302580 -0.001326 0.028635 
482 0.434348 -0.461874 0.643967 -0.531528 -0.373783 -0.100207 -0.166985 0.206514 -0.553097 0.081636 0.643285 0.422404 -1.101971 -0.064206 0.044546 -0.442497 0.354179 0.266175 -0.098868 0.827075 0.202858 -0.475359 -0.179735 0.551747 0.849216 -0.153280 0.544565 0.231622 0.167870 -0.549371 0.352767 -0.314816 -0.153828 -0.145532 0.352159 0.080870 -0.046389 -0.166028 -0.881116 0.248188 0.560917 -0.006388 -0.624766 -0.077482 0.273492 0.038380 0.220807 0.409970 0.265008 -0.473635 0.388674 -0.112162 -0.442881 -0.441782 -0.018781 -0.009167 0.037061 -0.204645 -0.307061 0.067491 0.496323 -0.279541 0.155789 -0.220959 -0.277424 0.295406 -0.474781 0.685329 -0.482018 0.263013 0.356970 -0.229262 -0.708916 0.066216 -0.301796 0.506194 -0.080364 -0.618116 -0.751635 -0.397848 0.517285 0.107695 0.807227 -0.887133 -0.645373 -0.182467 -0.245110 -0.149405 -0.420151 0.226333 0.613085 -0.708387 0.039112 -0.007949 -0.775967 0.609268 -0.097590 0.655619 0.118889 0.171218 
418 -0.212754 -0.138707 0.823523 -0.033730 -0.071420 0.596278 -0.191351 0.734719 0.535946 -0.167331 0.094172 0.224311 -0.440836 -0.013114 -0.353974 -0.125316 0.167624 0.284113 -0.350119 -0.236693 -0.237573 -0.527429 -0.205358 0.227316 0.558781 0.166523 0.098925 -0.196045 -0.475435 -0.531129 0.079652 0.289361 0.177857 -0.097903 -0.063023 -0.188980 0.173146 0.248020 0.285457 0.112597 -0.787320 -0.101657 -0.537756 -0.116844 -0.286842 -0.402874 -0.256152 0.992868 0.543406 0.810770 0.058140 0.049029 -0.575228 -0.343348 -0.395468 -1.014984 0.134811 0.710141 -0.482700 0.804371 0.519722 0.450102 -0.277532 0.056324 -0.191583 0.335521 0.373385 0.144228 -0.906002 -0.364948 0.219603 -0.189659 -0.827432 0.312276 0.099630 -0.411257 -0.543898 0.381633 0.092358 -0.338032 -0.072221 0.854658 -0.218057 -0.121512 -0.146185 -0.120196 -0.472680 -0.238201 0.527373 0.057805 -0.239005 -0.619472 0.144811 -0.209475 -0.476060 -0.168763 0.940698 0.636987 -0.460432 -0.180515 
506 0.137211 -0.343759 0.657549 -0.282028 0.185621 0.070442 0.275936 -0.128191 -0.287704 0.575143 -0.065836 0.590855 -0.563229 0.466700 0.372048 0.055857 0.407955 -0.120174 -0.552480 -0.037971 0.943082 -0.236243 0.100911 0.172371 0.143384 0.021863 0.179194 -0.419750 -0.629672 0.178474 0.051039 0.752246 0.271536 -0.345762 -0.284834 0.249054 0.251692 0.460765 -0.510821 -0.261201 -0.270608 0.066997 -0.234512 0.341919 -0.524271 -0.052244 0.713290 0.617855 0.420740 0.037306 0.360060 -0.303650 -0.520759 0.068649 -0.023215 -0.109634 0.162001 0.353768 -0.282865 0.139414 0.105706 0.668372 -0.466563 0.188611 -0.578077 -0.138073 -0.067978 -0.387128 -0.050452 -0.040610 -0.003503 -0.147665 -0.593285 0.784139 -0.150939 -0.257171 0.162588 0.049197 0.041791 0.153781 0.173797 0.435819 0.338898 0.462910 0.094017 -0.241892 -0.249969 0.406144 -0.378652 1.004616 -0.561421 -0.169080 -0.080539 0.283534 -0.512589 0.114161 -0.450775 0.715113 0.180155 0.060566 
514 0.054739 -0.137306 0.276178 0.133620 0.109842 -0.164863 -0.109099 0.742732 -0.912409 0.453644 0.236879 0.420418 -0.878648 0.940156 0.801335 -0.159104 0.372507 0.385396 -0.451409 0.007276 0.600002 -0.571576 0.256390 0.360059 0.340992 0.029673 0.286950 -0.174143 0.108752 -0.869814 0.347683 0.533504 -0.294558 0.061762 0.160279 0.339019 -0.065906 -0.189229 -0.254144 -0.247879 -0.090892 0.315961 -0.688085 0.591319 -0.260521 -0.226032 0.843744 0.231106 -0.369236 -0.380118 0.227310 0.486733 -0.414135 -0.533923 -0.332758 0.853980 0.027543 0.115027 -0.222381 0.091665 0.376186 0.767481 0.380615 -0.395696 0.069459 0.259752 -0.638482 -0.256020 -0.558414 0.421596 0.074215 -0.260380 -0.725275 0.569599 -0.133043 -0.148310 0.396970 0.136529 -0.036186 0.464749 -0.313738 -0.348469 0.904532 0.302115 -0.399760 -0.664752 0.171412 -0.042735 -0.199760 0.064261 0.002289 0.097739 0.095563 0.340465 -0.075523 0.204790 -0.159686 -0.004925 0.146246 -0.146333 
545 0.305946 -0.496376 0.144357 0.584087 -0.212364 -0.158872 0.401749 -0.253715 0.167472 -0.022534 0.613366 0.397048 -0.375746 0.170168 -0.740094 0.111363 0.817963 0.041053 -0.403843 1.069366 -0.221064 -0.173824 0.346081 0.287855 0.599646 -0.293183 0.295603 0.163294 -0.454721 -0.810613 0.517769 0.245129 0.294468 -0.536009 -0.294978 0.215473 0.153680 -0.228181 -0.347428 0.222916 -0.189760 -0.132999 -0.547949 0.386805 -0.433468 -0.408910 -0.041730 -0.176411 -0.827362 0.097299 -0.243339 -0.419036 -0.368312 -0.548247 -0.581785 -0.093022 0.144478 0.169673 -0.135344 0.250250 0.189650 0.285383 0.711092 -0.134031 -0.192046 0.567518 0.279211 -0.812797 0.458082 -0.261655 -0.328354 0.088105 -0.027312 0.379887 -0.335763 0.368258 1.229457 0.200145 0.390288 0.115160 -0.429932 -0.261156 0.945577 -0.871983 -0.022122 -0.393054 0.009133 -0.096744 0.105716 -0.044316 -0.435981 -1.004583 -0.062559 0.595193 -0.839129 -0.780874 0.443990 0.039740 -0.160233 0.145088 
525 -0.490998 -0.091734 0.386453 -0.679814 -0.290377 0.151093 -0.771551 0.021885 -0.501434 0.037679 0.421573 -0.178473 0.109064 0.099236 0.505362 -0.115011 0.057512 -0.355973 0.082114 0.276286 0.924079 -0.492760 -0.527780 0.254473 -0.459322 -0.582120 0.213899 0.288006 -0.079532 0.189089 -0.197108 0.628997 0.311565 -0.375133 -0.094606 0.799001 0.487772 0.146036 -0.564141 0.066177 0.594660 0.028049 0.414190 -0.463949 -0.770151 -0.121415 -0.440599 0.329205 0.081431 0.141310 -0.038131 0.050396 0.196203 -0.036689 -0.465436 -0.000076 0.271331 -0.365706 -0.407714 0.128253 0.453748 0.129855 0.013880 0.135056 0.488751 -0.282738 -0.047181 -0.742487 -0.169442 -0.073757 -0.190836 -0.312322 -0.267719 0.553101 -0.205250 0.298227 0.284789 0.033672 -0.068132 -0.049498 -0.976575 -0.117058 0.347842 -0.466371 0.143698 -0.190377 -0.432434 -0.037956 0.019940 0.417074 -0.124113 -0.278308 -0.101804 0.647720 0.222273 -0.177670 0.615647 0.435488 0.007772 0.136510 
484 0.021201 0.082045 1.018355 -0.346503 0.218482 -0.434287 0.031383 0.238383 -0.498124 0.109320 0.134350 -0.915106 -0.069731 -0.079896 -0.264435 -0.024197 -0.043457 -0.107821 -0.185094 0.444982 0.172778 -0.956988 0.011510 -0.353577 -0.111436 -0.473101 0.195735 0.073284 -0.465093 0.074479 0.672913 0.318646 0.408176 0.253470 -0.315164 0.314446 0.006179 -0.230945 -0.317171 -0.108193 -0.096393 -0.257934 0.163291 -0.284558 -0.968914 -0.044772 -0.429660 0.752305 0.262224 -0.249465 1.040406 -0.015228 -0.390396 -0.366894 -0.159133 0.190654 0.644471 -0.018033 -0.465850 0.390795 0.654210 0.043697 -0.174250 -0.040757 0.024739 -0.221705 -0.467351 -0.688617 -0.167675 -0.278982 0.759914 -0.045807 -0.278253 -0.151179 -0.509775 0.348382 -0.067445 0.441178 -0.028595 0.519532 -0.781085 0.749985 0.293963 -0.074861 -0.470386 -0.126727 -0.354111 0.217618 0.311705 0.099317 -0.068499 -0.559989 -0.218229 0.727237 0.381755 -0.384095 0.358980 0.292444 -0.373287 -0.485896 
492 -0.095985 -0.363486 0.866563 0.192188 -0.060337 0.117308 -1.062360 0.017776 -0.966522 0.096864 0.234628 0.193649 -0.193522 0.245198 -0.264682 0.163073 -0.359085 0.084761 -0.353193 0.530755 0.705522 -0.437360 -0.214830 0.308417 -0.130749 -0.208427 0.068531 -0.219433 -0.413808 0.070687 0.000568 0.036090 0.715959 0.253534 0.096222 0.433190 0.037387 -0.202548 -0.597988 0.183513 0.403954 -0.687636 -0.157684 -0.239337 0.469199 -0.224188 0.058186 0.251468 -0.089587 -0.284051 0.616380 0.423057 -0.338912 -0.623658 -0.049451 -0.362882 -0.502337 -0.547192 -0.198099 0.272303 0.259125 1.069679 -0.387780 0.025624 0.714226 -0.685865 -0.568963 -0.496738 -0.679677 0.393712 0.384652 0.448079 0.178749 0.410508 -0.354297 0.521343 -0.048308 -0.197416 -0.037758 -0.168111 0.315174 0.224846 -0.215645 -0.964181 -0.450653 -0.159887 -0.026228 -0.328915 -0.203171 0.307356 0.225637 -0.275732 -0.249549 0.446597 -0.508942 -0.256324 0.061002 0.294659 -0.515694 -0.237850 
479 0.594683 -0.158062 0.157949 0.157671 -0.468466 -0.504124 -0.188724 0.003405 -0.343334 0.126676 0.805700 -0.424565 -0.377711 0.496432 -0.033927 0.175660 -0.235549 -0.053323 -0.679225 0.518195 0.735807 -0.795629 0.462219 0.096336 -0.725591 0.230837 -0.124661 -0.020681 -0.161428 -0.170941 0.474330 -0.152019 0.295536 -0.399943 -0.044723 0.657328 -0.264604 0.299291 -0.919044 0.023745 0.646055 -0.146721 0.090428 -0.188375 -0.275906 0.449322 0.040854 0.064695 -0.445701 -0.413146 0.415470 0.111295 -0.016329 0.181196 0.054067 0.250808 0.671585 -0.442785 -0.320603 -0.543362 0.491262 0.160190 0.844321 -0.302724 0.083585 0.145223 0.013324 -0.087806 0.348540 0.208151 0.188654 -0.129467 -0.347332 -0.066172 -0.545217 0.587443 0.892795 0.201545 -0.212406 -0.531289 -1.021957 0.259948 0.244480 -0.452235 -0.578518 -0.497224 -0.056430 0.226395 0.302875 0.230619 -0.215460 -0.682972 -0.013565 0.560142 -0.126226 -0.730354 -0.198914 0.083065 -0.462389 0.655229 
373 -0.333352 -0.543294 0.746825 -0.399154 -0.318037 0.333088 -0.687001 0.373859 0.170535 -0.391119 0.548967 0.956836 -0.619261 0.301364 0.290852 0.085572 -0.241977 0.431066 -0.029994 0.275392 0.064645 -0.057489 -0.344738 -0.007028 -0.731006 -0.062072 0.359164 -0.129532 -0.363263 -0.154136 0.097240 -0.019960 -0.165086 -0.250575 -0.441816 0.119398 0.221512 0.688116 -0.177397 0.415051 -0.166136 -0.196225 -0.181943 -0.177117 -0.232507 0.538656 0.285528 0.007855 0.281853 -0.261068 0.307979 0.290570 -0.616688 0.017339 0.205318 -0.238871 -0.037740 -0.080701 -0.584693 0.294279 -0.014489 0.514146 0.094422 -0.927530 0.647550 0.114585 -0.264470 0.325229 0.145230 0.309645 0.331500 -0.344612 -0.328668 -0.337461 0.320109 0.594295 -0.176967 0.031792 -0.748464 -0.494755 -0.030282 0.234247 0.407518 -0.125509 -0.575509 0.112859 -0.505038 0.524450 0.031933 -0.298734 0.235889 -0.386624 0.730148 0.399416 -0.152817 0.158021 -0.262319 0.457996 -0.538395 -0.245711 
483 0.041455 -0.805314 0.754412 -0.195667 0.010014 0.431100 -0.340579 0.200341 -0.420740 -0.155883 0.032077 0.160250 -0.680378 -0.050646 -0.113446 0.184687 0.419966 -0.190498 0.409274 0.066908 0.307438 0.055210 0.008313 -0.247730 0.410053 -0.609163 0.211616 -0.099786 -0.259832 -0.339553 -0.271398 0.453681 0.170034 0.007400 0.240592 0.570654 0.496476 0.411959 0.171693 0.354214 -0.689385 -0.316751 -0.150927 -0.090377 -0.346193 0.231403 0.524931 -0.121697 -0.620518 0.022061 0.711911 0.482318 -0.422150 -0.312453 -0.017887 0.084935 -0.015622 0.088024 -0.085334 -0.328192 0.474228 0.726577 -0.163700 0.224140 0.003780 0.179890 -0.655065 -0.723301 -0.358909 0.110006 0.331432 0.221416 -0.297222 0.365574 -0.625887 0.432316 -0.521338 0.289493 0.062194 0.271013 -0.553946 -0.363276 0.072795 -0.118036 0.255131 -0.111137 0.013114 -0.454579 0.585028 0.502617 -0.476968 -0.365208 0.509256 0.183010 -0.024969 0.001383 0.222473 0.445132 0.012197 -0.155308 
173 0.549536 0.168418 0.068345 -0.113913 -0.105183 0.129316 -0.021827 0.579014 -0.125164 0.213790 0.260963 0.906917 -0.437082 0.315766 -0.345809 0.244227 -0.066455 0.139029 0.012734 -0.020774 0.126640 -0.294719 0.177033 0.607239 -0.626421 0.228997 -0.007728 -0.344968 -0.385636 0.017905 0.175142 -0.240695 0.293476 -0.228313 0.298599 0.194721 -0.434660 0.052459 -0.464725 -0.136377 -0.212141 -0.343443 -0.211149 -0.098071 -0.049413 0.056816 -0.196797 -0.109212 0.115377 -0.059402 -0.165186 -0.359572 -0.405202 -0.344577 -0.347123 -0.128021 -0.065106 -0.048062 -0.086321 -0.291206 0.270894 0.059577 0.184518 -0.383669 0.068387 -0.126810 -0.482610 0.086007 -0.120794 -0.057762 0.083795 0.126906 -0.194974 -0.068345 -0.107657 0.280811 0.129548 0.046095 0.311530 -0.287657 0.052930 0.348603 -0.327966 0.024737 0.253200 0.452278 -0.350406 -0.065370 -0.254533 0.194471 -0.210525 -0.920384 0.340616 0.000507 0.654661 -0.089399 -0.363583 -0.157346 -0.391439 -0.370247 
549 0.219577 0.025651 -0.143693 -0.040717 -0.214279 -0.236938 0.017567 0.590630 0.113581 0.180947 0.662073 0.321115 -0.322154 -0.014512 -0.173005 0.556617 -0.202857 0.100656 -0.063427 0.101537 0.320625 -0.187544 0.397485 0.113774 -0.230155 0.143427 -0.063896 -0.227437 -0.644944 -0.039321 0.151178 -0.684626 0.607507 -0.101183 0.231686 0.287048 -0.616471 0.019293 -0.441536 -0.095021 0.174328 0.027645 -0.082024 0.014081 -0.274819 -0.559676 -0.458798 -0.085362 0.363404 -0.113119 -0.312899 -0.311604 -0.540601 -0.206348 0.042343 -0.410494 0.460680 -0.321042 0.170298 -0.027488 0.229055 0.182230 0.392163 -0.004810 0.367824 0.011740 0.230013 -0.015203 -0.216368 -0.161691 -0.140492 0.029096 -0.240501 -0.125447 -0.201751 0.607058 -0.208679 -0.232055 0.346731 -0.703381 0.056764 0.602005 0.086119 -0.000729 0.332565 0.059712 -0.548569 -0.173151 -0.072830 -0.017945 -0.086777 -0.801742 -0.170376 0.036615 0.390006 -0.327196 0.289111 0.323617 0.173329 -0.206714 
460 -0.503381 0.094676 0.771431 0.687808 -0.006815 0.605386 -0.762237 0.202781 -0.020340 -0.318609 0.724553 0.921345 -0.779023 -0.092658 -0.576250 -0.454587 1.215357 -0.438400 -0.691967 0.213078 0.540743 0.326251 0.369487 -0.021949 0.035162 -0.039291 0.383167 -0.039470 -0.192438 -0.674294 -0.296371 0.153999 0.534501 -0.487111 -0.074818 0.140681 0.478313 -0.024568 0.220242 -0.456155 0.289811 -0.518009 -0.229033 0.261115 -0.180667 0.005286 0.143620 0.192178 0.117558 0.295713 0.554657 0.122590 -0.589099 0.315844 0.362503 -0.428627 -0.599559 -0.073763 -0.351242 0.184317 0.549504 0.248518 0.133291 0.077733 -0.259142 0.218196 0.578073 -0.016708 0.105748 -0.506876 -0.567619 0.183719 -0.347650 0.332428 -0.415357 0.242380 0.215957 0.192594 0.281855 -0.387845 -0.148917 0.222790 -0.309016 -0.561561 -0.358551 0.110070 0.630050 -0.126054 -0.179792 0.399136 -0.124558 -1.031433 0.197412 0.679375 -0.455382 -0.371789 0.465495 0.274265 -0.722328 0.083841 
517 0.419930 -0.568810 0.471100 -0.341317 -0.018109 -0.100214 -0.536660 -0.042961 -0.063423 -0.293081 0.104343 -0.553291 0.095830 0.023807 0.454645 0.377326 -0.033718 -0.081198 -0.578645 0.260367 0.477069 -0.518190 -0.151517 0.380333 0.375652 -0.095245 0.247940 -0.072372 -0.241848 0.153407 0.035844 -0.340155 0.462530 0.051198 -0.628850 0.345248 0.009642 0.003597 -0.659780 -0.041576 0.095748 -0.090354 0.096353 -0.080414 -0.045454 0.147876 0.604321 0.060090 0.143326 -0.781127 0.160919 0.019710 -0.169220 -0.164032 -0.500977 0.319826 0.303624 -0.192631 -0.820846 0.042626 0.258339 0.324759 -0.258634 0.070946 0.238100 -0.265199 -0.283468 -0.494288 0.213876 -0.530906 0.209719 0.257424 -0.507283 0.360438 -0.230995 0.264221 0.230992 -0.229931 -0.341716 0.611266 -0.515732 0.065336 -0.071042 0.168645 -0.212264 -0.284263 -0.482142 0.168873 -0.276937 0.215211 0.135341 -0.488667 -0.340683 0.690725 -0.533543 -0.307070 0.540414 0.493426 -0.628550 -0.036447 
395 0.285697 0.007367 0.669406 -0.172410 0.043600 -0.448679 0.458469 -0.041921 -0.393193 0.421381 0.397497 0.609973 0.265943 0.047669 -0.360336 0.320385 0.577639 0.521195 -0.706509 0.317215 0.109539 -0.389751 -0.043191 0.712705 -0.047024 -0.140169 0.302364 0.213685 0.032230 0.302945 0.611874 0.053601 0.444159 0.173997 0.063941 0.615175 -0.091369 0.497307 0.073354 -0.208106 0.499177 -0.212127 0.601107 -0.903083 -0.459361 0.026181 0.514950 0.103908 -1.132620 0.551297 0.129794 0.334739 -0.273403 -0.229299 -0.272295 -0.060908 0.174570 -0.019360 -1.022950 0.374276 0.190629 0.212100 -0.105527 -0.773662 0.160402 0.005978 0.045150 -0.249091 0.264813 0.071221 -0.051638 0.433259 0.058310 0.096782 -0.838115 0.419181 0.365564 0.422659 0.330757 0.081391 -0.287287 0.248911 -0.161867 -0.848025 -0.243314 -0.053867 -0.320878 0.105490 -0.655806 -0.035503 0.170169 -0.333947 0.069211 0.456579 -0.314254 -0.254168 0.579841 -0.140634 -0.224346 -0.632547 
370 0.139567 -0.131906 0.313543 -0.378471 -0.162104 -0.343232 -0.052374 0.039652 -0.441630 -0.304069 0.135261 0.982043 -0.199343 0.421555 -0.113465 -0.160383 0.517139 0.407316 -0.299609 0.545966 0.337649 0.760823 -0.100304 0.668582 0.249342 0.256874 -0.604282 -0.126160 -0.766232 -0.640582 0.157886 0.441055 -0.699605 -0.197465 0.177005 0.506595 0.503054 0.350879 -0.193461 0.059588 -0.557008 -0.274105 0.229779 -0.066061 -0.570646 -0.372425 0.638760 0.663907 0.240626 0.864928 0.213677 0.242264 -0.745879 -0.725392 -0.401088 -0.140092 0.308685 -0.034261 -0.433860 0.698490 0.293684 0.302263 -0.379345 -0.372313 0.364207 0.094040 -0.112970 -0.289778 -0.621751 -0.021376 0.199908 -0.025130 -0.051108 -0.007269 0.016353 0.594455 0.422847 0.083843 0.206649 -0.049245 -0.227296 -0.301474 0.434593 -0.109160 -0.437603 0.067655 -0.274808 -0.256464 0.129605 -0.119719 -0.405687 -0.329752 0.057393 0.285698 0.037576 0.445808 -0.053905 0.672489 -0.087488 0.163834 
396 -0.169700 0.182303 0.665228 0.103634 0.350796 0.680399 -0.511619 0.412185 0.098588 -0.275168 -0.455992 0.226937 -0.706234 -0.234664 -0.063186 0.076392 0.029892 0.132274 -0.504603 0.156908 0.153141 -0.461723 0.042787 0.441190 -0.025604 0.423543 0.201052 -0.471553 -0.120004 -0.265688 -0.182647 -0.418713 0.113528 -0.150255 -0.037822 -0.295545 -0.127115 0.331015 0.136922 -0.053922 -0.258289 0.276293 -0.767583 0.509611 0.248290 0.073941 -0.282338 0.375305 0.149917 0.375719 -0.309802 -0.027258 0.341095 -0.228552 0.308867 -0.152829 0.713659 0.961604 -0.086658 -0.063840 0.321800 0.225942 1.161717 -0.403637 0.524562 0.392491 0.144398 -0.110908 -1.177283 -0.023016 0.356186 0.088639 -1.090331 0.817394 0.344407 -0.792501 0.174197 0.350964 -0.027054 -0.465559 -0.422736 0.056798 0.162298 -0.121761 0.666501 0.134364 -0.497449 -0.418004 -0.165636 0.429085 0.200178 -0.499892 0.741334 0.107645 0.020237 0.319468 0.872928 0.672083 -0.274614 0.098239 
416 -0.481741 -0.329268 0.695619 -0.977566 -0.346618 0.047621 -0.340463 0.030473 -0.453149 0.024311 0.180121 -0.031928 -0.232062 -0.275294 0.275279 0.284996 -0.468846 -0.623698 -0.405364 -0.315239 1.156587 -0.750460 -0.021169 -0.013389 -0.024805 -0.260175 -0.571210 0.082044 -0.072123 -0.617135 0.037084 0.434337 0.293316 0.287021 -0.136576 0.521392 -0.112188 0.135444 -0.355433 0.609285 0.481364 0.047365 -0.190227 -0.493302 -0.147245 0.076375 0.099705 0.560184 -0.638829 0.320001 -0.101628 0.160337 0.058377 0.268102 0.305550 -0.511047 0.474684 0.125153 -0.671024 0.459185 0.786904 0.155668 -0.222201 -0.215043 -0.057025 0.024020 -0.013404 0.060606 -0.659883 -0.485419 0.133668 0.435993 -0.573420 -0.376792 -0.835523 -0.485989 0.498033 0.278184 0.513690 0.095078 -0.892029 -0.439007 -0.182676 0.048804 0.435320 -0.720052 0.442753 -0.403922 0.439385 0.551691 0.300030 0.362016 0.560931 -0.246441 0.165227 -0.197530 0.446966 0.692869 0.150131 -0.185477 
368 0.101574 0.486678 0.539069 -0.120420 0.083882 -0.339932 -0.261525 -0.199788 -0.417564 -0.135072 0.077104 -0.502325 -0.390595 -0.021515 0.087101 0.021314 -0.055954 -0.166764 -0.518586 0.342571 0.182771 -0.569435 -0.177055 -0.845291 0.474832 0.026526 0.248644 0.134127 -0.354673 -0.131750 0.150737 0.086391 0.471920 -0.296268 -0.435417 0.291175 0.104607 -0.721899 -0.402140 0.341855 -0.688825 -0.462542 -0.891487 0.192621 -0.091113 0.208929 0.031442 0.471912 0.091717 -0.432513 0.450200 0.331147 0.239277 -0.843523 0.088386 -0.071889 0.841088 -0.319234 -0.224771 0.165543 0.260387 0.107740 0.065760 0.145865 -0.580917 0.397395 -0.604228 -0.794398 0.515453 0.203922 -0.582590 -0.152707 -0.716240 -0.494961 -1.227147 0.418857 0.012201 0.198033 -0.194348 -0.212621 -0.245556 0.291482 0.282000 -0.477599 -0.702996 -0.195648 -0.270908 -0.072338 -0.130674 0.477478 -0.036840 -0.825424 0.189138 0.143349 0.585185 -0.508277 0.628745 0.740559 -0.290523 -0.204005 
503 -0.507892 -0.413570 0.480407 -0.211448 0.465645 0.178957 -0.598521 -0.054584 -0.451497 -0.161901 0.487131 -0.074117 -0.055552 -0.345530 -0.210655 -0.234848 -0.081279 -0.071521 -0.871530 0.183686 0.921521 0.014417 -0.428941 0.148312 -0.183257 -0.119564 0.200093 -0.141263 -0.024428 -0.107085 -0.279216 0.299159 0.334772 0.378342 0.108928 0.473718 0.283028 -0.144019 -0.861536 -0.061491 -0.380312 -0.618231 0.114995 -0.700608 -0.137823 0.651079 0.493417 0.019754 -0.698241 0.200408 0.126000 0.399384 0.160109 0.080176 0.550639 -0.035136 0.251705 -0.526063 -0.752875 0.140165 0.123510 0.704408 0.012428 -0.257093 0.150079 -0.007463 -0.208695 -0.691961 -0.067714 0.092804 0.262575 -0.438302 -0.576416 -0.408499 -1.433340 -0.060487 0.252975 -0.005566 0.258604 0.370908 -0.445981 0.443082 -0.373097 0.263403 -0.379491 -0.398095 -0.416371 -0.204980 -0.239585 0.868098 -0.320723 -0.255296 -0.201457 -0.351431 -0.306431 -0.033066 0.001610 0.307907 -0.189695 -0.636040 
423 -0.087375 -0.580411 0.866284 0.104667 0.484462 -0.373743 -0.791634 0.288348 -0.254001 0.514121 0.427677 0.654738 -0.405011 0.236809 -0.349960 -0.431113 0.436564 0.224061 -0.025051 -0.204093 0.597745 -0.779992 0.133807 -0.323461 0.153554 0.247704 -0.349237 -0.876710 -0.566997 -0.009302 0.138708 0.346395 0.987583 0.537810 0.822698 0.172601 -0.185074 0.489786 -0.382200 0.202126 0.227369 0.201426 -0.253599 -0.205819 0.413837 0.635600 -0.081699 0.045520 -0.384268 -0.159435 0.516869 -0.063187 -0.129263 -0.221574 0.146038 0.142091 0.077171 0.259768 -0.580211 0.301033 0.122051 0.206456 -0.113048 -0.413085 -0.376996 0.260530 -0.087881 -0.421672 0.365291 0.162133 -0.046478 0.439668 -0.318923 -0.115240 -0.435955 0.545241 0.092359 0.933093 0.521290 0.074761 -0.143812 0.107632 0.280002 0.002015 0.529170 -0.463202 -0.510515 -0.139263 0.229562 0.591961 -0.505234 -1.137691 -0.053678 0.598472 0.060005 -0.373750 -0.264714 0.446706 -0.256002 0.236272 
457 0.303333 -0.039676 -0.062446 -0.330383 -0.524218 -0.204804 -0.034572 0.416487 0.403889 0.408579 0.263196 0.209942 -0.314411 -0.522566 -0.389461 0.557371 -0.627208 0.237384 0.342529 0.136569 0.082854 0.130113 0.302337 0.577253 -0.235783 -0.181656 -0.323520 -0.068997 -0.331377 -0.632405 0.351318 0.013766 0.301414 0.324907 -0.019524 -0.157319 -0.474565 -0.326977 -0.436242 0.102474 -0.274771 -0.383796 -0.834644 -0.463002 -0.895603 -0.504734 -0.023596 0.055246 -0.240971 0.562893 -0.469114 0.231779 -0.081765 -0.110912 -0.251068 -0.052246 0.663498 -0.107357 -0.094211 0.438005 0.725277 0.098740 0.909853 -0.685054 0.067467 -0.501569 -0.206117 0.034681 -0.316510 0.205402 -0.582078 -0.194388 -0.011976 -0.231897 -0.167698 0.426644 0.385869 -0.206300 0.827636 -0.385672 0.106429 0.311499 -0.404048 -0.107017 -0.049069 -0.332767 0.169039 -0.008747 0.298560 -0.116273 -0.265392 -1.031887 0.595426 0.426491 0.747465 -0.065629 -0.049513 0.420066 0.092383 -0.451714 
477 0.528421 0.237028 0.063980 -0.322155 0.189920 -0.266857 -0.059346 0.645981 0.405130 0.538391 0.537504 0.433560 -0.322365 0.140647 0.238442 0.490217 -0.672466 0.475343 0.199622 -0.269689 0.399286 -0.144231 0.239354 0.637678 -0.445952 0.238490 -0.433110 -0.154911 -0.607848 -0.385240 0.722668 0.241473 0.202361 0.035012 -0.036225 0.094448 -0.515233 -0.100504 -0.316356 -0.229761 0.141855 -0.099134 -0.502204 -0.462474 -0.878473 -0.255846 -0.013034 0.280506 -0.062568 0.476402 -0.110633 0.102813 -0.369218 0.253868 -0.449877 0.205175 0.697743 0.146160 -0.295525 0.357706 0.382344 0.325865 0.875797 -0.588971 -0.076610 -0.427635 -0.092921 0.152526 -0.344377 0.112526 -0.715562 0.121437 -0.298070 0.101546 0.108049 0.210643 0.354318 -0.062199 0.694218 -0.345597 0.374471 0.161427 -0.381790 0.074303 0.279062 -0.169692 -0.101520 0.030032 0.162362 -0.288503 -0.461158 -0.860940 0.476204 0.553006 0.374214 -0.096359 -0.271404 0.217842 0.121477 -0.331226 
524 0.157622 0.013065 0.810868 -0.489694 -0.074343 0.187550 0.069325 0.960715 -0.128771 -0.619105 0.251417 0.249176 -0.176786 0.526231 0.169470 0.421270 0.208507 0.140931 -0.381237 -0.068289 0.163342 -0.547119 -0.148624 -0.282098 0.288642 0.320285 0.051407 -0.009265 -0.288663 -0.262234 0.159659 0.095175 0.362958 -0.390790 -0.609294 0.217654 -0.088152 0.233135 -0.085938 0.140039 -0.117743 0.482193 -0.066481 0.063586 -0.236598 -0.245582 0.149677 0.408645 0.141244 0.415723 0.685199 0.417735 -0.623069 -0.318323 -0.402134 0.043074 0.089056 -0.031914 -0.788279 0.688547 -0.044105 0.596338 -0.347444 -0.575800 0.861487 0.027605 -0.410486 -0.478403 0.074371 0.220630 0.339165 0.474690 -0.251308 0.015789 -0.344170 0.410336 0.458387 0.560536 -0.196834 0.520582 -0.620681 0.442956 0.367207 0.048982 -0.735327 0.185135 -0.542041 0.025812 -0.420708 0.302821 0.527879 -0.346692 -0.060921 0.360280 -0.023311 0.188644 -0.031558 0.495177 -0.358404 0.186313 
364 0.413661 0.367563 -0.158478 -0.230268 -0.277159 0.027110 -0.039523 0.089665 -0.051986 0.201913 0.038788 -0.118794 -0.439974 -0.448781 -0.112970 0.633273 -0.328225 -0.068601 -0.396506 0.229511 -0.029664 -0.379042 0.069507 0.376353 -0.155865 -0.169181 -0.102093 -0.209141 -0.465643 0.083573 -0.020334 -0.511355 0.194854 -0.288050 0.349377 0.028615 -0.284956 -0.083197 -0.337167 -0.596192 -0.378604 -0.313518 -0.404550 0.206348 -0.223017 -0.212675 -0.421623 0.298019 0.141240 0.115809 -0.261488 0.265853 0.186753 -0.420148 0.042883 0.016382 0.877732 0.029839 -0.357521 -0.404561 0.454126 -0.295768 1.052203 -0.098863 0.381759 -0.278738 -0.088994 -0.067092 -0.414367 -0.094040 0.044344 0.050866 -0.507929 -0.318000 -0.489411 -0.143799 -0.123508 -0.231797 0.195392 -0.421970 -0.510040 0.604162 -0.378237 -0.232465 0.514542 -0.153244 -0.295965 -0.330061 -0.001483 0.006090 -0.237904 -1.009700 0.038664 0.002064 0.712830 -0.125468 0.410696 0.339702 -0.175761 -0.600161 
441 0.410578 0.371912 -0.167961 -0.213699 -0.288582 0.037315 -0.050015 0.051759 -0.070329 0.177426 0.006747 -0.151088 -0.406612 -0.429067 -0.110240 0.640743 -0.298802 -0.076916 -0.395392 0.241109 -0.031996 -0.350370 0.081346 0.351399 -0.144644 -0.179351 -0.101726 -0.194852 -0.420812 0.115342 -0.061990 -0.536292 0.168327 -0.295826 0.357246 0.024055 -0.250026 -0.085428 -0.328561 -0.606221 -0.372410 -0.300427 -0.372349 0.205241 -0.197349 -0.190059 -0.405512 0.267343 0.138644 0.107998 -0.245410 0.236660 0.239334 -0.418096 0.056930 0.016896 0.842364 0.025143 -0.315318 -0.456970 0.427932 -0.310175 1.038824 -0.096500 0.380787 -0.250659 -0.097075 -0.067609 -0.380059 -0.085896 0.027086 0.054511 -0.503051 -0.305516 -0.468555 -0.144009 -0.106217 -0.240885 0.165027 -0.413226 -0.489701 0.570423 -0.379072 -0.236950 0.496050 -0.136141 -0.264405 -0.270028 -0.011164 -0.008342 -0.229350 -0.976716 0.028895 -0.022610 0.690134 -0.109476 0.381287 0.304404 -0.178390 -0.556590 
400 -0.301376 -0.866009 0.372100 0.092626 -0.204385 0.124702 -0.412736 0.384395 -0.226333 0.281246 0.030779 0.118197 0.027300 0.193905 -0.584986 -0.587620 0.446488 0.581942 -0.343048 0.240202 0.351726 -0.237051 -0.085503 0.465109 0.443079 -0.187695 0.223749 -0.307026 -0.066491 -0.537555 -0.163337 0.250904 0.967753 -0.016538 -0.057507 -0.003863 -0.062613 -0.216618 -0.698193 0.419544 -0.498146 0.204395 0.036970 -0.214378 0.318052 -0.155597 -0.093165 -0.325659 0.153695 -0.207160 -0.430272 0.170384 0.059020 0.099733 -0.485740 -0.249757 -0.102985 -0.539966 -0.678933 0.040075 0.239580 0.441083 -0.181345 -0.013352 0.237262 -0.267007 -0.176278 -0.570583 -0.278446 0.314416 0.725767 0.132631 0.082915 -0.060509 -0.436416 0.466588 0.860123 0.555640 -0.044291 0.211960 -0.337201 0.691842 -0.149300 -0.131893 -0.350772 -0.129493 -0.299498 -0.133032 -0.039210 0.646943 -0.082749 -0.808335 -0.306535 0.433156 -0.049747 -0.350110 -0.537768 0.513664 -0.329067 0.095948 
548 0.199046 -0.549980 1.142269 0.044384 0.153554 0.836731 -0.589410 0.325814 -0.035910 -0.800056 0.067925 0.333403 -0.708826 0.332676 0.482758 0.085392 0.590023 0.370373 -1.097851 -0.085051 0.530215 0.105433 0.310317 0.201418 0.255653 -0.564679 0.069208 -0.599491 -0.343855 0.128131 -0.949357 -0.166738 0.906618 -0.236816 0.074807 -0.228966 0.054746 0.809886 0.221766 -0.224938 -0.331671 0.706209 0.229070 0.264651 -0.075046 0.796582 0.525129 0.597225 -0.007687 -0.453802 0.442924 0.216035 -0.192364 0.289947 0.258788 -0.295310 0.319355 0.136341 -0.242046 -0.268741 0.428568 0.056049 -0.208963 -0.955457 0.515121 0.208744 0.025163 0.021496 -1.290766 0.183132 0.399780 -0.290148 -0.653301 0.187540 -0.096642 -0.136375 -0.253335 -0.424486 -0.341752 -0.132966 0.168821 0.773803 -0.401419 -0.247450 0.246570 0.563067 -0.627998 -0.266071 -0.189192 0.072536 0.490769 -0.150221 0.750734 0.154132 0.154442 0.716733 0.381765 0.468718 -0.230524 -0.205493 
515 -0.033606 -0.471074 0.949106 -0.394989 -0.377007 -0.402307 0.094020 -0.182053 -0.535743 0.437738 0.364401 0.184826 -0.338284 0.812056 0.878957 -0.240542 0.302718 -0.428043 -0.417518 0.249125 0.787108 -0.415117 0.155775 0.084506 -0.205408 0.104327 0.728318 0.202973 -0.024347 0.014733 -0.513031 -0.538402 0.055194 -0.263174 -0.448344 0.141556 0.404438 0.253981 -0.954345 -0.306992 0.385902 -0.837357 -0.389298 0.198038 0.015723 0.728970 0.273135 0.067555 0.403797 0.399144 0.359845 -0.203618 -0.190190 -0.096765 0.148853 -0.362999 0.345036 0.227050 -0.413832 -0.516440 -0.238610 0.048238 0.000009 0.028677 0.393195 1.054589 -0.389279 0.549729 -0.600933 -0.325815 -0.161488 0.305908 -0.860402 0.531834 -0.508738 0.447758 0.388005 -0.070943 -0.308529 -0.457644 0.342382 0.091119 0.642162 0.055586 -0.777278 0.030681 0.368875 -0.266486 0.063880 0.407870 0.074533 -0.444124 0.057714 -0.162118 -0.052434 0.114106 0.355711 0.532122 0.168439 -0.353756 
434 0.474208 0.557380 0.680986 -0.235624 -0.275435 -0.240028 0.546462 0.565198 -0.146774 -0.323980 0.389424 0.714501 -0.352551 0.241834 -0.549336 0.034061 -0.075653 0.906566 -0.167762 0.124104 0.109144 -0.856180 0.696977 0.358571 -0.324796 -0.391377 0.144252 -0.580461 -0.579087 -0.500452 0.136296 -0.695390 0.694515 0.143479 0.009582 0.584321 -0.647968 0.525191 -0.760498 -0.219064 0.488280 0.138380 -0.113216 -0.047418 -0.344438 -0.358719 0.138481 0.101253 0.345882 -0.121524 0.791782 -0.675013 -0.361996 -0.531479 0.033946 -0.189637 -0.177554 -0.300846 0.303626 -0.033511 0.304570 0.259452 -0.230774 -0.705194 0.228726 0.874111 0.111757 -0.596253 -0.060600 -0.090786 0.596721 -0.058268 0.151993 0.203872 -0.215989 0.811817 0.470470 0.076000 0.252886 -0.180036 0.072976 0.261388 0.521319 -0.241295 -0.528564 0.186800 -0.596476 0.154847 -0.082707 -0.049326 -0.018838 -1.216496 0.068085 0.714255 0.300599 0.111899 -0.313506 0.557945 -0.283686 0.335422 
496 0.544812 0.467110 0.680409 -0.293342 -0.026688 0.460307 0.685160 0.397372 0.425981 -0.074834 0.328385 -0.123379 -0.416746 -0.361789 -0.560062 -0.194947 0.351579 0.410958 -0.425474 -0.197594 0.014417 -0.661802 -0.089084 0.792443 0.498267 -0.146151 0.172200 0.018429 0.098282 -0.019074 0.126195 0.260738 0.611419 -0.574387 0.387520 0.350860 -0.487720 -0.357625 -1.483633 0.058523 -0.451992 -0.828462 0.275367 -0.251616 -0.142529 -0.164545 0.359365 0.029615 0.615531 0.213891 0.142541 -0.507490 -0.283718 -0.533525 -0.132268 -0.203049 -0.332724 0.021577 0.277364 -0.113629 0.544938 0.151490 -0.286666 -0.258397 0.532868 -0.362869 0.352873 -0.384007 -0.533617 -0.037809 0.845353 0.077649 0.040235 0.174591 -0.442073 0.402383 0.144898 -0.159021 -0.195934 -0.176036 0.433220 0.659777 0.579201 -0.862527 -0.579307 0.322925 -0.207771 0.108517 0.186723 -0.072691 0.007756 -0.929723 0.180448 0.493335 -0.355420 0.046408 -0.609267 0.538748 -0.496484 0.181378 
382 -0.002750 0.272531 0.538582 -0.195156 -0.414446 0.536644 -0.216883 -0.086510 -0.025733 -0.329483 -0.415483 0.570508 -0.408498 -0.205639 -0.081770 0.379319 -0.058880 0.091785 -0.852240 0.344020 0.127584 -0.325524 -0.038549 0.369449 -0.214834 0.081931 -0.140814 -0.258309 -0.102328 -0.016695 -0.364841 -0.238234 0.186860 -0.196116 -0.345578 -0.185140 0.130440 0.071553 0.037493 -0.172829 -0.306640 0.085740 -0.654563 0.247282 0.047687 0.288623 0.165584 0.552699 0.262012 0.146499 0.039918 0.068467 0.496954 -0.242032 0.142702 -0.337553 0.625473 0.771233 0.205048 -0.071215 0.393797 -0.210181 0.980080 -0.549020 0.032310 -0.138013 0.089194 0.297750 -0.992573 -0.013463 0.201065 0.118289 -0.875569 0.419644 -0.070116 -0.531382 0.226703 -0.180271 -0.032517 -0.216135 -0.346689 -0.012116 -0.249595 -0.345702 0.304630 0.091117 -0.013471 -0.112619 -0.521357 0.655291 0.063823 -0.340611 0.771746 -0.065002 0.097485 0.345505 0.843273 0.892960 -0.364980 -0.131036 
474 -0.330347 -0.159929 0.963687 -0.265836 -0.202133 0.644210 -0.357650 0.097034 0.049005 -0.531428 -0.556547 0.123788 -0.718542 -0.217308 -0.415000 0.139526 -0.238700 0.060261 -0.631587 0.247611 0.048417 -0.298137 -0.112733 0.217561 -0.147819 0.248735 0.465568 -0.457007 -0.059222 -0.163736 -0.010695 -0.009469 0.256495 -0.151064 0.031999 0.139348 -0.102027 0.331358 0.077795 -0.208599 -0.181793 -0.034986 -0.700482 0.328125 0.170437 0.143098 -0.078396 0.356835 0.011281 0.306681 0.005319 0.276542 0.597862 -0.453497 0.298789 -0.359764 0.764404 0.680715 -0.118896 0.110891 0.109057 0.136074 1.100411 -0.571038 0.686211 0.226098 0.035596 -0.127284 -1.092700 0.227052 0.677735 0.181232 -0.900647 0.459157 0.342320 -0.681227 -0.063494 0.078423 0.044172 -0.308456 -0.291214 0.133071 0.021638 -0.418308 0.497132 0.071377 -0.435070 -0.235607 -0.216592 0.382483 0.321162 -0.485505 0.793016 0.007008 -0.188800 0.187001 1.160838 0.715799 -0.654799 -0.340712 
451 0.342620 -0.717275 0.237472 -0.269085 0.187670 0.226529 -0.551517 1.109707 -0.026615 0.409461 0.382780 0.144789 -0.299425 0.291036 0.353638 0.520045 0.038529 0.072089 -0.063235 -0.270100 0.656929 -0.631127 -0.082279 0.259817 0.734035 0.112256 -0.213849 0.405626 -0.471279 -0.854098 0.555984 0.257197 0.087765 0.510593 -0.523887 0.033132 -0.185393 -0.244585 -0.378613 0.664702 -0.090230 0.519706 -0.203298 -0.149945 -0.196341 -0.246632 -0.254138 0.407015 -0.648548 -0.215196 -0.418963 0.316163 -0.728829 0.239888 -0.555550 0.334728 0.736993 0.147744 -0.493852 0.838947 0.769523 0.477193 0.125141 -0.624992 0.124720 -0.545157 0.005950 0.137498 -0.590045 0.239000 -0.392390 0.053090 -0.448905 -0.150901 -0.511602 0.477267 0.080309 0.383634 0.028712 0.003026 -0.269125 -0.223839 0.561319 0.185706 -0.599329 -0.207913 0.111471 -0.341434 0.288991 0.948127 0.074172 -0.261198 0.259949 0.913413 -0.388029 -0.268185 0.495348 0.594410 0.534144 -0.005368 
409 0.387516 0.407505 0.402534 -0.158113 -0.756177 0.199724 -0.099540 -0.913513 -0.780536 -0.532194 -0.216408 -0.283954 -0.345596 -0.016030 -0.201583 0.605098 -0.566909 -0.208637 -0.519956 0.854773 0.015872 -0.349325 -0.176559 -0.172161 0.025476 -0.215801 -0.118927 0.263926 -0.215664 -0.290772 -0.259002 -0.336080 0.370728 -0.065685 -0.433940 0.248250 0.050341 0.204269 -0.523694 0.330946 -0.001856 -0.305003 -0.386519 0.349991 -0.519110 -0.202977 0.298970 0.229741 -0.363758 -0.219651 0.569602 0.212920 -0.180905 -0.567556 -0.163608 0.139626 0.754392 -0.806396 -0.206698 0.225279 0.479536 0.064739 -0.055668 -0.140168 -0.280162 -0.010191 -0.517097 -0.647078 0.323827 0.030889 0.065101 -0.371867 -0.181913 -0.127570 -1.211963 0.166947 0.613546 -0.269965 -0.219937 0.107973 -0.818929 0.221854 -0.421636 -0.749236 -0.670593 -0.476673 -0.434724 -0.059327 -0.633486 0.595415 0.363544 -0.509328 -0.000070 -0.203183 0.086733 0.037783 0.065717 0.882515 -0.357997 0.061425 
526 0.472198 -0.518854 0.550043 -0.259094 -0.523649 -0.357129 -0.240119 -0.189705 -0.581984 0.330633 0.722269 -0.850839 -0.043783 0.008638 0.440711 0.130653 -0.011789 -0.129049 -0.388495 0.143157 0.333313 -0.565493 -0.107792 0.285569 0.876833 -0.749940 -0.145723 0.422379 0.230970 -0.309110 0.043298 -0.344724 0.394741 -0.685228 0.156375 0.404216 -0.122187 -0.564880 -0.482649 0.268141 0.137561 -0.169865 -0.474684 -0.250156 -0.058137 -0.180214 0.466723 0.600106 -0.612342 0.366416 -0.044929 -0.029432 0.245410 -0.651226 -0.240655 0.123250 0.674189 -0.194938 -0.778398 0.391195 0.639250 0.376548 -0.186412 -0.294091 0.120926 0.343966 0.064636 -0.087839 0.069730 0.093419 -0.397918 -0.014480 -0.615407 -0.094494 -1.124451 0.504137 0.167368 0.098365 -0.062928 -0.188913 0.001170 0.008219 0.794394 -0.886686 -0.745878 -0.583911 0.256644 -0.332015 -0.092970 -0.003481 -0.052899 -0.568733 -0.422237 -0.134700 -0.033451 -0.107841 0.500779 0.868925 0.189363 0.048575 
363 0.465387 -0.661680 0.797811 -0.425763 -0.711772 0.562883 -0.110055 0.253830 -0.361523 -0.149344 -0.544262 -0.270344 -0.112366 -0.066535 0.026435 -0.217788 0.485411 0.189379 -0.128982 -0.297408 0.499607 -0.797310 -0.020205 -0.118491 0.450217 0.150486 -0.018215 -0.455263 0.369885 -0.073684 -0.506615 0.322750 0.444121 -0.366534 -0.085491 0.276500 0.769476 0.483168 -0.464548 0.064195 -0.530160 -0.205119 -0.313628 0.074119 0.868916 0.239771 1.043395 0.109626 -0.601895 -0.287324 0.039345 -0.024391 -0.165985 -0.391782 -0.725717 -0.039872 -0.020622 -0.153072 -0.531949 0.318925 0.699717 0.549635 -0.418118 -0.421031 0.139764 -0.246481 0.340095 -0.322745 0.094825 0.126980 -0.098763 0.183875 -0.102484 0.409818 -0.731203 -0.383529 0.012921 0.449673 0.252463 0.136667 -0.327816 0.002464 -0.183220 -0.385204 -0.767102 0.166129 -0.011021 -0.481906 0.492676 0.618457 0.252614 -0.389778 0.867523 0.134720 -0.492178 -0.199098 0.087491 0.852754 -0.758946 0.492433 
371 0.359018 0.154655 0.137168 0.125727 -0.395120 0.062913 -0.462358 0.050880 -0.385956 -0.073087 0.184821 0.273727 -0.224798 0.031090 -0.296304 0.581972 -0.151502 -0.025319 -0.338064 0.619523 0.397321 -0.166498 0.010848 0.314140 -0.054293 0.521659 -0.264604 -0.028398 0.085870 0.101623 -0.130980 -0.310317 0.000797 -0.143622 0.256519 0.247725 -0.053696 0.194750 -0.353316 -0.210145 0.235342 -0.494432 -0.117460 0.007862 0.024911 0.155422 0.406006 0.034442 -0.432120 0.006641 0.069349 0.097579 -0.193019 -0.407123 -0.198901 -0.111885 0.316273 -0.275094 -0.351844 0.002734 0.391681 -0.038805 0.627486 -0.182007 0.139415 -0.498553 -0.004866 0.444352 0.063827 0.025372 -0.190890 0.204999 -0.474424 0.057195 -0.296376 0.144123 0.414752 -0.251018 -0.000578 -0.170796 -0.513328 0.061024 -0.391846 -0.500152 -0.240657 -0.228939 -0.059943 -0.127141 -0.385138 0.356598 0.126610 -0.104557 0.275795 -0.137424 -0.297283 -0.234100 0.101312 0.203241 -0.388325 0.237535 
420 0.104878 -0.628662 0.582935 -0.397004 -0.010945 0.430977 -0.429412 0.648785 -0.187092 0.695029 0.408089 0.097543 -0.505828 0.122568 0.315545 -0.233096 0.050984 0.447551 -0.335061 -0.392852 0.832019 -0.517397 -0.247138 0.866920 0.445143 -0.332673 0.082535 0.131702 -0.278993 -0.791251 0.104032 0.652625 0.278383 0.386725 -0.061304 0.259774 -0.176924 -0.358893 -0.650997 0.221718 0.316493 0.218479 -0.434834 -1.024375 -0.157737 -0.442962 0.527420 0.790860 -0.378532 0.195871 -0.191222 0.181656 -0.202039 0.363561 0.008867 0.530792 0.127601 0.074484 -0.472610 0.810912 0.778007 0.761140 -0.100027 -0.833137 0.098733 -0.055848 0.043442 -0.202584 -0.775430 0.105151 -0.369803 -0.343870 -0.370026 0.124811 -0.379364 0.152568 -0.122399 -0.142091 0.219253 0.217270 0.639167 -0.285916 0.387762 0.418050 -0.573954 -0.604902 0.295207 -0.020753 -0.080869 0.274803 -0.287849 -0.591392 -0.322882 0.155282 -0.540925 0.683912 0.067096 0.531282 0.551538 -0.474127 
432 -0.046727 0.103715 0.379878 0.060977 0.691652 -0.182044 0.315008 -0.120939 0.220780 0.513803 0.231077 -0.069174 -0.572353 -0.068380 0.492442 0.267457 0.077028 0.153274 -0.774652 0.217786 0.007454 -0.240070 0.681746 0.237797 0.476209 0.205844 0.355842 -0.114252 -0.599116 -0.041414 -0.225504 0.015494 0.076842 0.188782 -0.400914 -0.267020 -0.091579 0.576023 0.153021 0.104744 -0.113659 -0.104350 -0.495588 -0.000910 -0.418593 -0.584217 0.956740 0.710000 -0.240977 0.283834 -0.060489 -0.000089 -0.822690 0.238901 0.269874 0.668936 0.778229 0.297226 0.025306 1.017471 0.676072 0.374141 -0.503657 -0.566601 0.203454 0.657334 0.302687 -0.155431 -0.236824 -0.234392 -0.194695 -0.701365 -0.648890 0.633370 -0.343316 -0.287529 0.040181 0.141631 0.041622 -0.005558 -0.300308 0.389569 0.859458 0.695192 -0.540889 -0.319785 0.042036 -0.093499 -0.551309 0.402094 -0.156637 -0.108409 0.211130 0.598640 -0.274206 0.431583 0.629196 1.062054 0.390923 -0.243163 
448 0.181142 0.005691 0.293357 0.264905 -0.073450 -0.067500 -0.252634 0.216937 -0.117760 -0.051092 0.223728 0.583966 -0.251303 0.354697 -0.076813 0.441769 -0.144873 0.140375 -0.213640 0.386786 0.145338 0.168266 -0.106022 0.277878 0.010393 0.450433 -0.118013 -0.015048 -0.156309 -0.103900 0.362142 -0.249792 0.017330 -0.143081 0.103116 0.133721 -0.001256 0.257426 -0.127144 -0.225745 -0.024155 -0.383822 -0.099836 0.291272 -0.299195 0.066126 0.082247 0.056590 -0.170860 0.175032 0.093288 0.211674 -0.396291 -0.264139 0.007985 -0.139670 0.415437 0.003585 -0.240876 0.215947 0.145144 0.090362 0.539526 -0.276756 0.048985 -0.106855 0.010105 0.226453 -0.238894 0.292741 -0.020434 0.112788 -0.398619 0.031808 -0.144065 0.189218 0.284351 -0.048397 0.057545 -0.360802 -0.147790 0.243202 -0.255788 -0.282858 0.045644 -0.104437 -0.065770 0.058289 -0.428050 0.079945 0.131033 -0.283496 0.316921 0.110369 -0.229880 0.042992 0.136582 0.124627 -0.262775 0.015098 
563 0.199256 0.261538 0.860065 -0.008789 0.651000 0.130483 0.069612 0.979324 0.218048 0.824218 0.709720 0.404759 0.283261 0.625792 -0.218538 -0.521387 -0.249867 0.756240 -0.435704 0.254820 0.176587 -0.654589 0.181618 0.648730 -0.675812 0.543445 -0.279983 0.243807 -0.698499 0.132072 0.679044 0.711328 0.149537 -0.286555 0.045950 -0.697422 -0.322886 -0.691182 -0.378128 -0.196523 -0.714336 -0.041082 -0.241019 -0.449974 -0.097438 0.509398 -0.525602 0.963443 -0.012213 0.093708 -0.233541 0.001404 -0.751224 -0.052533 -0.472913 0.438693 0.382693 0.211154 0.211119 0.498772 0.213443 0.396925 0.190621 -0.861619 -0.151867 -0.616974 -0.303968 -0.259120 -0.491705 0.286533 -0.338439 -0.399094 -0.132725 0.174029 0.830478 -0.075531 0.608623 -0.299240 0.348397 0.095084 0.260217 0.263603 0.445044 -0.041517 0.230290 0.526359 0.264952 -0.220167 -0.470829 -0.151686 -0.527288 0.104648 0.409939 0.427097 -0.257311 0.150828 -0.233150 0.279286 -0.201404 -0.576773 
508 0.602243 0.171292 -0.191297 -0.030399 -0.280569 0.243017 0.256850 0.849259 0.170888 0.093664 0.606578 0.228225 -0.364581 -0.220481 -0.390534 0.761233 -0.363058 0.486443 0.239936 0.448741 0.304613 -0.745937 0.474187 0.564761 -0.507156 0.229675 -0.021383 -0.091542 -0.235658 -0.506946 0.535165 -0.545967 -0.318261 0.045385 -0.036135 0.401434 -0.570285 -0.027294 -0.708942 -0.209189 0.247350 -0.232952 -0.256960 0.265948 -0.377583 -0.820405 0.213201 -0.263900 0.048481 -0.009579 0.159024 -0.331831 -0.967567 -0.268353 -0.767967 -0.117929 0.155530 -0.192620 0.252394 -0.078035 0.827437 0.523301 0.566967 -0.069149 0.080346 -0.480411 0.225719 0.420065 -0.182022 -0.555944 0.211564 0.298762 -0.189621 0.477796 0.178439 0.407620 0.481573 -0.347093 0.290379 0.255793 -0.711828 0.040329 0.300990 -0.022645 -0.697850 -0.284502 -0.166141 -0.144997 -0.070155 0.357529 -0.200607 -0.330760 0.115249 0.334743 -0.592286 -0.771685 -0.240865 0.305591 -0.299830 0.300391 
440 0.732972 -0.234167 0.276975 0.082129 0.153305 -0.139692 0.304682 -0.188318 -0.225849 0.551964 0.307310 0.073396 -0.344964 -0.174918 -0.023607 0.003049 0.037633 0.342427 0.166525 0.541892 0.228335 -0.472104 0.244652 -0.038972 0.028994 -0.263252 0.404164 -0.167612 -0.490288 -0.356892 0.686552 0.147742 0.452686 -0.040047 0.149653 -0.056029 -0.268338 -0.521023 -0.923496 0.171921 -0.770310 -0.031790 -0.346051 0.273262 -0.467931 -0.426741 0.386937 -0.045765 -0.442817 -0.661465 0.093383 0.209365 -0.587893 -0.366707 -0.557997 0.028090 0.546061 -0.680183 0.051646 -0.593723 0.475271 0.273589 0.259076 -0.055748 -1.208094 0.267524 -0.756050 -0.407198 0.421477 0.062988 -0.497848 -0.478465 -0.203399 -0.203753 -0.438080 0.213379 0.660213 -0.255337 0.278054 0.093943 0.034200 0.206898 -0.406949 -0.037429 0.012825 -0.578396 -0.509951 -0.225932 0.225740 0.485948 -0.310794 -0.993033 0.155900 0.250904 0.008872 -0.429308 -0.295514 0.592800 -0.041036 -0.133295 
444 0.297099 0.066081 0.355342 0.245248 0.374540 0.747020 0.122970 0.413396 0.159317 -0.159685 0.222779 0.543834 -0.135490 0.594919 -0.060181 0.236378 -0.425219 0.334509 -0.205587 0.099089 0.094229 -0.356920 -0.394394 0.503852 -0.258393 0.092573 0.170601 0.465793 -0.134715 -0.603987 0.854685 0.879242 0.478569 -0.816270 0.099024 0.401224 -0.311186 -0.461782 0.011318 0.025869 0.530472 -0.160490 -0.328990 0.249822 -0.697346 -0.423320 -0.105691 0.416575 -0.691904 0.173181 0.352459 0.496096 0.539551 -0.129580 -0.529898 -0.115400 0.605867 -0.184611 0.004435 0.165001 -0.112687 0.442958 0.825051 -0.669729 0.081257 -0.264296 -0.024668 -0.085023 -0.660417 0.680078 0.000955 0.209920 -0.713629 0.095028 0.107652 -0.422778 -0.150261 0.565550 -0.451018 0.398430 0.368146 0.282105 0.528871 -0.632339 -0.080128 -0.898462 -0.206802 0.829982 -0.604168 0.277520 0.125930 -0.244946 0.072205 0.662593 -1.058350 -0.367083 -0.293807 0.038189 -0.176277 -0.062740 
523 0.338686 -0.132330 0.194593 0.000457 0.840754 0.242992 -0.170820 0.391410 0.207489 -0.580736 0.064428 0.630924 -0.284944 0.007247 0.412303 0.498205 -0.246097 0.907753 -0.349576 -0.181007 0.571519 0.110195 -0.027323 0.668442 -0.072056 0.410255 0.097981 -0.439283 -0.897213 0.324914 0.247477 0.153885 0.233187 -0.283394 -0.191623 0.571812 -0.161765 0.538174 -0.758913 0.134300 0.190684 0.180709 0.074695 0.683994 -0.495948 -0.276592 1.104423 0.058049 -0.012112 -0.054899 0.275997 -0.477137 -0.656378 0.460997 -0.202632 -0.270260 -0.160683 0.125005 0.246862 -0.187518 -0.020684 0.593328 0.142495 -0.396969 0.633140 -0.222795 0.650226 -0.328475 -0.023724 0.126995 -0.199055 0.114351 -0.418859 0.790480 0.414402 0.267398 -0.075284 -0.146290 0.673814 -0.322579 0.064494 -0.074127 0.127028 0.330627 -0.078621 -0.201767 -0.784910 -0.003822 -0.172566 0.308989 -0.285676 -0.547119 0.563706 0.903065 -0.805345 -0.482078 0.364326 0.894332 -0.166221 0.193899 
561 -0.198506 0.025236 0.740808 -0.890013 0.027518 -0.223044 -0.218292 -0.091444 -0.477900 -0.052686 -0.171127 -0.087512 -0.216632 0.342036 -0.214984 -0.409296 0.496315 -0.320145 -0.215886 0.210270 0.557787 -0.458357 0.218835 0.111690 0.012105 0.344829 0.358060 0.137432 0.143134 -0.170023 0.315279 0.816180 0.228694 -0.353094 -0.025028 0.375154 0.438074 0.120885 0.130870 -0.424326 0.375168 -0.335011 0.179722 -0.613674 -0.818887 0.025144 0.136689 0.162549 -0.542259 0.508316 -0.106532 -0.290779 -0.301788 -0.192734 -0.472836 -0.213828 0.356862 -0.069109 -0.897482 0.377152 -0.014141 -0.086415 -0.226045 -0.467476 0.037296 -0.120467 -0.325696 -0.153119 0.045540 -0.317582 -0.345579 0.407587 -0.379728 -0.302243 -0.088880 0.403193 0.106832 0.686606 0.109091 0.306679 -0.209427 0.429540 0.676084 0.008795 -0.785178 -0.028653 -0.154872 -0.270203 0.149037 0.040353 -0.143473 -0.428971 0.052913 0.714656 0.045071 -0.531471 0.220062 0.263336 -0.229598 -0.384485 
365 0.531904 -0.334599 0.474746 0.070575 0.464886 0.310250 -0.049607 0.455280 0.066835 0.054940 0.392170 0.238394 -0.472081 0.184363 0.106535 0.115898 -0.179773 0.337199 -0.333609 0.178677 0.544157 -0.184110 0.034592 0.066412 -0.122811 0.219059 0.307147 0.040378 -0.015788 -0.197351 0.646943 0.103712 0.311905 -0.307651 0.061557 0.281912 -0.170698 -0.076977 0.034804 -0.216548 -0.120388 0.309942 -0.068193 0.033828 -0.517570 -0.137544 0.174851 -0.154672 -0.598205 0.084815 0.441205 0.669623 -0.341812 -0.012506 -0.059450 0.191040 0.498287 -0.047734 -0.512917 0.000447 0.225497 0.347968 0.467009 -0.720748 0.150271 -0.116465 -0.303943 -0.089081 -0.129938 0.274360 -0.235620 0.083789 -0.366894 -0.456054 -0.135131 0.412917 -0.128720 0.121747 -0.068563 0.121405 -0.035316 0.474153 0.196304 0.240285 -0.298337 -0.425869 -0.734334 0.152961 -0.420025 0.249572 0.107548 -0.508836 0.077062 0.452598 -0.206459 0.097677 0.367198 -0.264421 -0.153872 -0.450814 
507 0.310077 -0.028379 0.260184 -0.430707 0.141228 -0.240976 0.313060 0.841975 0.313176 -0.114560 -0.046085 0.661893 0.359798 -0.006085 0.248592 0.565461 0.419136 0.759339 -0.534514 0.217625 0.391221 -0.495842 0.156962 0.056179 0.758741 0.124209 0.128009 -0.335101 -0.164835 -0.706909 0.264105 0.219263 0.554709 0.114312 -0.673078 0.099948 0.579164 0.527479 -0.227386 -0.337531 -0.634086 0.265815 0.683987 -0.196269 -0.565176 -0.185151 0.767434 0.281428 -0.156225 -0.236263 -0.043333 0.188750 0.065751 -0.006248 -0.212677 -0.336269 0.501551 0.139793 -0.131889 0.446664 0.057805 0.653977 0.694997 -0.308004 -0.506570 0.486902 0.361133 0.130278 -0.513799 0.270883 0.313250 -0.018675 -0.489188 0.681758 -0.567868 0.080629 0.184108 0.293243 -0.277696 0.047518 -0.045339 0.080817 0.356642 -0.031298 -0.027124 -0.313055 -0.741977 0.118138 0.324959 0.005957 0.021861 -0.033526 0.515545 0.403804 -0.709512 0.502963 0.420212 0.582422 0.206375 0.785519 
397 0.255505 -0.412027 0.726155 -0.238933 0.354394 0.148151 0.386282 0.723575 0.466159 0.279294 0.003877 -0.435597 -0.215133 -0.883468 0.009283 0.052137 -0.123872 0.296985 0.479607 -0.356125 0.369369 -0.263741 0.522291 0.249452 -0.083902 0.177008 0.079166 -0.206015 0.000389 -0.883781 0.574782 0.504641 0.344257 0.510591 0.018499 -0.418603 -0.471638 -0.336596 0.084420 -0.284964 -0.203118 0.079563 -0.218949 -0.509853 -0.043653 -0.589596 0.058232 0.461425 -0.121714 0.887072 -0.520604 0.443291 -0.180700 -0.004972 -0.736918 0.405133 1.082580 0.647112 -0.626093 0.688956 0.532200 0.426979 0.454507 -0.919687 0.365043 -0.550913 0.644741 0.136243 -0.680269 -0.515257 0.089313 0.722271 0.095080 1.000449 0.603052 -0.566736 0.347317 0.047347 0.936942 0.112003 0.354756 -0.083876 0.164047 0.064662 0.166541 0.218260 0.124266 -0.541878 0.178964 -0.131002 0.479223 -0.495149 0.884735 0.528246 -0.494099 0.035187 0.369501 0.101256 0.098679 0.211851 
439 0.225034 -0.419883 0.490430 0.305344 0.004432 0.665478 -0.136832 0.947140 0.303953 0.718577 0.818548 -0.084862 -0.308613 0.520209 -0.230320 0.073078 0.396819 0.653705 -0.128384 -0.536765 -0.238834 -0.418842 -0.233467 -0.237746 0.399095 -0.128614 0.165338 0.033267 -0.492567 -0.432470 0.113296 0.852535 0.214574 0.001965 0.398258 0.106716 0.185685 0.346860 -0.370659 -0.118068 -0.298725 -0.002406 -0.015566 0.013555 -0.182263 0.221029 -0.139800 0.404869 -0.482589 0.858946 0.606203 0.729906 -0.174759 0.225430 -0.582593 0.673165 0.542953 0.219585 -0.139479 0.808706 0.216327 0.841498 0.367807 -0.601451 0.530326 0.186690 0.341035 -0.840400 -0.296717 0.842947 -0.752949 -0.385896 0.029319 0.324057 -0.348065 0.145149 0.733569 0.429709 0.683366 0.065609 -0.716273 -0.235000 0.080604 -0.676412 -0.173101 0.029541 -0.366940 -0.256176 0.689691 0.082987 -0.785843 -0.953980 0.249297 -0.010996 -0.320749 -0.103969 -0.092435 -0.060095 -0.043142 0.274874 
497 0.112736 0.288720 0.620649 0.242003 0.391522 0.251405 -0.443967 -0.128018 -0.550981 -0.033481 -0.521593 -0.160581 -0.134919 -0.297984 -0.011678 0.064341 0.577503 0.359333 -0.490466 1.078182 0.590543 -0.368078 0.614279 0.055432 -0.015801 0.079170 -0.369662 -0.445611 0.055511 -0.123965 0.071895 0.134089 -0.146743 0.448605 -0.287086 0.166958 0.191601 -0.436287 -0.430269 -0.256427 -0.277870 -0.115516 -0.208484 0.303255 -0.512605 0.500055 0.697391 0.729040 -0.311594 0.080669 0.488999 0.072295 0.388351 -0.489890 0.001245 0.159874 0.058049 0.489392 -0.259401 -0.317085 0.131987 -0.396660 -0.052739 -0.738062 0.473528 -0.366721 -0.337273 0.582381 -0.083160 0.022874 0.112656 0.243107 -0.435160 0.526886 0.408829 -0.192194 0.671338 0.313055 0.148758 0.546142 -0.037000 -0.692211 0.661083 0.416032 -0.628569 -0.140183 0.149042 0.131477 0.038578 0.587113 -0.190159 -0.289415 0.602945 0.818238 -0.400514 -0.068039 0.053279 0.262246 -0.148969 0.118267 
513 0.086454 -0.001941 0.483026 -0.088732 -0.302979 0.590303 0.214169 0.525486 -0.614083 -0.461148 -0.251698 0.161368 0.177151 0.413823 -0.345518 0.064862 0.704236 0.483894 -0.102181 0.223914 0.148359 -0.498287 -0.161269 0.082248 -0.200546 0.036385 0.062037 -0.143637 -1.019258 -0.273359 -0.054907 0.117483 0.019764 -0.062695 -0.617618 0.605047 -0.081925 -0.001667 -0.242538 -0.089912 -0.333636 0.757478 -0.376662 -0.341536 -0.573806 -0.872269 0.319863 0.360146 0.279620 0.170328 0.405984 0.706829 -0.175412 0.220578 -0.457092 0.181201 -0.164946 -0.074233 -0.485069 -0.298407 -0.305781 0.992121 -0.265610 -0.175264 0.092175 0.159669 -0.309277 -0.195435 -0.429453 -0.470667 0.020570 0.222376 -0.172257 0.003755 -0.172384 -0.039213 0.491217 0.356136 -0.016007 0.434179 0.082935 0.136370 -0.391661 0.161333 -0.342561 -0.090721 -0.681804 -0.399234 -0.194319 0.050950 -0.125334 -0.222120 -0.562223 -0.126278 -0.237367 0.060467 -0.212414 0.886206 0.278625 -0.342346 
387 0.661923 -0.366031 0.789587 0.609108 0.731182 0.658610 -0.068433 0.674953 0.117474 -0.112064 0.141985 0.391653 -0.211103 0.309651 0.512630 0.110417 0.610963 0.520243 -0.045334 -0.020211 0.623633 -0.514347 0.053842 -0.060826 0.002704 -0.511628 -0.613645 -0.104229 -0.420228 -0.502450 0.350391 -0.428590 0.567902 -0.464205 -0.040801 0.026676 -0.128018 0.068880 0.155993 -0.165488 -0.158748 0.523947 0.300094 0.250177 -0.293525 -0.319720 -0.127105 0.118590 -0.994142 0.617400 0.213994 0.133038 -0.470111 0.017778 -0.396888 -0.248364 0.416681 -0.003348 -0.703788 -0.027464 0.836081 0.494663 -0.127995 -0.507749 0.409248 0.092930 0.236784 -0.402983 -0.389092 0.396930 -0.346378 0.400166 0.019736 -0.320919 -0.362945 0.308398 0.173408 0.840660 0.271653 0.023097 -0.098025 0.300059 0.387319 -0.060288 -0.322072 -0.413696 -0.585974 -0.178652 -0.267257 0.120035 0.385675 -0.790142 -0.312345 1.004703 -0.389222 -0.070200 0.334263 0.058776 -0.246062 0.284891 
408 0.225181 -0.204945 0.372156 0.353353 0.512136 0.016585 -0.616689 -0.164662 -0.099248 0.084481 0.505128 -0.466265 0.201595 0.304927 0.527387 0.223672 0.325142 0.152863 -0.782227 -0.112071 1.381504 -0.308035 -0.012741 -0.101732 -0.091971 -0.268249 -0.059990 -0.072565 0.025173 -0.418101 -0.082906 0.391316 0.808691 0.247107 0.010128 0.397948 -0.405508 -0.245103 -0.319104 -0.200126 0.404294 -0.272281 0.667921 -0.423709 -0.641598 -0.017728 0.065783 0.288676 -0.719284 -0.053234 -0.196343 0.431488 0.110547 0.210123 -0.470913 0.285105 0.861756 -0.265722 -0.685860 -0.443945 0.432964 0.496821 0.285152 -0.190126 -0.006439 -0.020440 -0.001085 -0.676709 -0.627640 -0.377734 -0.144324 0.019898 -0.089866 0.355893 -1.089309 0.085138 0.263095 0.160950 -0.308657 0.617708 -0.075427 0.630414 -0.302509 -0.183857 0.002499 -0.569150 -0.598090 0.233908 -0.000629 0.211424 -0.027281 -0.562133 -0.607007 0.196254 0.071407 -0.691998 -0.305805 0.485842 -0.089301 0.269109 
512 0.413284 -0.235349 0.414052 0.149115 0.452657 -0.404655 -0.567928 0.053778 -0.551429 -0.270864 0.130527 -0.191990 0.120370 -0.061415 -0.130054 0.293691 -0.004047 0.131150 -0.579453 0.719604 0.604292 -0.538633 0.392685 0.009189 -0.020924 -0.049091 0.441064 0.111165 0.015872 0.047325 -0.124359 -0.475635 1.136680 -0.046769 0.101216 0.033282 0.027721 -0.173846 -0.434919 0.318116 0.182069 0.156059 0.457937 -0.220526 -0.435356 0.318002 -0.293316 0.029850 -0.840031 -0.732007 0.147580 0.073248 -0.018567 0.044250 0.067915 -0.108725 0.634391 -0.949018 -0.281339 -0.709309 0.147626 -0.275925 0.642602 -0.486801 0.061254 -0.083818 -0.442200 -0.480829 0.248668 0.545406 0.131338 -0.269178 -0.225956 0.096431 -0.476430 0.878100 0.092450 0.212484 -0.337002 -0.142482 -0.390180 0.957616 0.179614 -0.131841 -0.233690 -0.430410 -0.823667 -0.151289 -0.314236 0.772516 0.165397 -0.950976 0.176152 0.946138 0.126906 -0.370847 0.461193 0.550783 0.083564 0.022419 
394 0.718671 -0.153868 0.880899 0.027381 0.137779 0.487794 -0.283002 0.149812 -0.566300 -0.276512 0.314097 -0.099951 -0.312273 0.427458 -0.698608 -0.222205 0.056557 -0.061663 -0.410282 0.420347 0.243422 -0.503839 0.147105 0.738038 -0.383541 -0.436540 0.472990 -0.021291 0.151392 -0.298163 0.581776 -0.377433 0.506044 -0.468555 0.104098 0.771008 0.029763 -0.117667 -0.407492 -0.555218 0.084620 -0.265521 -0.194888 -0.186739 -0.016191 0.083406 -0.039413 -0.326131 -0.066905 -0.203488 1.056512 0.387178 0.229290 -0.536647 -0.248398 0.540892 -0.147540 -0.220376 -0.693738 -0.001197 0.681493 0.683671 0.110218 -0.649443 0.460287 -0.106100 -0.579179 -0.598407 -0.138408 -0.171238 0.363786 0.539250 -0.189713 -0.042609 -0.698200 0.939639 0.376750 0.333837 -0.424956 0.481089 -0.590487 0.379472 0.083828 -0.404372 -0.740526 0.027014 -0.132440 -0.092950 -0.480530 0.385417 -0.417437 -1.146824 -0.113671 1.043102 -0.041949 -0.126523 -0.131010 -0.231060 -0.710327 -0.182019 
419 0.716045 0.573715 0.067716 -0.201523 -0.466134 -0.319987 -0.053034 0.018047 -0.039661 0.299447 -0.836456 -0.054550 -0.342485 0.358711 -0.306111 0.612386 -0.000373 0.317403 -0.163338 0.594018 0.120240 -0.505838 0.620196 0.467271 0.316282 0.008201 -0.373523 0.198257 -0.148579 0.115682 0.084108 0.732259 0.386676 -0.222750 -0.096154 0.696569 0.054137 -0.329765 -0.494867 0.137990 0.587517 -0.458959 -0.540581 -0.765523 -0.664382 -0.377537 0.745557 0.977004 -0.632159 0.331804 0.319078 0.020696 0.778538 0.058851 -0.003131 0.027145 0.535051 -0.452910 0.295232 0.234304 0.512468 -0.228859 0.217361 -0.513332 0.955135 -0.183133 -0.502104 -0.203399 -0.158891 0.945096 -0.542352 -0.318397 -0.082120 -0.150139 0.407673 0.464311 -0.006980 0.833620 0.262143 0.072501 -0.414837 -0.187954 0.269125 0.529409 -0.899176 -0.614194 0.420777 0.577256 0.235602 0.097426 -0.266171 -0.459456 0.255909 0.823327 0.634942 -0.288281 -0.026166 0.804807 0.065394 0.210011 
527 0.499720 0.127402 0.769877 -0.890831 0.621959 0.248070 -0.608264 0.158358 -0.648958 -0.379467 -0.058286 -0.106869 -0.303424 0.151193 -0.061268 0.031647 0.151146 -0.032908 -0.273381 0.191967 0.738248 -0.542913 -0.083187 -0.515047 -0.335545 0.269465 -0.139516 0.019841 -0.636347 -0.338309 0.259975 0.759084 0.423505 -0.211131 -0.124038 0.635795 0.110232 -0.331236 -0.399954 0.604806 0.645963 0.119720 0.406572 -0.812845 0.012308 0.382929 -0.062737 0.754379 0.075245 -0.023230 0.755986 -0.150324 0.003885 -0.260367 -0.213804 -0.362489 0.381588 -0.323886 -0.490259 -0.063954 0.334074 0.106220 0.209395 -0.287570 0.175782 0.020959 -0.498016 -0.582689 0.240400 0.094546 -0.404574 0.665009 -0.504209 0.339935 -0.172622 0.352962 0.180558 -0.006558 0.166337 -0.059536 -0.265713 -0.365114 -0.049468 -0.660332 -0.443129 -0.186158 -0.656883 -0.393812 0.343113 0.368235 -0.074599 -0.551270 0.179284 0.284587 -0.638104 -0.457163 0.072855 0.109009 -0.216902 0.618247 
443 0.143038 0.074135 -0.006062 -0.056802 -0.182616 -0.007509 -0.078216 0.010757 0.082430 -0.002041 0.002390 -0.068822 -0.172730 -0.160199 -0.129690 0.226301 -0.270411 -0.047586 -0.042023 0.044604 0.017360 -0.065785 0.070208 0.129499 -0.106353 -0.062244 -0.082178 -0.099485 -0.005569 0.015701 0.004025 -0.232487 0.128857 -0.052459 0.156556 -0.098304 -0.151226 -0.136574 -0.094346 -0.133614 -0.100311 -0.147146 -0.282968 -0.012491 -0.073185 -0.022304 -0.163296 -0.047461 -0.009188 0.105434 -0.159790 0.026313 0.110393 -0.126565 -0.051008 -0.110585 0.266722 0.055992 -0.031218 -0.137098 0.190580 -0.154334 0.446732 -0.083241 0.008345 -0.100840 -0.079992 0.011782 -0.154287 -0.015539 -0.101610 0.021571 -0.192347 -0.082971 -0.106292 -0.067224 0.125582 -0.129578 0.160851 -0.178475 -0.038811 0.192797 -0.313196 -0.159910 0.273658 -0.007091 -0.073207 -0.093620 0.012351 -0.059637 0.002150 -0.381408 0.173070 -0.061881 0.274191 -0.057587 0.133589 0.112688 -0.158240 -0.156082 
453 0.207340 0.092049 0.062365 -0.086760 -0.403585 0.068921 -0.226941 -0.045349 0.022818 -0.151200 -0.012795 -0.056155 -0.319487 -0.207940 -0.154093 0.474224 -0.430887 -0.065640 -0.038082 0.306542 0.048766 -0.009202 0.053981 0.126167 -0.328710 -0.117588 -0.098536 -0.093557 -0.015452 0.146205 -0.080775 -0.527824 0.103303 -0.121055 0.358868 -0.158601 -0.110474 -0.237310 -0.206434 -0.319113 -0.141250 -0.371121 -0.485566 0.045089 -0.150922 0.100704 -0.248525 -0.073015 -0.000718 0.099491 -0.111765 0.156590 0.317373 -0.209267 0.000574 -0.164472 0.520257 -0.059135 -0.100084 -0.308671 0.323796 -0.289996 0.693992 -0.299573 0.021949 -0.127180 -0.247316 0.144202 -0.196037 0.075525 -0.207358 -0.102951 -0.424177 -0.268495 -0.187318 0.070338 0.182638 -0.282155 0.067949 -0.253667 -0.078778 0.415505 -0.467898 -0.270696 0.214802 -0.004705 -0.110266 0.113909 -0.134565 -0.129757 0.059824 -0.650952 0.229981 -0.087909 0.461370 -0.088687 0.108361 0.224305 -0.320855 -0.213610 
403 0.083659 0.095697 0.514300 -0.578195 -0.565605 0.090270 0.142577 0.027059 0.053077 -0.458727 -0.247244 0.228254 -0.605378 -0.401753 -0.592882 0.201800 0.151431 0.259712 -1.037146 0.267278 -0.173115 -0.197295 0.172082 0.499579 0.205070 0.155742 0.445749 -0.416417 -0.501535 0.088895 -0.120776 -0.239237 0.144688 0.038800 -0.462609 -0.144718 0.135220 0.326389 -0.301964 0.290788 -0.408656 0.417174 -0.613701 0.236055 0.303308 0.036417 0.032641 0.608972 0.639493 0.054632 0.124839 -0.092229 -0.037821 -0.442224 0.099924 -0.631714 0.310204 0.862582 0.143613 0.313863 0.250053 0.014665 0.544056 -0.606618 0.274175 0.415648 0.138762 -0.032217 -0.592566 -0.189306 0.349803 -0.002881 -0.684755 0.626111 -0.205220 -0.107915 0.106991 -0.126246 0.256478 -0.736708 -0.129680 -0.054232 -0.056992 -0.671829 0.123243 0.770557 -0.337114 -0.488195 0.145138 0.542540 0.114602 -0.685388 0.823079 0.005997 -0.023921 0.471363 1.309683 1.146530 -0.184833 -0.273876 
504 0.130099 -0.437873 -0.106879 -0.429065 -0.035304 1.109944 -0.004654 0.702618 0.251558 0.165817 -0.032987 0.116103 -0.884807 -0.832146 0.056828 0.038154 -0.540157 0.041229 -0.337729 -0.443411 0.164689 -0.446895 -0.144097 0.055085 0.299144 0.479734 0.443946 0.191753 0.217781 -0.383129 -0.123414 0.320128 -0.283386 -0.167248 -0.110070 -0.077168 -0.454562 -0.149273 0.321589 0.932882 -0.782290 0.257657 -0.599808 0.235690 0.126941 -0.790088 -0.055058 -0.177338 -0.072163 0.556373 -0.807788 0.161069 -1.041878 -0.526307 -0.476517 -0.109813 0.266759 0.291935 -0.228068 0.299275 0.878770 0.217034 0.514930 -0.188275 0.373024 -0.497576 0.227659 -0.439058 0.234976 -0.096897 -0.053375 -0.533529 -0.705009 0.358831 0.138869 -0.443978 -0.696379 -0.067334 0.163161 -0.473359 -0.673604 0.344297 0.251844 0.186841 -0.176732 -0.055609 -1.004242 -0.473843 0.160877 0.859357 0.272398 -0.676784 0.457960 0.032379 -0.701608 -0.049379 1.305480 0.214466 -0.287964 -0.323356 
422 0.740236 -0.806164 0.224169 0.113934 0.146700 0.034589 0.362133 -0.352224 -0.013186 -0.977518 0.193790 0.179699 -0.207086 0.317756 0.159183 -0.178542 -0.131338 -0.562915 -0.912483 -0.123923 0.354528 0.391012 0.027337 0.549329 -0.520265 0.815854 0.235317 -0.126356 -0.304005 -0.354211 0.407650 0.527455 0.166279 -0.645699 -0.012433 -0.368772 -0.461407 0.588628 -0.122591 0.558310 -0.161961 0.814654 0.058244 0.922508 -0.516122 0.010430 0.796224 0.561813 -0.584886 0.017210 -0.645752 0.198707 -0.430277 -0.738244 -0.815045 -0.483493 0.232446 0.403352 -0.193195 -0.067342 -0.276003 0.702789 -0.003475 -0.841248 0.034769 0.224565 0.164476 0.385783 -0.249257 -0.222577 0.394321 0.059200 -0.617140 -0.072441 -0.000091 -0.649272 0.038986 0.185537 -0.273864 -0.484400 0.149599 0.488821 -0.465094 0.031173 0.179580 0.191399 -0.434650 -0.529805 0.435537 0.684248 -0.000740 -0.378993 0.460881 -0.089966 -0.217985 -0.075027 0.202983 0.711671 -0.499180 0.056352 
