52 100
4038 0.248833 0.045731 -0.258686 -0.397263 0.536610 0.193827 -0.188229 0.209348 -0.377090 0.154223 0.252228 0.796334 0.429615 -0.321619 0.136088 0.097888 -0.166100 0.235917 -0.277999 -0.191324 -0.254214 -0.147998 -0.708703 0.142720 0.042220 -0.349810 -0.728883 -0.085478 0.330965 -0.151452 0.162419 -0.264022 -0.016898 0.505710 -0.405875 0.117931 -0.352372 0.255528 -0.111847 0.026403 -0.570776 0.571891 0.105987 -0.342539 0.403531 0.033109 0.239851 0.232432 0.025278 -0.225951 -0.068530 0.288180 -0.412614 -0.146408 -0.759890 0.555487 0.560741 -0.275695 0.226414 0.093381 0.236205 0.555030 -0.297826 0.026289 0.053890 -0.033238 0.247962 -0.011278 -0.848237 -0.000947 0.617620 -0.502302 -0.056117 -0.018340 1.186340 -0.018292 0.492643 -0.201760 -0.210554 0.049051 0.067354 0.035393 -0.259156 -0.066237 0.145492 0.307169 0.047861 0.505136 0.386335 0.132193 -0.081469 -0.699458 -0.154256 -0.040158 0.215758 -0.410848 -0.849181 -0.769469 0.285777 0.624759 
4014 -0.093780 0.398033 0.038233 -0.161958 -0.729430 0.344009 -0.438770 0.002843 -0.545965 -0.138789 0.648033 0.338442 -0.158807 0.333309 -0.325082 0.281014 -0.384997 0.060731 -0.253513 -0.035892 0.021527 0.149690 0.164563 0.023171 0.382692 0.065817 -0.744857 -0.070476 -0.150651 -0.082223 -0.172151 0.168546 -0.036038 -0.092952 0.171193 0.528935 -0.065754 -0.117229 -0.377104 -0.155775 0.618417 -0.719134 -0.236834 0.351528 0.011067 0.113016 -0.519618 -0.122995 0.448729 -0.163309 0.208526 -0.586034 0.300510 -0.322141 -0.015588 -0.340081 -0.014869 0.761942 0.168990 -0.246817 0.230485 0.100320 0.149838 -0.238684 -0.318266 0.316572 0.302672 0.705644 -0.004998 -0.279274 0.011870 -0.115755 -0.433405 -0.323486 0.242797 -0.255629 0.342681 0.060640 -0.250313 -0.241083 0.382779 0.062913 0.523638 0.307503 -0.446212 0.010304 0.433717 -0.355669 0.246960 -0.442853 0.642118 -0.352221 -0.777616 -0.231099 0.562548 0.352892 -0.425671 0.321661 0.553960 0.032626 
4032 -0.184302 0.599617 0.041745 0.362337 0.000673 0.283009 0.191089 0.381980 -0.072535 -0.101894 0.053140 1.107653 0.156891 -0.279116 -0.352369 -0.335323 0.171926 0.059242 -0.223289 -0.087152 -0.381050 -0.289667 -0.522086 0.357643 0.246128 -0.545238 -0.378498 0.111414 0.263831 0.490314 0.007440 -0.078912 0.450825 0.083717 -0.253433 -0.112679 -0.215078 0.450899 -0.077062 -0.493985 -0.222029 0.134655 0.296394 -0.167766 0.517751 -0.256638 0.173086 -0.324627 0.085106 0.512549 -0.042324 0.043165 -0.700848 -0.004482 -0.862793 0.396858 0.277983 0.462085 0.349687 0.229532 0.261943 0.410638 -0.574803 -0.048247 -0.709041 0.098492 0.327515 0.716061 -0.966749 -0.295670 0.562443 -0.058711 -0.674801 -0.224768 1.083048 -0.758481 0.077059 -0.224108 -0.265520 -0.070240 0.231779 0.062785 -0.136805 -0.143151 -0.078050 0.194580 -0.078034 -0.058938 0.561230 0.242762 0.011500 -0.608095 -0.750960 -0.129914 -0.326693 0.071315 -0.078610 -0.530383 0.508912 0.428100 
4027 0.330742 -0.373112 0.102771 -0.035580 -0.569807 -0.399696 -0.052370 0.459866 -0.872735 -0.004619 -0.105329 0.286515 0.159350 -0.253627 0.505092 -0.383341 0.091728 0.293880 -0.247917 0.470141 -0.295875 -0.374221 -0.113092 0.590785 0.712111 0.204236 -0.740435 0.359943 -0.174035 0.597659 -0.594404 -0.351764 0.402843 0.347284 -0.418420 -0.237816 -0.618358 0.042861 0.066685 0.299959 0.141141 -0.069823 0.210048 -0.335293 -0.592771 -0.091264 -0.002386 -0.405922 0.963758 -0.393458 -0.051532 0.165449 -0.849443 -0.119828 -0.438234 -0.311653 0.593679 0.448103 0.437469 0.323846 0.559803 0.183416 0.223198 -0.658975 -0.534130 0.198265 0.683575 0.113537 0.145820 0.182519 0.144840 -0.036188 0.241852 -0.527456 0.358275 -0.346057 -0.024565 -0.414418 -0.251474 -0.814950 0.284770 0.049605 0.098098 -0.355407 0.009295 0.051521 -0.560138 0.516917 0.400646 0.366765 0.472821 -0.134264 0.048359 -0.675703 -0.279317 0.468523 0.149531 -0.140698 1.264074 0.795778 
4019 0.443927 0.212441 0.092057 0.584835 0.025898 0.146654 0.481724 -0.066178 0.332698 -0.274169 0.489946 0.491732 -0.061364 -0.101232 0.217876 0.075982 0.012699 -0.170423 -0.242030 -0.170320 0.122524 0.043599 -0.647414 0.855109 -0.480312 0.511080 0.142236 0.557166 -1.117234 0.315560 -0.208355 -0.071694 0.693408 -0.057797 -0.465064 -0.145080 0.110634 -0.730891 0.226772 0.148069 0.189197 0.094530 0.096056 0.552943 0.253694 -0.242650 0.159226 0.402948 -0.301484 0.428331 0.038849 0.728460 -0.004896 0.295548 -0.849000 -0.551616 -0.031747 -0.027904 -0.464848 0.061235 0.354734 -0.179186 -0.337245 -0.123664 -0.572170 0.457189 -0.123055 0.726524 -0.487445 -0.444655 -0.042582 0.160099 -0.372856 0.677316 -0.079836 -0.563958 -0.103372 0.410769 -0.532968 -0.335779 0.179245 -0.000353 -0.145783 0.445835 0.176094 -0.480096 -0.287039 0.181054 0.166901 0.514941 -0.353127 -0.103785 -0.600946 0.441336 -0.471412 0.285452 -0.003743 -0.012079 0.288194 -0.084726 
4026 -0.239634 0.093671 -0.124071 -0.041203 -0.168922 -0.066989 -0.832995 -0.630551 -0.157471 0.081860 0.275279 0.581923 0.492580 0.353375 -0.457513 -0.506667 -0.452571 -0.306935 -0.143208 -0.018273 0.375297 0.298618 0.240039 0.147487 0.169764 -0.162075 -0.260684 -0.129484 -0.547093 0.397822 0.097993 0.437360 0.005687 0.168479 0.223693 -0.244821 -0.070432 -0.184931 -0.375249 -0.268246 0.447751 -0.537857 0.219308 0.316663 0.129743 -0.263948 0.042829 -0.109644 0.821110 -0.231001 0.472752 -0.341458 -0.522885 -0.003778 0.292300 -0.772901 -0.395334 0.243379 0.252445 0.012335 0.685415 0.450470 -0.086352 -0.054528 -0.141579 -0.357070 -0.052061 0.722330 -0.323790 0.022045 -0.208660 -0.586825 -0.038998 -0.188426 -0.021233 -0.416411 0.053667 -0.288696 0.132189 -0.494330 0.963677 -0.085684 0.211747 -0.270619 0.206678 -0.668691 0.128181 -0.262588 0.177539 0.144831 0.030288 0.312186 -0.187818 -0.440722 0.591072 0.310856 -0.294870 0.506959 0.310015 0.492563 
4023 -0.098597 -0.263298 -0.074412 -0.491855 0.113965 0.118471 0.153051 0.145735 0.020420 0.125706 0.419352 0.396770 0.071023 0.292449 0.469112 0.335094 -0.199466 0.210390 -0.016714 0.371843 0.596889 0.376198 -0.462657 0.772838 -0.128948 0.147813 -0.526881 0.394196 -0.548704 0.123840 -0.365935 -0.019994 0.370376 0.022622 -0.662988 -0.037873 -0.412553 0.171856 -0.356525 0.403648 -0.405091 0.238197 -0.088424 0.602603 0.016736 -0.540056 -0.230683 0.517715 0.375205 -0.614390 0.081749 0.589256 -0.261319 -0.550474 -0.584588 -0.042893 0.137311 -0.097876 -0.031174 -0.091455 0.229698 0.108974 0.339923 -0.258099 0.083712 0.100427 -0.077604 0.137221 -0.129563 -0.190048 0.111128 -0.196250 -0.672294 0.435004 0.125826 0.026585 -0.286730 0.131960 -0.244233 -0.307049 0.029434 0.021678 0.311593 0.062569 -0.299036 -0.298119 -0.280879 0.300121 -0.337868 0.433661 -0.255125 -0.014720 0.215820 -0.214575 -0.274292 0.374877 -0.395822 0.133814 0.272192 0.197496 
4003 0.393510 -0.249737 -0.322543 -0.660943 -0.244315 0.498465 -0.060881 -0.515745 -0.452206 -0.126720 1.096962 0.725883 0.499693 0.504967 -0.199226 0.773736 -0.409959 -0.316989 -0.475913 -0.474779 0.177613 0.021091 -0.557129 0.857105 -0.097689 0.190080 -1.155446 0.224776 -0.768466 0.399514 0.023516 -0.206496 -0.065185 -0.299833 0.004414 0.080816 -0.128415 -0.202667 0.296322 0.015161 0.645211 -0.255686 0.427642 0.507082 0.004487 0.645332 -0.258396 0.308839 0.379458 -0.347636 0.091130 0.429416 -0.528198 -0.033967 -0.697801 0.108022 0.189602 -0.604754 -0.386920 -0.619231 0.806860 -0.222463 -0.167122 0.154430 -0.203899 0.238699 -0.105297 1.160658 -0.637658 -0.382759 0.151072 0.168685 0.590532 -0.124724 0.298011 -0.434657 0.488177 -0.021517 -0.039916 -0.057743 0.216137 0.519482 0.179376 0.475679 -0.414871 -0.102714 0.455732 0.373204 0.439914 -0.422694 0.139666 0.185929 -0.684854 0.515338 0.186528 0.030252 -0.854453 -0.289361 0.305502 0.470740 
4018 -0.020899 0.038065 -0.325657 0.351532 0.041870 0.360918 0.237936 -0.048739 0.088760 -0.309048 0.597653 0.765456 0.671039 -0.248455 0.137150 -0.143687 -0.278131 0.139878 -0.239610 -0.290707 -0.033185 -0.093037 -0.236723 0.359412 0.128425 0.284963 0.093094 0.781298 -0.659845 0.431681 -0.251057 0.197981 -0.060987 0.147378 -0.567644 0.006606 0.349366 -0.514340 0.217882 0.091443 -0.331859 -0.142618 -0.041534 0.185724 0.252804 -0.453521 -0.135443 0.301002 -0.210447 0.640867 0.057233 0.696809 0.386898 -0.061683 -0.923863 -0.594079 0.115738 0.401343 -0.392610 -0.399908 0.073885 0.430839 -0.362849 -0.123964 -0.576447 0.413391 0.169208 0.324114 -0.212457 -0.090985 0.181981 -0.106895 -0.564295 1.020854 0.417115 -0.411677 0.232284 0.283125 -0.299593 -0.076015 0.203642 0.128193 -0.188371 0.317237 -0.123746 -0.482108 -0.042830 -0.070848 0.711414 0.374289 -0.032358 -0.204784 -0.723877 0.300281 0.141228 -0.197427 -0.662672 0.051586 0.730869 -0.581626 
3997 0.094717 0.081639 -0.347697 -0.176783 -0.442891 0.199243 -0.027404 -0.442064 0.086908 -0.442553 0.699902 0.604604 0.561341 0.315421 0.193868 0.462284 -0.484442 -0.143382 0.161864 -0.187938 -0.129225 -0.102515 -0.186626 0.822853 0.430001 0.263236 -0.156577 0.264468 -0.784936 0.209602 -0.274772 -0.129265 -0.100285 -0.562357 -0.025330 0.321973 -0.013405 -0.932184 -0.086525 0.170782 0.345771 -0.210542 0.146443 -0.043502 -0.206410 0.059670 -0.040568 0.132019 0.228483 -0.400973 -0.065228 0.048500 0.118446 0.420343 -0.565887 -0.552488 0.127553 -0.037978 0.147024 -0.287336 0.586304 -0.135674 -0.044981 0.393742 -0.576642 0.512069 0.044392 0.821713 -0.283733 -0.020521 0.186799 -0.439423 -0.087129 0.198680 -0.092603 0.008366 0.148147 -0.222909 -0.022651 -0.186756 0.130880 0.067915 -0.065740 0.357771 0.382332 -0.662194 -0.118180 0.020641 0.168103 -0.305552 0.125361 -0.137366 -0.398347 -0.151804 0.223811 0.246351 -0.306631 0.532839 0.449826 -0.072554 
4031 0.112353 0.391523 0.112289 0.127858 -0.360851 -0.111154 -0.076670 0.149543 -0.141978 -0.179682 -0.068645 0.464103 0.102423 -0.619825 0.074949 0.478188 0.092975 -0.170529 -0.581887 0.142179 0.015014 -0.396148 -0.311507 0.190678 0.053511 -0.306906 -0.636818 0.310692 0.556980 0.588858 -0.168363 -0.149943 -0.150434 0.179924 -0.084613 -0.136433 -0.044202 0.624733 0.090835 -0.386587 -0.299077 -0.077085 0.619190 -0.452204 0.349179 -0.157288 0.213244 -0.139342 -0.087495 -0.668407 0.332142 0.516981 -0.810386 -0.214952 -0.749693 0.210239 0.450901 0.161988 0.687777 0.061667 -0.236914 0.402862 -0.242036 -0.238650 -0.439612 -0.296085 0.211958 -0.059979 -0.461346 -0.058139 0.335944 0.275206 -0.268111 0.032378 0.984203 -0.126303 0.690153 -0.052432 -0.099950 0.238451 0.393169 0.353571 0.085594 0.186287 -0.295161 -0.282299 -0.201558 0.265217 0.763559 -0.489934 0.344909 -0.414816 -0.341291 -0.311220 0.051394 0.053617 -0.441174 0.084928 0.699101 -0.163825 
4021 0.101388 0.205415 0.002523 -0.166692 -0.029882 -0.151061 -0.097051 0.053386 0.154342 0.025364 0.646432 0.835893 0.065354 0.157662 -0.150007 -0.573340 -0.085522 -0.002017 -0.409493 -0.318434 0.487838 0.407279 -0.238370 -0.155488 -0.398257 -0.161657 -0.163500 -0.226677 -0.627258 0.221107 -0.020421 0.009216 0.340648 0.173106 -0.410037 -0.455316 -0.162852 0.065855 -0.273500 -0.042070 0.248153 0.241215 0.068702 0.644296 0.396556 0.008925 -0.138912 -0.143999 0.474444 0.537639 0.447906 -0.787968 0.103557 -0.618931 -0.579673 -0.560502 -0.051482 0.179905 -0.395170 -0.079241 -0.339637 0.112373 -0.534704 -0.239912 -0.320265 0.230947 -0.015498 0.769542 -0.529356 -0.424264 -0.365946 -0.073448 0.017827 -0.065403 0.160335 -0.529360 -0.261308 0.670537 -0.200532 -0.408494 0.323534 -0.165977 0.314698 -0.024516 -0.324043 -0.104009 0.696782 -0.341077 0.028222 0.579344 -0.427455 -0.098498 -0.731379 0.321503 0.100737 -0.082604 -0.093087 -0.374566 -0.082348 0.493891 
3998 -0.215801 -0.085910 -0.094225 -0.091655 -0.448266 0.040000 0.138332 -0.597057 0.468854 -0.268326 0.255369 0.807171 0.402252 -0.101326 0.745491 -0.051771 -0.142514 0.403149 -0.458598 -0.212713 -0.031793 -0.023863 -0.640846 0.370028 0.086936 0.138872 -0.462969 0.402584 -0.408772 0.707709 -0.017496 0.124321 -0.496551 0.329469 -0.201195 0.504327 -0.462545 -0.539568 -0.239576 -0.185796 -0.261599 -0.250411 -0.115260 -0.457498 -0.016135 -0.153787 0.277122 -0.212699 -0.344672 -0.527419 -0.154963 0.374862 -0.623770 0.302670 -0.240464 0.011618 0.362215 -0.581549 -0.172150 -0.307291 0.151794 0.071796 -0.281764 -0.060324 -0.177063 0.224201 -0.150359 0.363371 0.008673 0.239925 0.358128 -0.536921 0.195974 0.516333 0.075693 -0.058897 0.142251 0.415338 0.254938 -0.348754 0.119292 0.154657 0.218783 -0.502904 -0.081708 -0.514147 0.133704 -0.439090 0.381342 -0.473415 -0.373679 0.019234 -0.268012 -0.096365 -0.415921 0.179763 -0.174488 0.357600 0.612576 0.403747 
4013 0.168297 0.241976 -0.101348 -0.452884 0.376513 0.382451 -0.321176 -0.126748 -1.169155 0.521262 0.119369 0.502816 0.335900 0.018320 -0.243114 0.280644 0.000323 0.430824 -0.423208 0.262208 0.052036 -0.201731 0.002134 0.553486 -0.059807 0.032999 -0.970617 0.595124 -0.114565 -0.021761 -0.109614 0.094963 0.271782 0.674726 -0.142075 0.330426 -0.344636 -0.323429 -0.206343 0.195914 -0.157763 -0.523271 0.236984 0.073250 0.121374 -0.089727 -0.162531 0.575172 0.126954 -0.358711 -0.185490 0.494794 -0.233527 -0.393111 -0.149810 0.323000 0.675132 0.397661 0.019883 0.075715 0.673746 0.518054 -0.479263 -0.782799 -0.007874 0.174246 0.437939 -0.450424 -0.077600 -0.139615 0.458512 -0.472699 -0.198915 0.139048 0.820325 -0.193567 0.994474 -0.207380 -0.003923 -0.251752 0.254022 0.208438 -0.127497 0.022459 -0.458633 0.291803 0.047524 0.750728 0.524509 0.079992 0.859704 -0.072726 -0.095385 -0.150314 0.321414 0.071851 -0.848898 -0.163740 0.645983 0.198416 
4004 0.456843 -0.238463 -0.349836 0.146954 -0.088881 0.194042 -0.394155 0.174032 -0.826354 -0.118623 0.582165 -0.108058 0.160135 0.013943 -0.030681 0.444515 -0.545631 -0.390213 0.016709 -0.126720 -0.274497 -0.475152 -0.194542 0.335244 0.495263 0.452280 -0.395546 -0.018029 0.082972 -0.349084 -0.266999 -0.025287 -0.315313 0.312399 -0.315609 -0.304624 0.437684 0.389434 0.158681 0.286885 0.152288 0.188780 0.018163 0.039436 -0.327002 0.356135 -0.179304 0.328800 0.830308 -0.400128 0.128578 0.483914 -0.094122 -0.047960 -0.570116 -0.434874 -0.176516 0.302434 0.235655 -0.168408 0.490258 0.327336 0.593045 -0.151793 -0.103432 -0.142674 0.222267 0.548267 -0.375642 0.041902 0.228050 0.022829 0.193390 -0.027977 0.824613 -0.182844 0.275134 -0.608008 -0.374273 -0.111453 0.444143 0.052165 -0.096560 0.523424 0.279425 -0.049769 -0.082661 0.829306 0.474406 0.143207 0.585591 -0.367083 -0.275228 -0.290001 0.756381 -0.229559 -0.799842 -0.344417 0.704348 0.475789 
4030 0.350260 0.202153 0.107761 -0.482014 0.365308 -0.393960 -0.182015 -0.032207 0.383750 -0.157047 0.330006 0.285586 0.319072 -0.020448 0.151709 -0.199286 0.025913 0.051487 -0.606554 -0.184529 0.157099 -0.049718 -0.210290 0.153393 -0.076305 0.461822 -0.624533 0.043152 -0.369097 0.431499 0.342824 0.262456 0.292766 0.175976 -0.129971 -0.263159 0.017557 -0.322249 -0.240282 -0.022583 0.457937 -0.142151 0.336443 -0.356358 0.155076 0.256631 0.379365 -0.109444 -0.263268 -0.494182 0.177423 -0.461734 -0.358142 -0.423224 -0.458504 -0.204400 -0.157504 -0.437322 0.012686 0.218368 -0.320757 0.135860 -0.346115 -0.136125 0.069503 -0.075693 -0.273797 0.031257 -0.595139 -0.336362 -0.178001 -0.396619 0.457460 -0.202721 0.155629 -0.227137 0.582318 0.294095 0.596923 -0.191691 0.277734 -0.021353 -0.088369 -0.333006 0.137115 -0.506033 0.312438 0.340787 0.241161 -0.123775 0.394410 -0.285380 0.054399 -0.106681 0.097438 0.246406 0.129319 0.510133 -0.004718 0.454842 
3988 0.035083 0.395829 -0.101761 -0.204033 -0.583248 0.065471 -0.341724 -0.775297 -0.236483 -0.413791 0.687737 0.251709 -0.158279 0.831569 0.137684 0.330365 -0.170038 -0.573969 0.154254 -0.091003 -0.074128 -0.050215 -0.301707 0.507256 0.300364 0.337447 -0.556941 0.013909 -0.547410 0.126168 -0.053121 0.440455 -0.596842 -0.110760 -0.065212 -0.179493 0.382899 0.132582 -0.526468 -0.160921 0.319513 -0.170446 -0.030298 0.053214 -0.429843 0.641986 0.245272 0.163686 1.065507 -0.891135 -0.430271 -0.055435 -0.302851 0.155446 -0.248484 -0.802250 -0.241393 0.351379 0.161668 -0.370133 0.510212 -0.052155 0.418556 -0.043402 -0.062222 -0.048512 0.242159 1.280367 -0.047089 -0.033187 0.318464 -0.217827 0.037902 -0.190721 0.585080 -0.138118 0.044639 -0.303378 -0.083994 -0.316441 0.655589 0.026375 0.442718 0.175291 0.170288 -0.684803 0.548113 0.263701 -0.269305 0.239015 0.598801 0.345155 -0.479194 -0.450553 0.369741 -0.003373 -0.312875 0.048056 0.381406 0.906740 
3982 0.386425 0.215729 -0.176300 0.082805 0.129415 -0.114223 0.392076 -0.013781 0.415261 -0.493479 0.678302 0.270466 -0.024714 0.013343 -0.006467 0.032011 -0.142267 0.047356 -0.505972 -0.853749 -0.132159 -0.311805 -0.641212 0.272363 0.498777 -0.045684 -0.717320 0.385384 -0.424928 -0.046208 0.370729 0.566516 0.398613 -0.145896 -0.557016 0.198476 0.185164 -0.380475 -0.250624 -0.186359 0.342337 -0.397138 -0.169774 0.208130 0.248139 0.304521 -0.410544 -0.154013 -0.365748 0.488361 0.071514 -0.008592 0.266347 -0.466386 -0.169955 -0.344646 -0.235992 -0.113997 -0.584983 -0.302528 0.038447 -0.140464 -0.132294 -0.084733 0.016552 0.082950 0.034211 0.412055 -0.376303 -0.533635 0.358459 -0.496579 -0.228333 0.594316 0.143100 -0.579726 0.249797 0.394424 -0.094128 -0.184827 -0.006356 -0.083081 -0.111157 0.059224 -0.032337 0.304639 0.000231 -0.152565 0.051195 0.036344 0.220669 -0.823793 -0.451318 0.260227 -0.323745 0.337894 -0.348437 0.105492 0.216594 0.312614 
4002 0.121761 0.129797 -0.429770 0.028509 0.126544 0.294811 0.039161 0.754403 -0.691637 0.010224 0.408710 0.840181 0.474851 -0.475970 -0.381914 0.099861 -0.279895 0.362976 0.197010 -0.298770 -0.533554 -0.606204 -0.155841 0.473226 0.342505 -0.057285 -0.110528 -0.181837 0.137837 0.067038 -0.225588 -0.488633 0.681069 0.124528 -0.483402 -0.031216 -0.313094 -0.208551 0.010297 0.468000 0.115340 0.218706 0.402071 -0.184968 -0.027081 -0.040820 -0.306145 -0.022044 0.541260 0.345599 0.071944 -0.320804 -0.047933 -0.196366 -0.899145 0.238184 0.450723 0.389261 0.371091 0.010409 0.191073 0.398847 -0.641044 0.131936 -0.748224 0.611433 0.445034 0.502565 -0.751280 -0.243358 0.214338 -0.436842 0.159794 -0.470415 0.770016 -0.477610 0.170286 -0.298383 -0.083095 -0.363946 -0.390037 -0.035333 -0.288082 0.137507 0.071566 0.339287 -0.121068 0.491696 0.846164 -0.024618 0.090850 -0.792035 -0.587249 -0.084833 0.272965 -0.112205 0.219706 -0.442536 0.350815 0.384869 
4037 0.384303 -0.361138 -0.169524 -0.917191 -0.328461 -0.462061 -0.257015 -0.029306 -0.055291 -0.248768 0.553705 1.007755 0.391036 -0.125315 0.749015 -0.309720 -0.200674 0.178292 -0.373255 -0.258144 0.150345 0.365624 -0.823714 0.011734 0.229456 -0.167985 -1.085411 -0.269261 -0.254736 0.560460 0.017544 -0.386985 -0.121271 0.305766 -0.605861 -0.267111 -0.697755 0.151329 -0.244936 0.238340 -0.016280 0.614565 0.177090 -0.282742 -0.064980 0.278903 0.297808 -0.474882 0.901365 -0.711440 0.104488 -0.540894 -0.807501 -0.384867 -0.957572 -0.098836 0.483396 -0.565836 0.263718 -0.183038 -0.024548 0.171104 -0.144524 0.045653 -0.162135 0.184110 0.383148 0.726946 -0.562087 0.045133 0.029066 -0.399183 0.561171 -0.695958 0.734707 -0.016282 -0.030287 0.279834 -0.079746 -0.517324 0.175037 0.051374 0.456796 -0.452804 -0.068004 -0.241651 0.454719 0.049010 0.124752 0.234626 -0.390250 -0.343143 -0.368660 -0.166757 -0.036567 -0.144378 -0.248318 -0.474350 0.446653 1.228550 
4020 -0.383545 0.218780 0.130248 -0.406515 -0.032321 0.271608 0.288132 0.100212 -0.684970 -0.026840 0.016247 0.567243 0.088746 0.260286 -0.177206 -0.107335 0.274328 0.040894 -0.269740 0.256662 -0.067568 -0.106977 -0.218097 0.872074 0.521389 -0.427340 -0.747263 0.908695 0.049607 0.398492 -0.253194 0.252429 0.708674 -0.434369 -0.164375 -0.305650 0.107783 0.579594 0.018881 -0.223722 -0.057848 -0.310813 0.120134 0.332648 -0.022430 -0.114153 -0.296741 0.303551 0.610530 0.491795 -0.264638 0.847716 -0.753043 -0.467545 -0.297220 0.339784 0.120580 0.620481 0.078204 0.190862 0.546835 0.062555 -0.148067 -0.503748 -0.454603 -0.035639 0.358558 0.068627 -0.495180 -0.395494 0.451581 0.492050 -0.801590 -0.031542 0.716629 -0.804235 -0.025135 -0.348808 -0.127220 -0.110878 0.533548 0.234966 -0.027622 -0.036636 -0.479475 0.406616 -0.255074 -0.055581 0.112509 0.647400 0.578504 0.176510 -0.366739 0.038136 -0.563046 0.404107 -0.529941 -0.352224 0.865003 0.215638 
3995 0.316338 0.847205 0.174298 0.174013 0.354094 -0.011485 -0.124412 -0.206715 -0.054562 0.243515 0.489362 0.533658 0.001791 0.371652 0.072629 0.092824 0.287521 -0.154224 -0.717640 -0.309797 -0.120593 -0.572945 -0.537146 -0.170387 -0.684730 0.369198 -0.459508 0.040830 -0.145267 -0.275258 0.280078 0.380535 -0.509306 0.307176 -0.014804 0.030668 0.320332 0.076984 -0.423338 -0.565618 -0.221085 0.219860 0.273759 -0.180868 0.311204 0.801935 0.607190 0.317934 -0.301615 -0.295733 -0.328866 -0.091493 -0.067886 -0.233902 -0.693922 -0.459865 0.298207 0.100983 -0.348984 0.272056 -0.270073 0.216026 -0.523275 -0.424904 -0.022215 0.062863 -0.138902 0.217852 -0.663243 -0.066188 0.461850 -0.079014 0.334241 0.389896 0.967802 -0.388364 0.806365 0.307731 -0.020042 0.004919 0.546933 -0.288958 -0.270648 0.255672 0.273586 -0.194305 0.828286 0.549654 0.257714 0.198125 0.610768 -0.261251 -0.597348 0.205380 0.429234 -0.523352 -0.758692 -0.549649 0.023168 0.689147 
3993 -0.353507 0.729566 -0.079798 0.195865 0.504859 0.605950 -0.121583 -0.102276 -0.553921 0.123503 0.503000 0.469945 -0.100288 0.744977 -0.706550 0.144305 0.322703 -0.475960 -0.211155 -0.121465 0.402001 -0.005342 -0.191928 0.428394 -0.575006 0.037289 -0.639966 0.352862 -0.482121 -0.029044 0.022811 0.712548 0.143355 0.093295 -0.311675 -0.466844 0.379702 0.706008 -0.445333 -0.358271 -0.231463 -0.185147 0.403423 0.644250 0.232382 -0.034099 -0.160659 0.501581 0.642448 0.093004 -0.302566 0.186577 -0.092539 -0.539686 -0.476433 -0.273137 -0.410442 0.633759 -0.251654 -0.134895 0.135339 0.491428 0.072930 -0.425069 0.057728 -0.394636 0.033359 0.835187 -0.644730 -0.422706 0.601986 0.104231 -0.865670 0.309178 1.003220 -0.713233 0.207749 -0.051332 -0.274737 -0.079679 0.708978 -0.146131 0.407038 0.343148 -0.358312 -0.372153 0.640384 0.599022 -0.055741 0.761231 0.651755 0.384272 -0.420569 -0.150034 0.197743 -0.140724 -0.585260 -0.325610 -0.255335 0.369127 
3986 0.275705 0.275474 0.051967 -0.284471 -0.291160 -0.181214 -0.374277 -0.878250 0.047968 -0.169932 0.136648 0.723950 -0.131682 0.268576 0.442127 -0.630601 -0.055705 -0.257285 -0.416291 -0.095409 0.208471 0.731206 -0.628291 -0.108044 -0.036719 -0.223030 -0.471246 0.072052 -0.309342 0.133296 0.098447 0.107946 -0.101214 -0.147676 0.194752 -0.152597 -0.122014 -0.404752 0.072227 -0.205800 0.283554 0.254560 -0.059504 -0.022698 -0.030725 0.441897 0.610209 -0.022764 0.476282 0.135242 0.101103 -0.242203 -0.616300 0.368364 -0.191176 -0.512703 -0.052321 -0.216251 0.067274 0.191814 0.538097 -0.153456 -0.407275 -0.068585 -0.356982 0.260835 0.044154 0.618273 -0.786241 0.059842 -0.109630 0.108817 -0.078158 -0.232402 0.328380 -0.162502 -0.014770 0.188819 -0.262987 -0.265350 1.027910 -0.250222 0.102214 -0.082405 0.387755 -0.362749 0.591847 -0.586569 -0.222021 0.582127 -0.246185 0.078996 -0.678345 0.319057 -0.109977 -0.093077 -0.645186 -0.385948 0.416474 0.817242 
4017 0.075686 0.374024 0.318249 0.210687 -0.250088 -0.708041 -0.036984 -0.499099 0.393533 -0.234679 0.262582 0.587814 0.186975 0.202681 0.148517 -0.421151 -0.254139 -0.374133 -0.582873 -0.493709 -0.173511 -0.555174 -0.550781 0.301592 0.272345 -0.559604 0.064407 0.024919 -0.440160 -0.080815 0.143862 0.184585 -0.035029 0.082034 -0.013968 -0.383162 0.389506 0.130094 -0.504580 -0.711289 0.204839 0.127840 -0.190930 0.214255 0.423951 0.308242 0.220403 -0.295882 0.316787 0.425267 0.392796 0.168758 -0.390908 0.140952 0.126117 -0.867036 0.055954 0.158938 -0.254219 0.383727 0.435291 0.108932 -0.191499 -0.227777 -0.135809 -0.419812 0.188926 0.449555 -0.273912 -0.127694 0.055569 -0.347375 0.277779 0.449776 0.136144 -0.726362 -0.155649 -0.156802 -0.325533 -0.234559 0.827641 -0.228073 -0.282618 -0.043024 0.614586 0.260840 -0.335373 -0.444995 -0.069080 0.558972 -0.315040 -0.273612 -0.415533 -0.106750 -0.075586 0.310746 -0.699494 -0.439936 0.683296 0.977044 
3983 0.443801 0.600275 0.080445 0.150291 -0.156566 0.148437 -0.693202 -0.063621 -0.452936 0.092581 -0.049512 0.579006 -0.388158 -0.335686 -0.173492 -0.553211 0.011735 0.036092 -0.522753 0.320154 0.299773 0.772533 -0.104829 -0.167058 -0.238140 0.220323 -0.756800 -0.123302 -0.193992 0.438307 -0.061963 0.043005 0.588159 0.613114 -0.020797 -0.051463 -0.491100 -0.393463 0.062098 0.004335 0.614142 -0.353467 0.267152 -0.093962 0.162949 -0.183892 0.333860 -0.226112 0.272794 -0.123484 0.468986 -0.686648 -0.517441 -0.011233 -0.515553 -0.291309 -0.108523 0.396710 0.533563 0.300419 0.270351 0.324294 -0.472402 -0.495000 -0.580441 0.270487 0.199029 0.651293 -0.769795 -0.294270 -0.270327 0.013549 -0.639837 -0.720872 0.553233 -0.256949 0.464188 0.224363 -0.276781 -0.552026 0.877397 -0.201012 0.389328 -0.140469 -0.096408 -0.557535 0.449814 0.067056 0.401721 0.192700 0.334523 -0.377611 -0.691799 -0.314249 0.302292 0.265377 0.141531 0.281118 0.434052 0.312180 
3994 -0.398040 -0.057553 -0.427469 0.104513 -0.013334 0.615541 -0.005784 -0.338582 -0.127279 0.045513 0.600722 0.897618 0.643417 0.183285 -0.361527 0.460229 -0.535502 -0.034638 0.056340 -0.160561 0.350379 -0.092904 -0.271101 0.728135 -0.327181 0.340303 -0.032582 0.083169 -0.463652 0.382291 -0.307852 -0.304370 0.035199 0.284094 -0.094676 -0.099472 -0.052735 -0.340910 -0.018806 0.327834 0.172512 -0.085142 0.279134 0.458262 -0.049160 -0.252275 -0.318501 0.168338 0.283200 -0.022139 0.306296 0.211027 -0.324262 0.226471 -0.505015 0.064846 -0.021276 -0.185585 -0.095632 -0.592047 0.319700 0.353294 -0.524079 0.101948 -0.482427 0.359340 -0.338691 1.002505 -0.506619 -0.145296 -0.160347 -0.238748 0.063444 0.216176 -0.011165 -0.337255 -0.013254 0.009145 0.269057 0.018793 -0.239366 0.245201 0.004158 0.214229 -0.303345 -0.411776 0.085439 0.128381 0.655099 -0.353730 -0.464975 0.094267 -0.604538 0.202913 0.245193 0.019591 -0.185635 0.188575 0.181769 0.134057 
3999 -0.314398 0.299018 -0.409429 0.601016 -1.092148 0.397716 -0.093882 0.178205 -0.194394 -0.596959 0.193068 0.827970 0.011597 -0.530625 0.125519 -0.339136 -0.476657 0.168574 -0.527717 -0.169181 0.125437 -0.196011 -0.526389 0.320602 -0.191222 -0.590052 0.256695 0.081639 -0.660144 0.112264 -0.691888 -0.612775 0.700592 0.508360 -0.580635 0.618943 -0.631295 -0.488065 -0.660809 0.052850 0.020340 -0.203139 0.244315 -0.051443 0.466766 -0.658711 -0.014736 -0.184253 -0.076081 0.130345 0.400837 -0.437409 0.062705 0.652844 -0.547716 -0.216909 0.783078 0.906820 -0.159758 0.006003 0.129786 -0.212579 -0.699439 0.042582 -1.243943 0.493519 0.324848 1.014415 0.175078 -0.609246 0.758577 -0.576627 -0.483561 -0.100070 0.591316 -0.309459 -0.283542 0.457976 -0.942767 -1.105831 0.235495 -0.385793 0.099791 -0.005714 0.069117 0.347465 -0.003566 -0.449653 0.258920 -0.118057 -0.062570 -0.199572 -0.558839 -0.648179 -0.571651 0.183958 0.511552 0.201114 0.292225 0.269065 
4005 0.369697 0.586833 0.182298 0.738816 -0.637329 0.132779 0.039505 0.210185 0.016420 0.268654 0.627560 1.096545 -0.219584 -0.321555 0.019225 0.144733 -0.037748 0.603850 0.351404 -0.151360 -0.499884 -0.055471 -0.242682 0.503581 0.174784 -0.287761 -0.223537 -0.392450 -0.216774 0.226986 -0.317986 -0.045291 0.182010 0.253316 -0.605653 0.587452 -1.046638 -0.542257 -0.532424 -0.083714 -0.108499 -0.263953 -0.297742 0.297088 0.321305 -0.515558 -0.414301 -0.136748 0.495608 -0.146753 -0.105948 -0.274081 0.168331 -0.192296 -0.295315 -0.393289 0.459446 0.584791 0.447638 -0.034538 0.379715 0.250593 -0.501638 -0.374525 -0.615036 0.625870 0.416815 1.007374 -0.320779 0.064726 0.087993 -0.994687 -0.565653 0.281284 0.146082 -0.369697 -0.275744 0.480925 -0.504826 -0.576883 -0.173213 0.021599 0.317859 -0.080125 -0.093888 -0.383951 -0.241720 -0.313251 0.309258 -0.253278 -0.730236 -0.997696 -1.010539 -0.154816 0.123378 0.394704 0.427613 0.041491 0.698934 0.278438 
4009 0.065789 -0.347354 -0.411630 -0.321660 0.102210 0.168871 -0.370851 -0.292858 0.045583 -0.361665 0.599137 0.661630 0.975535 -0.192264 -0.018435 -0.298803 -0.587358 0.043636 0.159990 -0.328184 0.259660 0.555057 -0.177807 -0.034318 0.287291 0.121839 -0.403018 0.496882 -0.631625 0.639237 0.131574 0.286701 0.073054 0.149586 -0.520844 0.021968 0.290071 -0.642757 0.121747 0.379346 -0.163724 -0.334020 0.151532 0.310361 0.293818 -0.512375 -0.005165 0.207309 0.318627 0.109410 -0.089441 0.193330 0.237876 -0.271221 -0.625870 -0.586409 0.003867 0.311129 -0.031499 -0.745389 0.207762 0.626917 -0.366088 0.322663 -0.152159 0.232641 0.511678 0.433050 0.144402 -0.096416 -0.122643 -0.620877 -0.376299 0.109485 0.474582 -0.131930 0.437448 0.218621 -0.069926 -0.048555 -0.064851 0.366929 -0.060390 0.087213 -0.224989 -0.654481 -0.025713 -0.059901 0.436226 0.344810 0.036476 -0.068946 -0.447737 0.212561 0.484023 -0.321171 -0.362627 0.307236 0.284598 -0.477952 
3991 0.456464 0.326086 -0.326764 -0.053942 0.426363 0.060993 -0.273038 -0.432615 -0.866799 0.285138 -0.082882 0.668644 -0.001284 -0.304612 -0.193941 -0.107644 -0.093058 0.193656 0.090903 -0.038860 -0.171653 -0.113060 -0.377111 0.599374 -0.008793 -0.434677 -0.241197 0.159628 -0.359139 -0.102585 0.074005 -0.032940 0.544234 0.961153 -0.466479 -0.030628 -0.457761 -0.569230 -0.221261 0.364126 -0.199651 -0.006547 0.098495 0.026242 0.146267 -0.077052 0.203931 0.492098 0.499939 0.025327 -0.083028 0.380014 -0.326233 0.203464 0.017682 0.048231 0.593122 0.195081 0.033203 0.099231 1.123037 0.463950 -0.692380 -0.409611 -0.047203 0.129903 0.665982 0.064782 -0.190413 -0.107045 0.469298 -0.958445 -0.046930 0.135584 0.794260 -0.167696 0.388784 -0.365188 -0.326772 -0.702082 0.218789 -0.035889 -0.242345 -0.145089 0.157206 0.349117 -0.111066 0.584310 0.218863 0.678088 -0.015598 -0.155328 -0.142051 -0.268829 0.057636 -0.044866 -0.371944 -0.676481 0.418946 0.896265 
3989 0.669153 0.641924 0.130801 0.580493 -0.833187 -0.241567 -0.347950 -0.119218 -0.311027 -0.071230 -0.038931 0.320370 -0.649575 -0.635389 0.007553 0.798759 -0.180137 -0.510675 -0.382330 0.558838 0.466414 0.016532 -0.373025 0.134516 -0.189890 -0.421813 -0.476467 0.039609 0.282273 0.262018 -0.460581 -0.436190 -0.073231 0.761333 -0.307905 -0.201027 -0.212934 0.603969 -0.195082 -0.095575 -0.099491 -0.053189 0.378511 0.316009 0.523375 -0.314317 0.213996 0.023391 0.252959 -1.024601 0.791954 0.490185 -0.511161 -0.022084 -0.690583 -0.472489 0.589150 0.701092 0.791835 -0.056071 0.229999 0.296689 -0.164462 -0.548586 -0.580937 -0.253771 0.534789 0.426108 0.008029 -0.217040 0.001609 0.128336 -0.852858 0.152691 0.903714 0.218990 0.507186 0.023269 -0.881516 -0.020251 0.456784 0.348065 0.281584 0.682532 -0.381867 -0.273017 -0.400768 0.460840 0.390275 -0.192856 0.073907 -0.596725 -0.633799 -0.566103 0.369402 0.240105 -0.548875 0.089768 0.931516 -0.189651 
4011 0.658204 0.549969 -0.644256 -0.041841 0.117561 -0.335282 -0.599208 -0.686542 -0.681429 0.073990 -0.210840 0.549831 -0.181326 -0.855893 -0.235803 0.360398 -0.145523 -0.030696 -0.146780 0.172009 -0.323193 -0.248242 -0.339753 0.479439 -0.031588 -0.725800 -0.211119 0.029985 -0.257666 0.193789 0.103423 -0.288875 0.752033 1.000906 -0.612486 -0.155935 -0.337091 -0.458586 -0.434724 0.141401 -0.066469 -0.281593 0.322249 -0.074807 0.115512 0.064108 0.371747 0.536778 0.489625 -0.442243 0.362401 0.986221 -0.781681 0.183465 0.200117 -0.480595 0.906652 0.341078 0.289465 -0.108863 0.872638 0.202870 -1.052560 -0.143007 -0.163306 -0.187873 0.780574 -0.196253 -0.030330 -0.273730 0.149193 -0.721099 -0.015309 0.255991 0.462428 0.153949 0.491005 -0.597477 -0.305805 -0.747138 0.174065 0.097312 -0.393121 -0.224427 0.258772 0.235190 -0.701936 0.576234 0.266939 0.625139 -0.322208 -0.353831 -0.264343 -0.437438 0.366467 -0.101386 -0.230564 -0.282920 0.674588 0.577072 
3992 0.307474 0.706846 0.152845 0.239549 0.031240 -0.128868 -0.883810 -0.366857 -0.344760 0.491356 -0.116603 0.950829 0.011525 -0.093379 -0.362297 -0.866948 0.025877 -0.114763 -0.545137 0.340659 0.370892 0.444499 0.027970 -0.394861 -0.530339 -0.101526 -0.345742 -0.345037 -0.176845 0.412678 0.114240 0.090447 0.141781 0.731505 0.223401 -0.300426 -0.505007 -0.223825 -0.132617 -0.303145 0.324049 -0.104203 0.534545 -0.073994 0.413972 -0.009909 0.720711 -0.176249 0.372259 -0.156194 0.537217 -0.857309 -0.719055 0.064485 -0.403958 -0.555746 0.167042 0.363766 0.466244 0.495560 0.358478 0.554338 -0.921679 -0.493451 -0.584071 0.101595 0.020942 0.563273 -0.859611 0.018010 -0.255317 -0.262895 -0.100360 -0.558251 0.627183 -0.310638 0.510090 0.139507 -0.048426 -0.537317 1.121829 -0.302826 0.033318 -0.224375 0.195355 -0.593883 0.625422 0.071316 0.434086 0.327553 0.102947 -0.075005 -0.630254 -0.226526 0.598259 -0.093526 -0.140035 -0.073252 0.309900 0.645632 
3981 0.236128 0.194749 -0.410128 0.361377 0.298036 0.249604 0.073387 0.243078 0.233988 0.131870 0.582548 0.766818 0.661705 -0.208320 -0.265879 0.245608 -0.231925 0.314354 -0.194467 -0.175655 0.092506 -0.535495 -0.039319 0.733617 -0.157428 0.372148 -0.108297 0.084623 -0.743308 0.457353 -0.118722 0.025601 0.427060 0.238895 -0.491558 0.274812 -0.556875 -0.839636 -0.213155 0.107019 0.046974 -0.384215 0.566362 -0.066382 0.340930 -0.397789 -0.173194 0.089032 -0.513348 -0.355504 0.323135 -0.141851 0.066951 -0.144659 -0.750967 -0.283194 0.269263 -0.072327 -0.116000 -0.081323 0.185866 0.255951 -0.560826 -0.016166 -0.454374 0.369803 -0.331436 0.435496 -0.493347 -0.289476 0.294657 -0.872603 -0.006341 0.559427 -0.041563 -0.312095 0.429610 0.162418 0.260736 -0.404693 -0.217442 -0.061349 -0.344252 -0.035963 0.132421 -0.565595 -0.176049 0.603698 0.629350 -0.461307 0.084366 -0.507712 -0.081285 -0.294118 0.183387 0.307351 0.232834 0.735989 0.077776 -0.055769 
4000 0.382567 0.551312 0.280295 0.517664 -0.218047 -0.100922 -0.436006 -0.268357 -0.095217 -0.433049 0.117646 -0.116127 -0.669907 -0.075816 0.090326 -0.221280 -0.116696 -0.468497 -0.593663 -0.156242 0.052389 0.335592 -0.456127 0.327959 -0.049908 0.299502 -0.347802 0.036781 -0.562351 -0.164248 -0.009979 0.273842 0.700983 0.327226 -0.011225 -0.244303 0.355439 -0.295353 -0.132358 -0.273080 0.776120 -0.264980 -0.280937 0.229625 0.031985 -0.086466 0.139761 -0.088652 0.327882 0.184276 0.511499 0.181326 -0.328188 0.290933 0.140531 -0.753632 -0.746654 0.298578 0.108796 0.510917 0.534345 0.019870 0.400409 -0.397932 -0.045825 -0.334105 0.105204 0.652942 -0.597713 -0.468263 -0.237429 0.167315 -0.591735 -0.066725 0.110445 -0.633348 0.001849 -0.141160 -0.711821 -0.471152 1.152513 -0.373944 0.380356 0.084815 0.489087 -0.383603 -0.148176 -0.127002 -0.041591 0.613449 0.173972 -0.360938 -0.432979 -0.388292 -0.070831 0.695479 -0.223857 0.250917 0.506781 0.654404 
3985 0.156054 0.434036 -0.110213 0.060634 0.537465 -0.012761 -0.111136 -0.014880 -0.060219 0.145627 0.438744 0.272587 -0.393782 0.472843 0.135124 -0.019446 0.342478 -0.048833 -0.456997 -0.200899 0.288238 -0.210533 -0.619890 0.317706 -0.425227 0.268916 -0.960837 -0.047496 -0.402990 -0.142635 0.241608 0.746180 -0.112886 0.708683 -0.781698 -0.255783 -0.296713 0.581381 -0.890938 -0.260505 -0.391734 0.162316 0.189343 -0.021061 0.032649 0.120437 0.150029 0.058576 0.432723 -0.877062 -0.205972 -0.112435 -0.433501 -0.685759 -0.442689 -0.268763 -0.280697 -0.132007 -0.170450 0.105457 -0.066245 0.325004 0.438427 -0.665356 0.590883 -0.517581 -0.114419 0.507672 -0.525956 -0.235040 0.748420 -0.618923 -0.268226 0.326112 0.871155 -0.327517 0.175158 0.087986 -0.120574 -0.594471 0.607512 -0.479689 0.544914 -0.363115 0.023279 -0.392508 0.563183 0.870336 -0.344518 0.658675 0.415991 -0.177002 0.219891 -0.696280 -0.093042 0.048897 -0.300074 -0.172620 -0.267135 1.357638 
594 0.639813 0.742033 0.187488 0.400879 -0.037617 -0.205894 0.065947 -0.491103 -0.811472 0.110706 -0.373244 0.596292 -0.621581 -0.685329 -0.095729 0.085416 -0.044776 -0.091196 0.152844 -0.132819 0.307819 -0.171942 -0.419168 0.686649 -0.209587 -0.872583 0.313455 0.352536 -0.049508 -0.258087 -0.260854 0.001677 0.468367 0.944112 -0.348991 -0.281442 -0.378729 -0.375013 0.059806 0.503239 -0.328405 0.249433 0.310527 0.067462 0.468216 -0.277989 0.202725 0.527911 0.549704 0.064535 0.363450 0.112099 -0.151650 0.250173 -0.139883 0.214286 0.586168 0.340127 0.346774 0.342074 0.969152 0.626936 -0.763717 -0.822857 -0.414223 0.215672 0.720375 -0.094642 -0.225238 -0.073405 0.525709 -0.844298 -0.206071 0.415184 1.319425 -0.212231 0.465187 0.031803 -0.656359 -0.698105 0.681397 -0.011348 0.077926 0.449442 -0.049352 0.306408 0.188266 0.375871 0.416538 0.397212 0.027820 -0.119054 -0.279443 -0.295584 -0.357755 0.190025 -0.387419 -0.919145 0.419055 0.739563 
3996 0.346415 0.416263 -0.000275 0.370399 -0.071638 -0.424898 0.611319 0.222298 0.381899 -0.328327 -0.311694 0.611841 0.272747 -0.428642 0.676699 -0.429608 0.630429 0.289230 -0.459287 0.049461 -0.286667 -0.444109 -0.293613 0.594506 0.495152 -0.027604 -0.451086 1.007418 -0.598357 1.209044 -0.046535 0.376201 0.484915 -0.077046 -0.707641 -0.029527 -0.414159 -0.443291 0.105016 -0.326502 -0.281290 -0.450430 0.560867 -0.599418 0.048596 -0.452624 0.476868 -0.513160 -0.332599 -0.040802 -0.127795 0.745845 -0.462460 -0.088554 -0.891931 -0.629083 0.488954 0.278445 0.219750 0.337637 0.468543 0.152433 -0.181803 -0.440282 -0.528838 -0.004898 0.703712 -0.119964 0.109129 -0.031483 0.581028 -0.176304 -0.819923 0.607766 0.424168 -0.513159 0.332446 -0.028415 -0.429226 -0.565320 0.306532 -0.109636 -0.047522 -0.343188 0.322223 -0.651464 -0.843435 0.394336 0.321856 0.644999 0.446805 -0.269342 0.049722 -0.663825 -0.821701 0.591267 0.258175 0.509960 0.991390 -0.115019 
4029 0.631528 0.874612 0.005971 1.176592 -0.093801 -0.072272 -0.138828 0.298360 0.120024 0.104667 -0.140217 0.982750 -0.532660 0.094322 -0.188618 -0.344136 -0.016311 0.152570 0.001107 0.171577 0.299411 -0.220909 0.028595 -0.019191 0.004805 -0.030063 0.249344 0.007381 -0.149102 0.280691 0.051157 -0.458911 0.418567 0.914290 -0.700739 -0.345277 -0.566835 0.314892 -0.484513 -0.089558 -0.052039 -0.261473 0.076344 0.003789 0.593278 -0.395693 0.388205 0.047947 -0.181691 -0.124520 -0.134318 0.284519 -0.614430 0.532543 -1.001785 -0.778874 0.128621 0.133951 -0.426938 0.550015 0.759335 0.168317 -0.729875 0.095807 -0.282303 -0.294137 0.174941 0.186328 -0.508891 0.145799 -0.007946 -0.115588 -0.624944 -0.204314 0.847939 -0.693733 0.084640 0.008044 -0.316578 -0.283001 0.277300 -0.144386 -0.436255 -0.421438 0.134516 0.161263 0.123231 0.409455 0.225493 0.640747 -0.324649 -0.396798 -0.890199 -0.773879 0.228946 0.534586 0.228125 0.195726 0.640844 0.229779 
4001 0.054852 0.744557 -0.382978 0.919386 -0.173255 -0.250856 0.053505 -0.134427 -0.521366 0.335589 -0.459070 0.218469 -0.302359 -0.647002 -0.392033 -0.239895 0.476483 0.103870 0.020536 0.222971 0.198560 -0.252257 -0.451953 0.568166 -0.254267 0.225561 -0.377000 0.172639 -0.100955 0.239882 -0.198686 0.444572 0.127079 0.751413 -0.365715 -0.858230 -0.444107 -0.616464 -0.385325 -0.172926 -0.350011 -0.387268 0.548152 -0.087895 0.072025 -0.421746 -0.055297 0.310457 0.135228 0.026961 -0.465082 -0.172057 -0.295426 0.125462 -0.232894 -0.866078 -0.214567 0.113794 0.300932 0.755028 0.943959 -0.067644 -0.433657 -0.134288 -0.756740 -0.275749 0.841849 0.843745 -0.009339 0.032617 0.354524 -0.670696 -0.569419 0.073200 0.151031 -0.394153 0.299677 0.188462 -0.078147 -0.427762 0.160260 -0.325919 -0.138019 0.382283 -0.010747 -0.029984 -0.378563 -0.197198 -0.003430 0.187198 0.059352 0.061575 -0.945013 -0.298439 0.462847 0.383820 0.182570 0.153805 0.769605 0.688478 
4025 0.348522 0.670011 -0.072134 0.945567 0.188060 0.538012 0.055946 -0.385372 0.141507 0.321430 0.135367 0.726809 -0.117585 0.518433 -0.418759 -0.363499 -0.054543 -0.496943 -0.053694 0.090325 -0.436288 -0.163238 -0.299609 0.568787 0.116944 0.296752 -0.350692 -0.076577 -0.928664 0.530960 0.608715 0.370117 0.150284 0.755422 0.100821 0.504689 -0.020914 -0.541349 -0.133170 -0.406267 -0.378520 -0.025497 0.641634 -0.348027 0.373373 -0.270470 0.697289 -0.442717 -0.182306 -0.012707 -0.221272 -0.361424 -0.556139 0.769454 -0.275947 -0.775678 0.115746 0.355626 0.218052 -0.470282 0.949989 0.263203 -0.107020 -0.174659 -0.016503 0.351656 0.531335 1.431031 0.318236 -0.474053 0.472943 -0.191704 -0.367332 -0.458083 0.592173 -0.215579 0.315973 -0.393000 -0.467374 0.069540 -0.028437 0.054315 0.119747 0.220055 -0.145585 -0.492242 0.155361 0.788342 0.027249 0.631262 0.420295 -0.584754 -0.176553 -0.538954 -0.261666 0.034963 0.319103 -0.166619 0.047014 0.679954 
4016 0.294630 0.126809 0.425412 0.874889 -0.013228 0.360426 0.004939 -0.181596 -0.079537 -0.289329 -0.234673 0.809414 -0.041975 -0.000636 -0.491890 -0.018314 0.101025 -0.211295 -0.443736 0.132263 0.236835 0.126968 -0.111673 0.265965 -0.355395 0.308234 -0.635037 0.047261 -0.769840 0.415211 0.112476 -0.205151 -0.370662 0.813787 -0.287124 0.230998 -0.489496 0.488379 -0.212143 -0.149665 -0.233332 0.157378 0.210483 0.037918 0.209816 0.118082 0.789242 -0.917291 0.306494 0.040543 -0.056669 -0.217746 0.027599 0.724206 -0.393002 -0.317805 0.631641 0.809163 -0.114005 -0.400626 0.962599 0.703549 0.093540 -0.912541 -0.129789 -0.015955 0.347940 1.231813 0.461347 -0.479218 0.464792 -0.259463 -0.346121 0.273567 0.096521 -0.209734 0.269499 -0.318086 -0.900488 -0.582972 -0.149949 0.026906 -0.071170 -0.266823 0.133035 -0.390735 -0.127309 0.778646 0.325247 0.365620 0.066408 -0.473364 -0.405886 -0.512201 -0.039370 -0.249261 0.194455 -0.464277 0.113141 0.807939 
4034 0.267374 0.392257 -0.252206 0.118639 -0.036860 0.304429 -0.208597 -0.191445 -0.350139 -0.063751 0.536859 0.745618 0.495613 -0.184892 -0.234274 0.344276 -0.293066 0.042246 -0.407931 -0.355112 -0.259904 -0.456627 -0.311028 0.277563 0.109566 0.121722 -0.633355 0.219727 -0.149141 0.231411 0.071439 0.051704 -0.179690 0.385371 -0.132257 0.326452 0.022180 -0.393576 -0.052958 -0.155249 0.062209 -0.363790 0.320671 -0.196967 0.248421 0.187716 0.040797 0.065842 -0.114490 -0.207657 0.043531 0.192735 -0.131432 0.013020 -0.614354 -0.141494 0.412405 0.201073 0.063647 -0.300694 0.348600 0.441555 -0.550784 -0.133891 -0.364997 0.240244 0.247026 0.467210 -0.412513 -0.124114 0.394116 -0.441481 0.055859 0.204746 0.799752 -0.320337 0.889453 -0.061238 -0.053648 -0.037087 0.172090 0.199606 -0.195613 0.236669 -0.064126 -0.152916 0.159106 0.375679 0.847867 -0.364768 0.454732 -0.532263 -0.710109 -0.004637 0.504136 -0.169422 -0.634361 -0.029876 0.581511 0.134048 
3990 0.012808 0.374317 0.220406 0.823841 -0.112524 0.027470 0.333768 -0.273647 0.246351 -0.128336 0.149000 0.509700 0.357775 0.092973 -0.631769 -0.366635 0.277070 0.102507 0.229009 -0.127724 -0.012712 -0.253459 -0.694247 0.097752 -0.568647 0.139647 -0.717991 -0.306639 -0.280117 0.742981 0.107011 0.378108 -0.045222 0.653900 -0.167675 0.254623 -0.364359 -0.525012 -0.018483 -0.549497 0.119509 -0.332732 0.353998 0.073406 0.379735 -0.052577 0.662859 -0.598819 -0.075709 -0.547440 0.051969 0.447022 -0.361820 0.673723 -0.442832 0.229403 0.188219 0.754101 0.555735 -0.537472 0.919521 0.515521 -0.320338 -0.643175 -0.050877 0.096406 0.600283 1.025498 0.191931 -0.250339 0.603448 -0.587458 -0.566812 -0.140418 0.674845 -0.495142 0.305300 -0.101309 -0.751233 0.092403 0.260955 -0.107269 -0.094755 -0.081175 0.014475 -0.407565 -0.368479 0.642981 -0.303696 0.658668 0.206553 0.105624 -0.573997 0.089183 -0.100186 -0.487203 0.229136 -0.040758 -0.343799 0.649992 
4036 0.353871 0.572646 0.246596 0.696080 -0.530005 -0.011239 -0.073359 -0.305872 0.108073 0.272461 0.262601 1.062972 -0.106625 -0.374584 0.252256 -0.025704 0.128466 0.460126 0.105505 -0.098431 -0.607933 -0.130034 -0.421319 0.410827 0.040746 -0.241610 -0.326283 -0.280158 -0.087322 0.524623 -0.068892 0.058507 -0.230387 0.599736 -0.367523 0.449723 -0.946005 -0.447081 -0.404956 -0.315614 -0.239725 -0.243801 -0.157358 -0.209916 0.259517 -0.292160 0.195984 -0.192835 0.294497 -0.476619 -0.255638 0.150613 -0.490183 0.241273 -0.122303 -0.240292 0.509132 0.145394 0.489120 0.030694 0.559655 0.327381 -0.617007 -0.408813 -0.403402 0.283485 0.321339 0.822624 -0.310193 0.325765 0.220254 -0.925682 -0.154610 0.265824 0.352659 -0.281133 -0.007931 0.316733 -0.236321 -0.487629 0.128266 0.133415 0.209791 -0.399687 0.115790 -0.571465 -0.174773 -0.184929 0.407681 -0.255311 -0.708022 -0.613785 -0.791131 -0.212973 0.003012 0.197621 0.312279 -0.045174 0.813590 0.606241 
4033 0.144422 0.711245 0.207078 0.354409 0.107662 -0.698789 -0.446414 -0.017164 0.118489 0.341034 0.379614 0.954367 0.586806 0.137000 -0.817015 -0.651820 -0.159954 -0.226692 -0.605957 -0.263676 0.059131 -0.778469 0.207791 -0.030643 0.052659 -0.519139 -0.068632 -0.330419 -0.470068 0.328816 0.399441 0.343688 0.250409 0.549297 -0.007961 -0.513544 -0.030521 0.139994 -0.812637 -0.732166 0.354516 -0.393079 0.484962 0.362246 0.826127 0.042262 0.152755 -0.422607 0.294498 0.161769 0.722796 -0.751955 -0.286464 -0.540892 -0.050522 -1.012774 0.219315 0.611303 -0.064708 0.435946 0.295017 0.619479 -0.834570 -0.411855 -0.315850 -0.463188 0.127680 0.480431 -0.382765 -0.298770 -0.079149 -0.936989 0.389643 0.084457 0.307303 -0.910235 0.417821 -0.055222 0.131294 -0.535937 0.648593 -0.130402 -0.363751 -0.215338 0.207337 0.030242 0.018397 0.042059 0.496452 0.233588 0.180961 -0.422177 -0.436823 -0.403104 0.656977 0.271074 -0.274197 0.012437 0.410946 0.775269 
4007 0.498393 0.721467 0.187723 0.827094 0.212075 -0.034974 -0.124582 -0.307562 -0.050547 -0.116464 0.121221 0.779469 -0.226555 0.147827 -0.091172 -0.054709 0.492370 -0.513402 0.263848 0.295814 -0.240854 -0.301401 -0.148780 0.015763 -0.567222 0.170659 -0.251547 -0.153763 -0.857398 0.783441 0.492345 -0.092071 0.016530 0.832871 -0.654072 -0.358933 -0.699343 -0.024489 0.235890 -0.135268 -0.091334 -0.460768 0.542606 0.242190 0.384120 -0.061407 0.279206 -0.739074 -0.031892 -0.451592 -0.016055 -0.335732 -0.131338 0.573450 -0.411898 -0.433797 0.573838 0.566543 0.038733 -0.320907 0.663384 0.680477 -0.309119 0.245920 -0.144582 0.114271 0.221088 1.383303 -0.115172 0.133517 0.817938 -0.379814 -0.653293 -0.214538 0.521420 -0.013458 0.609975 0.023453 -0.302676 -0.085071 -0.102136 0.225025 0.505505 -0.075598 0.429521 -0.399491 -0.314718 0.615310 -0.193181 0.483227 0.044382 0.252522 -0.087631 -0.390433 -0.292470 -0.224288 0.012084 -0.397462 0.241368 0.681160 
4028 -0.251102 0.392487 -0.395632 0.565624 -0.059166 0.421722 0.053831 -0.187792 -0.550275 0.231923 -0.040375 1.163624 0.380097 -0.123238 -0.564840 0.221124 -0.097796 -0.108526 0.142562 -0.003902 0.081984 -0.408575 -0.277331 0.725113 -0.434475 0.040810 0.019090 -0.045831 -0.121845 0.731625 -0.266829 -0.597239 0.410797 0.620825 -0.051499 -0.468109 -0.329043 -0.162471 0.037036 0.331433 0.320846 -0.001388 0.814378 0.214257 -0.156731 -0.242098 0.108075 -0.296997 0.706740 0.135730 0.361764 0.143635 -0.911904 0.595126 -0.653180 0.066368 0.294870 0.118909 0.486547 -0.190270 0.791090 0.521254 -0.986348 -0.066850 -0.914922 0.297043 0.323650 1.209780 -0.585687 -0.091846 -0.202143 -0.140294 -0.032509 -0.385558 0.426944 -0.598067 0.028278 -0.378513 -0.078062 -0.201875 -0.249326 0.107811 -0.013022 0.168007 -0.070147 -0.261102 -0.279316 0.579866 0.914883 0.039626 -0.474643 0.020727 -0.765819 -0.137294 0.076169 0.115016 0.348194 -0.173549 0.421734 0.536421 
4012 0.754770 0.306286 -0.300325 0.746658 -0.300540 -0.170628 0.031935 0.143138 -0.490406 0.299262 0.325099 0.810717 -0.122922 -0.069458 0.001742 -0.051513 0.684378 -0.347618 0.203558 0.320229 -0.512911 -0.506040 -0.636053 0.312402 -0.461058 -0.848948 0.149368 0.045090 -0.348659 0.263380 -0.196769 0.109157 0.387054 0.752189 0.167486 -0.395260 -0.021498 -0.510957 -0.303779 -0.524839 0.298487 -0.259196 0.220637 0.339979 -0.067412 -0.087579 0.923948 -0.357639 0.336747 0.186466 0.117419 0.310520 -0.407219 0.132918 -0.386394 -0.144040 0.035804 0.160056 -0.189833 0.529736 0.468568 -0.025134 -0.528803 -0.529948 -0.381110 -0.530642 0.925741 0.883659 -0.129501 -0.591622 0.087306 -0.397325 -0.350987 0.395529 0.217413 -0.617576 -0.235905 -0.051070 0.042689 -0.639678 -0.107873 0.227594 -0.471152 0.197176 -0.243726 -0.613722 0.162325 0.598886 0.704196 0.463649 0.026491 -0.409573 -0.252172 -0.810080 -0.440595 0.515956 -0.140704 -0.018258 0.310210 0.058349 
3987 0.226881 1.100973 0.050215 0.262001 -0.042683 -0.077814 0.102378 -0.658020 -0.454788 0.435347 -0.683138 0.240382 -0.228827 -0.160188 -0.289853 -0.128731 0.385553 -0.530562 -0.111491 -0.200990 -0.025783 0.125521 -0.540357 -0.012238 0.261293 -0.137092 -0.305416 0.099888 -0.340622 -0.053245 0.125426 -0.402763 0.222485 0.873240 -0.005315 -0.114177 0.060183 -0.117335 -0.676108 -0.481846 0.323310 0.132150 -0.132323 0.233410 0.055415 0.376506 -0.019271 -0.639564 0.264739 0.000536 -0.408848 -0.173628 -0.720574 0.119851 -0.388474 0.145696 0.464856 0.001846 -0.089353 0.283407 0.323224 -0.110196 -0.560517 -0.453304 -0.996686 0.184935 0.246905 1.062336 -0.470887 0.505449 0.227594 -0.406030 -0.608134 -0.182772 1.007603 -0.376136 -0.230280 -0.284439 -0.746476 -0.988588 0.237273 -0.167571 0.422743 -0.471164 -0.079104 0.232698 0.127654 0.507622 0.570909 0.055131 0.321381 -0.340820 -0.974511 -0.423545 0.143239 0.345790 0.313763 -0.302488 0.589272 0.347705 
4006 -0.186826 0.600621 0.041176 0.364803 0.005929 0.272321 0.197901 0.369530 -0.059435 -0.096871 0.031793 1.095461 0.151295 -0.284935 -0.350700 -0.347330 0.179472 0.052608 -0.231319 -0.092082 -0.379944 -0.284763 -0.531920 0.348123 0.238441 -0.550181 -0.371673 0.110911 0.261558 0.478571 0.017684 -0.077946 0.458823 0.094815 -0.243184 -0.105475 -0.211360 0.442998 -0.088671 -0.507341 -0.229970 0.143577 0.281691 -0.164639 0.526279 -0.243778 0.179616 -0.327543 0.068391 0.530816 -0.037813 0.040874 -0.695702 -0.001994 -0.843661 0.399470 0.282954 0.440834 0.335541 0.233945 0.249658 0.405926 -0.572408 -0.050836 -0.702390 0.099348 0.312340 0.700003 -0.955581 -0.292490 0.560057 -0.056999 -0.669720 -0.210246 1.066115 -0.756178 0.077636 -0.219270 -0.267832 -0.066245 0.224440 0.058369 -0.134151 -0.140901 -0.074953 0.200791 -0.079580 -0.074032 0.555842 0.247990 0.005509 -0.612986 -0.747915 -0.119227 -0.328017 0.067363 -0.079344 -0.538015 0.498810 0.430963 
