150 100
650 0.374488 0.445560 -0.460898 0.426521 -0.032645 -0.187431 -0.128303 0.159798 -0.455082 -0.267390 -0.227975 0.624833 0.025324 -0.003527 -0.202828 0.191831 0.123369 -0.359800 -0.079480 0.132001 -0.302956 0.236739 -0.279499 0.189526 0.237968 -0.459838 0.258634 -0.406490 -0.194470 -0.290685 0.253241 0.184712 -0.407162 -0.196152 0.024863 0.034360 -0.033772 -0.384138 -0.027255 -0.463021 -0.430106 0.206699 -0.653730 0.157126 -0.080652 0.260462 0.262856 -0.753207 -0.026714 -0.032447 0.317483 0.059982 -0.452491 -0.035938 0.365224 -0.324631 -0.749052 -0.811761 0.442038 -0.035928 0.085014 -0.124593 -0.178108 -0.100351 -0.478600 0.094957 -0.618467 -0.625944 -0.354323 0.004365 0.641540 0.147880 0.224464 0.280058 0.014531 -0.489106 0.515127 0.013513 -0.038802 -0.429170 -0.428005 -0.606515 -0.051719 0.409167 0.338756 -0.333454 -0.142991 -0.247459 0.407720 -0.197986 0.209014 -0.155014 0.448571 0.949117 -0.613059 0.258172 0.190246 0.148862 -0.120702 -0.110225 
647 0.150178 0.962953 -0.093904 0.422518 0.009256 0.530860 0.315105 0.455018 -0.450589 -0.420816 0.132797 0.394206 0.042322 0.023981 -0.317930 -0.368667 0.196856 -0.315229 0.023708 0.265589 -0.042432 0.283796 -0.284056 0.146351 0.066406 -0.207411 0.175780 -0.006140 -0.251732 -0.128929 0.574310 0.717993 -0.674631 -0.085189 0.271147 0.006916 0.042855 -0.050880 -0.088390 0.015843 -0.554568 0.009972 -0.670004 -0.089981 -0.432991 0.470836 0.648686 -0.461606 0.577151 -0.066652 0.102433 -0.193269 -0.182696 -0.214316 0.592381 -0.269303 -0.448677 -0.671245 0.286172 -0.414493 0.289986 -0.005476 -0.489652 -0.318313 -0.808116 0.278718 -0.308114 -0.569437 -0.660197 0.636671 0.361420 -0.042714 -0.460751 0.369049 -0.094615 -0.394683 0.151237 0.298411 0.140313 -0.512329 -0.665283 -1.018646 0.180593 0.665468 0.471455 -0.203816 -0.519347 -0.134595 0.699309 -0.019634 0.401561 -0.280770 0.547413 0.429600 -0.363509 0.589541 -0.032019 0.173103 0.009315 -0.301576 
461 0.405082 -0.650290 0.292949 0.155888 -0.198844 0.098227 -0.038976 -0.437872 0.161469 -0.267232 0.475260 0.169905 0.183150 -0.374334 -0.275803 -0.065393 0.152362 0.115598 -0.722267 -0.237905 0.192577 0.623405 -0.363469 -0.076952 -0.156836 -0.686840 -0.449948 -0.201496 -0.511805 -0.309432 0.673885 -0.166933 -0.798557 -0.534447 0.769075 0.201007 0.351722 0.503581 0.387986 -0.222374 -0.262267 -0.472659 0.137895 -0.651624 -0.005886 0.258775 0.525990 0.051250 -0.056790 -0.779670 -0.018598 0.252150 0.642029 0.076281 -0.255829 0.435759 0.028028 -0.092328 -0.232704 0.007333 0.182952 0.452513 0.682356 -0.540276 -0.519994 -0.156602 -0.033568 -0.362582 0.391725 -0.371753 0.405233 -0.059117 -0.111221 0.473979 -0.224503 0.515803 0.015680 -0.740765 -0.820354 -0.143956 0.017745 0.276758 0.298274 -0.549122 0.602693 -0.449343 0.404960 -0.489087 0.626241 -0.501829 0.574594 0.386190 0.244325 0.343903 0.252554 0.221619 0.152346 -0.257293 0.129514 0.098487 
544 0.293367 -0.201204 -0.238216 0.678972 -0.057825 -0.501677 -0.616948 -0.024032 -0.049391 -0.524218 0.161419 0.052685 0.496962 -0.264475 -0.313631 -0.007180 -0.039212 -0.417627 -1.065718 0.570040 -0.346533 0.119545 0.037364 -0.111832 -0.480150 -0.480903 -0.187090 -0.187791 0.180375 0.296391 0.576200 -0.295596 -0.856007 -0.464285 0.143859 0.478889 -0.185781 -0.521828 0.370638 0.074166 -0.227725 -0.607610 -0.200991 -0.357605 0.673574 -0.053393 0.388848 -0.280008 0.753799 -0.176301 -0.322802 0.066202 0.028614 0.430565 -0.454025 0.585642 0.525032 0.395211 0.114715 0.290722 -0.264736 0.204908 0.801505 -0.221311 -0.089467 0.421385 -0.478358 -0.289535 0.027457 0.079785 0.078142 0.423807 -0.008665 -0.103467 0.171081 -0.394294 -0.001335 0.022513 -0.224598 -0.653368 0.141823 -0.299379 0.081905 -0.346291 0.392866 -0.254550 0.191830 -0.597147 0.666594 -0.005042 0.391437 0.474345 0.291587 0.499321 0.185921 -0.271420 0.594546 -0.299716 0.503801 0.401357 
614 0.419714 0.336105 -0.260079 0.335788 0.049415 -0.501052 -0.675505 -0.123735 0.049995 0.302160 0.587990 -0.102687 -0.076298 -0.299369 -0.114246 -0.183588 0.680543 -0.751013 -0.738228 -0.168869 -0.324883 0.549291 -0.097282 0.458855 -0.390260 -0.056324 -0.802766 -0.429344 0.105251 -0.469145 0.126091 -0.261280 -0.392655 -0.532918 0.838750 0.133477 0.154796 -0.230495 0.552175 0.454686 -0.377349 -1.174693 -0.492223 0.099128 0.194826 0.576246 0.034339 -0.031278 0.524757 0.117627 0.172699 0.441266 0.529485 0.089524 -0.145027 0.269059 0.637217 0.576568 -0.156559 -0.229451 -0.200879 0.183052 0.091154 -0.471061 0.404223 0.316248 -0.186621 -0.473659 0.000934 -0.097704 -0.237346 0.902426 0.270017 0.192034 0.101164 0.098624 -0.880532 0.010398 -0.857537 0.422522 0.174455 0.089983 -0.161819 -0.366819 0.237588 -0.277057 -0.676236 -0.078888 0.540406 -0.202426 0.639597 0.569370 -0.101614 0.572610 -0.145050 -0.284043 0.939188 0.402857 -0.156830 0.414154 
515 0.041483 -0.322593 0.183853 0.563549 -0.065582 -0.854617 -0.012713 -0.557914 0.171596 -0.351769 0.099143 0.068331 0.019352 0.196736 -0.037227 0.269179 0.468703 -0.032951 -0.341906 0.306548 -0.322273 0.607840 -0.158420 0.280133 -0.576195 -0.249330 -0.931215 -0.664098 0.271287 -0.628321 0.542927 -0.244727 -0.917710 0.113470 -0.401495 -0.024852 0.358685 -0.464662 0.160600 0.383618 -0.445380 -0.013159 -0.528982 -0.102615 -0.260026 -0.313414 0.207365 -0.699956 -0.067087 0.182309 -0.788987 -0.398299 0.268136 -0.115388 0.076970 -0.049693 0.982327 -0.198793 -0.176075 -0.120262 0.058695 0.323202 -0.476183 -0.800533 0.539453 0.214807 -0.301056 -0.449705 0.383894 -0.196977 -0.250634 -0.251802 0.190370 -0.375694 0.257032 0.719624 0.307339 -0.340284 -0.193739 -0.291364 0.475284 0.407501 -0.067568 -0.768860 -0.013272 0.500112 -0.096036 -0.622399 0.143150 -0.127331 0.682963 -0.083958 0.586465 0.499835 -0.554220 -0.317687 0.668640 0.319734 0.388090 0.167594 
363 0.157139 -0.328874 -0.017550 -0.174412 -0.323992 -0.404224 -0.632081 -0.061020 -0.367346 -0.480543 0.340101 0.674285 -0.077122 0.354714 0.395706 0.166884 -0.577407 0.340924 -0.702061 -0.077775 0.243848 -0.092964 -0.300366 0.203087 0.246556 -0.023471 -0.226981 -0.812883 -0.288825 -0.063853 0.476235 -0.724842 -1.168674 -0.423495 0.521698 0.066824 0.623032 -0.227510 0.704098 -0.576772 -0.886961 0.279931 0.195366 0.175049 0.389682 0.029990 0.020666 -0.474850 0.272264 0.145877 0.183336 0.233830 0.502470 -0.099631 -0.151587 0.189429 -0.046765 -0.390097 0.101348 0.176450 0.606120 0.485725 0.245312 -0.063460 -0.447191 0.415832 0.425024 -0.809897 0.311320 -0.218075 0.049339 0.277893 0.244789 -0.049528 -0.085041 -0.622634 0.228945 -0.155988 -0.227015 0.261455 -0.157813 -0.090237 -0.674180 -0.762123 0.650593 -0.070937 0.413513 -0.697590 -0.390234 -0.175190 1.023214 -0.216445 -0.093248 0.895680 0.276806 -0.241589 0.326092 0.083978 -0.213600 -0.096614 
348 0.559293 -0.244932 -0.268150 0.025035 -0.094023 0.138264 -0.246190 0.092157 -0.564381 -0.469897 0.692280 0.296316 0.138087 -0.115441 -0.116545 0.369801 0.502301 -0.433649 -0.791723 0.199074 -0.073041 0.388205 -0.407305 -0.100223 -0.301155 0.136085 -0.217214 -0.292835 -0.218479 -0.196666 0.209740 -0.139354 -0.402826 -0.211169 0.017678 0.465917 0.672566 -0.350213 0.676666 0.508571 -0.616924 0.198262 0.196550 -0.586341 0.125074 0.422034 0.172703 0.227179 -0.133644 0.220625 0.062577 -0.102110 0.594167 -0.172543 0.085555 0.455969 0.162916 0.118333 0.273496 0.218687 -0.332103 0.303172 0.211625 0.068185 0.455222 0.215916 -0.855780 -0.817904 0.302862 0.210747 0.308504 0.647708 0.535553 -0.082240 -0.019446 -0.144956 -0.929572 0.277694 0.590079 -0.588878 -0.259783 -0.491260 -0.163756 -0.320169 0.576375 0.347674 -0.230457 0.170684 -0.144633 -0.214260 0.901314 0.731229 0.030377 0.167070 0.398827 0.293854 0.178549 -0.231242 -0.020226 0.284178 
436 0.325570 0.201370 0.313311 0.305136 0.226349 -0.272317 0.241171 -0.074035 0.025753 -0.603552 0.302052 0.161037 -0.015383 -0.079053 -0.347711 0.178537 -0.204289 -0.428395 -0.576904 0.248793 0.209032 1.013633 -0.277009 -0.363149 -0.652153 -0.448222 0.214712 -0.109626 -0.562179 -0.514222 1.094546 0.019444 -0.735056 -0.087678 -0.038169 0.265682 -0.299341 -0.416775 0.743747 0.065633 -0.254155 -0.266500 0.052873 -0.008628 0.696902 -0.217004 0.137976 -0.088069 0.193810 -0.020316 -0.443657 -0.016330 -0.074112 -0.342815 0.396151 0.107195 0.156701 -0.299054 -0.206260 0.115257 0.028844 -0.055953 -0.237861 -0.822118 0.273767 0.050166 -0.303669 -0.260226 -0.510851 -0.434320 0.536097 0.679357 0.418508 0.530366 -0.221939 0.408825 0.044388 -0.015249 -0.393188 -0.515833 0.310665 -0.800903 -0.404177 -0.447893 0.370379 0.127566 -0.052674 -0.371212 -0.174870 -0.638121 0.392288 -0.238087 0.370544 0.212039 -0.361675 0.184834 0.979225 -0.082598 0.154114 0.158172 
428 0.284843 0.082834 -0.492640 0.021247 -0.185555 -0.746520 0.253265 0.348845 -0.223629 -0.315832 0.018149 -0.167338 0.581619 -0.895771 -0.078834 -0.093329 -0.233260 0.059855 -0.565387 -0.489027 0.114454 0.156549 -0.429986 0.305640 0.487422 0.328568 -0.053280 -0.112599 -0.395388 -0.191682 0.685282 0.168206 -0.425446 -0.567197 -0.050548 0.203414 -0.253630 0.409159 0.049240 -0.073406 -0.562905 0.188624 -0.306234 0.120453 -0.133739 0.039897 0.190945 -0.234886 0.412746 -0.397154 -0.185272 -0.578921 0.284408 -0.298772 -0.692603 0.531342 0.246757 0.232505 -0.445217 -0.259342 0.090105 -0.118810 0.327080 0.351304 -0.041807 0.123694 -0.073471 -1.005422 -0.263574 0.362027 0.455741 -0.024771 0.478623 -0.512850 -0.245258 0.420110 -0.570316 0.045424 0.198373 0.015940 -0.345697 -0.481422 -0.511622 -0.359440 0.242038 0.381097 0.319543 0.215170 -0.312231 -0.987921 0.547548 0.911385 -0.318881 0.350609 0.186499 -0.058718 0.505020 -0.094784 0.188756 0.225933 
400 0.506327 0.002156 -0.381099 0.119530 0.027848 -0.350540 -0.317344 -0.125461 -0.026761 -0.193958 0.175885 0.098175 0.078590 0.141131 0.278724 0.026617 -0.281223 -0.600342 -0.522237 0.203508 -0.080297 0.514025 -0.423697 0.595838 -0.020427 0.376643 -0.516278 -0.386033 -0.434954 -0.480870 0.941546 -0.082403 -0.652325 0.114602 0.389849 0.232185 -0.109110 -0.128702 0.478837 -0.411369 -0.688819 -0.128003 -0.173150 0.220802 -0.087799 -0.220289 0.422671 -0.054893 0.182714 -0.182509 0.053626 0.228328 0.390639 -0.067109 -0.556339 0.567822 0.457920 -0.255698 -0.527886 -0.506082 -0.108692 0.044712 -0.050292 -0.252943 0.226717 0.539393 -0.298904 -0.590085 -0.656086 0.040261 -0.080594 0.534717 0.237679 -0.058661 0.075311 0.436097 0.069927 -0.134163 -0.026285 0.272485 -0.146208 -0.038420 -0.403736 -0.420173 -0.109941 0.067501 0.301427 -0.096102 -0.411812 -0.645384 0.117592 0.268289 -0.100208 0.732130 0.336242 -0.237281 0.437270 -0.005504 0.571736 0.545866 
591 0.324803 0.135706 0.656768 0.371708 0.156870 -0.211393 0.287147 -0.056930 -0.226579 -0.425460 0.927418 -0.015152 0.127387 -0.581137 -0.090450 -0.085490 0.155785 0.046851 -0.572357 0.124336 -0.098949 0.992997 -0.632230 0.163345 -0.276043 -0.075841 -0.218420 -0.032730 -0.697425 0.047117 0.998960 -0.176245 -0.541888 -0.182640 0.235331 0.224752 -0.334255 -0.649296 0.458451 0.321660 -0.230730 -0.210205 -0.122599 -0.558825 0.000496 0.105318 0.656835 -0.156170 0.600709 -0.296827 0.341739 -0.143920 0.568934 -0.227141 0.143815 0.208476 0.044509 -0.510804 0.169670 -0.050366 0.104639 0.329533 0.187984 -0.384744 -0.186084 0.405377 -0.145654 -0.193875 -0.162978 0.108447 -0.092198 0.321965 -0.178903 0.091954 0.144233 0.300396 -0.402950 -0.034237 -0.409571 0.317949 -0.129250 0.277578 -0.455847 -0.404168 0.251239 -0.117301 -0.329933 0.011952 0.011223 -0.115251 0.750461 -0.306834 0.144350 -0.010897 0.605248 0.007495 0.318805 0.289364 -0.066528 0.076390 
636 0.241964 -0.302647 0.093820 1.003655 0.160305 0.680905 -0.308465 0.006782 0.435868 -0.500043 -0.234764 -0.262337 -0.032645 0.090201 -0.462489 0.460851 0.278520 -0.275305 -0.323506 0.147945 -0.301041 0.049007 -0.783592 0.825305 0.050045 0.188463 0.343136 -0.199805 0.491082 -0.744776 0.030527 -0.312124 -0.400707 -0.015305 1.066863 0.547347 0.227940 0.147627 -0.380792 0.323122 -0.363194 -0.569827 -0.087559 -0.804240 -0.469449 0.640848 -0.268031 -0.412128 -0.111622 -0.584488 -0.571616 0.298435 0.478390 0.243528 -0.022366 -0.342865 -0.283151 0.082370 -0.057648 -0.000755 -0.551280 0.073491 -0.473841 -0.262089 -0.531825 -0.266603 0.714841 -0.241611 -0.760903 0.381805 0.342918 -0.317295 -0.385011 0.139341 0.015581 0.196433 0.099195 0.217192 -0.151278 0.484784 -0.590624 -0.477121 0.418534 0.492919 0.201059 0.732523 0.336396 -0.840842 0.503708 0.309676 0.452190 0.104567 -0.056511 0.167275 -0.279887 -0.131595 0.088588 -0.052244 -0.373875 -0.081736 
630 0.021959 0.038583 -0.252801 0.905047 -0.471357 -0.167003 0.267239 -0.019519 0.108582 0.084551 -0.327376 0.264414 -0.155727 0.152182 -0.237243 -0.231064 0.620040 -0.248949 0.009337 -0.306350 -0.078838 0.271972 -0.758372 0.707372 -0.635759 1.083030 0.156676 -0.454055 0.285658 -0.049749 0.714655 -0.140095 -0.166155 0.356558 0.778877 0.318609 -0.110151 0.380919 0.126603 0.969873 -0.121786 -0.013239 -0.588115 -0.417372 -1.137482 0.456094 0.529943 -0.845448 0.772784 -0.339739 0.058741 0.236361 -0.421116 0.425379 0.228652 0.103187 0.272393 -0.026850 -0.191854 0.110912 -0.631687 -0.069504 -0.483237 0.422572 -0.412935 0.119407 0.495348 -0.574686 -0.269700 0.684222 -0.533323 -0.367203 -0.336878 -0.256859 0.028722 0.321784 -0.026561 -0.676455 0.298976 0.131042 0.239689 -0.004771 -0.051192 -0.124443 -0.128238 0.320837 0.394162 -0.438137 0.055189 -0.409206 0.265524 0.259119 0.709155 0.090161 0.089400 -1.108325 -0.278946 -0.316502 -0.200474 0.114861 
500 0.709995 0.486386 -0.447248 0.372567 0.414520 0.070519 -0.386447 0.073014 0.118974 -0.079505 -0.031087 0.236972 0.098821 -0.596312 0.005466 0.517480 -0.156790 -0.259458 -0.911857 0.037861 -0.611448 0.766763 -0.310778 0.079679 -0.306794 -0.534532 -0.175640 0.055175 0.373688 -0.067543 0.953939 -0.023752 -0.177114 0.011381 -0.032773 -0.068308 -0.131871 -0.345445 0.000454 -0.268105 0.017385 -0.348843 -0.277687 -0.319786 0.230545 -0.271878 -0.436042 -0.140535 -0.034305 -0.305598 -0.213190 -0.139959 0.572053 0.085061 0.087940 -0.019020 0.594340 -0.067831 -0.281855 -0.185269 0.279628 0.472239 0.406127 -0.905066 0.472044 -0.511901 -0.103998 0.035117 -0.255820 -0.718582 0.272218 0.314391 -0.424509 -0.281170 0.698260 0.040651 -0.051090 -0.156741 -0.672253 0.252529 -0.134922 0.044401 -0.435146 -0.007691 0.452900 -0.030827 -0.183503 -0.804728 0.599723 -0.696829 0.335280 0.327421 0.271639 0.721133 -0.390838 -0.039600 0.340148 -0.398540 0.426254 0.809523 
524 0.341795 -0.435232 -0.165833 0.019992 -0.332541 -0.087113 -0.104027 -0.467973 -0.582172 -0.068244 0.195812 -0.041327 0.267549 -0.304052 0.155693 0.153584 0.003324 0.445997 -0.393871 0.289843 0.055423 0.709445 0.083591 0.048365 -0.079886 0.081681 -0.612732 -0.168936 -0.427904 0.188002 0.925379 -0.289443 -0.620265 -0.269992 0.597038 0.277035 0.223294 -0.306671 0.401119 -0.178496 -0.661032 -0.029317 0.232929 -0.381785 -0.384350 -0.107751 0.556554 0.069713 -0.122430 -0.650778 -0.144579 0.138095 0.430176 0.179726 -0.115829 0.165474 0.153593 -0.527764 -0.508705 -0.577856 -0.043665 0.084730 0.015367 -0.753702 0.201982 0.108774 0.058596 -0.716114 0.225199 -0.494242 0.216897 0.525086 -0.729843 0.118190 -0.039759 0.084638 -0.097836 -0.242257 -0.462764 0.290031 -0.495489 0.425201 -0.532488 -0.548564 0.354601 -0.066588 -0.307503 -0.225274 0.031484 -0.315978 1.080531 0.130760 -0.076351 0.172924 0.111435 -0.060243 0.162001 -0.342997 0.005531 0.383431 
553 0.601792 0.106546 0.047296 0.373359 -0.068712 0.386807 0.018351 0.310982 -0.057748 -0.252204 0.254309 -0.439438 0.152476 0.108922 -0.258709 -0.034378 -0.035766 -0.351859 -0.782668 0.366825 0.124195 0.454683 -0.284113 0.103245 0.150113 -0.306740 -0.133984 0.038501 0.332316 -0.353001 0.411382 0.208669 -0.984246 0.068259 0.687622 0.526179 0.588468 0.215287 0.214756 0.421463 -0.571870 -0.154519 0.509721 -0.508364 -0.300945 0.045057 0.529359 0.461620 0.077288 -0.311304 -0.443776 0.215479 0.633799 0.189120 0.059754 0.399615 0.546766 0.269503 -0.302990 -0.339417 -0.010244 0.366511 -0.515882 -0.855017 -0.605027 0.336445 0.277294 -0.534398 -0.006710 0.375352 0.142735 -0.202902 -0.434778 -0.367511 -0.242691 0.188194 -0.202919 0.103665 -0.093996 -0.405642 -0.506692 -0.203488 0.069688 -0.345420 0.637319 0.619647 -0.346102 0.066696 0.382951 0.343933 0.783899 -0.007892 0.083203 0.098167 0.318703 0.186084 -0.236524 -0.650428 -0.048489 0.338652 
561 0.483690 -0.379074 -0.181010 0.637879 -0.145923 0.387284 0.122930 -0.058882 -0.086140 -0.505342 0.344708 0.362783 0.528525 -0.360445 -0.002194 0.162543 -0.432261 0.016721 -0.521362 -0.084002 0.141552 0.725779 -0.219856 0.062819 -0.093680 -0.236232 -0.158771 -0.363001 -0.361614 0.200712 0.749287 -0.042557 -0.609909 -0.653568 0.528615 0.021013 0.506816 -0.143471 0.262807 -0.245825 -0.696595 -0.728025 -0.113417 -0.226236 0.222643 0.143499 0.002717 0.041954 0.168351 -0.080513 0.201680 0.366330 0.461460 0.255258 -0.413849 0.616772 0.105293 0.167193 -0.177153 -0.059886 0.039368 -0.067260 0.108268 -0.246388 0.016480 0.268865 -0.296180 -0.482067 0.037301 -0.556776 0.132846 0.521755 0.018616 -0.150656 0.668130 0.267227 -0.558280 -0.367029 -0.332330 0.186507 0.030377 0.351009 -0.015136 -0.366683 0.273464 0.257726 0.088196 -0.426761 0.029322 -0.699773 0.612643 0.410873 0.057266 0.561526 -0.182218 -0.001383 0.323629 -0.434985 0.129911 0.146717 
651 0.161907 1.019066 -0.051031 0.379402 0.119735 0.255961 0.393454 -0.506603 -0.027385 -0.038798 0.777640 0.268517 0.252250 -0.385056 0.494554 -0.164385 -0.039350 -0.177291 0.126343 0.228715 -0.019066 0.891826 -1.007166 0.255653 -0.077347 -0.183112 -0.374500 0.081952 -0.405549 -0.616906 1.061869 -0.236513 -0.297760 0.028437 -0.285470 0.237517 0.328715 -0.050155 0.010638 0.550870 -0.441024 -0.184720 -0.534914 -0.627659 0.069185 0.613527 0.773372 0.204501 0.619694 -0.609173 -0.261304 -0.132835 0.185537 -0.424415 -0.124751 -0.487178 0.554894 -0.474952 0.090982 -0.395150 -0.350386 -0.065883 -0.358405 -0.657740 -0.838149 0.298926 0.184462 -0.533312 -0.398752 0.204966 0.295520 0.261570 0.314116 0.409833 0.267192 0.535087 0.019623 0.660947 -0.932120 -0.055221 -0.104716 0.062259 0.033713 -0.278326 0.387321 0.023055 -0.346720 0.518359 0.563235 -0.318737 0.864132 0.243519 0.431694 0.652732 0.019306 0.102536 -0.300071 -0.156872 0.262947 0.541960 
597 0.453381 -0.928736 -0.008625 0.579108 -0.211098 0.188638 -0.184073 -0.012837 -0.250260 -0.734243 0.289244 0.029336 -0.480012 -0.104279 -0.874175 0.017511 0.713815 -0.488972 -0.517240 0.094568 -0.393512 -0.050054 -0.274489 0.698281 0.004670 0.596017 0.225132 -0.346098 0.039042 -0.869999 -0.254608 0.313274 -0.483680 -0.390298 0.806270 0.026972 0.218631 0.250124 -0.686367 0.189144 -0.590110 -0.507298 -0.082375 -0.539895 -0.242485 0.815834 -0.299593 -0.379139 -0.274475 -0.610692 -0.031251 -0.096003 0.607943 0.232674 0.118357 -0.126741 -0.960678 -0.339627 0.011425 0.504794 0.146162 0.115213 -0.044817 0.052800 -0.328115 -0.112649 -0.105862 0.218099 -0.474701 -0.132534 0.629004 -0.399745 -0.507157 -0.051673 0.112567 -0.159579 -0.121420 -0.124060 0.231347 -0.160363 -0.609745 -0.478583 0.112072 0.438361 0.013602 0.401973 0.321523 -0.557931 0.439814 0.119488 0.433553 0.260021 -0.129521 0.195729 -0.183659 0.322752 0.490150 0.426745 -0.300874 -0.344368 
619 0.340486 -0.418532 -0.003501 0.527253 -0.341191 -0.084566 -0.243644 -0.200500 -0.001720 0.271529 0.095148 0.352820 -0.719147 -0.101091 -0.593383 0.045851 0.042619 -0.245065 -0.104615 0.175317 -0.262934 -0.112349 -0.550530 1.276632 0.095988 0.668473 -0.002945 -0.236474 0.128671 -0.637378 -0.114968 0.100388 0.054590 -0.074989 0.910104 0.354449 -0.273742 0.129392 -0.518870 0.743022 -0.399809 -0.577972 -0.365988 -0.527909 -0.523347 0.919024 0.038013 -0.704502 0.424569 -0.739988 -0.243519 0.659293 0.430152 0.574150 -0.038855 -0.098210 -0.577210 0.030613 -0.050536 -0.016921 0.058912 0.093318 -0.196648 0.243046 -0.105383 0.169101 -0.135360 -0.602237 -0.509123 -0.005734 0.237398 -0.473226 -0.150275 -0.440217 -0.126425 -0.209084 0.184494 0.183059 -0.235306 0.336498 -0.186039 0.020413 0.264002 0.330427 -0.021705 0.037604 0.404386 -0.715253 0.347966 0.061555 0.406470 0.479823 -0.228046 0.337140 -0.611598 -0.172723 0.160618 0.230041 -0.467076 -0.199467 
664 0.448581 -0.514421 -0.006316 0.128829 -0.123147 -0.114979 -0.329053 -0.116271 0.355382 -0.074832 -0.171770 0.394036 -0.128810 0.372413 -0.878170 0.418678 0.748840 -0.427156 -0.046826 0.318284 0.151407 -0.217083 -0.906375 0.410488 0.329574 0.339513 0.064519 -0.522171 0.501162 -0.839917 0.142758 0.068796 -0.260102 -0.141841 0.913782 0.718100 0.715252 -0.222433 -0.105608 0.463932 0.304989 -0.020914 -0.092494 -0.252068 -0.571682 0.427926 0.367975 -0.935558 0.195674 -0.687804 -0.518907 0.266098 0.322956 0.362682 0.221853 0.213404 -0.287617 -0.271057 0.150005 -0.132100 -0.795839 0.099514 0.045809 -0.012133 -0.104199 -0.500829 0.347490 -0.878798 0.146353 -0.093675 0.554001 -0.184336 -0.378757 0.463358 -0.751471 0.329972 0.081556 -0.393020 0.047614 -0.501416 -0.172739 -0.214528 0.251351 0.398620 -0.001092 0.462790 -0.084575 -0.211068 0.728194 0.105444 1.279130 -0.012077 0.236808 0.200940 0.268878 0.160893 0.529766 -0.138072 -0.501352 -0.205370 
666 -0.120881 -1.069779 0.128931 0.308450 -0.125390 -0.449742 0.010573 -0.228534 0.740079 -0.635095 0.240934 0.189518 -0.114271 0.320523 -0.691295 -0.353847 0.520508 0.068773 -1.005346 0.101306 -0.194443 0.229056 -0.279316 0.970406 0.086542 0.518621 -0.418987 -0.533795 0.030615 -0.262932 0.315647 -0.073381 -0.763324 -0.827242 0.816458 0.413256 -0.136410 0.139741 0.073426 0.728876 -0.387445 0.062862 -0.262785 -0.837237 -0.500230 -0.239095 -0.069491 -0.566951 -0.542059 -0.761997 -0.086215 -0.750849 0.115946 0.498095 -0.034439 -0.017666 -0.594755 0.150740 -0.028012 0.002998 -0.297647 0.598067 -0.191512 -0.397259 0.143506 0.107734 -0.174541 -0.039389 -0.170081 -0.197448 0.473122 -0.795908 -0.321535 -0.476795 -0.474975 0.462493 0.147322 -0.093864 -0.010062 -0.073908 -0.044641 -0.216169 -0.117058 0.061820 0.098103 0.211218 0.787042 -0.837551 0.312412 -0.230981 0.830181 0.407270 -0.375913 0.268520 -0.230109 -0.164255 0.590058 -0.155882 -0.582420 -0.007764 
606 0.583479 0.722392 -0.099228 0.830723 -0.039480 -0.208489 0.601099 0.077898 -0.181933 -0.250533 0.183445 -0.283037 0.149040 -0.645657 -0.316216 -0.253940 -0.212918 0.307530 -0.331470 0.508966 0.084651 0.945892 -0.708336 0.622601 -0.115266 -0.544050 -0.018919 -0.329149 0.224871 -0.269489 0.737081 -0.672288 -1.064502 0.305573 0.041558 0.372350 0.033120 -0.115552 -0.258276 -0.187638 -0.611879 0.053997 0.410421 -0.456237 0.473158 0.254088 0.550537 0.107068 -0.049501 -0.139929 -0.099195 0.235293 0.616503 0.087275 0.025926 0.106374 0.031332 -0.438478 0.652221 -0.358810 -0.060077 -0.113425 -0.169398 -0.699053 -0.519157 -0.004633 0.568847 -0.511456 -0.379572 -0.092463 -0.056017 0.168423 0.403627 -0.234709 0.592275 0.299691 0.241317 0.058867 -0.825277 -0.088713 0.006497 -0.061567 -0.056759 -0.553579 0.790953 0.007256 -0.015145 -0.064094 0.167031 -0.494920 0.161529 0.728504 0.526985 0.814411 -0.010072 -0.608793 0.072874 -0.189312 0.444552 0.393624 
438 -0.304640 0.129630 -0.210000 0.689241 -0.108413 -0.338164 -0.181717 0.587945 -0.152697 -0.506371 0.604292 0.004699 0.014542 0.214444 0.222582 -0.445508 -0.251089 -0.160296 -0.732804 0.102736 -0.072826 -0.067105 -0.034497 -0.196069 -0.407228 0.272419 -0.352863 -0.181392 0.055696 0.486050 0.285692 -0.179282 -1.132184 -0.124090 0.283920 0.343408 0.363590 -0.474618 -0.213830 -0.027773 -0.385344 -0.958213 -0.331782 0.259563 0.652865 0.163293 0.155396 -0.185077 0.561812 -0.238977 -0.527631 0.070567 0.148572 0.291022 -0.194837 0.118906 0.072210 0.121235 -0.548735 0.087017 0.339931 0.022742 0.337218 -0.878544 0.062885 0.289160 -0.493883 -0.501573 -0.055089 0.045244 -0.422000 0.437698 -0.427053 0.002009 0.141192 0.630116 -0.271664 0.184179 -0.332328 -0.257117 -0.046302 -0.336736 0.141489 0.018751 0.362840 0.147333 -0.219947 -0.123898 0.189037 0.142114 0.172174 0.238778 -0.069990 0.517815 -0.151182 -0.366259 0.679463 -0.248753 0.454233 0.160221 
370 0.359444 -0.259404 0.001263 0.463624 0.331802 0.414360 -0.470245 -0.449186 -0.546029 -0.318601 0.001056 0.202307 0.623435 -0.267455 0.517399 0.507105 -0.086092 -0.576421 -0.423115 -0.003583 0.025944 0.415439 -0.723919 -0.114632 -0.130822 -0.524701 -0.217564 -0.185947 -0.175863 -0.331828 0.925703 -0.719487 -0.095162 -0.254415 0.662255 0.831384 0.487315 -0.267327 0.247616 -0.029696 0.009325 -0.213585 0.157727 -0.344722 0.233035 0.007960 -0.120871 -0.037699 0.396712 -0.553608 -0.155725 0.697688 0.410067 -0.447655 -0.312724 0.093094 0.253718 -0.019365 0.428631 -0.055738 -0.300933 0.003228 0.066288 -0.201657 -0.571582 -0.081781 -0.160961 -0.336510 0.197095 0.159585 0.206118 0.382992 -0.419464 0.297518 0.283699 0.386095 -0.739618 -0.564292 -0.357943 0.143730 -0.055659 -0.223535 0.103611 -0.251523 0.947180 0.218140 0.286056 0.007739 0.203648 -0.357240 0.589350 0.309758 0.155180 0.398452 0.368816 -0.049556 0.051306 -0.401249 0.341606 0.470690 
556 0.170727 -0.123644 -0.561441 0.082202 -0.168144 -0.262633 -0.243343 0.166318 -0.557086 0.028357 0.283430 -0.633999 -0.230510 0.057451 -0.193067 0.292631 -0.184492 -0.157661 -0.287929 -0.492903 -0.059614 0.107420 -0.290883 0.433342 0.391227 -0.489940 -0.579493 0.049124 -0.323889 -0.408771 0.966462 0.028321 -0.837485 0.163326 -0.129804 0.440035 0.144562 -0.224861 0.157262 0.130300 -0.325996 -0.080528 0.014251 0.010814 -0.198799 -0.454223 -0.351572 -0.542242 1.229826 0.487925 0.138095 0.168798 0.016508 -0.587008 0.319002 0.243309 0.106413 -0.691299 -0.755186 -0.421897 -0.477401 -0.846046 0.111652 -0.568528 0.638705 0.302141 -0.970017 -0.929560 0.547444 0.250668 0.421197 0.483867 0.114453 -0.522815 -0.247421 0.413402 -0.299017 -0.905133 -0.447860 -0.715409 -0.595110 0.099583 0.231930 -0.438513 0.806553 -0.413532 0.147391 0.146005 1.206677 -0.708911 0.247338 0.856508 -0.097462 0.779019 -0.265351 0.268599 0.598953 -0.051710 0.039894 0.175140 
373 -0.234246 0.005148 0.148148 -0.024173 0.274771 -0.030544 0.099741 -0.114699 -0.247240 -0.437157 0.520214 0.044308 0.336522 -0.639311 0.264899 -0.156687 0.474657 0.030745 -0.440327 -0.042108 -0.275854 0.867975 0.101827 0.262851 0.009930 -0.196323 -0.317179 0.079110 -0.126014 0.128875 1.002625 -0.040876 -0.328369 -0.139501 0.225245 0.369496 -0.299535 -0.032615 0.062281 -0.124754 -0.800285 -0.279934 -0.435787 0.088509 -0.210211 -0.103747 0.436238 0.404388 -0.093311 -0.252571 0.154848 -0.318970 0.433721 -0.525549 -0.410329 0.174786 0.181996 -0.085558 0.074684 -0.202475 0.099845 0.457227 0.043032 -0.883387 -0.161984 0.053868 -0.063271 0.096797 -0.240470 -0.037094 0.367472 0.304248 -0.457438 0.044278 0.340954 0.191727 -0.238807 -0.311908 -0.112781 -0.175782 -0.331454 -0.159426 -0.684627 -0.366298 0.427720 0.269149 -0.582811 0.043300 -0.121826 -0.187518 0.642004 -0.224801 -0.103178 0.336311 0.413597 0.020862 0.528433 -0.002050 0.297551 -0.032678 
665 0.487917 0.911665 -0.397531 0.106923 -0.178141 0.193340 0.365808 0.158879 -0.779686 -0.093915 0.049879 0.610776 -0.238285 -0.068825 0.076421 -0.106576 0.449797 -0.016538 0.040324 -0.091544 -0.055322 -0.102861 -0.190078 0.547889 0.372246 -0.190439 -0.084891 -0.363227 -0.247289 -0.129093 0.365774 0.321007 -0.438973 -0.077445 0.195890 0.107780 0.325938 -0.309734 -0.050254 -0.078836 -0.194343 0.076121 -0.681838 -0.040986 -0.552061 0.510963 0.355962 -0.493268 0.226514 -0.022480 0.388060 -0.184433 -0.212320 -0.132774 0.086534 -0.276165 -0.596919 -0.679615 0.349745 -0.560853 0.176452 -0.335789 -0.090168 0.294979 -0.262708 -0.058237 -0.278595 -0.809481 -0.258654 0.242996 0.514443 -0.069839 -0.210747 0.272886 0.128972 -0.421591 0.109636 0.098280 -0.047092 -0.300115 -0.306158 -0.853481 0.102815 0.829756 0.446747 -0.364540 -0.371184 -0.320480 0.882280 -0.173888 0.534500 0.142275 0.159884 0.620224 -0.486130 0.485985 -0.130923 0.313915 -0.110146 0.002518 
583 0.224760 0.529690 -0.405663 0.274820 0.021053 -0.107747 0.088393 0.148780 -0.446174 -0.274436 -0.204097 0.649836 -0.048166 -0.066877 -0.251562 0.077027 0.232728 -0.298477 -0.017634 0.137264 -0.178438 0.124236 -0.233876 0.127903 0.119158 -0.431216 0.069000 -0.397558 -0.133643 -0.268626 0.185497 0.291963 -0.373294 -0.067459 0.107837 0.085926 0.004599 -0.326466 -0.042919 -0.348582 -0.365717 0.134936 -0.728841 0.113425 -0.178247 0.279689 0.256976 -0.724863 0.184585 -0.034346 0.327952 -0.114777 -0.331281 -0.118478 0.404458 -0.367726 -0.748668 -0.723713 0.385428 -0.178797 0.171268 -0.152265 -0.223891 -0.005015 -0.352101 0.034303 -0.472336 -0.548359 -0.423989 0.080284 0.575265 0.018565 -0.012794 0.273516 0.033830 -0.488428 0.383226 -0.021820 0.033892 -0.416298 -0.305142 -0.708957 -0.133079 0.615452 0.316153 -0.408118 -0.134753 -0.288776 0.594348 -0.240267 0.342884 -0.133567 0.484523 0.727026 -0.574868 0.351532 0.255893 0.243044 -0.078828 -0.195211 
633 0.104034 -0.776523 0.347947 0.623512 -0.093351 0.393765 0.063469 -0.271959 -0.069393 -0.195399 0.273058 0.336960 -0.474713 -0.277802 -0.135294 -0.129098 0.510809 -0.105622 -0.577882 -0.090732 -0.081195 0.311989 -0.505097 0.890283 -0.270362 0.199125 0.239751 0.310450 0.030578 0.041612 0.777050 -0.126901 -0.609012 -0.016129 1.146290 0.557008 -0.308397 0.460367 0.096266 0.657699 -0.425497 -0.264267 -0.398227 -0.536222 -0.619545 0.451660 0.036181 -0.447568 0.513999 -0.692782 0.203310 -0.026557 0.307320 0.173231 0.171823 -0.095625 -0.761719 -0.442878 -0.155654 0.267271 -0.479722 0.322110 0.030993 -0.386752 -0.718084 0.076791 0.269179 0.564827 -0.223793 0.139668 0.149534 -0.227116 -1.334670 -0.062535 -0.355637 -0.539050 0.033870 -0.571399 -0.141184 -0.156612 -0.314781 -0.389171 0.062858 0.188684 0.507564 -0.078793 0.407962 -0.632370 0.651188 -0.093196 0.454774 0.060591 -0.130663 0.356519 -0.027499 -0.240932 0.007172 -0.281502 -0.784187 -0.412631 
680 0.771027 -0.559256 0.394998 0.845597 -0.184036 -0.052251 -0.237054 -0.419573 -0.361848 0.121905 0.434369 0.790176 -0.328239 -0.057452 -0.733250 0.245221 0.290257 -0.253775 0.218420 -0.053282 0.175199 -0.343250 -0.679872 0.466039 -0.155948 0.097174 -0.256198 -0.148664 0.340102 -0.518446 0.393700 -0.140656 -0.195544 -0.473401 0.741411 0.293130 0.584508 -0.109534 -0.093181 0.665250 -0.038283 -0.392192 -0.269150 -0.895337 -0.493146 0.597879 0.279466 -1.104602 0.824487 -0.513341 -0.365833 0.079189 0.497977 1.035735 0.659014 0.129511 -0.290215 -0.373890 -0.037675 0.084017 0.080146 0.228368 0.394792 0.373561 0.049036 -0.203116 0.240501 -0.653087 0.112208 0.382305 0.027967 -0.785044 -0.251980 -0.031615 -0.063673 -0.097461 0.232968 -0.229973 -0.173824 -0.327067 -0.136650 0.071629 0.686890 0.200811 0.146750 0.127842 -0.094474 -0.380456 0.524330 -0.112868 0.217219 0.321670 -0.275937 -0.073740 -0.458093 0.240349 0.091304 0.100834 -0.708495 -0.320381 
434 0.201883 0.534209 -0.175741 0.445124 0.182774 0.011072 -0.294391 0.586512 -0.617695 -0.073844 0.154315 -0.027443 0.669637 -0.513949 0.355124 0.654611 -0.131203 -0.155353 -0.004101 0.045798 -0.240175 0.396725 -0.664840 -0.384701 -0.238455 -0.684728 -0.081964 -0.672602 0.008672 0.196650 -0.104037 -0.689935 -0.563830 -0.480522 -0.418167 0.512266 0.217090 -0.601806 -0.259609 -0.245638 -0.563574 -0.567830 -0.480286 0.000197 0.099469 0.005628 0.020281 0.167389 0.703307 -0.245084 -0.940630 0.451454 0.854034 -0.113120 -0.312231 0.260697 0.049438 -1.016318 0.126950 0.098001 0.436202 0.247157 -0.051782 -0.392872 -0.554434 -0.054218 -0.148087 -1.119958 -0.117600 0.223068 0.429711 0.633632 0.270844 -0.391027 0.727763 0.329423 0.146304 0.228071 0.116151 0.212026 0.027788 -0.088026 -0.417456 0.184575 0.755144 -0.044127 0.063074 -0.057308 0.057493 -0.263518 0.855614 0.031770 0.373212 1.216062 -0.248983 -0.175879 0.859288 0.372594 0.533544 0.177332 
566 0.355621 -0.157895 -0.246134 -0.127284 0.064337 -0.706722 -0.463180 0.024032 -0.171701 -0.459990 0.811649 -0.120445 0.060463 0.222665 -0.437698 0.011690 0.218587 0.115158 -0.117364 0.038014 -0.320780 0.382210 -0.155455 0.037630 -0.011162 -0.341170 -0.483315 -1.039080 -0.301573 -0.033167 0.008559 -0.503594 -0.808006 0.102137 -0.178677 -0.244586 0.425408 -0.280326 0.084082 0.027829 -0.157423 0.078748 -0.493721 -0.085462 -0.002090 -0.617927 0.168672 -0.016034 -0.373136 -0.113632 -0.119729 0.063414 0.495955 -0.327435 -0.444348 0.480628 0.085138 -0.145515 -0.043053 0.020467 0.501544 0.258938 0.263134 -0.090706 0.248130 0.250942 -0.769667 -1.059447 -0.321034 -0.110837 0.524993 0.136049 0.453669 -0.374235 0.452306 -0.083866 -0.348579 -0.210421 -0.387389 0.324449 -0.427422 0.008378 -0.566323 -0.570089 0.842447 -0.212873 0.039422 -0.491557 0.223028 0.124748 0.636757 0.419220 0.019524 0.588051 -0.094657 0.029053 0.583337 0.087124 0.046692 0.498512 
604 0.756242 0.183226 -0.528801 0.110915 -0.589974 -0.302574 -0.252939 0.072383 -0.469070 -0.471587 0.260938 -0.207388 0.121772 -0.288567 -0.320413 -0.054376 0.587764 -0.073594 -0.118662 -0.278500 0.317167 0.117606 -0.407383 -0.220860 -0.190841 -0.188821 -0.145040 -0.976938 -0.711643 -0.253506 -0.030818 0.027654 -0.643161 -0.675422 0.262781 -0.284348 0.805520 -0.384944 0.446271 -0.246805 -0.662120 -0.388336 -0.061071 0.053982 -0.433305 -0.284160 0.622931 0.075375 0.057256 -0.260042 0.344327 0.230440 0.679144 0.144801 -0.269682 0.616675 -0.307269 0.285786 0.131315 0.105047 0.252512 0.145935 0.495462 -0.773736 -0.514656 -0.026727 0.092891 -0.758238 -0.471489 0.665255 -0.262587 0.361251 0.248009 0.682935 -0.032725 0.577539 -0.629856 -0.677620 -0.461820 0.165335 0.080639 -0.796299 0.157985 -0.843868 0.227022 -0.379334 -0.337195 -0.444800 -0.203685 0.381709 -0.073995 0.880102 -0.261519 -0.179403 -0.264555 0.290047 0.425988 0.075017 0.320776 0.001296 
683 0.284284 -0.404699 -0.299483 -0.227144 -0.028928 -0.181266 -0.289603 -0.116930 -0.152210 0.121037 0.486200 -0.335368 -0.386431 0.056508 -0.096719 0.059863 0.822949 -0.211448 -0.580824 0.494656 0.053059 0.312987 -0.286392 0.956948 0.415992 0.086638 -1.104239 -0.252726 -0.163188 -0.607675 0.488598 -0.099996 -0.962722 -0.324156 0.554834 -0.062422 0.148885 -0.442549 -0.467221 -0.053083 -0.794128 -0.200698 0.215430 -0.043706 0.525820 -0.063254 -0.089143 -0.198738 0.281097 -0.196352 -0.048339 -0.039008 0.277483 0.194959 -0.381419 0.022704 -0.112749 0.169746 0.051121 -0.627731 0.254148 -0.127524 0.590245 -0.971174 0.405067 -0.076042 -0.953573 -0.669786 -0.038737 -0.383989 0.320390 0.425401 -0.086141 0.147179 0.224076 0.977992 -0.298031 0.122717 -0.265424 -0.505706 -0.213242 -0.304877 0.309448 -0.562402 0.275809 -0.146834 0.223269 0.046091 0.176930 0.243931 0.271253 0.850822 -0.277118 0.517968 -0.030004 0.075340 0.082588 0.180690 0.402992 0.504325 
609 0.401503 -0.651801 -0.278631 0.434826 -0.161601 0.353059 -0.447628 -0.206889 0.189246 -0.098195 -0.308381 0.419122 -0.353914 -0.318689 0.202861 0.590006 0.581820 -0.736850 -0.641290 0.091543 -0.560661 -0.038864 -0.559530 0.495805 -0.628500 1.060739 -0.166045 -0.647369 0.352028 -0.113835 0.145779 -0.230113 0.198657 -0.421459 0.811136 0.514994 -0.034451 -0.242559 -0.258992 0.041125 -0.366347 -0.300868 -0.493094 -0.653733 -0.682878 0.629148 -0.105207 -0.552397 0.110068 -1.116160 -0.299606 0.212501 0.784357 0.453067 -0.032783 -0.506456 0.104228 -0.640398 -0.642181 0.177369 -0.286375 0.768666 0.328318 -0.297330 -0.074912 -0.369575 0.061075 0.039048 -0.035328 -0.276967 -0.224078 -0.143079 -0.884513 -0.146101 -0.233376 0.763926 0.013313 -0.417606 0.288972 0.533501 0.260976 0.092649 -0.017062 0.449683 -0.168080 -0.040715 0.437342 -0.360724 -0.041058 -0.730818 0.627624 0.183280 -0.090009 0.411941 0.108561 -0.532437 0.676353 0.151371 0.410240 0.143676 
376 0.185197 -0.015778 0.048402 -0.021848 0.160392 -0.221474 -0.493021 0.180437 -0.115373 -0.458849 0.521306 -0.145169 0.349687 0.564282 -0.187481 0.018933 -0.026539 -0.140859 -0.799841 0.296696 0.031956 0.604007 -0.355289 -0.157691 0.107602 -0.081743 0.134183 -0.096847 -0.583582 -0.288745 0.674216 0.273959 -0.624780 0.201715 0.231141 -0.177475 -0.520636 -0.678751 0.404081 -0.159360 -0.173225 -0.559647 -0.171948 0.059275 0.691951 -0.546111 -0.220293 -0.012299 0.379078 -0.348279 0.186909 -0.263131 0.033405 -0.523269 -0.396109 0.456139 0.175870 -0.408373 0.522415 -0.203795 -0.055338 -0.287189 -0.410235 -0.888025 -0.021872 -0.065653 -0.359028 -0.038985 -0.219978 0.286668 0.223456 0.528681 -0.186204 0.201259 0.147258 0.255457 -0.126359 0.101123 -0.407463 -0.007971 -0.359799 0.056240 -0.168502 -0.271634 0.250686 -0.136918 -0.173133 -0.389161 0.517868 -0.040563 0.737281 0.097223 -0.114190 0.464770 0.393676 0.431656 0.354245 0.184207 0.067223 0.090695 
475 0.481926 -0.019005 -0.056669 0.048608 0.344303 -0.305808 0.112495 0.115280 -0.208907 -0.893241 0.596291 -0.261174 0.091916 -0.225440 0.159925 -0.217726 0.157049 -0.639986 -0.673733 0.123774 -0.331351 0.361896 -0.617696 0.251270 0.322653 -0.273191 -0.358127 -0.335274 -0.282326 -0.355440 0.325724 0.050572 -0.663221 -0.260996 -0.349923 0.158892 0.058769 -0.509693 0.571284 -0.080719 -0.580460 -0.273310 -0.127505 -0.030388 0.396579 -0.245226 0.388262 0.431979 -0.105120 -0.316224 0.087625 0.223463 -0.356651 -0.086817 -0.276991 0.518921 -0.007533 -0.121419 -0.159831 -0.109260 0.523754 0.281270 -0.088194 -0.133622 -0.260087 0.248987 -0.722211 -0.553148 -0.167689 -0.399895 0.421333 0.425648 0.135283 -0.249115 0.466321 -0.204252 -0.094929 0.205641 0.158202 0.004062 -0.031685 0.050533 -0.778148 -0.244100 0.540798 0.309572 0.026039 0.101081 -0.080561 -0.043093 0.876180 0.511219 -0.099196 0.735994 -0.122903 -0.201643 0.456650 0.118966 0.002574 0.559150 
465 0.372427 0.320330 -0.476777 0.369263 -0.357262 0.452236 -0.081203 0.207473 0.383901 0.115217 0.200785 -0.122927 0.528545 -0.150900 -0.364369 -0.071055 -0.119900 -0.274465 -0.665728 0.059819 -0.053241 0.133968 -0.408749 0.559062 0.146475 -0.103494 -0.310783 -0.112561 -0.046346 -0.026834 0.795249 -0.109044 -1.051611 -0.178654 -0.057046 0.345322 0.172791 -0.142982 0.443014 0.141578 -1.094469 -0.223792 0.234489 -0.281280 -0.182449 -0.072573 0.057982 0.400250 0.495894 0.059316 -0.052173 -0.010367 0.234165 0.023264 -0.428252 0.330401 0.429463 0.267001 -0.103645 -0.480281 -0.325319 0.259369 -0.209620 -0.791024 -0.526474 0.448034 0.352541 -0.544105 -0.405797 0.068906 0.559661 0.528510 -0.136670 -0.668515 0.403273 0.315425 -0.415070 0.305787 0.295139 0.008833 -0.344204 -0.055735 -0.329588 -0.756436 0.112660 0.142324 0.379476 0.119475 0.020344 0.067717 0.371290 0.447968 -0.111891 1.118879 0.018511 0.039938 0.025769 -0.325520 0.082943 0.161363 
580 0.361717 0.317628 -0.396411 -0.551491 -0.252052 -0.100061 -0.318741 0.221381 -0.285724 -0.436304 0.495037 0.373224 -0.008118 0.232788 0.567284 0.491044 0.131887 0.517577 -0.404712 0.165870 -0.184890 0.777033 -0.596751 0.091448 0.264192 0.364330 -0.283758 -0.602065 -0.534054 -0.598147 0.307197 -0.022537 0.050703 -0.009549 -0.151565 -0.135854 0.080607 -0.311700 0.535076 -0.152410 -0.800240 -0.057389 -0.181371 -0.067507 -0.521895 0.110014 0.682681 -0.587912 -0.145186 -0.376988 -0.406567 0.032746 0.087266 -0.160673 -0.012137 0.016167 0.344115 -0.374705 -0.351491 0.074392 0.138890 0.588694 0.437472 0.090766 -0.309547 0.031813 -0.238583 -1.563649 0.204039 -0.391024 -0.212283 -0.144901 0.441087 0.385433 0.118012 -0.017739 -0.045198 0.021309 -0.228569 0.275815 -0.541302 0.422197 -0.634939 -0.562140 0.342768 0.359102 -0.167534 -0.499103 -0.259996 0.231191 1.385441 0.623041 0.252433 0.565119 0.278609 -0.345715 -0.523490 -0.035357 0.255135 0.515584 
632 0.259524 0.805220 -0.279036 0.197575 -0.085939 -0.017013 0.289963 -0.016310 -0.554974 -0.232683 -0.079464 0.713040 -0.078267 -0.139789 -0.137198 -0.050761 0.251163 -0.243828 0.036691 0.109001 0.037258 0.093322 -0.160711 0.167453 0.019546 -0.369416 -0.021219 -0.399748 -0.285404 -0.198679 0.443168 0.325699 -0.409532 -0.051149 0.153383 0.081966 0.037359 -0.321451 0.012176 -0.265281 -0.196649 0.000744 -0.827815 -0.012184 -0.113158 0.292346 0.298643 -0.642173 0.256631 0.060693 0.121623 -0.196125 -0.323758 -0.110561 0.230359 -0.412327 -0.668456 -0.760954 0.287560 -0.331958 0.163821 -0.140476 -0.147856 0.063532 -0.284582 -0.103623 -0.334648 -0.434302 -0.336994 0.098265 0.578500 0.184644 -0.077088 0.392722 0.083215 -0.496034 0.228821 0.030412 -0.156007 -0.487632 -0.210329 -0.914945 -0.015716 0.731259 0.436285 -0.354157 -0.234182 -0.425334 0.762191 -0.411534 0.380857 -0.000876 0.505330 0.568341 -0.726806 0.378021 0.408510 0.351875 -0.047150 -0.223587 
483 0.131456 -0.259181 -0.324237 0.625266 0.245419 -0.164873 0.159746 0.029996 -0.690460 -0.766580 0.593455 0.150758 -0.420776 -0.354513 0.067900 0.189378 -0.569875 0.154308 -0.615044 -0.319221 -0.209963 0.246641 -0.343525 0.268072 0.221422 0.113514 0.095299 -0.340944 -0.552744 0.371859 0.638546 -0.523777 -0.300539 0.028367 0.150595 -0.059921 0.556152 -0.385108 -0.165808 -0.346529 -0.438443 -0.358768 -0.060143 -0.038615 -0.218604 -0.388388 -0.053021 -0.232211 -0.009781 -0.173139 0.285670 0.403013 0.373761 -0.098115 -0.310126 0.595401 0.077301 -0.168217 -0.092356 -0.204697 0.462045 0.058015 0.081348 -0.205017 0.051734 -0.030575 -0.392835 -0.682487 0.184450 0.378525 -0.240973 0.016401 -0.234944 -0.205933 0.298633 0.296596 -0.334927 0.027054 -0.157801 0.595748 -0.109970 0.108775 -0.566156 -0.578712 0.527775 0.721928 0.450423 -0.376994 -0.783458 -0.294267 0.712778 0.093642 0.431609 0.260622 -0.000426 -0.506247 0.446936 -0.381015 0.182189 0.100955 
579 0.282138 -0.113272 -0.003457 0.638114 -0.128406 0.317241 0.008363 0.030704 -0.100167 0.114128 -0.456948 0.411196 -0.686814 -0.468903 -0.147670 0.269549 0.328313 0.002159 -0.405288 0.022498 -0.452076 -0.003897 0.113123 0.634183 0.478487 0.466712 -0.009604 -0.566792 -0.219674 0.004877 0.273650 0.461323 0.534517 -0.468389 0.975431 0.546099 0.387997 -0.020070 -0.753908 0.374195 -0.263848 -0.180488 -0.111286 -0.464770 -0.719988 0.219443 0.212321 -0.561258 -0.059722 -0.746317 0.009157 0.483218 0.248872 0.518893 0.269822 -0.300222 -0.373025 -0.191296 0.086702 -0.346473 -0.079178 0.137158 -0.650302 0.110913 -0.481835 -0.047258 -0.207504 -0.339212 0.097277 0.038787 0.378617 -0.506314 -0.802928 -0.295498 -0.131652 0.476349 -0.220470 -0.611459 -0.061675 0.073082 -0.046710 0.253444 0.181180 0.403789 -0.134642 0.659337 -0.091350 -0.272054 0.583910 -0.181077 0.888949 -0.338389 0.495796 -0.331973 -0.504438 -0.027495 -0.327564 0.046519 0.101839 0.009718 
643 0.112812 0.540520 -0.378048 0.389802 0.011303 0.022574 0.064340 0.200221 -0.320018 -0.393419 -0.240763 0.542332 -0.001886 0.016014 -0.437985 0.024000 0.148208 -0.320734 -0.004314 0.249224 -0.211287 0.245663 -0.240209 0.026384 0.049588 -0.382135 0.169544 -0.407062 -0.110533 -0.285183 0.141024 0.399934 -0.495287 0.012586 0.128078 0.028011 -0.034272 -0.183578 -0.044398 -0.314425 -0.515401 0.135480 -0.646980 0.112574 -0.227327 0.317757 0.362685 -0.676565 0.334779 -0.031041 0.217657 -0.070109 -0.337857 -0.174107 0.525050 -0.321262 -0.676898 -0.719845 0.311677 -0.070687 0.118564 -0.065075 -0.378535 0.001884 -0.526543 0.198934 -0.461429 -0.552143 -0.561740 0.139247 0.524292 0.000936 -0.068238 0.292526 0.006510 -0.604341 0.384486 0.040643 0.242843 -0.481613 -0.469272 -0.717692 -0.153903 0.569430 0.298745 -0.279130 -0.152717 -0.288708 0.592076 -0.133268 0.428031 -0.250444 0.662111 0.728939 -0.452556 0.327705 0.257621 0.188361 -0.006779 -0.317989 
681 0.205360 0.639734 -0.484240 0.228746 -0.061388 -0.210051 0.272105 0.007956 -0.512895 -0.277314 -0.293600 0.672580 -0.083425 -0.196328 -0.135366 0.138655 0.251741 -0.164762 -0.141046 0.177510 -0.036126 0.039458 -0.145421 0.167114 0.114919 -0.437801 -0.110216 -0.541695 -0.199530 -0.235013 0.174770 0.237634 -0.440976 0.062734 0.170466 0.050007 0.075572 -0.292514 0.028745 -0.422417 -0.366556 0.053375 -0.685520 0.042216 -0.140761 0.196695 0.321878 -0.636938 0.183261 0.035414 0.265114 -0.182023 -0.312114 -0.124198 0.110904 -0.377526 -0.777714 -0.795784 0.257032 -0.230747 0.025708 -0.220427 -0.077443 0.274458 -0.128398 -0.166759 -0.298420 -0.603737 -0.369023 -0.037385 0.693500 0.100378 0.071361 0.304415 0.088879 -0.521842 0.344319 -0.047212 0.068034 -0.418247 -0.162530 -0.685051 -0.136383 0.769028 0.320689 -0.409773 -0.108239 -0.382028 0.698693 -0.279518 0.410222 -0.000710 0.543957 0.807252 -0.648984 0.282915 0.405972 0.333530 -0.045569 -0.219401 
577 0.418804 0.572329 -0.421460 0.347022 -0.052397 0.027004 0.163437 0.110865 -0.681372 -0.480122 -0.125310 0.592473 -0.144810 -0.106609 -0.080198 0.086093 0.314461 -0.149368 -0.081801 0.146272 -0.115319 0.229081 -0.128086 0.379533 0.140659 -0.400600 0.218234 -0.385554 -0.259013 -0.196906 0.350946 0.187393 -0.464896 -0.061670 -0.025323 -0.088349 0.103228 -0.296542 0.040785 -0.282883 -0.397758 0.214537 -0.632113 0.058449 -0.164457 0.323902 0.377890 -0.589524 0.079544 -0.021810 0.361056 -0.001856 -0.368995 -0.200722 0.219893 -0.254958 -0.548533 -0.834541 0.263496 -0.081141 0.112240 -0.407168 -0.041714 0.182622 -0.154112 0.022709 -0.537664 -0.765865 -0.334284 0.074447 0.611164 0.096584 0.242831 0.402092 0.147518 -0.517648 0.489081 -0.038366 0.073581 -0.370166 -0.234814 -0.641510 0.048332 0.441382 0.378285 -0.479197 -0.115220 -0.364767 0.613654 -0.362468 0.371604 0.043728 0.376234 0.796037 -0.552944 0.389419 0.116617 0.248065 0.028093 0.021957 
578 0.351538 0.441242 -0.448117 0.365364 0.024504 -0.068551 -0.015044 0.156637 -0.477544 -0.413454 -0.263090 0.628609 0.011929 -0.092349 -0.205162 0.077481 0.264076 -0.321985 -0.066949 0.163553 -0.234758 0.229335 -0.199612 0.235849 0.146795 -0.463429 0.254074 -0.377542 -0.106329 -0.273759 0.213019 0.200609 -0.390752 -0.114877 0.035160 0.023333 -0.055266 -0.316419 -0.049417 -0.362602 -0.427288 0.220713 -0.678990 0.128418 -0.193254 0.308847 0.314744 -0.752704 0.065273 -0.083448 0.364086 -0.004013 -0.315437 -0.112046 0.399661 -0.364964 -0.702317 -0.798083 0.388044 -0.037168 0.198416 -0.174315 -0.201340 -0.017251 -0.373421 0.078884 -0.603540 -0.599014 -0.371009 0.051689 0.568780 0.052947 0.152177 0.342298 0.117870 -0.530933 0.502850 -0.091435 0.040611 -0.390055 -0.339677 -0.613026 -0.075821 0.449388 0.321935 -0.446366 -0.084143 -0.300138 0.518856 -0.275604 0.305662 -0.150077 0.454472 0.842967 -0.569483 0.309728 0.160906 0.189704 -0.077482 -0.089116 
395 0.090450 0.270388 -0.113849 0.040200 0.148397 0.340625 -0.097564 0.218189 0.627781 0.167026 -0.250604 -0.374875 0.278026 -0.274684 0.142640 -0.164329 0.028557 0.418555 -0.904302 0.068785 -0.289826 0.514790 -0.480330 0.549989 0.049505 0.085333 -0.262968 -0.588405 0.061774 0.069910 0.129185 -0.511120 -0.361022 -0.783671 0.925343 0.736517 -0.253915 -0.198081 0.008961 -0.133172 -0.684985 -0.487663 0.641150 -0.334118 -0.032767 -0.399238 -0.475225 0.159862 -0.124513 -0.296022 -0.229542 0.504976 0.422054 0.384904 -0.055810 0.225241 -0.348071 0.356587 0.077917 -0.558723 -0.216387 0.290973 -0.116015 -0.713251 -0.089855 -0.210807 -0.011884 -0.694394 -0.350447 -0.444368 0.464129 0.489512 0.144897 -0.053269 0.349237 1.057895 -0.631467 0.189291 -0.823462 0.438698 0.014924 -0.046457 0.125167 0.214595 0.571384 -0.116731 0.576786 -0.706470 0.036875 -0.231332 0.649260 0.659360 -0.223461 0.622118 0.047533 -0.379620 0.048213 -0.430177 0.130239 0.641062 
663 0.292967 -0.046138 -0.509400 0.658138 -0.722577 -0.011721 -0.258172 0.131252 0.024669 -0.143774 -0.286850 0.664094 -0.116119 -0.125709 -0.496183 -0.194840 0.550947 -0.316881 -0.329735 -0.463952 0.082542 -0.459030 -0.168703 0.195294 -0.322214 0.858388 0.423803 -1.058642 -0.095324 0.260232 -0.312226 0.138171 -0.263841 -0.576043 0.790829 0.143281 0.629516 -0.574218 -0.323754 -0.063096 -0.309150 -0.411051 -0.321423 0.345844 -0.206428 0.361528 -0.235772 -0.731870 -0.146584 -0.179444 0.144088 0.492682 0.163895 0.261887 0.099948 0.266127 -0.780292 0.053667 0.388489 -0.134029 -0.375554 0.161363 -0.429148 -0.434586 -0.389643 -0.297368 0.084844 -0.522820 -0.286989 -0.151161 0.126678 0.411920 -0.447520 0.434974 0.078800 0.481361 -0.823196 -0.498718 -0.031096 0.114087 0.214126 -0.463127 -0.264657 -0.014204 -0.043069 0.473217 0.073014 -0.584148 -0.147287 0.163405 0.399584 0.417011 0.493459 0.444348 -0.760360 -0.387205 0.458328 0.109234 -0.207698 0.059041 
596 0.165906 0.692221 0.000088 0.981296 0.044401 -0.043458 -0.177363 -0.030903 0.292833 -0.422982 -0.316868 -0.730886 0.306342 -0.464009 -0.696874 0.096597 0.985127 -0.020087 -0.728723 -0.400373 -0.202359 0.504445 -0.311021 0.598709 0.204860 -0.218002 0.302674 -0.505757 0.154623 -0.273184 -0.326611 0.079747 -0.204236 -0.160566 0.669466 -0.014859 0.345439 0.057544 -0.321709 0.509604 -0.442699 -0.821172 0.351222 -0.845276 -0.179267 0.317191 -0.265566 0.307471 -0.329607 -0.304266 -0.211827 0.422040 -0.294715 0.318203 0.116785 -0.118684 -0.404353 0.414597 -0.006771 0.383600 -0.828070 0.145158 -1.038816 -0.253778 -0.710308 0.215427 0.684544 -0.332627 -0.421257 -0.048212 0.817103 -0.185162 0.263962 0.183346 0.674824 0.429654 -0.532564 -0.308797 -0.290337 0.268755 -0.071144 0.318448 0.059298 0.037575 -0.023491 1.144107 0.380276 -0.719878 0.640179 -0.151062 0.721133 0.449487 1.271173 0.334357 -0.583876 -0.383992 -0.141935 0.023157 -0.379887 0.391648 
676 -0.172566 0.816968 -0.729790 0.275872 0.128023 -0.001437 -0.537136 -0.198362 -0.148400 -0.207730 -0.491648 -0.807469 0.199910 -0.462331 0.209174 0.679228 0.201960 -0.456995 -0.409946 -0.088972 -0.213113 0.958683 -0.261686 0.219658 0.009501 -0.622335 -0.355714 -0.133419 -0.192279 -0.474781 -0.108377 -0.081204 -0.553023 -0.606393 0.198711 -0.312002 0.009936 -0.172575 -0.094258 -0.281535 -0.753521 -0.505943 -0.112411 -0.097651 -0.270721 0.172805 0.224208 -0.008465 0.754517 -0.246524 -0.338874 0.435617 -0.027948 -0.555108 0.082157 -0.238086 0.423068 -0.257999 -0.855460 0.338957 -0.964718 0.245765 0.095267 -0.920510 0.114791 0.420863 -0.465180 -0.626676 0.002778 0.022634 0.159191 0.845603 0.408220 0.802929 0.051117 0.668817 0.350842 -0.240059 -0.000857 -0.167759 -0.347181 0.025342 -0.172227 -0.212042 0.019249 -0.201046 0.192717 -0.057808 0.697704 -0.663007 0.875247 0.448410 1.112061 0.279022 -0.275686 -0.400904 0.965788 -0.191316 0.773103 0.623429 
635 0.196074 0.672665 -0.487946 0.458787 -0.224862 0.261750 0.089419 0.371008 -0.593136 -0.325135 -0.205257 0.315241 0.062421 -0.048022 0.032580 0.042900 0.294334 0.075418 -0.217271 0.015853 -0.173393 0.244876 -0.192216 0.356376 0.455795 -0.445305 -0.081501 -0.450836 -0.320599 -0.042740 0.177094 0.232471 -0.679828 0.092479 0.155654 -0.057806 0.248810 0.134701 -0.035342 -0.439045 -0.725853 0.236488 -0.353317 0.090590 -0.330684 0.455128 0.784625 -0.309423 0.052774 0.104226 0.297013 0.197865 -0.178086 -0.150471 -0.022173 -0.035024 -0.774088 -0.774291 0.288672 -0.233795 0.198385 -0.299428 -0.208382 0.316956 -0.588927 0.279953 -0.509864 -1.086116 -0.270494 0.224008 0.430128 0.176771 0.303258 0.153519 0.172083 -0.631152 0.322454 -0.009843 0.377812 -0.211072 -0.583047 -0.456049 0.055344 0.402873 0.486901 -0.237946 -0.226474 -0.187397 0.598273 0.133068 0.435382 0.133501 0.499827 1.061180 -0.193972 0.417648 -0.389364 0.275473 0.132213 -0.134447 
671 0.030906 0.690339 0.169274 0.796570 -0.039092 -0.107834 -0.178924 0.074087 0.052292 -0.348178 0.132351 0.045314 0.569598 -0.568862 -0.352649 -0.382773 0.251079 -0.165383 -0.713878 0.056570 0.228123 0.362637 -0.324371 0.103499 -0.382469 -0.383076 0.212447 -0.179060 0.145427 0.119083 0.477312 -0.371516 -0.518529 -0.157170 0.743378 0.289481 -0.084706 -0.252028 0.220706 0.070783 -0.517667 -0.843757 -0.280964 -0.370955 0.264452 0.193975 0.072418 -0.044088 0.408532 -0.318717 0.150167 0.190847 -0.088181 -0.024471 -0.062961 0.074522 -0.088984 0.305648 0.544217 0.010429 -0.054741 0.339319 -0.128077 -0.738849 -1.010159 0.092971 0.679791 -0.061230 -0.521219 0.452774 0.083902 0.095827 -0.245352 0.418700 0.645967 0.133753 -0.475779 -0.061169 -0.769169 0.130118 0.110916 -0.338668 -0.162026 -0.240369 0.544086 0.015592 0.080775 -0.673099 0.409187 -0.099943 0.198498 0.119110 0.586972 0.547401 -0.108815 -0.460973 0.111736 -0.060277 0.009120 0.115153 
492 0.236723 0.094051 0.054192 0.151611 -0.211882 -0.338184 0.039448 -0.096620 -0.060595 -0.585104 0.479571 -0.284925 0.454005 -0.260387 -0.299883 -0.129390 -0.229004 -0.081492 -0.724886 0.254368 0.277729 0.332043 -0.212656 0.304827 0.087042 -0.106500 -0.707638 -0.145621 -0.170384 -0.419476 0.372846 -0.478760 -0.870583 0.171459 0.206863 -0.074497 -0.069059 -0.285553 0.493553 -0.344476 -0.867555 -0.052474 -0.209874 -0.163585 0.146397 0.177651 0.177180 0.083929 0.013227 -0.292372 0.283978 -0.215734 -0.329010 -0.252879 -0.332136 0.052701 0.001415 -0.177715 -0.251750 -0.279134 0.068246 0.091409 -0.059318 -0.362356 0.120496 0.218823 -0.139550 -0.605568 -0.218468 -0.547724 -0.005392 0.313233 0.239255 -0.167207 0.549413 0.223360 -0.086822 0.313427 -0.222871 0.487409 -0.323517 0.397100 -0.466744 -0.532701 0.390011 -0.107362 0.241386 -0.129861 -0.027760 -0.431975 0.567878 0.389019 0.026577 0.903072 -0.024078 -0.114264 0.355697 0.186373 0.118134 0.294877 
567 0.431549 -0.178906 0.003838 0.395406 -0.211292 -0.308741 0.059769 -0.161074 -0.277926 -0.291533 0.391236 0.500145 0.139066 -0.490076 0.409165 0.046597 -0.160362 0.359760 -0.526912 0.443386 -0.274029 0.496606 -0.515624 0.020038 -0.376435 0.020674 -0.031293 -0.098525 -0.154039 0.152124 1.219975 -0.093065 -0.823821 -0.493169 -0.290243 0.635130 -0.111327 -0.750610 0.156088 0.064076 -0.217153 -0.121955 -0.111378 -0.536708 0.422812 -0.124553 -0.141701 -0.457180 1.206709 -0.292710 -0.216442 -0.298114 0.419367 0.264005 0.155161 -0.105165 0.509135 -0.105917 -0.245538 0.255675 0.099083 0.041965 0.631295 -0.870228 -0.455761 0.176969 -0.151387 -0.057020 0.006585 -0.463332 0.385911 0.140247 -0.590324 -0.363771 0.341130 0.059287 -0.196891 -0.456028 -0.542002 -0.809738 0.417605 -0.069699 -0.420536 -0.574620 0.077443 -0.184069 0.227359 -0.529390 0.681623 -0.275308 0.669914 0.004548 -0.222219 0.322705 -0.265525 -0.272640 -0.151520 -0.083593 0.270849 0.147759 
542 -0.285259 -0.787911 0.051945 0.351705 -0.477729 0.171282 -0.298727 -0.728723 0.543896 -0.338598 0.509251 0.199509 0.149475 0.496338 0.197778 -0.113624 -0.331491 -0.165917 -0.165042 0.357675 0.009243 0.358882 -0.070114 0.095267 -0.523027 0.172941 -0.355299 -0.618173 -0.645310 -0.040538 0.884872 -0.214900 -0.723398 -0.644367 -0.066803 0.259160 0.389745 -0.036991 0.271567 0.501942 -0.606324 -0.344396 -0.501310 -0.584047 0.392244 0.499083 0.857377 -0.076811 0.155500 -0.488814 -0.561869 0.334180 0.092616 0.091166 -0.739134 0.341434 0.284111 -0.364279 -0.186300 -0.218354 -0.085709 0.164884 0.076952 -0.208150 -0.129438 0.671753 -0.356316 -0.634136 -0.075710 -0.338937 0.376412 0.724368 0.358493 0.221356 -0.238310 0.193905 0.593861 0.172821 -0.485117 -0.164903 0.185645 -0.126657 0.014644 -0.433861 0.211645 -0.577927 0.223672 -0.434926 0.434776 0.056751 0.992482 0.202816 -0.030175 0.436793 0.106169 0.208576 0.757019 -0.163883 0.146753 0.511899 
637 0.084896 0.701431 -0.191080 0.872252 -0.299759 -0.016776 0.091885 0.300747 -0.271508 0.350864 0.315029 0.046772 -0.123025 -0.470617 -0.120274 -0.069765 -0.296200 0.284362 -0.414253 -0.066526 0.023336 0.710978 -0.480972 0.381307 0.215374 -0.159608 0.120759 0.254822 0.150023 -0.267836 0.623209 -0.134504 -0.331736 0.617623 -0.209938 0.192608 0.013464 0.038042 -0.065544 0.605568 -0.423597 -0.963398 -0.482497 0.008865 -0.361695 0.543532 0.396198 -0.194703 0.919721 -0.076015 -0.237659 0.492689 0.099907 -0.287148 -0.411325 0.678686 0.765830 0.370586 0.322513 -0.593565 0.391834 -0.117235 -0.451565 -0.477985 -0.881543 -0.030666 0.489268 -1.149745 0.278623 0.588614 -0.430593 0.010683 -0.131550 -0.360254 0.591208 -0.276173 -0.017472 0.476347 -0.787843 0.174455 0.166409 0.220328 -0.757448 -0.767120 0.404862 0.411036 -0.142164 -0.464839 0.354714 0.557883 0.847033 0.041617 0.716139 0.896281 -0.360461 -0.710878 -0.483662 -0.064626 -0.068222 0.117837 
684 0.078360 -0.281048 -0.049668 1.162576 -0.071217 0.189661 -0.472718 -0.339917 -0.221073 -0.539800 -0.510768 0.398172 -0.315878 -0.270523 -0.561651 0.218286 0.988798 -0.274908 -0.345005 -0.097315 -0.582207 -0.269538 -0.065183 0.629293 -0.209806 0.706526 0.191552 -0.620155 0.225197 -0.529046 0.034928 -0.093297 -0.044888 -0.298768 0.634585 0.206886 -0.048891 -0.406774 -0.767660 -0.004734 -0.684598 -0.210130 -0.333531 -0.413266 -0.276823 0.822310 -0.537679 -0.840784 -0.281890 -0.369425 -0.077342 -0.085527 0.186283 0.154456 0.347445 -0.799374 -1.047215 -0.681386 0.434821 0.102268 -0.277487 -0.147902 -0.478905 -0.161178 -0.281685 -0.520498 0.146212 0.310213 -0.535652 -0.185154 0.375271 -0.234651 -0.836993 0.374132 0.312500 -0.231808 0.215046 -0.473419 0.154957 -0.002719 -0.418871 -0.550040 -0.025560 0.640585 0.067623 0.108393 0.158350 -0.719695 0.411611 -0.135001 0.153987 0.329166 0.081084 0.537291 -0.901652 -0.182373 0.583617 0.681303 -0.210793 -0.257614 
627 0.275362 0.433250 -0.397635 0.393750 0.015725 -0.044397 -0.012276 0.155667 -0.486647 -0.422140 -0.222902 0.602626 -0.007578 -0.057468 -0.218448 0.081082 0.250120 -0.311047 -0.058839 0.181168 -0.215098 0.225446 -0.194202 0.201419 0.112361 -0.446771 0.268578 -0.360743 -0.111476 -0.265100 0.213113 0.222368 -0.367578 -0.069679 0.037404 -0.004090 -0.045740 -0.275342 -0.041071 -0.329646 -0.435072 0.202896 -0.696582 0.133157 -0.183881 0.295022 0.314528 -0.722688 0.122454 -0.082465 0.324595 -0.034778 -0.328214 -0.101896 0.406051 -0.346650 -0.622555 -0.770759 0.336152 -0.038397 0.194515 -0.171019 -0.227987 -0.024169 -0.376751 0.090413 -0.573054 -0.576454 -0.365554 0.097830 0.544201 0.064858 0.160716 0.320398 0.087996 -0.555061 0.495709 -0.067493 0.079880 -0.392537 -0.328255 -0.636418 -0.063200 0.456078 0.339372 -0.407335 -0.128082 -0.291641 0.513845 -0.270995 0.310414 -0.156480 0.484406 0.762382 -0.564915 0.347089 0.167009 0.205736 -0.037994 -0.096242 
422 -0.566804 -0.101055 -0.256999 0.323574 -0.122689 -0.959437 -0.722530 -0.376629 0.544848 -0.079600 -0.000853 -0.289299 0.003112 -0.166603 -0.457431 0.242592 0.926535 0.242720 -0.529063 0.113631 0.464848 -0.256151 -0.136532 0.688506 -0.022293 0.511454 -0.213547 -0.436562 -0.275924 0.231009 0.781362 -1.129794 -0.023587 0.205299 0.667451 0.164001 -0.034890 0.184774 -0.334959 0.814160 -0.492014 0.100825 -0.273471 -0.932165 -0.335076 -0.475583 -0.336527 -0.027725 -0.121522 -0.605491 -0.643087 -0.293063 -0.397127 0.065633 -0.428553 -0.390529 -0.187660 -0.013591 -0.496327 0.222089 -0.600401 0.091385 0.080284 -0.696815 -0.137883 -0.011728 0.491401 -0.073480 -0.658538 0.534085 0.613403 -0.474685 -0.477320 0.145307 0.146946 0.391496 -0.132563 -0.328599 0.075691 0.125577 0.001012 -0.317084 -0.567536 -0.710486 0.207007 0.503850 1.090422 -0.852790 0.518519 -0.578603 0.239249 0.812528 0.681312 0.071165 -0.234406 -1.052880 -0.025287 -0.257414 0.106102 0.530890 
412 0.739792 0.062656 0.006405 0.791536 -0.106958 0.044444 -0.055643 -0.054030 -0.321098 -0.137222 0.440587 -0.374367 0.508877 -0.141836 -0.514843 -0.171663 0.136946 0.022774 -0.025207 0.349995 0.070508 0.337459 -0.300644 0.294421 0.123170 -0.495198 -0.100664 -0.265603 0.029490 -0.261948 0.498726 -0.147015 -0.866511 0.165257 0.191355 0.081134 0.060006 0.193657 0.028807 0.277456 -0.812609 -0.588547 0.266968 -0.283108 -0.177385 -0.324167 0.481687 0.467739 0.461917 -0.207964 -0.453299 0.327213 0.546528 0.158108 -0.338799 0.724600 0.435149 0.201787 -0.181235 -0.242835 0.346732 -0.060881 -0.457351 -0.287586 -0.450195 0.356813 -0.051733 -0.429752 -0.577063 0.463108 0.532654 -0.292771 0.024815 -0.177030 0.806844 0.077219 -0.593545 0.102156 0.160844 -0.245108 -0.523863 -0.066767 -0.222191 -0.521454 0.422463 0.597646 -0.111306 -0.069985 0.211221 0.367458 0.199404 0.198312 0.001945 0.221204 0.088375 -0.010801 -0.089325 -0.163062 0.157187 -0.065279 
558 0.405748 -0.361943 0.112353 0.102162 -0.184016 0.030669 -0.185697 -0.150346 0.014399 -0.352021 -0.161621 -0.300550 0.526062 -0.753831 -0.031184 0.429710 0.103204 -0.399449 -0.553129 0.169253 0.369671 0.013872 -0.756526 -0.077951 -0.370798 -0.041959 -0.251780 -0.202802 -0.198640 -0.577008 0.690447 -0.188005 0.045529 -0.689055 0.120875 0.643997 0.001160 -0.504557 0.363342 0.161841 -0.531610 -0.519883 -0.330018 -0.826745 -0.005600 -0.221972 -0.602435 -0.285704 0.710119 -0.464511 -0.429652 0.038490 -0.119798 0.272883 0.280148 0.136232 -0.207567 -0.515928 -0.596071 -0.115507 0.051427 0.075123 0.261020 -0.504808 0.070114 -0.368489 -0.167007 -0.327305 -0.002362 -0.309016 0.430908 0.241429 -0.340700 -0.038747 0.579915 0.671087 -0.302192 -0.396023 -0.642113 -0.122986 0.345616 0.069212 0.012660 0.093459 0.399706 -0.178935 0.636648 -0.784293 0.731868 -1.056403 0.494444 0.908264 -0.087340 0.366132 -0.686761 -0.108098 0.601850 0.193395 0.110429 0.525528 
589 0.203240 -0.303137 -0.551470 1.137077 -0.605840 -0.539672 -0.415481 -0.616311 -0.179849 0.008811 -0.741012 0.471902 -0.077236 -0.051623 -0.461632 -0.277811 0.221848 -0.584064 -0.207943 -0.510687 -0.617775 -0.687752 0.021312 0.598388 0.017178 0.552272 -0.497662 -0.897140 0.388902 0.095138 -0.035944 0.174027 -0.605261 -0.785683 0.658701 0.180763 0.114511 -0.040468 -0.679690 0.130531 -0.129276 0.386542 -0.140419 -0.213673 -0.806312 0.356737 0.433796 -1.169273 0.094130 -0.692853 -0.304529 0.006257 0.220014 0.407474 0.119068 -0.445771 -0.349357 -0.106462 -0.065907 -0.370880 -0.458060 0.357672 -0.434354 0.059836 -0.014427 0.337732 -0.427275 -0.660250 -0.216959 0.416908 0.302283 -0.842113 -0.298093 -0.198281 -0.567079 0.438415 -0.092762 -0.330025 0.618781 -0.290014 -0.260877 -0.339036 0.154266 0.040763 0.062128 0.414954 0.140015 0.132222 0.003843 0.030253 0.112537 0.240703 -0.125765 0.360826 -0.584170 -0.017204 0.512216 0.081773 0.053975 0.007629 
685 -0.141713 -0.339744 -0.198958 0.389733 -0.331601 0.097617 -0.106447 -0.277033 0.458090 0.146270 0.185880 0.761344 -0.452777 0.149703 -0.796957 -0.243992 1.062450 0.016374 -0.433139 0.040081 -0.084511 0.583722 -0.194120 1.095524 -0.102218 0.457999 -0.515439 -0.396106 0.207313 -0.239996 0.357634 -0.384824 -0.381427 -0.433592 1.313425 0.527262 -0.258601 0.413942 -0.449904 0.830970 -0.387551 -0.229905 -0.531232 -0.160475 -0.898161 0.221551 -0.047734 -0.315778 0.387278 -0.345235 0.360634 0.014232 0.174083 0.361101 0.275132 0.107287 -0.830414 0.371406 0.426762 0.240959 -0.550888 0.400771 -0.001981 -0.213703 0.565239 -0.448671 -0.291792 -0.059471 0.094811 -0.511865 0.215913 -0.249036 -0.606980 0.042120 0.197048 -0.150290 -0.153386 -0.238891 0.049447 -0.474599 -0.095567 -0.108509 0.097042 0.291699 0.320258 -0.241042 0.213956 -0.699787 0.666032 -0.167618 0.760905 0.241221 -0.003352 0.269180 -0.021695 -0.369684 0.511779 -0.341123 -0.302118 -0.427363 
575 0.090220 -0.323108 -0.070715 -0.119461 0.074087 0.075271 -0.047470 0.016600 0.650222 -0.141289 -0.243009 0.456508 -0.232017 0.288427 -0.427344 0.527405 0.704695 -0.356894 -0.063414 0.623257 -0.083224 0.122892 -0.574123 0.949716 0.299262 0.323549 0.105232 -0.617608 0.408959 -0.133373 0.387487 -0.204762 -0.075752 -0.094531 0.832087 0.790535 -0.183577 -0.394109 -0.241199 0.214928 0.128916 0.130613 -0.893870 0.071175 -0.496665 -0.192771 0.053923 -0.665987 0.014108 -0.801262 -0.260022 -0.103303 -0.160616 0.095269 -0.020590 -0.270842 -0.428419 -0.295162 0.051544 -0.246509 -0.786022 0.321866 -0.217866 -0.378104 0.321887 -0.545385 0.049295 -0.620384 -0.342575 -0.322200 0.659380 -0.070305 -0.250824 0.239518 -0.482282 0.477680 0.190691 0.131733 0.094569 -0.068954 0.071736 -0.362924 0.083265 0.657537 -0.080093 0.409769 -0.020773 -0.615984 0.471311 -0.324055 1.296061 -0.445330 0.137115 0.169086 -0.163827 -0.143546 0.702646 -0.008021 -0.324091 -0.155555 
623 0.404879 -0.388148 0.224257 1.149191 -0.402869 -0.194691 -0.140364 -0.809022 -0.343065 -0.028719 -0.371893 0.207087 -0.375285 -0.952859 -0.674200 -0.076809 1.079445 -0.273445 -0.332265 -0.611760 -0.515336 -0.239542 -0.206511 0.509737 -0.059821 0.347267 0.049075 -0.285173 0.145854 -0.003945 0.296122 0.652199 -0.517602 -0.177007 0.302296 -0.108536 -0.159183 -0.161800 -0.632159 0.018220 -0.332483 0.003828 0.028942 -0.361414 -0.302524 0.802809 0.037760 -0.967929 0.370403 -0.823981 0.035379 -0.287872 0.105487 -0.073485 0.324830 -0.351760 -0.544827 -0.707033 -0.306346 -0.250002 -0.355105 0.068261 -0.195173 -0.160334 -0.584480 -0.199181 0.057087 0.077940 -0.220768 -0.124488 0.901993 -0.351342 -0.797374 0.437172 -0.060243 0.076605 -0.165891 -0.937750 0.396048 -0.527339 -0.247881 0.018524 -0.308231 -0.129014 -0.128269 0.506856 0.067139 -0.121625 0.586796 -0.178340 0.138106 0.094491 0.445394 0.508309 -0.593130 0.057229 0.037492 0.763148 -0.284376 -0.224199 
625 0.085209 -0.335894 0.037655 0.852881 -0.418726 0.255886 -0.755724 -0.234486 0.425062 -0.120861 -0.259373 0.645802 -0.498022 0.128671 -0.986016 0.313233 0.478992 -0.376469 -0.268872 0.052745 -0.127172 -0.442405 -0.249294 0.260109 -0.087164 0.643694 0.140270 -0.557951 -0.003163 -0.771304 -0.265560 0.260338 0.053467 -0.102027 0.620914 0.171339 0.473486 -0.183883 -0.679154 0.285416 -0.143790 -0.114959 -0.160173 -0.915756 -0.234420 0.892677 -0.100087 -0.966357 -0.168669 -0.845048 -0.297361 0.093836 0.361484 0.136652 0.331676 -0.499881 -0.458764 -0.635688 0.182195 -0.390523 -0.117643 0.041532 -0.333983 -0.121161 -0.575807 -0.392447 0.119849 -0.235355 -0.400528 -0.034577 0.840602 -0.484560 -0.483937 0.489473 -0.168815 0.081072 0.508339 -0.234900 -0.041399 -0.094871 -0.299498 -0.048978 -0.085918 0.297389 -0.120695 -0.026458 0.438412 -0.857610 1.064958 0.099880 0.397250 0.297005 0.519628 0.510940 -0.604399 0.098094 -0.046960 0.459547 0.010737 -0.056707 
646 0.458237 0.148736 -0.018271 0.230218 -0.251136 0.139179 0.708240 0.347191 -0.273597 -0.238901 0.612076 0.380136 0.161096 -0.275006 0.000534 -0.471225 0.287038 0.271665 -0.447306 0.182850 0.288948 0.546932 -0.190815 0.408123 0.333672 -0.400001 -0.454778 -0.032856 -0.611631 -0.161526 1.134426 0.578085 -0.907679 -0.887818 0.451652 0.091322 0.100777 -0.390096 0.257248 -0.022511 -0.670615 -0.206004 -0.479260 -0.319521 -0.343451 0.195112 0.611249 -0.360898 -0.190771 -0.508998 0.512746 -0.341284 0.142075 0.154514 -0.166549 0.235020 -0.491594 0.161645 0.579690 -1.051410 0.896922 0.146908 0.079197 -1.064339 -0.445481 -0.142257 -0.529486 -0.878601 -0.343475 -0.046897 0.569458 0.067704 -0.262325 0.058742 -0.043463 0.711569 -0.127270 0.159624 -0.771956 -0.001258 -0.164585 -0.952674 0.006344 -0.092453 0.382255 -0.772127 -0.415108 -0.375061 0.202823 0.377279 0.451500 0.104236 -0.451834 0.266488 -0.472490 0.763291 -0.422503 -0.009541 -0.243296 0.331559 
654 0.204472 0.121717 -0.309722 0.752621 -0.189276 0.270591 -0.585248 -0.182440 0.042799 0.368212 -0.349190 0.184770 0.011939 0.097757 -0.502858 0.282999 0.086983 -0.618697 -0.043684 -0.075606 -0.510596 0.080867 -0.182539 0.662146 -0.093646 0.424570 -0.035446 -0.222450 0.602532 -0.298995 0.127417 -0.237944 -0.370021 -0.141080 1.245973 0.625772 -0.365906 0.440453 -0.394712 0.355641 -0.086273 -0.362918 -0.118610 -0.328546 -0.921802 0.688864 0.242145 -0.375364 0.675561 -0.763708 -0.291595 0.594526 0.551775 0.057099 -0.110736 -0.251511 0.034980 0.102768 -0.319083 0.023477 -0.849544 0.121392 -0.463362 0.163250 0.104187 0.245727 0.231007 -0.657054 -0.481742 0.214355 0.547837 -0.177944 -0.277413 -0.297535 -0.276448 -0.179377 0.021621 0.186664 0.351429 0.358970 -0.802952 0.001249 0.169117 0.630880 0.087912 -0.028386 -0.131955 -0.119385 0.510502 -0.014525 0.563205 -0.170472 -0.388944 0.160659 0.295534 0.174050 0.471133 -0.153482 -0.103618 -0.231795 
611 -0.106186 -0.446152 0.013536 0.922601 -0.090332 -0.123300 -0.341360 -0.694098 -0.328300 -0.425990 -0.279643 0.066643 -0.012652 -0.231009 -0.536190 -0.010785 0.813266 -0.495250 -0.345637 -0.345884 -0.553044 0.205350 -0.042126 0.855040 -0.046238 0.026649 -0.235153 -0.180142 0.247551 -0.242976 0.148935 -0.079138 -0.538416 -0.378517 0.847506 0.239029 -0.477475 0.347127 -0.527895 0.213154 -0.116898 0.017203 -0.560235 -0.622183 -0.431530 0.388770 -0.025325 -0.553616 0.209557 -0.885620 0.002882 -0.275808 -0.385673 0.163684 0.258278 -0.697019 -1.061484 -0.423589 -0.011853 0.426122 -0.737826 0.255335 -0.336171 0.012201 -0.256816 0.225651 -0.268171 0.197273 -0.203328 -0.042492 0.756137 -0.661810 -0.402918 0.088233 -0.121544 0.039463 0.367140 -0.350200 0.274529 -0.315691 -0.318125 -0.382622 0.305648 0.457731 0.170625 0.082714 0.588476 -0.336707 0.643331 -0.595590 0.298061 0.207548 0.256415 0.503762 -0.643315 -0.001704 0.539969 0.230652 -0.435026 -0.123869 
431 0.114304 0.240218 -0.264149 0.054680 -0.477527 -0.798961 -0.560630 0.142888 -0.644589 0.005817 0.116647 -0.435961 0.341542 -0.656222 -0.143481 0.123351 0.595321 -0.091652 -0.855863 -0.054600 -0.017650 0.459581 0.000220 -0.636235 -0.462214 0.089748 -0.703672 -0.119057 -0.155057 0.112962 0.601411 0.050450 -1.005413 -0.221861 0.649542 0.314182 0.253398 -0.001670 0.716551 -0.327512 -0.346647 -0.312640 -0.131204 -0.243666 -0.118386 -0.421038 0.691989 0.170912 0.636469 -0.412123 -0.273579 -0.108853 0.193607 0.234050 -0.024478 0.525154 -0.180995 -0.051894 -0.820832 -0.338946 0.265959 0.052634 0.421765 -0.734942 -0.118432 0.427330 0.002078 -0.874068 -0.077350 0.252040 0.239516 0.750064 -0.378644 0.088107 -0.199438 0.036140 -0.329016 -0.001471 -0.371496 0.043549 -0.189684 -0.172591 -0.546475 -0.466229 0.079535 0.002613 -0.585374 -0.299853 0.271319 -0.256418 0.656353 0.127207 -0.017592 0.396367 0.102705 0.145172 0.216119 0.069103 0.289339 0.329447 
600 0.122468 0.567896 -0.346349 0.381393 0.013217 0.023997 0.083480 0.190846 -0.320921 -0.412530 -0.208370 0.521013 0.001370 0.003597 -0.447687 0.012273 0.105980 -0.331123 -0.005220 0.280329 -0.184359 0.262321 -0.248657 -0.026439 0.017803 -0.374357 0.184167 -0.353060 -0.150018 -0.264787 0.215861 0.405323 -0.529064 -0.012332 0.108670 0.032257 -0.045540 -0.194427 -0.020784 -0.301313 -0.502112 0.105829 -0.617870 0.091420 -0.185827 0.294909 0.362412 -0.646378 0.349675 -0.010265 0.210836 -0.094572 -0.343553 -0.190258 0.545622 -0.315213 -0.651308 -0.701370 0.316028 -0.080400 0.104228 -0.097578 -0.353922 -0.050206 -0.520057 0.191588 -0.433866 -0.533179 -0.570589 0.141629 0.530915 0.021227 -0.100408 0.319773 -0.030910 -0.557917 0.388194 0.063252 0.212898 -0.519650 -0.437759 -0.737495 -0.147920 0.538832 0.304079 -0.279228 -0.154001 -0.292080 0.581931 -0.153069 0.399880 -0.266295 0.689225 0.700850 -0.458119 0.348003 0.295519 0.177466 0.011169 -0.337439 
582 0.356975 0.627118 -0.391485 0.463375 -0.090730 0.166564 0.112728 0.148824 -0.601099 -0.580294 -0.230989 0.442029 -0.055336 -0.015953 -0.202510 0.073738 0.268130 -0.155603 -0.131328 0.227768 -0.192716 0.320688 -0.111073 0.317504 0.089151 -0.357916 0.355629 -0.420830 -0.206969 -0.174884 0.286321 0.188408 -0.612425 0.066403 -0.049022 -0.114261 0.104540 -0.106109 0.059460 -0.242513 -0.555928 0.204896 -0.503268 0.072170 -0.217920 0.370667 0.533982 -0.483438 0.148512 0.055625 0.212166 0.058623 -0.379218 -0.250181 0.288212 -0.191143 -0.464595 -0.844282 0.184040 0.075001 0.012240 -0.359158 -0.164648 0.275673 -0.306733 0.232784 -0.505134 -0.819355 -0.401567 0.146942 0.532192 0.093945 0.264184 0.411405 0.203628 -0.721174 0.485015 0.013897 0.300130 -0.422934 -0.368077 -0.584592 0.052562 0.380030 0.399785 -0.271829 -0.104637 -0.400923 0.602749 -0.269154 0.466645 -0.025174 0.573897 0.834110 -0.430509 0.347437 0.105155 0.219155 0.140755 -0.128184 
559 0.299896 -0.170635 0.011755 0.410725 -0.165709 -0.089235 -0.227233 -0.162045 -0.041133 -0.256903 0.005021 -0.184224 0.674948 -0.000638 -0.210240 0.009306 -0.242155 -0.256985 -0.600039 0.238509 0.149169 0.610059 -0.088171 0.276399 -0.157907 -0.256984 -0.493487 -0.091694 -0.384105 -0.418745 0.767501 -0.245823 -0.823718 -0.034246 0.410741 0.034424 -0.168870 -0.067213 0.466502 -0.275361 -0.496588 -0.253432 -0.112550 -0.055868 0.226315 0.076534 0.151127 0.043941 -0.085853 -0.243388 -0.053757 0.056395 -0.043989 -0.262011 -0.374436 0.361392 0.176027 0.091499 -0.192931 -0.366220 0.143326 0.100061 -0.182751 -0.333914 0.468762 0.254004 -0.314487 -0.432510 -0.413330 -0.452369 0.138934 0.608974 -0.056528 -0.046542 0.588512 0.244926 -0.259145 -0.006263 -0.055356 0.487962 -0.406131 0.143653 -0.382699 -0.393689 0.084814 -0.050157 0.055445 -0.435169 0.233880 -0.307761 0.367107 0.270530 0.129202 0.446658 -0.132292 0.099040 0.473926 0.108439 0.272202 0.425597 
378 0.092470 0.028060 0.050491 0.097126 -0.078121 -0.556938 0.130704 0.079966 -0.591527 -0.719224 0.330609 -0.365837 0.429554 -0.269731 -0.096484 -0.144696 -0.210090 0.207135 -0.511271 0.596796 0.116055 0.477548 -0.277813 0.190431 -0.066105 -0.216010 -0.403261 -0.473921 0.327537 -0.298562 0.112105 -0.509820 -0.809030 0.336929 -0.105987 0.504435 -0.099203 -0.659199 0.437732 -0.477155 -0.820645 -0.195984 -0.070416 -0.048843 0.047952 -0.188406 0.031214 -0.183687 0.109824 -0.121294 0.113755 -0.035611 -0.074149 -0.392840 -0.127072 0.310583 0.011718 -0.130447 0.016468 -0.047932 0.165453 0.157304 0.026493 -0.465616 0.113062 0.211253 -0.392657 -0.898482 -0.028148 -0.040633 -0.202608 0.192185 0.236744 -0.390104 0.781590 0.147410 -0.196218 -0.099694 -0.319642 -0.074208 -0.212676 0.051107 -0.518857 -0.297560 0.663731 -0.049935 0.054388 -0.447310 0.044638 -0.165752 0.533070 0.306885 -0.272923 0.559602 0.065285 -0.230660 0.508904 0.338246 0.401178 0.046259 
612 -0.166985 -0.165802 0.027261 0.406095 -0.588950 -0.380115 -0.302778 -0.512585 0.233340 0.425745 -0.096060 0.642743 -0.263712 -0.716717 -0.668960 -0.427527 0.939342 0.292916 -0.346201 -0.286966 -0.276274 0.331552 -0.114215 0.868796 0.364218 0.778642 -0.481109 -0.232720 0.387710 -0.232394 0.362918 -0.200931 -0.315132 -0.333321 0.790492 0.602589 -0.753424 0.024624 -0.835467 0.623638 -0.329203 0.225323 -0.022552 -0.002234 -0.619463 0.354371 0.057363 -0.416981 0.564223 -0.688079 0.110307 -0.067968 0.414449 0.167385 0.181213 0.094450 -0.686449 -0.046799 0.420865 -0.384230 -0.447508 0.329383 -0.024711 -0.279880 0.082605 -0.472236 0.032922 -0.286732 0.011212 -0.847751 0.707718 -0.322789 -0.897938 -0.170338 0.243303 0.139840 -0.141298 -0.287912 0.047843 -0.570757 -0.145195 0.345652 -0.688863 -0.213388 0.257878 -0.127501 -0.018103 -0.097796 0.396739 -0.258678 0.715724 0.202011 -0.071757 0.729525 0.094672 -0.304369 0.312649 0.028181 -0.148699 -0.003759 
644 0.537104 -0.583615 -0.092388 0.639376 0.185494 -0.020378 -0.129065 -0.119914 0.322390 0.087618 -0.058174 0.879350 -0.528032 -0.471591 0.110373 0.302731 0.230909 -0.136682 -0.806417 -0.150068 -0.403997 -0.360081 -0.549731 1.172530 0.335922 0.681213 -0.182545 -0.455406 0.523805 0.044292 0.669234 -0.222704 0.016555 -0.604658 0.686174 0.731008 -0.079471 -0.136925 -0.280800 0.603732 -0.720028 0.024855 0.091993 -0.219052 -0.826716 0.379023 -0.536393 -0.926080 -0.012333 -0.412305 -0.048570 0.029835 0.767612 0.298940 -0.022176 -0.108185 -0.297673 -0.241028 -0.246572 -0.140098 -0.326030 0.380868 0.145995 0.042353 0.194116 -0.294007 -0.091215 -0.152259 0.076328 -0.425507 0.183055 -0.538851 -0.821370 -0.807813 -0.086248 -0.146788 -0.320802 -0.698003 0.456470 0.098582 -0.248684 0.078522 -0.233231 0.522621 0.431972 0.221608 0.379104 -0.317662 0.291788 -0.583037 0.472271 0.632054 -0.719283 0.636397 -0.047238 -0.320272 0.184574 -0.107384 -0.254068 0.075446 
588 -0.219173 -0.409968 -0.014763 0.197372 -0.164152 -0.146221 -0.116548 -0.269123 0.752213 -0.037850 0.220486 0.558232 -0.711025 0.708872 -0.946512 -0.069658 0.593021 -0.125304 -0.273322 0.447610 0.325204 0.064776 -0.656013 0.948887 -0.195929 0.502821 -0.123853 -0.266167 -0.057841 -0.689622 0.545344 -0.402057 -0.432040 0.304307 0.833859 0.158904 0.090214 0.132881 -0.195393 0.750064 -0.153834 -0.003175 -0.503924 -0.552605 -0.528112 0.188395 -0.095066 -0.899820 0.028833 -0.508959 -0.008965 -0.192723 -0.383773 -0.117085 0.158287 -0.279424 -0.174473 -0.027452 0.080577 -0.245220 -0.109745 -0.032357 -0.008042 -0.421598 0.161207 -0.548672 0.194557 -0.494189 -0.434941 0.259515 0.462730 -0.319730 -0.308301 0.362917 -0.089476 -0.106630 0.453423 0.006715 -0.221673 -0.137192 -0.265327 -0.439673 -0.093219 0.039669 0.204640 -0.267062 0.677566 -1.334275 1.143890 0.212099 0.394305 0.204555 0.286978 0.073938 -0.142481 -0.268043 -0.210923 0.057074 -0.342116 -0.094942 
599 0.290701 0.725665 -0.230860 0.262431 -0.061299 0.088844 0.161366 0.046819 -0.588367 -0.300973 -0.025946 0.694720 -0.116463 -0.082085 -0.213369 -0.026080 0.268898 -0.299472 0.112190 0.099177 -0.020004 0.155163 -0.189344 0.219972 0.013705 -0.334301 0.111909 -0.353119 -0.276789 -0.219006 0.483138 0.332860 -0.368790 -0.110409 0.074494 0.048711 0.005469 -0.339186 -0.018134 -0.219385 -0.171666 0.069280 -0.848749 0.003354 -0.110769 0.331302 0.247883 -0.668042 0.239434 0.030631 0.129854 -0.123050 -0.378006 -0.144313 0.342042 -0.373327 -0.613979 -0.776317 0.318297 -0.235128 0.192969 -0.175376 -0.208330 -0.013692 -0.344611 0.008893 -0.466464 -0.482962 -0.363534 0.137417 0.532045 0.148078 -0.052023 0.360532 0.091201 -0.509646 0.274775 0.006519 -0.131485 -0.458914 -0.258863 -0.928118 0.028380 0.609916 0.450024 -0.361909 -0.246596 -0.422002 0.748002 -0.471142 0.372479 0.031705 0.479540 0.543176 -0.707607 0.426973 0.289681 0.351338 -0.037443 -0.152173 
662 0.297572 0.650504 -0.366481 0.279468 -0.057537 -0.012229 0.190266 0.112021 -0.559010 -0.317312 -0.113568 0.662138 -0.084139 -0.094636 -0.191814 0.023846 0.215359 -0.268710 0.032518 0.126459 -0.092083 0.164164 -0.209847 0.202053 0.114486 -0.368682 0.086525 -0.368812 -0.235012 -0.230949 0.380937 0.314310 -0.389988 -0.103157 0.096540 0.001824 0.044003 -0.337018 -0.030612 -0.334068 -0.316841 0.133510 -0.762538 0.056552 -0.140735 0.323111 0.317667 -0.684112 0.187066 -0.018409 0.289493 -0.085299 -0.357780 -0.150215 0.329202 -0.358939 -0.676511 -0.783831 0.367696 -0.197126 0.151302 -0.204606 -0.156194 0.008322 -0.333550 -0.008526 -0.479278 -0.566994 -0.416135 0.092207 0.590570 0.091895 -0.004887 0.338331 0.085800 -0.464174 0.384402 -0.005329 -0.046465 -0.428424 -0.308469 -0.779294 -0.029866 0.591597 0.392839 -0.451734 -0.163592 -0.359003 0.668941 -0.320074 0.350012 -0.028205 0.479717 0.685845 -0.608840 0.363587 0.218971 0.273607 -0.035839 -0.157484 
645 0.177111 0.154974 -0.386561 0.061821 0.157861 -0.470516 0.290364 0.135165 -0.807724 -0.209160 0.518316 0.256295 0.282304 -0.326319 -0.212505 -0.168484 -0.443156 -0.161338 -0.194608 0.054300 0.819213 0.223139 0.144098 0.474411 0.205522 -0.270539 -0.039968 0.209040 -0.807514 0.181889 1.030885 -0.031185 -0.365679 -1.040439 0.799461 0.132394 -0.235718 -0.653964 0.415211 -0.383408 -0.689150 -0.692005 -0.442478 -0.159654 -0.341483 -0.198487 -0.138905 -0.540689 0.327946 -0.597690 0.468906 -0.106604 -0.285690 0.000632 -0.057465 -0.052588 0.032634 0.080045 -0.155806 -0.637761 0.101821 0.014195 0.173974 -1.252277 0.123385 0.016813 0.033290 -0.904841 -0.474986 0.860453 0.320461 0.105217 -0.321263 0.488742 -0.413679 0.766237 -0.155827 0.162312 -0.654195 0.388216 -0.412828 -0.773039 -0.229098 -0.274294 0.222578 -0.462786 0.381842 -0.155999 -0.413713 -0.775646 0.123998 0.050040 -0.203116 -0.508793 -0.633044 -0.052973 0.721738 -0.157740 -0.326992 0.200271 
513 0.186792 -0.002304 0.173350 -0.158693 0.365169 0.147761 -0.369753 0.302907 -0.285071 -0.277011 0.512559 -0.094009 0.253864 0.183621 0.286015 -0.172131 -0.138803 -0.467934 -0.102323 -0.139990 0.056215 0.577740 -0.475706 0.298008 -0.080633 0.161674 -0.136297 0.089834 -0.331004 -0.132980 0.705693 -0.162245 -0.373622 0.162834 0.345641 0.288476 -0.310210 -0.425872 0.081818 0.004149 -0.320547 -0.184092 -0.362664 0.370744 0.297996 -0.008908 -0.051851 0.084245 0.696264 -0.185336 0.036943 0.352064 0.117277 -0.549714 0.026136 0.054260 0.398328 -0.444493 -0.026474 -0.273793 0.447251 -0.032262 0.125695 -0.745892 -0.441831 -0.028387 -0.047703 -0.306036 -0.357578 -0.111081 -0.209085 0.485161 -0.616133 0.185084 0.281369 0.356838 -0.374833 -0.435877 -0.322552 0.079027 -0.317944 0.076989 -0.535039 -0.351071 0.790632 -0.278867 0.079487 0.141855 -0.005688 -0.411678 0.478721 0.227950 0.240212 0.706469 0.168881 -0.716396 0.390845 -0.276041 0.124740 0.583080 
617 0.676728 -0.158896 0.107028 0.194298 -0.060929 0.240975 0.276279 0.011490 0.152238 0.114199 -0.164103 0.209222 -0.475957 -0.428879 0.032035 0.463415 1.062155 -0.219332 -0.059376 0.410413 -0.169524 0.108199 -0.357257 1.091940 0.281121 0.239183 0.367656 -0.406537 0.881000 0.290955 0.382669 0.089876 -0.580916 -0.060519 0.874393 0.647082 0.000519 -0.171562 -0.333159 0.565419 -0.522579 -0.116625 -0.268608 0.238532 -0.750539 0.060094 0.070927 -0.489702 0.514994 -0.285089 -0.327922 0.174040 0.537898 0.481330 0.122706 -0.026918 -0.223914 -0.409632 -0.472538 0.209033 -0.893457 0.362492 -0.212110 -0.297326 -0.119166 0.005310 0.314685 -0.280643 -0.102623 -0.479247 0.554151 -0.078036 -0.829677 -0.378608 -0.208621 -0.103398 -0.311741 -0.320473 0.371071 -0.519176 -0.075513 -0.052292 0.291918 0.588528 0.114978 0.748224 -0.595550 -0.252219 0.437913 0.004118 1.137026 -0.379679 -0.018322 0.128922 0.092096 0.043005 0.357109 -0.259148 -0.501320 -0.234959 
678 0.376164 -0.184750 -0.150709 0.785706 -0.236484 -0.529683 -0.352590 -0.139534 -0.228518 0.213743 -0.611934 -0.229799 -0.958230 0.219872 -0.318645 0.444412 0.871536 0.288431 -0.424339 -0.085281 -0.349097 0.248840 0.292951 1.140296 0.063721 0.387105 -0.227382 -0.525530 -0.513446 -0.268862 0.706184 0.192210 -0.115258 0.143748 1.054988 -0.044404 0.191970 -0.301783 0.162376 0.577582 -0.497708 -0.597707 -0.263536 0.038399 -1.083823 0.304072 0.064291 -0.932082 0.157061 0.119640 0.101495 0.406037 0.339383 0.563168 0.328176 0.063956 0.010136 0.035580 -0.221745 -0.146463 -0.227781 -0.415246 -0.594096 -0.321812 0.390408 0.126662 0.269595 -0.247285 -0.239967 0.274908 -0.609871 0.136693 -0.477870 0.249723 -0.532610 -0.013067 0.000732 -0.822686 -0.630275 0.320268 0.253317 -0.370042 0.260128 -0.389057 -0.692081 0.204942 -0.344077 -1.345248 -0.009604 0.279688 0.654393 -0.115039 0.878352 -0.171809 -0.487810 -0.390209 0.046310 0.074034 -0.116878 -0.179872 
640 0.364431 0.426509 -0.479833 0.352775 0.006460 -0.071360 0.074215 0.154847 -0.555104 -0.431716 -0.281530 0.575958 -0.048982 -0.122009 -0.143178 0.153340 0.267123 -0.208149 -0.158153 0.159260 -0.218358 0.168856 -0.169815 0.301395 0.200652 -0.451361 0.205937 -0.425771 -0.158250 -0.253006 0.185428 0.147003 -0.436877 -0.062261 0.004208 -0.035836 0.022102 -0.286590 0.015790 -0.386450 -0.461258 0.225124 -0.602427 0.118036 -0.186426 0.269732 0.362650 -0.654482 0.055292 -0.069012 0.421267 -0.053940 -0.330679 -0.153364 0.253909 -0.289482 -0.656973 -0.818376 0.333621 -0.035102 0.108964 -0.304569 -0.102555 0.147152 -0.228611 0.049170 -0.539457 -0.739608 -0.355887 0.026492 0.586339 0.018336 0.235852 0.309280 0.141035 -0.518310 0.519076 -0.093903 0.135016 -0.341889 -0.253930 -0.546084 -0.057998 0.480913 0.317212 -0.450989 -0.067164 -0.278893 0.516100 -0.256988 0.334225 -0.069558 0.407325 0.872540 -0.519933 0.318939 0.109670 0.243946 -0.052312 -0.045771 
107 0.014338 0.429340 -0.295564 0.882861 -0.504623 0.400826 -0.029272 -0.164408 0.148707 -0.351213 -0.316278 0.230650 0.352005 -0.343243 0.388246 0.285902 0.077713 -0.089881 -0.178003 0.303989 -0.324126 0.243396 -0.301002 -0.214538 -0.935021 0.041819 -0.096720 -0.350822 0.866677 -0.108520 0.501038 -0.181926 -0.146443 0.547246 -0.432830 0.263132 0.494371 -0.078110 0.288033 -0.064572 -0.592193 0.233973 -0.521952 -0.932773 -0.730854 0.442984 0.664913 -0.236792 0.026341 -0.049721 -0.354978 0.417725 0.063926 0.177562 0.345711 -0.035393 0.464382 -0.830971 -0.269575 -0.080216 -0.199906 0.678991 -0.216901 0.004692 -0.703061 0.227538 0.272809 -0.233522 0.138873 -0.424623 0.132324 0.025533 0.059488 -0.336308 0.767368 0.024496 0.595424 -0.391922 -0.246487 -0.092794 0.284812 0.155902 -0.508574 -0.011307 0.373923 -0.233782 0.153987 -0.694848 0.329958 -0.490607 0.456507 -0.029365 1.109956 1.284757 -0.036911 -0.693901 -0.273472 -0.398823 0.547615 0.770210 
394 0.561226 0.739152 -0.921591 0.551456 -0.192899 -0.298469 -0.432413 0.372360 0.143381 0.013705 -0.454086 -0.565745 0.111422 -0.088644 0.144982 0.390874 -0.064614 0.176871 -0.872046 -0.399824 -0.766626 0.484357 -0.247945 0.479516 0.665878 -0.494853 -0.376171 -0.421674 -0.039553 -0.096156 0.220916 0.309994 -1.072333 -0.038904 0.204528 0.004270 0.076017 0.400839 0.197833 -0.344050 -0.567775 -0.123534 0.387226 -0.084613 -0.909712 -0.170978 0.568627 0.191627 0.215540 -0.063360 -0.271908 0.493467 0.609068 0.079017 -0.484124 0.570703 0.555502 -0.052047 -1.080929 -0.122548 -0.697955 0.012095 -0.360816 -0.319353 -0.036054 0.608992 -0.308173 -1.075259 -0.208671 -0.141940 0.581224 0.237685 0.494105 -0.567413 -0.203803 0.034638 0.301931 -0.399374 0.220241 0.061847 -0.616770 0.292239 -0.327761 -0.198961 -0.073279 0.241246 0.024074 -0.362887 0.723049 -0.129986 0.826549 0.338554 0.433730 0.959965 0.076289 0.007810 -0.188816 -0.372261 0.497007 0.543142 
592 0.117562 0.061120 -0.388747 0.547648 -0.395496 -0.120573 0.008574 -0.372897 -0.006921 0.057529 -0.414807 0.325267 -0.126970 0.229967 -0.439778 0.088368 0.429310 -0.545728 -0.034486 0.234886 -0.237421 0.059793 -0.099817 0.576871 -0.307185 0.710457 0.052016 -0.827568 0.189251 -0.492213 0.236939 0.044236 0.253661 -0.250189 0.775384 0.317795 0.268171 0.024422 -0.628465 0.744862 -0.276224 -0.192192 -0.358673 -0.294861 -0.841403 0.761249 -0.060795 -0.308265 -0.125169 -0.258371 -0.297730 0.496415 -0.015418 -0.055166 0.077028 -0.626114 -0.164674 0.328105 0.242797 0.327989 -0.501383 0.003912 -1.020558 -0.049030 -0.002363 0.066093 0.245265 -0.386162 -0.035957 -0.079299 0.114126 -0.335009 -0.417136 -0.420003 0.139468 -0.348106 -0.191692 -0.583071 -0.052314 0.078519 -0.218873 -0.245130 0.159937 0.355250 -0.010367 0.367676 -0.067340 -0.461644 0.686409 0.156070 0.623373 0.033655 0.080713 -0.163412 -0.653956 -0.172946 0.217300 0.218512 -0.242572 -0.021195 
603 0.591116 -0.604574 -0.034621 0.595029 -0.128327 0.047987 -0.094980 -0.358090 -0.124602 -0.225153 -0.320713 -0.106562 -0.460274 -0.234882 -0.459331 0.436042 0.725975 -0.742076 0.070570 0.369205 -0.272484 -0.407601 -0.456427 1.093001 0.153025 0.437767 0.335528 -0.288024 0.470592 -0.507372 0.419308 0.185657 -0.621910 0.177715 0.597649 0.179886 -0.170424 0.011577 -0.622568 0.038566 -0.462576 -0.016531 -0.441033 -0.371429 -0.530998 0.587252 0.147938 -0.991937 0.202270 -0.952205 -0.525866 -0.186085 0.392438 -0.024163 -0.170569 -0.606229 -0.177125 -0.841978 -0.600730 -0.176213 -0.326781 0.007916 -0.203173 -0.255460 -0.438751 0.026930 0.238929 -0.293828 -0.953763 0.442108 0.797969 -0.501407 -0.539507 0.092622 -0.486011 0.185846 0.219547 0.106963 0.368121 -0.094426 -0.499847 -0.624627 0.127680 0.261424 -0.090453 0.673869 0.023648 -0.240026 0.254224 0.079644 0.423057 -0.234752 -0.075471 0.225903 -0.165952 0.177967 0.455933 0.415620 -0.148220 -0.269922 
514 0.341046 0.082753 -0.338891 0.569789 0.070790 -0.186780 0.067220 -0.341024 -0.148254 -0.098706 0.714531 -0.068406 0.069451 0.001842 -0.897107 -0.311136 -0.017713 -0.290624 -0.189654 0.579948 -0.126139 0.630105 -0.080041 0.123492 -0.479842 -0.523799 -0.331354 -0.440902 0.174307 -0.068201 0.390357 -0.413814 -1.334720 0.054934 0.410552 0.014525 0.599924 0.035446 0.209278 0.056909 -0.628426 -0.452900 0.040683 -0.581734 -0.102872 -0.509333 0.451124 0.134400 0.428378 0.082064 -0.336587 0.316289 0.637459 0.141828 0.335126 0.341712 0.845016 -0.074172 -0.380748 -0.284788 -0.203688 0.274111 -0.213140 -0.733484 -0.204900 0.735052 -0.153814 -0.588768 0.057463 0.523471 0.593080 -0.027546 0.025181 -0.064621 0.146796 0.152786 -0.210906 0.250419 -0.481627 -0.533863 -0.384449 0.215967 -0.069891 -0.784106 0.625036 0.110440 0.231787 0.005709 0.337513 -0.467885 0.603151 -0.046094 0.763257 0.428756 -0.052509 -0.424062 0.738197 -0.603422 -0.004859 0.088417 
615 0.290266 0.528512 -0.407770 0.346886 -0.045369 -0.142244 0.037545 0.137091 -0.463839 -0.236717 -0.189635 0.658069 -0.033758 -0.026074 -0.215970 0.128155 0.133915 -0.307594 -0.007731 0.150971 -0.188266 0.164517 -0.256492 0.140656 0.186190 -0.397226 0.131376 -0.405465 -0.223662 -0.264895 0.299549 0.266501 -0.403805 -0.146200 0.093858 0.064263 -0.004860 -0.375614 -0.032994 -0.414890 -0.363521 0.159754 -0.698408 0.119254 -0.105438 0.263693 0.243032 -0.719067 0.100123 -0.018653 0.290386 -0.024405 -0.417967 -0.078340 0.356391 -0.352802 -0.730613 -0.775007 0.415712 -0.151907 0.081295 -0.137682 -0.193821 -0.045791 -0.430267 0.021507 -0.513932 -0.547766 -0.408827 0.024550 0.633479 0.099730 0.047611 0.279620 -0.008735 -0.468690 0.429564 0.048631 -0.018548 -0.444614 -0.385211 -0.703324 -0.080236 0.551696 0.321293 -0.376480 -0.166332 -0.282799 0.548038 -0.212129 0.283168 -0.127075 0.467777 0.806768 -0.604411 0.311367 0.222925 0.195090 -0.104379 -0.165363 
620 -0.150182 -1.209185 0.050483 0.288532 -0.265650 -0.651940 -1.257998 -0.146674 -0.223261 -0.178067 0.394570 -0.128178 -0.231468 0.476418 -0.833348 0.203257 0.738519 -0.924068 -0.750296 -0.234698 0.008104 -0.152555 -0.368118 0.537278 -0.090523 1.146801 -0.267537 -0.319496 0.129851 -0.822582 -0.061799 -0.445666 -0.325260 0.215233 1.300580 0.839543 0.177452 -0.301656 -0.079009 0.852190 0.183539 -0.556508 -0.063215 -0.171210 -0.180203 0.642551 -0.462898 -0.364550 0.415286 -0.807238 -0.060700 0.625454 0.277833 -0.233975 -0.330113 0.455965 -0.197091 0.117214 -0.038920 0.123369 -0.800170 -0.084596 -0.280884 -0.275513 0.291678 0.019965 -0.059949 -0.535244 0.110278 -0.104168 0.288314 0.331868 -0.759313 -0.166116 -0.405449 0.446677 -0.472537 -0.573385 0.161309 0.174743 -0.164257 0.109737 -0.597007 -0.335287 0.052447 0.277631 0.527936 -0.228318 0.240792 -0.061833 1.087001 0.400489 0.145482 0.618362 0.462569 -0.433437 1.004302 0.212058 -0.392362 0.230178 
506 0.147740 -0.291049 -0.193533 0.000873 0.095353 -0.446675 -0.106389 -0.036556 -0.658394 -0.760590 0.779825 0.296487 0.544363 -0.091722 0.553201 -0.137475 0.351559 -0.106506 -0.535061 0.144643 0.295445 0.482982 -0.097939 -0.022213 -0.020468 -0.370314 -0.528999 -0.201439 -0.572010 -0.452202 0.576035 -0.126001 -0.246750 -0.308207 0.067701 0.338127 0.406611 -0.239342 0.274999 -0.124606 -0.578791 -0.347920 -0.663695 -0.236375 0.494424 -0.149362 0.332569 0.178226 0.186582 -0.244546 -0.328553 -0.325331 -0.183472 0.176583 -0.250861 -0.030864 0.336932 -0.079225 -0.002898 0.006322 0.055937 -0.304734 0.028848 -0.526396 -0.399428 0.262502 -0.538911 -0.482811 0.395235 0.282046 0.121911 -0.140614 0.044584 0.236035 0.178560 0.027046 -0.474757 -0.186455 -0.425849 -0.761726 0.147657 0.099660 0.081893 -0.609119 0.636649 0.522178 -0.183823 -0.050640 0.628571 -0.474971 0.822848 0.637612 0.118188 0.382602 -0.328083 -0.197005 0.054624 0.127333 0.189859 0.140647 
423 -0.011461 0.347842 -0.217105 0.158233 0.036219 0.041615 0.230617 -0.071535 0.576533 -0.145549 -0.008526 0.067656 0.175931 -0.200563 0.457256 -0.562074 -0.379434 -0.110590 -0.750505 0.200075 -0.209676 0.295050 -0.555055 0.322719 -0.075833 0.213053 -0.378607 -0.331754 -0.931277 0.103413 1.045095 -0.088022 -0.656649 -0.697324 0.032422 0.323836 0.136077 -0.187401 0.134630 0.304976 -0.784380 -0.198677 -0.741510 0.216505 -0.253360 -0.506512 0.275942 -0.175084 0.424093 -0.101249 -0.048994 -0.590306 0.760665 -0.197455 -0.359368 0.435746 0.346953 -0.253377 0.004018 -0.722983 0.404702 0.382103 0.001793 -0.606204 -0.160013 0.177516 -0.121871 -0.014448 -0.266309 0.863936 -0.487172 0.381940 -0.256799 0.210820 -0.171224 0.679915 -0.049429 0.292573 -0.682702 0.143222 0.115509 -0.697230 0.165056 0.012484 0.235977 -0.582956 0.205932 -0.387448 0.174246 -0.354657 0.330218 0.206075 -0.238833 0.182611 0.081765 -0.039895 0.770835 -0.193434 0.230376 0.187210 
601 0.141926 -0.562161 -0.085762 -0.304443 -0.779172 -0.580988 -0.140953 0.096950 0.304232 -0.466973 0.690151 -0.405448 -0.378755 0.118408 -0.882411 -0.263868 0.842405 -0.276898 0.021821 0.429598 -0.018881 0.404191 -0.444986 0.319119 -0.427700 1.464953 0.339443 -0.798324 0.148453 -0.573058 0.041520 0.811609 -0.211820 0.129605 -0.069841 -0.010739 0.540524 -0.711203 0.229895 1.204698 -0.643116 -0.799146 -0.464379 -0.431224 -0.217993 0.318534 0.346891 -0.238107 0.299650 0.075718 0.001267 0.196054 0.485263 0.474251 -0.027422 0.974985 0.486088 -0.029583 -0.457418 -0.122004 -0.132579 0.113670 -0.107800 -0.361860 0.086750 0.443419 0.237989 -0.605532 -0.443485 -0.416803 0.220092 0.656314 -0.100746 -0.407385 0.273728 0.315284 -0.116189 -0.314039 -0.815678 -0.364285 0.249054 0.337783 -0.719930 -0.522313 -0.629612 0.151008 -0.414577 -0.781320 0.169949 0.126391 1.271427 0.509979 0.514249 0.356536 0.196701 -0.297846 0.959231 0.102426 -0.171962 0.488437 
669 0.330059 -0.048080 -0.453168 0.291799 0.171069 -0.399722 0.181818 -0.029793 -0.543224 -0.179885 0.170711 -0.062574 0.240481 -0.118549 0.205905 -0.050035 0.663697 0.354264 -0.718974 0.483854 0.120481 0.945980 -0.098592 0.337879 -0.025603 -0.581343 -0.736040 -0.549173 -0.735355 -0.110735 0.436556 -0.718916 -0.359115 -0.613957 0.416737 0.007393 0.221816 -0.502783 0.206284 0.119715 -0.627202 -0.548631 -0.117665 -0.007151 0.122248 -0.327817 0.275084 -0.053191 -0.445500 -0.100042 -0.399837 -0.012020 -0.054150 0.437645 -0.027468 -0.023831 0.319602 -0.074062 0.375515 -0.431340 0.336696 -0.152740 -0.072881 -0.813262 0.126659 -0.287817 -0.376306 -0.583195 0.754287 0.035933 -0.549988 0.104368 -0.449965 0.464607 0.278968 0.176237 -0.439778 -0.049924 -0.403681 0.133963 0.223145 0.168486 -0.087066 -0.670135 0.664784 0.198948 -0.140640 -0.332658 0.382100 -0.153792 0.914762 1.051878 0.405858 0.147081 -0.666382 -0.846896 0.249229 0.016545 -0.012525 0.234013 
628 0.754762 0.404292 -0.367025 0.333122 -0.066451 0.139334 -0.184788 0.211204 -0.718961 -0.120618 -0.020064 0.674460 -0.065476 0.082929 0.051444 -0.062450 0.472607 -0.312598 0.123466 -0.236914 -0.392047 0.064493 -0.267380 0.674184 0.468149 -0.267466 0.408340 -0.202842 -0.112090 -0.215787 0.404478 0.082174 -0.274158 -0.399709 -0.014768 0.238157 0.094942 -0.546280 -0.134831 -0.095639 -0.214469 0.275430 -0.768964 0.166133 -0.550314 0.651585 0.173196 -0.769306 -0.083133 -0.282843 0.480460 0.118169 -0.215109 0.077413 0.444826 -0.351704 -0.568105 -0.669724 0.610622 -0.257553 0.409357 -0.198766 -0.168876 -0.156572 -0.609512 0.197157 -0.751740 -0.637562 -0.097443 0.209726 0.363308 -0.023547 0.006596 0.308195 0.167882 -0.394745 0.371093 -0.035483 -0.239081 -0.267280 -0.459255 -0.715506 0.128489 0.336693 0.391846 -0.420514 -0.240990 -0.233088 0.599296 -0.184643 0.298511 -0.090606 -0.021624 0.720746 -0.524900 0.453931 -0.369040 0.080257 -0.247838 0.252851 
480 0.004398 -0.154127 -0.423280 0.271641 0.043212 -0.510193 -0.617301 0.076711 -0.355441 -0.575478 -0.075892 -0.140986 0.239529 -0.019088 -0.368570 0.123891 0.213638 -0.249641 -0.214184 -0.005374 -0.224087 -0.451348 -0.049869 -0.147935 -0.103731 -0.100545 0.132733 -0.551231 0.202394 0.238513 0.098354 -0.322744 -0.478502 0.201295 -0.051800 0.409331 0.167584 -0.168099 -0.085725 -0.138416 -0.197593 0.114130 -0.373586 -0.248078 -0.200158 -0.830952 -0.282753 -0.012608 0.197092 -0.258926 -0.395432 0.047897 -0.129419 -0.094158 -0.134077 0.238496 -0.294172 -0.368002 -0.408997 0.194103 -0.017045 -0.064343 -0.039323 -0.192002 -0.170438 0.094251 -0.439050 -0.402136 -0.484576 0.483611 0.926093 -0.150588 -0.219726 -0.352370 0.275778 -0.261144 -0.118027 -0.349116 0.256619 -0.420445 -0.331777 -0.561474 -0.448109 0.096412 0.658768 0.199074 0.520770 -0.582923 0.457740 -0.331456 0.190132 0.244135 0.091618 0.546744 -0.310810 -0.144518 0.489631 -0.174495 0.166768 0.163133 
629 0.155466 0.216227 -0.261428 -0.093734 -0.121350 -0.477708 -0.094797 0.444769 0.185890 -0.561468 0.066551 0.339473 -0.348255 -0.053760 -0.127819 0.146651 0.349238 0.267543 -0.481169 -0.025568 -0.236715 0.348069 -0.649935 0.688032 0.335613 1.025705 0.305638 -0.671697 -0.047020 -0.415753 0.144680 -0.001042 0.067945 0.362621 -0.066355 -0.026484 -0.183058 -0.492267 0.060794 0.068602 -0.637798 0.089834 -0.496933 0.274963 -0.526819 0.077928 -0.036335 -0.582241 -0.312074 -0.048917 0.168142 -0.120593 0.229534 -0.123113 -0.058610 0.326263 -0.289780 -0.649172 0.173379 -0.077775 0.129998 0.202840 -0.205762 0.030197 -0.065495 -0.311591 0.238026 -0.609548 -0.367775 -0.437407 -0.147836 0.062886 0.006341 -0.242822 0.267181 -0.038168 0.189749 -0.049383 -0.065087 0.521859 -0.005497 0.103777 -1.014928 0.002481 -0.028810 0.324103 0.136771 -0.778398 -0.494326 -0.396229 1.040681 0.400966 0.405787 1.050185 0.029438 -0.698757 0.460026 0.131346 -0.038892 0.193234 
391 0.104967 0.067028 -0.274624 -0.431606 0.207325 -0.347470 -0.681460 -0.500257 -0.327556 -0.139402 0.430901 0.014973 0.008301 -0.142798 -0.137649 0.195812 0.009718 -0.543016 -0.145280 0.271827 -0.069713 0.193400 -0.381240 0.055576 0.011520 -0.167930 -0.415681 -0.335376 0.484739 -0.525308 0.119321 -0.530438 -0.574508 -0.105295 0.268009 0.436724 0.674925 -0.377800 0.291317 -0.068022 -0.574672 -0.266094 -0.177140 -0.097098 -0.107529 -0.163594 -0.373750 0.211272 0.047374 -0.188874 0.205910 0.358586 0.482222 -0.530516 -0.189447 0.306848 0.405185 0.145267 -0.138176 -0.342805 -0.121735 0.447471 0.223095 -1.108212 0.038870 0.047605 -0.069104 -0.663018 -0.364534 -0.124128 0.537716 0.634343 -0.045405 -0.020194 0.315773 0.201576 0.051060 0.060466 -0.823507 -0.081649 -0.158082 -0.045587 -0.589788 -0.378968 0.433332 -0.343852 0.068230 -0.227712 0.048749 -0.423759 0.793920 0.268814 0.273061 0.902928 0.009237 0.018078 0.677811 -0.324917 0.400972 0.690726 
563 0.216351 0.720226 -0.215057 0.366687 -0.013239 0.305635 -0.174921 0.500138 -0.053369 -0.670702 0.868726 0.222184 1.133428 0.117536 0.074251 -0.243331 0.415549 -0.742000 -0.668468 -0.042392 0.180177 -0.334630 -0.216114 -0.161857 -0.179230 -0.664000 -0.745459 -0.053142 -0.287913 -0.034281 0.452105 0.370484 -0.703616 -0.564222 0.195395 -0.169171 1.007584 -0.611279 0.668315 0.076000 -1.118395 -0.349539 -0.731703 -0.910265 -0.374130 -0.321070 0.427113 0.130624 0.038844 0.296124 0.082132 -0.499026 0.054349 0.281475 0.283327 0.068411 0.294501 -0.225232 -0.001879 -0.500119 -0.115302 0.761295 -0.409686 -0.521032 -0.386538 0.807228 -0.301688 -0.394639 -0.104210 1.047024 0.483297 -0.164048 0.081829 -0.137639 0.567866 0.520016 -0.727443 0.337288 0.078504 -0.104798 -0.761704 0.076148 0.603506 0.080156 0.414650 0.182893 -0.257566 -0.022576 0.477175 -0.141091 0.169395 0.224098 0.588807 0.708383 -0.085191 0.600601 -0.095128 -0.101958 -0.203684 0.442422 
634 0.548308 0.288675 -0.359570 0.132702 0.184832 -0.698544 0.145547 0.389468 -0.726611 0.129083 0.724205 0.515287 -0.081764 -0.465514 0.426316 0.008875 0.492610 -0.106502 -0.417459 -0.383324 0.223514 0.185486 -0.376359 0.380280 0.275184 -0.624194 -0.621861 0.013334 -0.586015 0.012200 1.213898 0.096861 -0.214564 -0.695381 0.170281 0.406247 0.148679 -0.730641 0.038634 -0.070147 0.239609 -0.135405 -0.764324 -0.463133 0.017758 -0.046096 0.033610 -0.473301 -0.141878 -0.492277 0.477434 -0.275096 0.165539 0.253504 -0.176271 -0.016612 -0.560049 -0.528031 0.456349 -0.891677 0.497416 -0.271461 0.377091 -1.050999 0.013834 -0.385572 -0.595456 -0.703496 -0.069012 0.189266 0.708040 0.173197 -0.083890 -0.152328 -0.227384 0.749016 0.071986 -0.318036 -1.079528 0.109568 0.227947 -0.693910 -0.070008 0.094551 0.500128 -0.850180 -0.152732 -0.087189 0.566745 -0.556736 -0.066526 0.531635 -0.314044 0.640131 -0.673291 0.417208 -0.234742 0.239857 -0.225318 0.841027 
590 0.727375 -0.640306 0.198878 0.096307 -0.092160 0.310637 0.339278 -0.223656 0.212657 -0.252901 0.585645 0.784052 0.013374 0.104321 -0.415786 -0.050547 -0.657172 -0.736319 0.178369 0.685166 0.331333 -0.124553 -0.763945 1.003082 0.211995 0.322971 0.064121 -0.497824 0.086316 -0.903379 0.684935 -0.379252 -0.343495 -0.537382 0.499645 0.764208 0.066338 -0.041575 -0.597430 0.325448 -0.282563 0.070289 -0.557627 -0.534584 0.128945 0.466874 0.020183 -0.537665 -0.119591 -1.182169 -0.512202 -0.016591 0.607240 -0.062736 -0.373143 -0.318206 0.045093 -0.106461 0.490060 -0.434321 0.311426 0.580939 -0.343181 -0.214148 -0.414051 -0.200880 0.280251 -0.848761 -0.765603 0.054320 0.694395 -0.818346 -0.013074 -0.530159 0.038173 0.467055 -0.054955 0.776928 -0.416540 0.160740 -0.383631 -0.385083 0.041092 0.022160 0.625943 0.460626 0.407188 -0.022051 -0.110073 -0.033662 0.717423 -0.044165 -0.803206 0.005112 -0.231694 0.226529 0.336690 0.126162 -0.298196 0.122235 
