61 100
881 0.120630 0.730691 0.034749 0.375532 -0.118722 0.039086 0.427067 0.333992 0.726138 0.041085 -0.129072 -0.421082 0.096985 -0.085254 0.867986 -0.304267 0.215576 0.727920 0.687652 -0.213715 0.060984 0.021026 0.004836 0.163057 -0.103782 0.010481 -0.355199 0.180832 -0.185062 0.154680 -0.481744 0.229486 -0.689312 -0.163428 0.158583 -0.387841 -0.035987 0.584639 -0.546078 -0.193500 0.979643 0.383163 -0.437284 0.071847 -0.053312 0.048403 -0.699932 0.516362 0.082244 0.095762 -0.534469 -0.283982 0.825948 -0.628048 -0.357127 -0.654412 -0.443780 0.425194 -0.524551 -0.123081 0.133748 -0.552807 -0.535780 0.407577 -0.724206 0.408460 0.607946 -0.187657 0.361041 -0.983746 0.396074 -0.203081 0.337818 -0.288267 0.508589 -0.341766 -0.071120 0.334516 -0.088002 -0.622606 0.149483 0.264424 -0.673829 -0.111465 -0.450400 0.263360 -0.262526 0.062286 -0.019032 0.403649 0.340334 0.326006 -0.304538 0.498296 -0.406440 0.098799 0.337533 0.016570 0.125417 -0.953153 
858 -0.410659 0.670555 0.224582 0.386868 -0.592379 -0.404172 0.438313 0.188535 1.122165 -0.177537 0.578676 -0.159108 -0.842945 0.151064 0.449890 0.022906 0.251494 0.355828 0.148655 -0.054854 0.068121 -0.002252 0.548412 -0.155782 0.139343 -0.126295 -0.497672 0.331234 0.150719 -0.070634 -0.275890 -0.014102 -0.739048 -0.008217 0.002251 0.031264 0.192114 0.452342 -0.232446 -0.333603 0.932461 0.160930 -0.667777 -0.216981 -0.857246 0.244058 -0.591688 0.302089 -0.046562 -0.260061 -0.566314 -0.384927 0.636343 -0.575579 -0.596400 -0.468583 0.573265 0.698954 -0.122111 0.312372 -0.008947 -0.614941 -0.148194 0.564723 -0.867704 0.118415 0.313428 -0.034037 0.310014 -0.747277 0.231173 -0.397255 0.084328 0.022700 0.139456 0.031767 -0.499279 0.111989 0.262347 -0.287148 0.290216 -0.054746 -0.365151 0.029754 -0.154422 0.046587 0.317814 0.768630 -0.488794 -0.219132 0.279696 0.315678 -0.706234 0.447439 -0.502247 0.190191 0.773003 -0.189002 -0.227006 -0.878733 
828 0.289785 0.382006 0.029898 -0.475336 0.366033 -0.247640 -0.042952 -0.348072 0.307924 0.307285 -0.322332 0.287362 -0.061797 -0.172217 0.040268 0.127666 -0.135819 -0.072169 0.012481 -0.192149 0.176805 -0.062236 -0.009094 -0.064053 -0.264182 -0.510989 -0.447649 0.368562 0.373241 -0.192697 0.415707 -0.033953 -0.278201 0.009302 0.033919 -0.173720 0.066781 -0.116885 0.207808 -0.088806 -0.355861 -0.143170 -0.064271 0.429582 -0.682628 0.050967 -0.514824 0.294706 -0.109380 0.167475 0.132094 0.694892 -0.056531 -0.597950 -0.328642 0.274754 0.160951 0.319301 -0.441488 0.206366 -0.058191 -0.451701 -0.515285 0.771388 -0.177973 0.345633 0.522255 0.233326 0.043326 -0.084761 -0.205905 0.318319 0.077743 -0.398152 -0.022621 -0.277317 -0.247300 -0.276448 -0.178355 -0.085322 -0.010181 0.219765 0.094621 -0.360788 0.411541 -0.336032 0.268650 -0.242506 -0.379311 -0.154566 0.642810 -0.040558 0.162374 -0.028905 0.372838 0.332604 -0.019709 -0.157316 -0.079035 -0.149421 
697 0.101736 0.349257 0.069360 -0.143715 -0.271334 0.115489 -0.212458 -0.736156 0.131117 0.019245 0.298190 -0.118754 0.044452 0.072379 -0.310536 0.517900 -0.708145 -0.010378 -0.204658 -0.272518 -0.138583 -0.556651 -0.108181 0.118847 -0.489657 -0.002178 -0.322417 -0.033847 0.278017 0.081960 0.427794 0.324128 0.090521 -0.370218 0.239101 0.272367 0.199367 0.237933 0.324190 -0.095143 0.487120 -0.031663 -0.060668 0.448315 0.028619 -0.237708 -0.311657 0.252842 0.111776 0.272551 0.189406 0.439989 0.210653 -0.193132 -0.100718 0.515265 -0.300857 0.784030 -0.555400 -0.175771 -0.264819 -0.401583 -0.720437 0.339579 -0.410395 0.489303 -0.049046 0.115541 0.101554 -0.114764 0.467349 0.291368 0.271127 -0.399645 0.162370 -0.166737 0.473681 0.056516 0.190543 -0.012568 -0.085303 0.101856 -0.389163 -0.085393 0.565195 0.260684 0.502170 -0.174672 0.256539 -0.766616 0.538594 0.670609 -0.230752 0.560802 -0.060249 0.251193 -0.042441 -0.082963 -0.121064 0.367858 
884 -0.235846 0.529950 0.106046 0.718286 0.202675 0.257018 -0.250359 0.176276 1.201616 0.018266 -0.213189 0.216441 -0.624981 0.269344 0.319624 -0.251114 -0.111103 -0.272029 -0.446738 -0.558074 0.382244 0.268538 0.510168 0.583079 0.406628 0.030014 0.375081 0.427423 0.112504 -0.032477 -0.515179 0.034724 -0.307545 -0.013767 -0.413471 -0.562791 0.456564 0.372828 -0.302575 0.088043 0.670963 -0.257730 0.694635 -0.579311 0.012882 0.459825 -1.178796 0.347823 0.013050 0.388334 -0.284178 0.507521 0.613576 -0.866132 -0.528773 -0.330216 0.092083 0.244680 -0.677857 -0.700995 -0.746425 0.428973 0.342285 0.527816 -0.061004 -0.174016 0.818078 -0.324324 0.064288 -0.067279 0.169343 -0.105847 0.154309 -0.367985 -0.376820 0.724665 0.082547 0.092270 -0.544440 -0.239105 -0.293579 -0.004587 0.151280 -0.216682 0.452478 0.442298 -0.551165 0.066789 -0.300075 -0.188803 0.430936 0.064760 -0.264209 0.530107 0.689503 -0.160775 0.273540 0.613012 -0.134573 -0.840146 
864 -0.010807 0.403445 0.086535 0.040880 0.222685 0.072142 -0.489843 -0.007442 1.226774 0.326792 -0.081133 -0.734982 -0.135054 0.221035 -0.221819 0.264322 0.331268 0.271710 0.043912 -0.509943 0.003336 0.189188 -0.058861 0.683067 0.274266 0.258451 -0.165040 1.038412 0.174019 -0.322164 -0.626813 -0.036684 -0.718688 -0.551303 -0.058050 -0.293527 0.262965 0.792759 0.062735 -0.005011 -0.034562 -0.262463 0.596792 -0.299489 -0.611646 0.181520 -1.009149 0.144650 -0.078979 0.415621 -0.281666 0.753499 0.253391 -0.301004 -0.236352 0.115372 0.114426 0.221205 -0.608278 -0.829345 -0.644314 -0.181730 0.625936 0.613208 0.612607 0.335345 0.946094 -0.565546 0.331603 0.132931 0.388979 -0.248194 0.006368 -0.474089 -0.365206 0.497362 0.346484 0.110195 -0.399034 -0.953183 -0.311904 0.367813 0.106415 -0.438906 0.281732 0.586708 -0.502274 0.477479 -0.644178 -0.303525 0.592642 0.180335 -0.624082 0.129253 0.312008 -0.415235 -0.034834 -0.091971 -0.077148 -0.182675 
856 -0.010966 0.291435 -0.170664 0.424967 0.429116 0.181924 0.079831 0.244323 0.304396 0.055471 -0.230890 0.865870 -0.322430 0.059880 0.112552 0.138873 -0.331082 -0.252233 -0.665649 -0.007661 0.143605 0.104174 0.304527 -0.030311 -0.102262 0.010537 0.322723 -0.011149 -0.016982 -0.201394 0.043155 0.474582 0.284012 0.261372 -0.357889 0.058867 0.095858 -0.274701 -0.315727 -0.054914 0.516434 -0.130563 0.232385 -0.298292 0.308140 -0.045260 -0.539900 0.264583 0.334457 0.019407 0.232622 0.135334 0.370507 -0.647971 -0.482084 -0.006915 0.135568 -0.077719 -0.268892 -0.453015 -0.091796 0.188395 -0.200614 0.039178 -0.413193 -0.149199 0.424267 0.066282 -0.131180 0.063605 0.148022 0.214086 0.267864 0.120371 -0.472279 0.546555 0.136209 -0.107084 -0.260991 0.363470 -0.291121 -0.053771 0.526451 0.014098 0.392808 0.054583 -0.081472 -0.360688 -0.109893 -0.136322 -0.148819 0.013122 -0.189132 0.664097 0.511783 0.299643 0.137862 0.475090 -0.416954 -0.397969 
869 0.701985 0.725134 -0.053341 0.187750 -0.160162 0.241827 0.102811 -0.032617 0.599847 0.644685 -0.158064 -0.031728 -0.265031 -0.497222 -0.445884 0.320820 -0.020393 0.071206 0.066539 -0.031627 -0.707207 -0.521030 -0.373894 0.679156 0.432546 -0.517616 0.605252 0.137185 0.256013 -0.639290 0.378738 0.323870 -0.878105 -0.095442 0.650086 -0.351636 0.067343 0.536925 -0.225688 -0.468655 0.534512 -0.018846 0.100272 0.042461 -0.037658 -0.457900 0.174477 -0.832926 0.089217 -0.178971 -0.228943 0.799088 -0.097897 0.298469 -0.951724 -0.227478 -0.004303 0.123630 -0.703423 -0.351342 -0.084911 -0.327292 -0.539672 0.859136 -0.566134 -0.000811 0.420381 -0.529899 -0.170848 -0.188299 0.684706 0.248041 -0.287727 0.344371 0.248418 0.196187 0.151861 -0.458625 -0.449001 -0.623360 -0.566527 0.124071 0.131952 0.248490 -0.180204 0.576976 0.473609 0.145215 -0.643014 -0.461485 0.250403 -0.036590 -0.637443 0.616145 0.019238 -0.324488 0.080138 -0.230185 -0.608896 -0.923216 
889 -0.010536 0.234974 -0.368906 0.506116 -0.018616 -0.224218 0.308879 0.123354 0.657629 0.000426 0.072224 -0.099810 0.104185 0.267455 -0.411967 0.597650 0.008541 0.696110 -0.612914 -0.235880 -0.292144 0.349335 -0.254977 0.069731 -0.126667 0.930179 -0.036277 0.699295 0.183994 -0.288579 -0.647636 0.124191 0.107637 -0.452899 0.106076 0.237682 0.102495 0.519854 -0.231887 -0.197845 -0.167558 0.053968 0.366369 -0.082946 -0.749859 0.380744 -0.613148 -0.020797 0.581663 0.142435 -0.306490 0.179584 0.236934 -0.419680 -0.378226 0.084612 -0.057417 0.342662 -0.189177 -0.959402 -0.147079 -0.446282 0.211353 -0.174287 -0.274837 0.461482 0.254157 -0.174114 0.119499 -0.069353 0.393137 0.113736 0.131317 0.161369 -0.098832 0.832707 0.462245 -0.311195 -0.733697 -0.316133 0.216040 0.042128 0.571235 0.186448 -0.102503 0.169745 -0.434939 0.353252 -0.321503 -0.167997 0.263304 0.225159 -0.193586 0.707584 -0.199762 0.006911 0.074033 0.313446 0.053640 0.087119 
872 -0.128015 0.322468 -0.332984 0.612454 0.003498 -0.285066 -0.088827 -0.918702 0.190483 -0.267663 -0.249676 -0.310542 0.310851 0.309204 -0.024351 0.000131 0.364050 0.286937 -0.006170 -0.444781 -0.503867 -0.369483 -0.145139 0.716793 -0.257125 0.319396 -0.052371 0.473409 0.372045 -0.267829 0.173981 -0.307602 -0.362410 -0.486582 0.184316 -0.843618 0.725714 0.161874 0.094571 -0.272773 0.450879 0.460801 0.179296 0.278148 -0.192057 0.580713 -0.591811 -0.332660 -0.027546 0.011878 -0.411072 0.644067 0.134600 -0.779285 -0.075164 -0.232059 0.377842 0.591191 -0.394002 -0.642027 -0.332035 0.557973 -0.666105 0.272506 -0.305849 -0.074864 -0.370781 0.109441 -0.204354 -0.476564 -0.317488 -0.206526 -0.495451 -0.358611 0.121347 0.792909 0.069961 -0.448523 -0.900847 -0.225212 0.489233 -0.294960 -0.304777 0.373073 0.428354 -0.141505 0.159115 -0.203853 0.013879 -0.298507 0.088877 -0.079661 0.320727 -0.349729 -0.685968 -0.055438 0.882412 0.116841 0.169115 -0.859566 
873 -0.142602 0.110430 -0.186762 0.562290 0.598063 -0.158957 -0.422083 -0.490848 0.518294 0.216939 -0.150286 -0.342294 -0.077324 -0.162873 0.228426 -0.702324 -0.113382 0.136758 0.482945 -0.323549 0.170524 -0.336257 -0.126805 0.386965 0.174988 0.194746 -0.129319 0.346153 0.013457 -0.341765 -0.243285 0.279676 -0.024303 -0.282278 0.241865 -0.625947 0.623628 0.417578 -0.127413 0.187787 0.771200 -0.162124 0.418142 0.402916 -0.728264 0.622603 -0.759068 -0.223144 -0.104131 0.312157 0.293567 0.458810 0.346922 -0.433027 -0.256771 -0.624158 -0.271323 -0.054665 0.016230 0.044949 -0.044691 0.494180 -0.284385 0.522802 -0.475986 0.037676 -0.483114 -0.127178 -0.102736 -0.341522 0.017236 -0.025723 -0.018975 -0.592689 0.100416 0.469961 0.493540 -0.252153 -0.880024 0.062368 0.182546 -0.199694 -0.399184 0.597226 0.681349 0.120965 0.050682 0.314267 0.369278 -0.421638 0.606531 -0.491686 -0.196628 -0.008462 -0.585636 -0.659977 0.691739 0.355703 0.027983 -0.785797 
719 0.127148 0.254161 0.141281 0.168756 0.429834 -0.034074 -0.213150 -0.292922 -0.003687 -0.054937 -0.106454 0.344175 0.064958 -0.106457 0.126973 0.003241 -0.467154 -0.034899 -0.068209 -0.113020 0.146582 -0.192966 0.059065 0.203022 -0.059228 -0.318163 -0.273583 -0.191543 0.117874 0.094733 0.336682 -0.194348 0.104082 0.601614 -0.053412 -0.220139 0.186723 -0.247699 0.394592 0.118867 0.734064 0.212755 -0.092279 0.469158 -0.199474 0.057658 -0.638192 0.550719 0.072651 -0.428422 0.370929 0.218482 0.468962 -0.746069 -0.559880 -0.231769 0.187592 0.641533 -0.258675 -0.053845 0.120832 -0.019220 -0.642021 0.672666 -0.326287 -0.282818 0.796924 -0.196981 0.110505 -0.122996 0.017189 0.351980 0.151926 -0.308953 -0.394111 0.164372 0.021405 0.284004 -0.203627 0.156387 0.017286 -0.108072 -0.192977 -0.103079 0.662515 -0.325549 0.070490 -0.378215 -0.066069 -0.413385 0.299334 0.066417 0.089832 0.130136 0.016500 0.465947 -0.109089 0.084123 -0.035056 -0.530500 
713 0.101495 0.794547 -0.120494 0.551507 0.584898 -0.361144 0.228088 -0.252720 0.374729 -0.110903 -0.393687 0.285985 0.111453 0.059762 0.287946 0.165283 -0.315938 -0.517381 -0.352593 -0.387782 0.212177 -0.521132 0.022557 -0.214517 0.102054 0.122848 -0.128001 -0.101838 -0.263389 0.237405 0.121278 -0.299248 -0.378616 0.118895 0.064058 -0.317685 0.100569 -0.115254 0.156191 -0.015999 0.452340 0.074093 0.225174 0.700692 0.477955 -0.090997 -0.290527 0.337944 0.299128 -0.292685 0.348231 0.368373 0.263834 -0.765422 -0.210044 0.074313 0.199289 0.613568 -0.466251 0.233327 0.392471 0.065462 -0.847872 0.447879 -0.292084 0.101864 0.267542 -0.087831 0.026194 0.146616 0.208901 0.322512 -0.345944 -0.193283 0.106228 -0.101498 -0.020681 0.032740 0.303064 0.100906 -0.167129 -0.282299 0.064784 0.088602 0.770355 -0.330281 0.089223 0.155091 -0.113077 -0.212935 0.333124 0.165191 -0.088857 0.144713 0.182755 0.692189 0.202440 -0.126471 -0.068979 -0.460630 
861 0.320897 0.534265 -0.190142 0.510225 -0.219691 0.217919 0.106931 0.566694 0.863349 0.012009 0.375570 0.411480 -0.472196 0.218380 0.038450 0.177632 -0.071363 0.386441 -0.280087 0.464519 0.216883 0.120746 -0.354498 -0.176459 -0.083438 0.813586 0.282358 0.565000 0.020625 -0.457524 -0.553697 0.459366 0.019912 -0.417574 -0.257761 0.600845 -0.240154 0.147590 -0.408207 -0.037280 -0.558507 0.445285 -0.142453 -0.360637 0.041336 -0.185241 -0.591840 0.571515 0.406636 0.222127 -0.303105 0.280378 0.418652 -0.031350 -0.488727 0.170163 -0.454390 0.477069 -0.581209 -0.118835 -0.531876 -0.421411 -0.121929 0.273110 -0.702498 0.068972 -0.275196 -0.696404 0.275970 -0.300786 0.542232 0.007233 0.056725 -0.182373 0.449492 0.535234 0.502712 -0.680084 -0.599098 0.141833 0.395418 -0.293110 0.433137 -0.241220 0.105402 0.150026 0.095089 -0.145507 -0.182341 0.016343 -0.037170 -0.016603 -0.408139 1.200878 0.070614 0.499895 0.137199 0.170039 -0.471373 -0.143441 
863 0.294742 0.236440 -0.039134 0.395753 0.235179 -0.083377 -0.122728 0.474305 0.917069 0.393718 0.038117 0.140455 -0.092642 -0.192285 0.132282 0.370908 0.240009 1.097129 -0.359937 -0.240914 0.014834 -0.390460 0.064119 -0.474376 -0.521634 0.700262 -0.164016 0.879676 -0.082355 -0.339510 -0.604300 -0.206361 -0.035167 -0.595470 -0.374458 -0.124000 0.445580 0.275822 -0.490669 0.008012 -0.398272 0.105262 0.330057 -0.285669 -0.552910 -0.005647 -0.099028 -0.025746 0.519337 -0.002267 0.086555 0.294170 0.413046 -0.500033 -0.158075 0.184421 0.147775 0.011643 0.055336 -0.614460 -0.201272 -0.438566 -0.263542 0.103975 -0.592222 -0.170735 -0.156247 -0.290438 0.286211 -0.251974 -0.073194 -0.158299 0.524319 0.169346 0.351339 0.442908 0.467961 -0.268721 -0.572607 -0.022641 0.220497 0.092618 0.072449 0.376144 -0.144399 0.144451 -0.323636 0.736771 -0.227039 -0.053287 0.512651 0.243759 0.034142 0.713537 -0.372796 0.353995 0.129021 0.296240 -0.660696 -0.104863 
840 0.258866 0.282218 0.127715 0.275245 0.083968 0.173781 -0.341847 -0.367536 0.094180 0.313254 0.270255 -0.342450 0.643967 -0.180519 0.204269 -0.127941 -0.129721 -0.178590 -0.208476 0.033400 -0.279823 -0.420145 -0.378770 -0.277996 0.095311 -0.336817 0.263611 -0.268272 -0.134747 0.147686 0.529746 -0.095335 -0.333908 0.184355 0.481297 -0.206456 -0.097176 -0.006949 0.268509 0.122744 -0.060577 0.293120 -0.001266 0.043453 -0.305824 -0.510661 -0.297251 -0.069168 0.150629 -0.125455 0.183443 0.735373 0.497594 -0.277327 -0.451869 0.204078 0.500293 0.627076 -0.286927 0.071919 -0.066617 -0.388850 -0.626169 0.819375 0.253890 -0.118288 0.221532 -0.714320 0.251394 -0.122318 -0.314880 -0.001618 -0.357259 -0.057059 -0.132242 -0.197681 0.525883 -0.003888 -0.556503 -0.402152 0.344856 -0.309276 0.604121 0.389967 0.108724 -0.045666 -0.095381 0.331545 -0.329270 -0.489650 0.404009 0.625621 -0.190651 0.062109 -0.414058 0.003462 -0.221216 -0.526522 -0.358857 -0.603029 
803 -0.622830 0.602987 -0.528080 0.390973 0.118371 -0.569788 0.167643 -0.144943 1.047739 0.025991 -0.629779 0.740657 -0.325404 0.194342 0.807018 -0.253382 -0.492094 -0.025948 0.008551 -0.498662 0.584715 0.437228 -0.403293 0.194946 -0.703505 -0.225136 -0.587027 0.323929 0.310870 -0.396912 0.177609 0.418028 0.116918 0.253365 0.022632 0.171242 0.078708 0.419543 -0.356255 -0.376932 -0.290842 0.024545 -0.710013 0.279975 -0.260958 0.526955 -1.097350 0.053978 0.651788 0.182444 0.104390 0.403496 0.364163 -1.232715 -0.028142 0.367462 0.054725 0.917698 -0.519632 0.031511 0.882749 -0.498541 -0.055129 0.297013 -1.173570 0.637675 -0.636533 -0.197750 -0.419789 -0.411465 -0.177939 1.151844 0.100077 -0.576000 0.182525 -0.103646 -0.302200 0.179469 0.223985 -0.443535 0.564313 0.110350 0.105174 -0.310795 -0.152027 -0.334119 0.080149 0.434029 0.173982 -0.487324 0.886346 0.066204 -0.317933 0.239609 -0.608570 0.022972 0.694855 0.307044 0.021726 -0.117253 
745 0.033315 0.648986 0.029658 0.538332 0.274623 -0.283781 0.055720 -0.352656 0.407221 -0.231579 -0.320834 -0.169795 0.154951 -0.199180 -0.038614 0.263985 -0.010802 -0.067973 0.276001 -0.148242 0.261254 0.050577 -0.350741 -0.452441 0.051337 0.070625 -0.302100 -0.081838 -0.111852 -0.054898 0.424519 -0.149339 -0.323303 0.250390 0.374088 -0.511467 0.017192 -0.354430 0.541790 0.294155 0.332282 0.411855 0.002458 -0.083605 -0.304523 -0.434780 -0.574024 -0.039691 0.242201 0.201764 0.321097 0.633928 0.348189 -0.757101 -0.219302 -0.359363 0.801048 0.324400 0.010418 0.492171 0.106872 -0.393679 -0.523149 -0.047124 -0.449873 0.296404 0.864694 -0.142185 0.446624 -0.087633 -0.058240 -0.169845 -0.422913 -0.089696 -0.795720 0.001432 -0.148956 0.052408 -0.581591 0.374095 0.325502 -0.008703 0.224291 0.055129 1.049315 -0.382290 -0.130740 -0.086990 0.265780 -0.048219 0.211997 -0.183135 -0.738496 0.039801 -0.279698 0.399275 0.226091 -0.374284 -0.209476 -0.838779 
805 -0.347462 0.177549 -0.218061 0.214777 0.375072 -0.319096 -0.406743 -0.244782 0.282759 -0.296383 -0.387599 0.219871 -0.310874 0.440539 0.411568 -0.284722 0.115104 -0.195242 -0.402009 -0.194431 0.106780 0.231709 0.012342 0.224065 -0.470866 -0.236009 -0.434376 0.064253 0.246039 0.028965 0.465730 0.066769 -0.054886 -0.116498 0.166064 0.085695 -0.036706 -0.110791 0.148762 0.046004 0.254019 0.349632 -0.281457 0.108894 -0.322602 -0.197485 -0.377820 0.397214 0.268361 0.226852 0.333013 0.282820 0.534369 -0.839894 -0.590078 0.073024 0.308270 0.183120 -0.458136 0.378989 0.202889 0.016089 -0.362147 0.573578 -0.493270 0.306677 0.730243 0.121395 0.158810 0.148372 -0.369548 0.437892 -0.061431 -0.739146 -0.219059 0.166867 -0.295165 0.169664 0.222142 0.155360 0.216402 -0.390425 0.054159 -0.536044 0.977868 -0.341435 -0.128737 0.105753 0.135164 -0.356613 0.221577 0.009536 -0.200566 -0.076651 -0.005466 0.176132 0.419084 -0.306077 -0.149959 -0.537755 
865 -0.617200 0.234016 0.359720 0.629475 -0.040382 -0.051618 -0.078167 -0.612239 0.860726 0.149294 0.313236 0.439943 0.018160 0.119396 -0.215707 -0.144288 -0.220726 0.680600 0.171560 -0.380410 -0.597135 -0.291001 -0.155354 -0.333230 0.243102 -0.518870 0.419437 -0.050220 0.831561 0.558854 -0.144485 -0.438553 0.093297 -0.098650 0.402944 -0.265590 0.456793 0.330762 -0.775492 0.009493 0.226115 0.500911 -0.058740 -0.270168 -0.754040 0.477068 -0.516587 0.727254 -0.304973 0.475468 -0.653953 -0.102820 0.204980 -0.268743 -1.061345 -0.504257 0.615358 1.031192 -0.687521 0.117231 -0.334926 0.160541 0.175300 0.633745 -0.269193 0.260209 -0.280752 -0.536287 0.298998 -0.463298 0.106080 0.267774 0.314671 -0.082734 0.134843 0.790524 -0.226008 0.425847 -0.379407 -0.642898 0.118455 -0.436440 -0.082827 0.177013 0.627420 0.254215 0.165122 0.368611 -0.148063 -0.219999 0.489273 -0.164044 -0.229276 -0.276825 0.116631 0.260824 0.324450 0.001661 -0.277651 -0.556562 
857 -0.456595 -0.056973 -0.109563 0.955429 -0.067438 -0.389820 0.067873 -0.279476 1.273597 0.556422 0.437382 -0.275759 -0.085617 -0.122593 -0.315741 -0.127198 -0.146941 0.641858 0.128721 -0.390853 -0.134987 0.042574 0.073954 -0.265986 0.596887 -0.567648 0.560717 0.561451 0.921909 0.676732 -0.294252 -0.288792 -0.443700 -0.006833 0.266715 0.069884 0.301117 0.039604 -0.430578 -0.561780 0.500188 0.248169 -0.599355 -0.182329 -0.606882 0.483570 -0.870453 0.344057 -0.558621 0.393940 -0.771187 -0.449370 0.263447 -0.718273 -0.725165 -0.633885 0.007517 0.453338 -0.418745 0.013810 0.245650 -0.207884 0.011996 0.467521 -0.977477 0.265705 -0.372794 0.125526 -0.087153 -0.589475 0.188874 0.024953 0.255676 -0.002249 -0.093708 0.061136 -0.031390 0.568005 -0.711655 -0.317554 -0.073334 -0.385774 -0.018826 0.271967 0.542627 0.478272 0.486724 0.773075 0.115289 -0.095182 0.351116 0.167436 -0.085770 0.095289 0.110126 0.174513 0.313620 -0.225558 -0.162231 -0.520847 
874 -0.182351 0.185447 -0.108247 0.336683 -0.183596 -0.256774 -0.551508 -0.353382 0.574790 -0.230816 -0.080858 0.139438 0.007951 0.260805 -0.273775 -0.371232 0.186253 -0.296269 0.303827 -0.155439 -0.275630 -0.427314 0.163217 0.924428 -0.097798 0.590647 0.048284 0.842683 0.687686 -0.697570 0.186213 -0.150537 -0.613793 -0.111732 0.320235 -0.460240 0.823056 0.254633 0.110535 -0.339600 0.345463 0.524097 0.675722 -0.006496 -0.244519 0.592957 -0.182170 -0.292282 0.164740 0.154052 -0.156359 0.858671 0.524812 -0.717359 0.153195 -0.596832 -0.089719 0.420664 -0.509400 -0.456051 -0.158649 0.235779 -0.783827 0.580045 -0.497748 0.075009 0.013519 0.290699 -0.208172 -0.494052 -0.005047 -0.825617 -0.073714 -0.435019 0.275044 0.270387 0.337465 -0.184447 -0.400928 0.398665 0.216205 -0.237201 -0.232960 0.433958 0.183236 0.022203 -0.242826 0.258430 0.295598 0.067328 0.471255 -0.145227 -0.169695 0.291294 -0.437092 -0.886470 0.507059 -0.159394 0.183779 -0.806078 
708 -0.187099 0.679852 -0.441533 0.313509 -0.018901 -0.011499 -0.581280 -0.612654 0.019992 -0.151203 0.125179 0.084049 -0.259771 0.219109 0.347800 0.013556 -0.230609 -0.183948 -0.364782 -0.043356 -0.292923 0.056523 0.003227 0.286552 -0.474879 -0.193153 0.520215 -0.451419 0.603424 -0.086493 0.222062 0.507982 -0.304387 -0.285177 0.287577 0.099899 -0.220778 0.311544 0.327333 -0.332655 -0.044152 -0.075749 -0.487627 -0.373411 -0.103767 -0.704572 -0.315073 -0.163352 0.143895 0.386175 0.275240 0.614490 0.522163 -0.084029 -0.439332 0.569960 0.138523 0.067294 -0.181160 0.226841 -0.003734 -0.241896 -0.283751 0.324879 -0.466596 0.416502 0.394876 -0.010346 0.075283 -0.056490 0.033349 0.547817 -0.202603 -0.377645 -0.709689 0.060185 0.084738 -0.538262 -0.351911 -0.108826 0.296056 -0.323123 0.338845 -0.060187 0.349537 0.263944 0.227422 0.421834 0.213647 -0.394644 -0.330573 0.363072 -0.426677 0.537183 0.027315 -0.347037 0.229170 -0.344637 -0.117501 -0.343519 
823 0.081779 0.407322 -0.420312 -0.097205 0.326956 -0.306038 -0.366937 -0.329276 0.415344 -0.069776 0.071666 0.078649 0.411782 -0.207968 0.182789 0.023924 -0.061848 -0.209870 -0.275095 0.142517 0.055456 -0.018799 -0.195353 0.466374 0.308760 0.052534 -0.051619 0.210588 -0.067498 -0.064991 0.152923 -0.189219 0.066632 0.174154 0.375575 -0.096991 -0.210667 0.211416 0.422330 -0.020952 -0.094709 0.340920 -0.283975 0.510315 -0.423870 0.199204 -0.503000 0.823128 0.148206 -0.516489 0.379903 0.359890 0.266646 -0.543968 -0.326137 0.273987 0.071532 0.705095 -0.465574 -0.152094 0.299673 -0.508681 0.078346 0.533224 0.083251 0.477505 0.166709 -0.392542 0.007829 -0.099881 -0.345338 0.166274 0.063950 -0.730641 -0.070252 0.072785 -0.025151 -0.263326 -0.010812 -0.023779 -0.051215 -0.231278 0.348863 -0.523236 0.256769 -0.429440 0.027927 -0.013411 0.038314 -0.307566 0.344887 0.044677 -0.224609 0.073798 -0.384509 0.283336 -0.218265 0.016473 -0.301464 -0.063409 
885 -0.446283 0.027168 0.359823 0.855943 0.298452 0.331866 -0.106838 -0.798150 0.322312 -0.066539 -0.641460 -0.571620 -0.141636 0.166629 0.207853 -0.597610 0.066027 -0.010522 0.257796 -0.021288 0.311326 -0.508894 -0.079998 0.649070 -0.108717 0.495422 0.220572 0.246261 -0.103679 -0.089965 0.237101 -0.461650 -0.435461 -0.258294 0.196251 -0.779766 0.848166 0.241735 -0.492514 -0.301381 0.222058 0.647351 0.326657 0.043004 -0.367448 0.697763 -0.099939 -0.587486 -0.077884 0.196074 -0.254954 0.281204 0.374897 -0.649324 -0.567685 -0.716795 0.235871 0.737841 -0.495905 -0.506737 -0.034155 -0.164521 -0.251223 0.212606 -0.291035 0.131402 0.020563 -0.357965 0.053695 -0.478678 -0.192426 -0.950207 0.234909 -0.256862 0.604864 0.174121 0.489557 -0.292699 -0.892620 0.344755 0.537078 -0.393582 -0.290173 0.068073 0.726686 0.225475 0.183868 0.023938 0.280522 -0.437720 0.206801 -0.038073 0.107643 -0.249276 -0.246212 -0.638289 0.711325 -0.308560 0.334743 -0.536684 
870 -0.067375 0.090992 0.310294 0.549810 -0.602705 0.238654 0.456478 0.070646 0.940417 -0.107166 -0.024814 -0.164247 0.005335 0.049121 0.523573 -0.285987 0.063930 0.537187 0.417190 -0.696179 0.522787 0.196248 0.176211 0.206527 0.246952 0.098660 -0.571683 -0.144110 -0.197750 0.396402 0.271805 -0.285764 -0.753502 -0.535998 -0.269404 -0.305788 0.153620 0.372147 -0.276652 0.063047 0.755283 -0.450098 -0.496329 -0.025069 -0.544410 -0.154184 -0.392074 0.114722 0.372102 -0.190857 -0.346771 0.009881 0.991457 -0.158439 -0.507498 -0.658939 -0.329501 0.647475 -0.167524 -0.312927 -0.207327 -0.601846 -0.038123 0.549813 -1.051478 0.467563 0.466696 -0.618747 0.018983 -0.466850 0.133194 0.025337 -0.377896 -0.191005 0.240816 -0.229784 0.069714 0.059631 -0.473915 -0.135784 -0.172483 0.046376 -0.365529 0.054199 0.295547 -0.109865 0.053224 0.826250 -0.414721 0.276937 0.082226 0.440679 0.440823 0.943881 -0.521847 0.296270 -0.017391 0.424513 0.391229 -0.958379 
871 -0.329712 0.691520 0.551085 -0.058119 -0.453202 0.188658 0.177932 -0.104168 0.662912 -0.444009 -0.113937 0.353474 -0.428854 0.227573 0.652364 0.185047 0.032810 0.814019 0.385103 -0.379316 -0.223578 -0.186555 0.351480 0.172569 0.021487 -0.100776 -0.550113 -0.354333 -0.135684 -0.022488 -0.333071 0.000704 -0.512299 -0.322087 -0.055860 -0.734690 0.333023 0.811183 -0.618768 0.362431 0.671923 0.207451 -0.175760 -0.027077 -0.497749 -0.148804 -0.235970 0.561347 0.536332 -0.040671 -0.575170 0.174478 0.976649 0.022548 -0.912321 -0.417136 0.470599 1.260076 -0.402128 0.137267 -0.519285 -0.109382 -0.057870 0.377266 -0.233709 0.140311 0.291976 -0.683315 0.359560 -0.696371 0.134565 0.313908 -0.040864 0.011831 0.556502 0.307017 -0.218822 0.084189 0.204430 -0.681505 0.232527 -0.224605 -0.454371 -0.271524 -0.220160 -0.018660 -0.227822 0.269554 -0.290731 0.221792 0.310420 0.429222 -0.305254 0.162748 -0.361578 0.552207 0.550795 -0.011233 0.158406 -0.802233 
888 0.080835 0.400577 -0.080509 0.443017 0.401602 0.008002 -0.168745 0.364869 0.792214 0.524779 -0.063535 0.618585 -0.268997 0.017337 0.178194 0.339776 -0.170635 0.473672 -0.389942 0.077506 0.024832 0.061153 -0.523869 -0.386924 -0.121595 0.723595 0.240048 0.633047 0.246083 -0.422699 -0.512344 0.162518 0.000450 -0.190301 -0.343644 0.063721 0.070794 0.362803 -0.668927 -0.257100 -0.942417 0.612137 0.226518 -0.210084 -0.535359 -0.006519 -0.397156 -0.218908 0.394644 0.392522 -0.470439 0.791136 -0.153474 -0.223902 -0.443600 -0.154256 0.029029 0.418588 0.212840 0.038353 -0.105308 0.249070 -0.684502 0.525534 -0.305853 0.055396 0.150565 -0.447361 0.430536 -0.204437 0.349091 -0.234308 0.082528 0.343361 0.070130 0.683895 0.296919 -0.246150 -0.596015 -0.421126 0.035239 0.237970 0.861844 -0.046252 0.528218 -0.021994 -0.133687 0.199163 -0.672011 0.152622 0.574724 -0.396877 0.120234 0.772466 0.583159 0.385952 0.453132 0.252980 -0.404105 -0.179155 
825 0.334120 0.435443 0.271057 -0.119457 -0.034880 0.387481 -0.722677 0.391232 1.237501 0.749200 0.069876 -0.141365 -0.575003 -0.445169 0.504424 -0.578849 -0.026129 -0.109808 0.133377 0.044182 0.373286 -0.504263 -0.100267 0.151660 0.160042 0.098676 0.413325 0.618328 0.116840 -0.280737 -0.315258 -0.075722 -0.572720 -0.290494 -0.479349 -0.561764 0.487733 0.639296 -0.511967 0.119783 -0.525677 0.026610 0.145723 -0.752004 0.106466 -0.265556 -0.543395 0.068346 -0.070856 0.527618 -0.365158 0.925456 0.295321 0.031340 -0.319050 -0.036470 0.002882 0.333706 -0.375031 0.304472 -0.722907 0.384576 0.028624 0.901671 -0.176602 -0.409019 -0.072983 -0.993425 0.445536 -0.529735 0.148746 -0.800009 0.544586 -0.091233 0.532320 -0.228940 0.391756 -0.145218 -0.574981 -0.541028 -0.120921 -0.038273 -0.156216 -0.086393 0.375197 0.664821 0.063816 0.556150 -0.327412 -0.288133 0.553862 -0.185873 -0.338218 0.512124 0.096422 -0.285025 0.110687 0.081121 -0.674955 -0.430464 
774 -0.304878 0.807322 0.459271 0.164675 0.403275 0.027499 -0.423809 -0.682685 0.225750 0.195455 0.611075 0.141654 -0.143991 0.050530 0.058096 0.282198 -0.598272 0.199982 0.260178 -0.349627 0.113051 -0.614965 -0.160903 -0.205066 0.035877 0.023387 -0.033314 -0.150760 -0.089653 -0.400571 0.204004 0.319675 -0.294029 0.315834 -0.116823 -0.210646 0.370688 0.400196 0.447841 0.061565 0.070760 -0.372979 0.126140 0.190554 0.232690 -0.133797 -0.211320 0.304301 -0.282828 0.022319 0.311502 0.695362 0.360161 -0.119328 0.058259 0.388428 0.386385 0.566166 0.069512 -0.264007 0.182397 -0.640785 -0.317946 0.362413 -0.088850 0.254786 -0.232133 -0.056539 -0.342373 0.078558 0.408122 0.105858 -0.033012 -0.168457 -0.529538 0.164884 -0.464108 -0.067188 -0.043589 0.049661 0.231227 0.526268 0.065839 -0.505218 0.552011 0.448232 0.254646 -0.074662 0.285986 -0.640903 0.301447 0.151757 -0.471485 0.287682 -0.136933 0.174893 0.010071 -0.107057 -0.585113 -0.206116 
729 -0.026185 0.048473 -0.645044 -0.045908 -0.014699 -0.068819 -0.353816 0.323522 0.886429 0.438049 -0.002123 0.311865 0.159197 -0.520289 -0.011114 0.301670 0.004347 0.586048 -0.456681 0.014410 -0.022714 -0.081437 -0.281219 0.236944 -0.160628 0.809733 0.221205 0.696017 0.198270 -0.296417 -0.306246 0.243144 0.116216 -0.221175 -0.106755 -0.164201 -0.156315 0.668522 -0.617052 -0.329628 -0.257183 0.185482 -0.149726 -0.372203 -0.633518 0.218964 -0.334542 0.179654 0.522792 -0.021353 -0.238642 0.178221 0.247590 -0.185083 -0.392327 -0.031229 -0.215340 0.362919 -0.008571 -0.388835 0.129001 -0.057531 -0.047146 -0.194092 -0.617728 0.718145 -0.368205 -0.448786 0.286639 -0.481632 -0.072531 -0.257654 0.790798 0.131965 -0.170120 0.586073 0.516653 -0.256799 -0.499580 0.066709 -0.015169 0.110005 0.247520 0.108365 0.121844 -0.055807 0.157748 0.364892 -0.057074 -0.041072 0.158833 -0.118157 -0.512642 0.913132 -0.557284 0.080200 0.161355 0.584866 -0.489968 0.083545 
769 0.440989 1.138488 -0.534622 0.356659 -0.113896 -0.167617 0.193324 -0.383451 0.536017 -0.184985 -0.194679 -0.195475 -0.026217 -0.642041 0.004686 0.277689 -0.459936 -0.485216 -0.301098 0.467980 -0.145244 -0.002980 -0.202031 0.788728 0.307022 0.177240 0.701412 -0.182704 0.085818 -0.286563 0.140272 -0.007683 0.012088 -0.039245 0.579490 -0.279896 0.325997 0.388985 0.324573 -0.314336 0.685809 0.482702 -0.356400 -0.031700 0.347910 -0.307332 -0.561348 -0.236521 0.607672 -0.323341 0.540644 0.461073 0.001637 -0.183887 -0.337642 0.138076 0.122912 0.362262 -0.215673 -0.234392 0.226933 -0.281843 0.383960 0.079807 -0.638434 -0.063907 0.478914 -0.391846 -0.082146 -0.616426 0.534291 -0.168013 0.131123 0.180396 -0.201521 -0.181251 0.268882 -0.566097 -0.510540 -0.318525 -0.818726 -0.494879 0.141672 0.101937 0.068862 0.291422 0.199904 0.600936 0.358147 -0.644340 -0.234541 -0.224135 -0.709635 0.808555 -0.325066 -0.351789 -0.180148 0.256009 -0.601627 -0.142934 
800 0.123529 0.605899 0.193984 0.042699 0.388393 -0.012533 0.066464 0.005580 0.410618 0.290594 0.043023 -0.462548 -0.069672 -0.410716 -0.301833 0.108746 0.146283 0.220748 0.030110 0.033809 -0.058789 -0.405254 -0.621425 -0.179686 -0.030350 -0.498633 -0.124230 0.080889 -0.161325 -0.494796 0.851347 -0.127102 -0.300823 0.186516 0.585645 -0.162865 0.069868 0.141933 0.343525 0.111539 0.455238 0.423065 0.158508 0.174764 -0.157021 -0.286973 0.032260 -0.303893 0.064925 0.068583 0.197981 0.295369 -0.011522 -0.112251 -0.467530 0.016723 0.340127 -0.151948 -0.451888 -0.068325 -0.216480 -0.242200 -0.656618 0.684277 -0.318149 0.148685 0.490475 -0.297146 0.183896 0.060713 0.423282 0.001592 -0.404192 -0.309276 0.204339 0.256325 0.085219 0.380074 0.164733 0.202055 -0.183598 0.130555 0.243860 -0.389650 0.605113 0.249949 -0.018666 -0.083017 -0.623612 -0.685160 0.268519 -0.143229 -0.505763 -0.067495 0.077354 0.354713 0.166108 -0.214634 -0.797574 -0.562719 
819 0.065436 0.274053 -0.436824 0.301200 0.379438 0.126414 0.143167 0.088870 0.689868 0.414686 -0.103826 -0.116610 0.305588 -0.272218 0.243920 -0.145599 0.001690 0.020163 0.233823 0.124961 0.448352 0.283765 -0.581554 -0.047626 -0.273946 -0.294316 -0.036355 0.034470 0.378982 0.042936 0.599520 0.205690 -0.068044 0.370544 0.301201 0.371172 -0.755256 -0.095152 0.202609 -0.324355 0.211775 0.403481 -0.247594 0.300019 -0.293627 -0.076905 -0.959067 -0.093030 0.035485 -0.078963 0.343857 0.337116 0.189138 -0.337629 -0.166963 0.323646 0.132747 0.569068 -0.665944 -0.154906 0.037683 -0.491055 -0.271126 0.185199 -0.133593 0.686310 0.217770 -0.552271 0.387230 -0.303196 -0.114011 0.485093 -0.467246 -0.349840 -0.204578 -0.062612 0.720683 0.413994 -0.288810 -0.428677 0.516717 0.028191 0.132023 0.238246 -0.129887 -0.209415 0.151976 -0.041086 -0.453788 -0.631559 0.233230 0.221647 -0.446155 0.119440 -0.256585 0.234818 -0.182151 -0.056446 -0.109934 -0.227427 
859 0.048265 0.465575 -0.534982 0.112985 0.056890 -0.554959 -0.464840 -0.167519 0.764435 0.155843 0.220318 0.195318 0.222248 -0.067687 -0.113341 -0.036086 0.030566 0.247212 0.208413 -0.473702 -0.456305 0.053435 0.115504 0.340155 -0.041198 0.092713 -0.390375 0.679929 0.693775 -0.304887 -0.177302 0.322281 -0.091495 -0.232898 0.077179 -0.394617 0.340268 0.323994 0.098281 0.150552 0.714477 -0.068330 0.251557 0.094119 -0.361102 0.432951 -0.706137 0.244062 0.284940 0.042367 -0.223234 0.652504 0.278807 -0.523654 0.048224 -0.224267 -0.078080 0.068030 -0.064740 0.074434 -0.310647 0.573300 -0.570623 0.715779 -0.698013 0.092103 -0.349282 0.345179 -0.114661 -0.277763 0.173922 0.332072 -0.392218 -0.343977 -0.248269 0.687566 -0.093146 -0.063428 -0.478724 -0.229461 -0.059127 -0.057493 -0.230326 0.514218 0.143425 -0.086609 -0.090095 0.477405 0.167409 -0.051261 0.542669 -0.292754 -0.142060 0.346750 -0.431146 -0.213990 0.624887 0.393802 -0.019969 -0.859900 
876 0.201460 0.273793 0.000051 0.034202 -0.178494 -0.339457 0.192906 0.183222 0.363445 0.384145 0.117531 -0.015377 0.129667 -0.077461 -0.444696 0.379726 -0.263359 0.831691 -0.344450 -0.156947 -0.101224 -0.176036 -0.301431 -0.579898 -0.453328 0.743786 -0.076553 1.007617 0.126815 -0.597640 -0.069758 0.208111 -0.038368 -0.474991 -0.321374 -0.260143 0.576114 0.576785 -0.598741 -0.285744 -0.478796 -0.156316 0.171837 0.122514 -0.231620 0.349993 -0.626365 0.108647 0.405472 0.349125 -0.595645 0.147441 0.397777 -0.139942 -0.506435 -0.056658 -0.030221 0.099220 0.034302 -0.122200 -0.148066 0.127830 -0.102695 0.446766 -0.587757 -0.153906 -0.245013 -0.354038 0.259996 -0.584329 0.244541 -0.204197 0.739300 0.700883 0.156159 0.449217 0.170523 -0.285056 -0.739047 0.114215 0.284456 -0.398197 0.494650 0.252064 0.236785 -0.202527 -0.032015 0.502420 -0.229024 -0.320775 0.095530 -0.116462 -0.217159 0.790696 -0.514137 0.053681 0.064487 0.261951 0.014669 -0.021867 
887 -0.175926 0.095821 -0.124629 0.583602 0.616675 -0.106027 -0.390383 -0.529499 0.489341 0.218940 -0.192736 -0.366114 -0.093200 -0.140164 0.235409 -0.735450 -0.105057 0.123604 0.487052 -0.299450 0.225296 -0.358781 -0.129608 0.396572 0.175755 0.192742 -0.100301 0.318910 -0.023321 -0.324558 -0.218190 0.249397 -0.031119 -0.279395 0.250384 -0.639478 0.667223 0.405559 -0.141899 0.169122 0.744247 -0.126859 0.416916 0.405455 -0.734653 0.622298 -0.739439 -0.240425 -0.129134 0.322467 0.298622 0.436012 0.359930 -0.464656 -0.306030 -0.640364 -0.244131 -0.034118 -0.013259 0.007245 -0.030482 0.475624 -0.253575 0.493363 -0.437182 0.027951 -0.466911 -0.158372 -0.098717 -0.361025 -0.010199 -0.082148 0.014999 -0.602349 0.151582 0.453568 0.528903 -0.263604 -0.909639 0.068882 0.214725 -0.228086 -0.403814 0.571751 0.723272 0.135374 0.088262 0.267773 0.365101 -0.434288 0.575310 -0.477468 -0.172486 -0.047357 -0.595431 -0.673724 0.676500 0.323956 0.033563 -0.766764 
895 0.389032 0.614988 0.163397 0.342806 -0.632663 -0.313373 0.063561 0.187623 1.009871 -0.150379 0.241162 -0.500217 -0.334468 0.238596 0.544984 0.440001 -0.188155 1.041119 0.342890 -0.305884 0.508071 0.207732 0.592103 0.210019 0.205782 -0.312841 -0.496129 0.169542 -0.018220 0.226412 -0.506757 -0.057528 -0.829368 0.060418 -0.289536 -0.692381 0.077487 0.277912 -0.080237 -0.222605 0.761577 0.211097 -0.104802 -0.139582 -0.366013 -0.201392 -0.505237 0.702761 0.075045 0.235474 -0.926322 -0.353220 0.851476 -0.554379 -0.762745 -0.249797 -0.154833 0.769759 -0.269389 0.030625 -0.044405 -0.532677 -0.592209 0.109714 -0.665327 -0.219314 -0.146264 -0.075515 0.210508 -0.682627 0.044872 0.255992 -0.308947 -0.219188 0.001942 -0.182469 0.027181 0.377380 -0.521618 0.110412 0.369042 0.079100 -0.125560 -0.265996 0.029209 0.344713 -0.200345 0.853750 0.040985 0.096598 0.294475 0.480888 -0.730882 0.570787 0.309030 0.658549 0.400460 -0.020374 0.126406 -0.654239 
890 0.049507 1.223252 -0.606016 0.378546 0.414870 0.018482 0.340913 -0.220963 0.674598 0.399104 0.614758 0.240568 -0.232664 -0.612811 0.195829 -0.161765 -0.284939 -0.127818 -0.446190 0.409708 -0.260235 -0.319413 0.379508 0.533287 0.384996 -0.051783 1.047750 -0.544336 0.552755 -0.269020 0.354402 0.064003 -0.201448 0.394183 0.151775 -0.459122 0.119800 0.455973 0.151283 -0.548536 0.925471 0.336187 -0.113937 0.012068 -0.538200 0.373459 -0.689959 0.245508 -0.006097 -0.320015 -0.045437 0.161014 0.398392 -0.074124 -0.442082 0.261275 0.018089 0.276739 -0.278528 -0.701381 -0.626855 -0.253090 -0.349392 0.388896 -0.776304 0.496718 0.012236 0.373237 -0.452534 -0.688625 0.627451 -0.283492 -0.016467 -0.088177 -0.360682 0.530091 0.244359 -0.818170 -0.787948 0.392756 -0.309790 -0.221581 0.471762 0.046277 -0.016377 0.536368 0.366566 0.218627 -0.642347 -0.388520 -0.701322 -0.012847 0.012372 0.870625 0.629211 0.182989 0.054376 0.668439 -0.298275 -0.753100 
810 0.385790 0.243051 0.353334 0.102190 0.197992 -0.246319 -0.339590 -0.293956 0.351423 -0.049117 -0.413815 -0.328269 -0.255906 0.070007 -0.237995 0.340922 -0.151864 0.392556 0.412432 -0.120233 0.126710 -0.242038 -0.630908 0.148582 -0.320247 0.167446 -0.580007 0.607315 0.152404 -0.349131 0.087638 0.037962 -0.372615 -0.295228 0.133089 0.064459 0.246115 0.029052 0.331837 0.102060 0.124502 0.142718 -0.094944 0.195841 0.169419 -0.643953 -0.218418 -0.198792 0.283136 0.103594 0.464972 0.701703 0.027162 -0.309623 -0.548616 -0.186408 0.264813 0.395458 -0.137466 0.422536 0.621728 -0.221443 -0.197656 0.503494 -0.498020 -0.155012 0.737419 -0.611839 0.486911 -0.049081 0.275172 0.187631 0.067533 0.047957 0.000943 -0.107762 -0.149192 0.342129 -0.209796 -0.485156 0.095562 -0.010732 -0.598969 -0.125830 0.927001 -0.089242 0.163238 0.315861 0.472685 -0.730754 0.510539 -0.255928 -0.764901 0.016384 -0.713606 -0.058994 -0.011982 -0.616671 -0.492829 -0.176838 
879 0.108777 0.343658 -0.120196 0.714089 -0.695261 -0.441197 0.033046 0.402390 0.700544 -0.142122 0.281758 -0.728027 -0.706894 0.127022 0.280830 -0.117707 -0.233038 0.492387 0.143298 -0.115839 0.701458 0.374038 0.751401 0.356337 0.367121 0.567616 -0.453854 0.221363 0.382764 0.069145 0.091975 0.105319 -1.156835 0.159259 -0.362529 -0.559651 -0.179373 -0.004996 -0.021870 -0.024959 0.616058 0.127201 -0.010611 -0.243322 -0.675907 0.158513 -0.593374 -0.066392 -0.018511 0.125101 -0.674209 0.105679 0.546506 -0.612844 0.054709 -0.398504 0.181608 0.522053 0.233828 0.035446 0.157855 -0.694084 -0.754002 0.380879 -0.790431 -0.236145 -0.097941 0.253352 -0.063945 -0.489171 0.127679 -0.563079 -0.321288 0.208669 -0.324691 -0.195580 -0.068309 0.138747 -0.577197 0.366644 0.530391 0.167564 -0.146893 -0.236081 0.162665 -0.116678 -0.196076 1.013477 -0.406760 -0.452925 0.424469 0.488039 -0.731563 0.886422 -0.081450 0.162778 0.720740 -0.093804 0.200432 -0.809205 
753 0.337401 0.616559 0.164411 -0.098396 0.163404 -0.039490 0.243447 -0.185327 0.201309 0.667087 0.172408 0.185043 -0.148007 -0.320592 0.322942 -0.129962 -0.642711 -0.120223 -0.548505 0.186975 -0.281256 -0.433997 -0.053611 -0.548672 -0.766966 -0.435846 0.290321 -0.259910 0.469051 -0.233301 0.576243 -0.038512 0.056873 0.039390 -0.059792 -0.172220 0.723518 0.082793 -0.296842 -0.222305 -0.354692 0.140300 -0.119327 -0.145209 -0.356485 -0.242132 -0.581877 -0.575316 0.432384 0.532147 0.089373 0.702877 0.044719 -0.404587 -0.234553 0.540429 0.351994 0.179706 0.130193 0.142455 -0.377155 0.070663 -0.859414 0.935156 -0.675184 -0.585914 -0.161586 0.069890 -0.145460 -0.582895 0.301252 -0.055128 0.373794 0.612450 0.497830 -0.479756 0.465076 -0.311139 -0.697934 -0.350772 -0.005473 -0.260636 0.636898 0.615244 -0.013224 0.404010 -0.054679 0.777144 -0.705942 -0.552526 0.272120 0.402657 0.612542 0.436217 0.423271 -0.139468 0.071569 -0.019998 -0.320466 -0.147001 
830 0.295544 0.532244 0.012006 0.041558 0.560050 -0.331627 -0.231409 -0.280002 0.183542 0.197854 -0.052312 -0.062171 -0.123388 -0.065487 0.469564 -0.230061 -0.373624 -0.113012 -0.027358 0.030894 0.141826 -0.433422 -0.276913 0.253263 -0.275007 0.038183 -0.098707 -0.096980 0.309092 0.020620 0.081474 -0.333649 -0.335828 0.282973 -0.108103 -0.059926 0.155962 0.177723 0.452278 -0.163833 0.011837 0.104775 -0.267971 0.529249 0.020014 -0.254851 -0.472510 0.172651 0.133675 -0.334501 0.586050 0.540373 0.212611 -0.310854 -0.330346 0.330422 0.169143 0.717413 -0.096000 0.350981 0.602954 -0.094851 -0.380205 0.763555 -0.338356 -0.222270 0.376796 -0.431823 0.087859 -0.181536 0.206269 0.335116 0.121268 -0.041764 -0.005735 -0.376975 -0.025560 0.042807 -0.169455 -0.556213 0.228479 -0.273067 -0.418934 0.059532 0.455685 -0.056489 0.215404 0.654460 -0.071658 -0.750548 0.153238 -0.025943 -0.044286 0.023769 -0.303621 0.030469 -0.284954 -0.329703 -0.144694 -0.172124 
747 0.314817 0.022555 -0.205126 0.044543 0.873609 -0.013026 -0.371065 -0.194684 0.109083 0.352280 0.421534 0.204771 0.134942 0.119537 0.102306 -0.018825 0.192190 0.494657 0.052807 0.237645 0.022562 -0.378465 0.132598 0.007011 0.072874 0.363649 0.043588 0.331384 0.525123 -0.051233 0.064275 0.319932 -0.286936 -0.264902 -0.225642 0.255833 -0.446507 -0.136012 0.320167 -0.216923 0.153617 0.019070 0.136539 0.529151 -0.382960 -0.188075 -0.191804 0.746252 -0.370759 -0.283370 0.192381 0.385034 0.310086 0.009636 -0.568719 0.299626 -0.007834 0.331734 -0.340457 -0.215073 0.080364 -0.437628 -0.443648 0.609374 0.144557 0.644182 0.248740 0.035132 0.420555 -0.003526 -0.088314 0.020366 -0.183573 -0.467356 0.005015 0.453812 0.100426 -0.221511 -0.327568 0.025643 0.325465 -0.163970 0.144937 -0.113906 0.490231 -0.283843 0.419496 -0.062653 -0.277167 -0.323539 -0.161730 0.145379 0.033149 0.036345 0.113962 0.594760 -0.170991 -0.210154 -0.030267 -0.253164 
776 -0.374779 0.503845 0.345808 0.139876 0.375957 0.226556 -0.192922 -0.578266 0.405989 0.429961 -0.299074 -0.088591 0.459237 -0.062254 -0.203289 -0.511194 0.246307 -0.174974 0.519823 -0.152699 0.296376 -0.042580 0.068950 0.564512 -0.140640 0.029724 -0.250794 0.766281 0.524202 0.033751 0.401706 0.088768 -0.198741 -0.009599 0.110518 -0.785002 0.893732 0.414026 -0.072945 0.147597 0.589471 0.627932 0.368983 -0.240960 -0.132162 0.514730 -0.147759 0.241464 0.486351 -0.086911 -0.719319 0.555578 0.338309 -0.809349 -0.407230 -0.419844 0.293096 0.211113 -0.307340 -0.314739 -0.422517 0.372721 -0.254645 0.550380 -0.476865 0.052736 -0.195874 0.294065 -0.123495 -0.292850 0.105813 -0.598105 -0.293126 -0.470576 0.565556 0.607079 -0.031019 -0.157499 -0.979249 -0.194152 0.156377 -0.471052 -0.465398 0.049171 0.581889 0.250704 0.273801 0.059428 0.459504 -0.061937 0.219986 -0.179074 0.425663 -0.103304 -0.531161 -0.730865 0.682190 0.035983 0.327222 -0.799201 
772 0.172205 0.846718 -0.214294 -0.046408 0.315998 -0.407245 -0.304864 -0.549481 0.435742 -0.210452 0.447818 -1.074644 0.180667 -0.492755 0.211683 -0.088949 0.160187 0.180199 0.209225 0.350455 0.266274 -0.299679 -0.360469 -0.004623 -0.064445 0.931891 -0.128741 0.030589 0.331138 0.252208 -0.007509 -0.715426 -0.442418 -0.231131 0.248890 -0.425591 0.154319 0.367529 1.013908 0.206912 0.112531 0.656291 -0.208036 0.095579 -0.647637 -0.293704 -0.648889 0.586074 0.014909 0.075757 0.488499 0.523781 0.329531 -0.046738 -0.008385 0.184621 0.423763 0.707254 0.090248 0.493296 -0.159802 -0.553476 -0.090202 0.122788 -0.227187 0.513888 0.706055 -0.257609 0.805515 -0.509021 0.314834 -0.893376 0.080043 -0.378463 -0.343126 -0.347437 0.306872 -0.365682 -0.693068 0.024399 0.231671 -0.487125 -0.499731 -0.133315 1.115408 0.046613 0.155216 0.832693 0.185292 -0.490900 -0.221155 -0.292789 -0.544111 0.229781 -0.505265 0.202464 -0.204070 -0.359909 -0.200441 -0.136145 
804 -0.034319 0.471665 -0.057467 0.262719 -0.340185 -0.268868 0.284098 0.258203 0.818677 0.046911 -0.406232 0.142909 -0.064013 -0.203004 -0.110149 0.314851 -0.330150 0.269324 -0.353955 -0.174405 0.122614 0.157998 -0.652619 -0.308600 -0.388223 0.327137 -0.200958 0.621140 -0.329321 -0.602225 -0.193740 0.042042 0.258869 -0.042810 0.121337 -0.069290 0.569626 0.410522 -0.523349 0.081480 -0.648759 0.179961 -0.116797 -0.409894 -0.192847 0.179672 -0.528600 -0.324160 0.944495 0.326438 -0.143258 0.340089 0.134794 -0.729985 -0.135833 -0.034431 0.158979 0.323280 -0.063374 -0.200674 0.161180 -0.237449 0.066724 -0.024200 -0.839775 -0.183154 -0.336433 -0.604630 -0.130843 -0.362129 0.207928 0.092910 0.451087 0.330247 0.258708 0.094740 0.223524 -0.120732 -0.451593 -0.132492 0.128018 0.095927 0.490246 0.051897 -0.036343 0.109990 -0.327997 0.343131 0.047175 -0.223729 0.711874 -0.101007 -0.443868 0.663082 -0.672775 -0.119757 0.346629 0.302676 -0.580229 0.051824 
886 0.045083 0.320157 -0.233430 1.000278 0.184485 0.012798 0.194833 0.406477 0.691327 0.077991 -0.333155 0.830680 -0.324092 0.128094 0.180788 -0.031924 -0.229411 0.593393 -0.094821 -0.052150 0.267916 -0.032032 0.113025 -0.321104 0.025445 0.613464 0.118389 0.397003 0.038186 -0.362293 -0.455429 0.338415 0.310837 -0.168894 -0.501471 -0.077020 0.463703 -0.009494 -0.760725 -0.165447 -0.020777 0.610440 0.017511 -0.095242 -0.185673 0.277387 -0.249517 0.123924 0.535301 0.049514 -0.725084 0.101521 0.512626 -0.653714 -0.414839 -0.639150 -0.086877 0.382789 0.006509 -0.301656 -0.311724 0.336563 -0.693620 0.102358 -0.985227 -0.106023 -0.189889 -0.144533 0.136488 -0.533363 0.232136 -0.240232 0.066460 0.068018 0.309055 0.777361 0.258626 -0.186114 -0.644798 0.371274 0.362993 -0.004225 0.460462 0.173280 0.426469 -0.128394 0.085638 -0.305455 -0.092612 0.202199 0.340017 -0.211931 0.280349 0.767197 0.053683 0.628985 0.836601 0.612038 0.080709 -0.605218 
893 0.201937 0.565268 0.416894 0.008310 0.012130 0.320653 -0.709790 0.125688 1.218370 0.500872 0.099420 -0.352969 -0.617407 -0.257340 0.415941 -0.444192 -0.013583 -0.223590 0.032461 -0.196379 0.426475 -0.275095 -0.135445 0.318367 0.359016 0.037605 0.405411 0.649089 0.146534 -0.175024 -0.369779 -0.214674 -0.723576 -0.261405 -0.278436 -0.541322 0.382095 0.703181 -0.081663 0.182959 -0.379987 -0.201707 0.485752 -0.611288 0.109970 -0.147302 -0.678894 0.118276 -0.271788 0.500255 -0.141018 1.106141 0.237686 -0.048757 -0.442955 0.074578 0.143844 0.390977 -0.583693 0.090085 -0.619766 0.079201 0.388529 0.912454 0.168940 -0.286051 0.460693 -0.952576 0.459870 -0.224664 0.084314 -0.522202 0.278630 -0.309980 0.248264 -0.096678 0.078357 -0.086390 -0.556052 -0.706179 -0.143322 0.020687 -0.197857 -0.328119 0.425666 0.658878 -0.162869 0.512104 -0.216960 -0.513709 0.724155 -0.188723 -0.487310 0.400146 0.195112 -0.388670 -0.118021 0.066602 -0.701096 -0.449820 
811 0.994158 0.758195 -0.185246 -0.080392 0.143649 -0.150109 -0.052660 -0.491816 0.428631 0.518564 -0.296520 0.463856 -0.404075 -0.273719 -0.316822 0.472512 -0.374629 -0.176351 -0.066526 -0.038719 -0.589891 -0.605641 0.182404 0.855748 0.425761 0.073772 0.530214 0.405025 0.721393 -0.394097 -0.320966 0.203117 -0.842271 -0.361034 -0.050260 -0.420285 0.377085 0.310893 0.043245 -0.560664 0.161739 -0.408243 0.159773 0.359345 -0.135593 -0.336711 -0.149361 -0.178470 -0.021861 -0.343254 0.005017 1.176877 -0.180181 0.095227 -0.791995 0.008700 -0.100763 0.530703 -0.338125 -0.074405 0.204008 -0.273347 -0.241339 0.738906 -0.494383 -0.036376 0.626421 0.033086 -0.218056 -0.244017 0.528428 0.129884 0.249373 0.510199 -0.227535 -0.035058 -0.258765 -1.126026 -0.884616 -0.732444 -0.636885 -0.019206 -0.324391 0.318184 0.207782 0.224046 0.852993 0.265710 0.000312 -0.280865 0.139834 -0.288375 -0.265663 0.757239 0.225553 -0.270933 -0.310172 -0.186473 -0.188896 -0.458468 
867 -0.278016 0.140715 -0.435914 0.732940 0.644818 -0.243252 -0.666501 -0.641112 0.498585 0.030039 -0.396446 -0.414134 0.425633 -0.075453 0.082947 -0.406200 -0.124910 -0.045646 0.128606 -0.307281 -0.258166 -0.269955 -0.208394 0.480814 -0.343665 0.713941 -0.036423 0.735286 0.470100 -0.014680 0.181266 -0.347991 -0.158581 -0.330073 0.104433 -0.821359 0.234167 0.339556 -0.340849 0.075214 0.410212 0.587377 0.396582 -0.080639 0.063668 0.960745 -0.159077 -0.330953 0.395421 0.082489 -0.592717 0.588551 -0.081526 -0.327791 0.053729 -0.391804 -0.096327 0.663021 -0.151940 -0.105478 -0.373446 0.053078 -0.352163 0.716268 -0.729777 0.394320 -0.058589 0.182925 0.240993 -0.062539 -0.065594 -0.357336 -0.228561 -0.243651 -0.036797 0.681842 0.021121 -0.208861 -0.773008 0.424057 0.348656 -0.235792 -0.214352 0.199148 0.510009 0.102908 -0.244466 0.464865 0.596456 -0.546051 0.480936 -0.128751 0.221629 -0.197915 0.093317 -0.658975 0.972684 -0.028526 0.552379 -0.742054 
868 -0.762657 0.173103 0.185811 0.521401 0.165920 0.007609 -0.111144 -0.558151 1.042562 0.401726 0.034725 0.345701 -0.271777 -0.143706 -0.215242 -0.076921 -0.030370 0.599932 0.069297 -0.351770 -0.607339 -0.296153 0.094162 -0.049977 0.447315 -0.454219 0.569495 0.166256 0.777731 0.384104 -0.233678 -0.228318 -0.203445 -0.193024 0.390656 -0.210549 0.604704 0.404495 -0.816751 -0.104284 0.280642 0.366164 -0.411457 -0.104085 -0.634841 0.360185 -0.665175 0.450808 -0.174775 0.221469 -0.541685 0.160717 0.485864 -0.253019 -0.906860 -0.460092 0.256889 0.892892 -0.509850 0.121296 -0.067346 0.253867 0.302299 0.486686 -0.477569 0.358172 -0.118670 -0.374391 0.057474 -0.625929 0.105260 0.378084 0.217143 -0.052792 0.294894 0.546460 -0.160653 0.436321 -0.368059 -0.726231 -0.161348 -0.644510 -0.012944 0.143750 0.331550 0.447736 0.302107 0.228900 0.080285 0.074975 0.470483 0.212705 0.087711 -0.238154 0.088246 0.263152 0.510539 -0.160122 -0.210840 -0.504791 
878 0.176025 -0.223604 -0.077151 -0.047936 0.279102 -0.128006 0.115643 0.488542 0.547756 0.503085 0.266088 0.406886 -0.246793 0.028925 -0.080777 -0.156501 0.084894 0.196314 -0.601533 0.250372 -0.425111 -0.130984 -0.383416 -0.079316 -0.137657 0.957736 -0.030424 0.593988 0.304115 -0.284296 -0.465411 0.209655 -0.214223 -0.010541 -0.211354 0.167568 0.161483 0.150964 -0.647494 0.224687 -0.409567 -0.177184 0.286660 -0.596210 -0.581190 0.000563 -0.358342 0.145544 0.577259 0.218968 -0.126384 0.548358 0.138039 -0.338406 -0.780733 -0.129648 0.171108 0.478635 -0.117863 -0.152142 0.288614 -0.288990 -0.174669 0.248924 -0.661166 -0.073298 -0.315407 -0.372811 -0.103683 0.083762 0.449494 -0.225234 0.495624 0.593725 0.418639 0.432884 0.265924 -0.574535 -1.030735 -0.299930 0.236379 -0.231094 0.390083 0.439746 0.290354 0.424304 -0.162444 0.583605 -0.410011 -0.036002 0.082633 -0.158191 -0.236361 0.590406 -0.248141 -0.193565 0.178811 -0.161101 -0.516977 -0.403380 
877 0.085321 0.193937 -0.412411 0.438826 -0.402290 -0.497122 -0.302040 -0.411252 0.634186 -0.276066 0.147218 -0.010827 -0.298496 0.180379 0.014337 -0.084266 0.172827 0.433474 0.247859 -0.424081 -0.600911 -0.352841 0.162953 0.659932 0.130775 0.150340 -0.127093 0.244926 0.321599 -0.724821 -0.355420 0.166551 -0.376545 -0.440531 0.278298 -0.441454 0.770019 0.188104 0.061983 -0.283232 0.701222 -0.242987 0.338080 0.471028 -0.779532 0.457534 -0.925533 -0.385828 -0.353454 0.295616 0.333068 0.648640 0.584635 -0.641489 0.004954 -0.578985 -0.003535 0.116640 -0.235517 -0.216608 -0.045558 0.711981 -0.880261 0.395648 -0.402443 -0.220612 -0.512579 -0.062608 -0.348914 -0.725880 -0.022416 0.023290 -0.168997 -0.340953 -0.096781 0.385455 0.418788 -0.232282 -0.465244 -0.158553 0.174330 -0.023225 -0.324646 0.893417 0.090218 -0.150540 -0.028531 0.254832 -0.104154 -0.050697 0.521795 -0.337499 -0.446615 0.303010 -0.800607 -0.223062 0.635572 0.284683 -0.228781 -0.881507 
882 0.520804 -0.091528 -0.176263 0.267708 0.177910 -0.076314 0.171178 0.464635 0.652328 0.445117 0.071190 0.178220 -0.289242 0.035873 0.006233 -0.466358 0.111816 0.341682 0.129781 0.420793 -0.179754 -0.217413 -0.548139 0.006344 0.264881 1.051362 -0.068377 0.515813 0.338130 -0.331180 -0.692866 0.200371 -0.166648 -0.202241 -0.182277 0.258484 0.270335 0.154148 -0.467021 0.157304 -0.661927 0.438879 -0.021146 -0.280363 -0.583841 -0.116607 -0.027007 0.042643 0.467327 0.103088 -0.673680 0.653545 0.049234 -0.138858 -0.585541 -0.449979 -0.018536 0.888418 -0.148491 -0.009524 0.014927 -0.267458 -0.384899 0.242417 -0.720511 0.040494 -0.412941 -0.597105 0.137343 -0.261343 0.635007 -0.609648 0.003185 0.239581 1.002588 0.183209 0.386273 -0.549586 -1.113005 -0.525994 0.608811 -0.020685 0.163740 0.341244 0.332780 0.475390 0.235100 0.183578 -0.330609 -0.009245 0.402180 -0.331430 0.034672 0.355347 -0.437661 0.023100 0.467650 -0.251104 -0.042767 -0.439452 
894 0.196632 0.832893 -0.109531 0.304777 -0.022336 0.045955 -0.021628 0.359055 0.127435 -0.158003 -0.540057 -0.355065 -0.155704 -0.102391 0.791565 -0.337330 -0.173848 0.687072 0.534709 -0.074749 0.040451 0.016186 0.150670 0.615040 -0.072848 0.731153 -0.342363 -0.092300 0.080011 -0.206796 -0.234727 0.536696 -0.871742 -0.036851 0.049286 -0.984311 -0.205498 0.524500 -0.559809 0.388764 0.696213 0.617708 0.298658 0.142126 -0.036245 0.099052 -0.640142 0.252829 0.355820 0.340634 -0.390194 0.589477 0.742626 -0.519950 0.030520 -0.428534 -0.098890 0.678664 -0.305208 -0.120275 0.037926 -0.344802 -0.977823 0.444756 -0.200215 0.047847 0.437954 -0.073806 0.260565 -0.826297 0.382385 -0.312050 0.239426 0.093245 0.301296 -0.081064 0.014670 0.134944 -0.267809 -0.494555 0.482970 0.243441 -0.602655 -0.447023 -0.405191 -0.038029 -0.801476 -0.153431 -0.139358 -0.028548 0.615247 0.373621 -0.651002 0.545517 -0.325322 0.084388 0.703947 -0.075836 0.317233 -0.955994 
866 -0.390851 0.280732 0.394273 0.322219 -0.587340 0.231420 0.396848 0.060324 0.678185 -0.365350 -0.020160 0.211897 -0.539776 0.114739 0.484051 -0.359488 0.114408 0.076851 0.112294 -0.464824 0.326192 -0.007201 0.333290 0.285848 0.095005 0.625452 -0.762649 -0.246448 -0.146805 -0.150994 0.551691 -0.114162 -0.735406 -0.536958 -0.296140 -0.263268 0.221447 0.507488 -0.251952 0.360727 0.644937 -0.454231 -0.282651 -0.047031 -0.848626 -0.005360 -0.259946 -0.223233 0.657006 -0.456904 -0.005003 0.554188 0.918296 -0.022922 -0.327123 -0.496671 0.392849 0.865744 0.044430 -0.186801 -0.434119 -0.504022 -0.008356 0.793380 -0.798460 0.388555 0.658417 -0.676364 0.076507 -0.324822 0.159827 -0.329452 -0.330725 0.094763 0.230791 0.167615 -0.140801 -0.375648 -0.045350 -0.185031 0.022263 -0.055119 -0.364206 0.028374 0.229686 -0.478049 0.046732 0.700305 -0.860488 -0.187291 0.158028 0.382546 0.243899 0.951913 -0.906245 0.114904 0.369676 0.362357 0.244212 -1.045969 
880 -0.209246 -0.315344 0.666794 0.552948 0.585762 0.292413 -0.414632 -0.351351 0.145180 -0.052619 0.092385 0.095830 0.702707 0.093977 0.398369 -0.247486 -0.557805 0.498721 0.020948 0.043336 0.543123 -0.073901 -0.016857 -0.695480 -0.354787 -0.059963 -0.338771 0.335120 -0.158125 0.273567 0.215236 0.111388 0.519772 0.206938 -0.287633 0.045484 0.471790 -0.577729 -0.248110 0.543571 0.484731 0.247232 0.153490 -0.069900 0.050788 0.052936 -1.181810 0.660671 0.353138 0.041585 0.471188 0.225588 0.839323 -1.264470 -0.587768 -0.310885 0.528018 0.782423 -0.102259 -0.383349 0.193524 0.049078 -0.390498 0.845732 0.177586 -0.717766 0.035326 -0.817928 0.494699 -0.559798 -0.554125 -0.118797 0.218919 -0.076824 0.188920 0.165303 0.819788 0.905222 -0.782380 -0.182986 0.374944 -0.493720 0.409255 0.418028 0.481511 -0.378068 -0.508373 0.115214 0.212036 -0.648601 0.732095 0.662815 0.239820 -0.019415 -0.679128 0.286374 0.080235 0.045949 -0.488420 -0.278596 
703 -0.301058 0.283826 0.249029 0.310157 0.594578 -0.172754 -0.451454 -0.429620 0.605556 -0.010495 0.151093 -0.337876 0.357711 0.284515 0.544047 -0.022300 -0.216029 0.328929 -0.020585 -0.193809 0.617664 -0.206263 -0.439229 -0.865176 -0.697955 0.473866 -0.446916 0.650384 0.009474 0.172542 0.039019 0.076538 -0.031026 -0.541544 -0.097320 0.263823 0.192618 0.069766 -0.151113 0.221188 -0.500939 0.160144 0.048153 0.099143 0.253023 -0.214990 -0.802206 0.451688 0.304946 0.589666 0.462381 0.608302 0.410343 -0.760439 -0.039918 0.460855 0.403527 0.679533 -0.186002 0.219138 0.348770 -0.276468 -0.330401 0.635775 0.092312 0.161501 -0.424280 -0.650790 0.621548 -0.251654 -0.227586 -0.059879 -0.016831 -0.235544 0.584549 -0.289301 0.553356 0.461943 -0.129422 -0.479418 0.486458 -0.382113 0.301019 0.046724 0.758790 -0.110400 -0.258856 0.869058 0.216405 -0.699502 0.767774 0.495966 -0.193989 0.015353 -0.593350 0.257810 0.306919 -0.432369 -0.554007 0.253257 
798 0.018409 0.503006 0.094850 0.084603 0.258254 0.086839 -0.124091 -0.397403 0.467309 0.514416 0.277624 0.312013 -0.486335 0.050289 -0.149840 0.113979 -0.133609 0.463840 -0.052395 -0.276418 -0.378105 -0.530831 0.305018 0.056603 -0.159245 -0.260181 0.216515 0.209036 0.744605 -0.385149 0.245743 0.437413 -0.569500 -0.359868 -0.091459 -0.260450 0.368291 0.314508 -0.215209 -0.311905 0.373022 -0.251638 0.231530 -0.021766 -0.580932 0.031000 -0.211552 -0.026592 -0.243502 0.437469 -0.444887 0.592121 0.285045 -0.107850 -0.666405 0.073087 -0.010514 0.118028 -0.413000 -0.304494 -0.572552 -0.175406 -0.850969 0.823119 -0.652024 0.400639 0.043024 0.466671 -0.136697 -0.220680 0.447962 0.078303 0.001070 -0.143699 0.084075 0.525811 -0.041666 -0.430134 -0.510175 0.081467 0.006105 0.145200 0.114619 -0.022979 0.460584 0.463728 0.473378 -0.001891 -0.499265 -0.263879 0.151611 0.201694 0.076289 0.453735 0.625178 0.150167 0.485380 -0.009797 -0.145794 -0.677312 
862 -0.737360 -0.063229 0.128772 0.320743 0.165279 -0.073422 -0.103653 -0.574672 1.089788 0.267931 0.011473 0.353739 -0.121735 -0.019867 -0.327418 0.148606 -0.172213 0.719617 0.125608 -0.582114 -0.622951 -0.330238 -0.160860 -0.165037 0.423225 -0.466410 0.373774 0.365505 0.724693 0.294782 -0.470837 -0.081788 -0.326484 -0.370726 0.250186 -0.208769 0.591259 0.575316 -0.541786 -0.088066 0.307065 0.172718 -0.524424 0.121693 -0.472156 0.215539 -0.571758 0.152955 0.145227 0.321962 -0.569872 0.146323 0.491318 -0.292147 -1.108907 -0.666009 0.452994 1.010877 -0.640365 0.000311 -0.269779 0.259990 0.241009 0.446609 -0.638180 0.389134 -0.330664 -0.318434 -0.135488 -0.484814 0.291818 0.368723 0.430108 0.202388 0.450563 0.320723 0.245052 0.168534 -0.297112 -0.869150 -0.116499 -0.794256 -0.190913 0.071971 0.521464 0.181201 0.479080 0.429777 0.135055 -0.005870 0.355247 0.279447 0.264261 -0.281628 -0.369447 0.373058 0.310332 -0.444208 -0.072909 -0.359408 
